{
  "algorithm": "Stochastic Gradient Descent - OLS",
  "loss_function": "OLS",
  "parameters": {
    "learning_rate": 0.01,
    "max_epochs": 100,
    "batch_size": 64,
    "tolerance": 1e-05,
    "learning_rate_schedule": "constant",
    "momentum": 0.0,
    "random_state": 42,
    "shuffle_each_epoch": true,
    "randomize_each_epoch": true
  },
  "training_results": {
    "training_time": 52.0275342464447,
    "converged": false,
    "final_epoch": 100,
    "total_epochs": 100,
    "final_loss": 0.011998630082763142,
    "final_gradient_norm": 0.008017380134190644,
    "best_epoch": 30,
    "best_loss": 0.012046829915930713,
    "best_gradient_norm": 0.0057247520892980165,
    "improvement_from_final": {
      "loss_improvement": -4.81998331675719e-05,
      "gradient_improvement": 0.0022926280448926275,
      "epochs_earlier": 70
    }
  },
  "weights_analysis": {
    "n_features": 62,
    "n_weights_total": 63,
    "bias_value": 10.118123615097346,
    "weights_without_bias": [
      0.006735623771353113,
      0.00041728987606510056,
      0.009273086859679336,
      -0.006808138367767025,
      0.0015169778910312198,
      0.009072080159806156,
      0.015482749852922122,
      0.08514545793144868,
      0.006390832828752797,
      -0.27600225433068043,
      -0.008997919515188123,
      -0.0033397073262787934,
      0.009154657706290693,
      0.08325396987685205,
      -0.006827595038379181,
      0.004798707994341372,
      0.00029327208340699753,
      0.008338615700459231,
      -0.11146701307864099,
      0.10224769018337977,
      0.017162568566222964,
      0.06595001220223565,
      0.0066310317073701415,
      -0.01344068985956581,
      -0.011650090072388352,
      0.0029091587848756417,
      0.009638926408880826,
      0.026915284100068968,
      0.03050276284616566,
      -0.010164540374142996,
      -0.004309720699246444,
      0.02645742362775993,
      0.0680728029597216,
      0.214803322413136,
      -0.005699787242638923,
      0.03596759719306186,
      0.06327845334536811,
      -0.014136963705512585,
      -0.02770514969561419,
      -0.017983773654423375,
      -0.04994741544359101,
      -0.05093968784713983,
      -0.046563409658761386,
      -0.006397319008633894,
      -0.013922279468419195,
      -0.012987958997729289,
      -0.000317689406241389,
      0.008921662217723902,
      -0.0038114199805257074,
      -0.017282571118861296,
      -0.01926344398533427,
      -0.002143477381115561,
      -0.0012555270878626653,
      0.0005048140926942435,
      0.0019385592984676235,
      0.004146541186276186,
      0.004447322252774287,
      0.0035326483988363825,
      -0.01416299624717798,
      -0.006564071510702778,
      -0.03754930968783749,
      -0.010796846892691446
    ],
    "complete_weight_vector": [
      0.006735623771353113,
      0.00041728987606510056,
      0.009273086859679336,
      -0.006808138367767025,
      0.0015169778910312198,
      0.009072080159806156,
      0.015482749852922122,
      0.08514545793144868,
      0.006390832828752797,
      -0.27600225433068043,
      -0.008997919515188123,
      -0.0033397073262787934,
      0.009154657706290693,
      0.08325396987685205,
      -0.006827595038379181,
      0.004798707994341372,
      0.00029327208340699753,
      0.008338615700459231,
      -0.11146701307864099,
      0.10224769018337977,
      0.017162568566222964,
      0.06595001220223565,
      0.0066310317073701415,
      -0.01344068985956581,
      -0.011650090072388352,
      0.0029091587848756417,
      0.009638926408880826,
      0.026915284100068968,
      0.03050276284616566,
      -0.010164540374142996,
      -0.004309720699246444,
      0.02645742362775993,
      0.0680728029597216,
      0.214803322413136,
      -0.005699787242638923,
      0.03596759719306186,
      0.06327845334536811,
      -0.014136963705512585,
      -0.02770514969561419,
      -0.017983773654423375,
      -0.04994741544359101,
      -0.05093968784713983,
      -0.046563409658761386,
      -0.006397319008633894,
      -0.013922279468419195,
      -0.012987958997729289,
      -0.000317689406241389,
      0.008921662217723902,
      -0.0038114199805257074,
      -0.017282571118861296,
      -0.01926344398533427,
      -0.002143477381115561,
      -0.0012555270878626653,
      0.0005048140926942435,
      0.0019385592984676235,
      0.004146541186276186,
      0.004447322252774287,
      0.0035326483988363825,
      -0.01416299624717798,
      -0.006564071510702778,
      -0.03754930968783749,
      -0.010796846892691446,
      10.118123615097346
    ],
    "weights_stats": {
      "min": -0.27600225433068043,
      "max": 0.214803322413136,
      "mean": 0.0019590828650699376,
      "std": 0.05522548313833705
    }
  },
  "convergence_analysis": {
    "epochs_to_converge": 100,
    "best_epoch_found": 30,
    "final_cost_change": 2.7853412414876114e-05,
    "convergence_rate": "sublinear",
    "loss_reduction_ratio": 1.2790935484539345
  },
  "algorithm_specific": {
    "sgd_type": "mini_batch",
    "batch_size": 64,
    "learning_rate_schedule": "constant",
    "momentum_used": false,
    "momentum_value": null,
    "shuffling_strategy": {
      "shuffle_each_epoch": true,
      "randomize_each_epoch": true
    },
    "returns_best_result": true,
    "stochastic_variance": true
  },
  "computational_complexity": {
    "basic_metrics": {
      "function_evaluations": 10,
      "gradient_evaluations": 10000000,
      "matrix_vector_multiplications": 0,
      "vector_operations": 10468910,
      "memory_allocations": 156301,
      "peak_memory_size": 63,
      "total_operations": 1993388860
    },
    "iterations": {
      "total_iterations": 100,
      "final_iteration": 100,
      "converged": false,
      "convergence_iteration": null
    },
    "per_iteration_averages": {
      "function_evaluations_per_iter": 0.1,
      "gradient_evaluations_per_iter": 100000.0,
      "operations_per_iter": 19933888.6,
      "matrix_operations_per_iter": 0.0
    },
    "scalability_metrics": {
      "problem_size": {
        "n_samples": 100000,
        "n_features": 62
      },
      "problem_complexity_factor": 6200000,
      "operations_per_problem_unit": 321.51433225806454,
      "memory_efficiency": 0.0006296096420219464,
      "theoretical_complexity": "O(100000*62*100)"
    },
    "operation_distribution": {
      "function_eval_percentage": 5.016582665160474e-07,
      "gradient_eval_percentage": 0.5016582665160475,
      "matrix_ops_percentage": 0.0,
      "vector_ops_percentage": 0.5251815242912514
    }
  }
}