{
  "algorithm": "Nesterov Accelerated Gradient Descent - LASSO",
  "loss_function": "LASSO",
  "parameters": {
    "learning_rate": 0.1,
    "momentum": 0.9,
    "max_iterations": 100000,
    "tolerance": 1e-05,
    "regularization": 0.1
  },
  "training_results": {
    "training_time": 770.7638838291168,
    "converged": false,
    "final_iteration": 100000,
    "total_iterations": 100000,
    "final_loss": 10000000000.0,
    "final_gradient_norm": 20000000000.0,
    "final_velocity_norm": 200000000000.00018
  },
  "weights_analysis": {
    "n_features": 62,
    "n_weights_total": 63,
    "bias_value": 3.082132890100082e+303,
    "weights_without_bias": [
      1.3706579175064064e+306,
      2.280774228193389e+306,
      -2.0400289676638852e+305,
      -4.790292850874878e+306,
      -1.3834801560779631e+306,
      -5.347624298526613e+306,
      5.503065219190456e+305,
      1.7825984203517763e+306,
      1.1820599880664033e+307,
      -1.1172731906114734e+307,
      1.3717521533255194e+306,
      -7.502942847276636e+306,
      -1.9693959603475843e+305,
      1.0264120027162644e+307,
      1.166750895755832e+307,
      1.166750895755832e+307,
      1.166750895755832e+307,
      1.1673085934654893e+307,
      -1.0264120027162644e+307,
      -6.663888694048986e+306,
      -2.2010027524026975e+306,
      -1.1484777561945876e+307,
      -1.3057369667773028e+306,
      1.000066142530889e+306,
      -2.696243665648748e+306,
      2.280774228193389e+306,
      -2.073666638598929e+306,
      2.5456412007839267e+304,
      1.7214694654038243e+306,
      8.144895183339334e+305,
      8.186443950365663e+305,
      6.835833399034017e+306,
      -1.1484777561945876e+307,
      9.074604730785221e+306,
      1.5387419037407164e+306,
      4.0564748452877636e+306,
      4.063223039155555e+306,
      -8.820039246726272e+305,
      -5.729603893462144e+305,
      -8.869151451144616e+305,
      1.7669842957716793e+306,
      -2.6142123014875417e+306,
      2.09061763201786e+306,
      8.98393980971369e+304,
      -9.548341659021171e+305,
      -5.218147882206249e+305,
      -2.2892326556139686e+304,
      2.7946600309040708e+305,
      8.144895183339334e+305,
      -1.2208101216774526e+306,
      -1.1353508336184289e+304,
      8.186443950365663e+305,
      -4.906864864302749e+305,
      5.140450911431984e+305,
      7.583134289543907e+305,
      9.810827401775534e+305,
      -3.7767599808120467e+303,
      -1.564544579895779e+306,
      6.779695635863391e+305,
      7.46259001405128e+305,
      -1.3785217453721837e+306,
      -1.3594803059023423e+306
    ],
    "complete_weight_vector": [
      1.3706579175064064e+306,
      2.280774228193389e+306,
      -2.0400289676638852e+305,
      -4.790292850874878e+306,
      -1.3834801560779631e+306,
      -5.347624298526613e+306,
      5.503065219190456e+305,
      1.7825984203517763e+306,
      1.1820599880664033e+307,
      -1.1172731906114734e+307,
      1.3717521533255194e+306,
      -7.502942847276636e+306,
      -1.9693959603475843e+305,
      1.0264120027162644e+307,
      1.166750895755832e+307,
      1.166750895755832e+307,
      1.166750895755832e+307,
      1.1673085934654893e+307,
      -1.0264120027162644e+307,
      -6.663888694048986e+306,
      -2.2010027524026975e+306,
      -1.1484777561945876e+307,
      -1.3057369667773028e+306,
      1.000066142530889e+306,
      -2.696243665648748e+306,
      2.280774228193389e+306,
      -2.073666638598929e+306,
      2.5456412007839267e+304,
      1.7214694654038243e+306,
      8.144895183339334e+305,
      8.186443950365663e+305,
      6.835833399034017e+306,
      -1.1484777561945876e+307,
      9.074604730785221e+306,
      1.5387419037407164e+306,
      4.0564748452877636e+306,
      4.063223039155555e+306,
      -8.820039246726272e+305,
      -5.729603893462144e+305,
      -8.869151451144616e+305,
      1.7669842957716793e+306,
      -2.6142123014875417e+306,
      2.09061763201786e+306,
      8.98393980971369e+304,
      -9.548341659021171e+305,
      -5.218147882206249e+305,
      -2.2892326556139686e+304,
      2.7946600309040708e+305,
      8.144895183339334e+305,
      -1.2208101216774526e+306,
      -1.1353508336184289e+304,
      8.186443950365663e+305,
      -4.906864864302749e+305,
      5.140450911431984e+305,
      7.583134289543907e+305,
      9.810827401775534e+305,
      -3.7767599808120467e+303,
      -1.564544579895779e+306,
      6.779695635863391e+305,
      7.46259001405128e+305,
      -1.3785217453721837e+306,
      -1.3594803059023423e+306,
      3.082132890100082e+303
    ],
    "weights_stats": {
      "min": -1.1484777561945876e+307,
      "max": 1.1820599880664033e+307,
      "mean": 4.294657441044966e+305,
      "std": Infinity
    },
    "velocity_analysis": {
      "final_velocity": [
        2.5e-323,
        2.5e-323,
        -2.5e-323,
        -2.5e-323,
        -2.5e-323,
        -2.5e-323,
        2.5e-323,
        2.5e-323,
        100000000000.00009,
        -2.5e-323,
        2.5e-323,
        -2.5e-323,
        -2.5e-323,
        2.5e-323,
        100000000000.00009,
        100000000000.00009,
        100000000000.00009,
        2.5e-323,
        -2.5e-323,
        -2.5e-323,
        -2.5e-323,
        -2.5e-323,
        -2.5e-323,
        2.5e-323,
        -2.5e-323,
        2.5e-323,
        -2.5e-323,
        2.5e-323,
        2.5e-323,
        2.5e-323,
        2.5e-323,
        2.5e-323,
        -2.5e-323,
        2.5e-323,
        2.5e-323,
        2.5e-323,
        2.5e-323,
        -2.5e-323,
        -2.5e-323,
        -2.5e-323,
        2.5e-323,
        -2.5e-323,
        2.5e-323,
        2.5e-323,
        -2.5e-323,
        -2.5e-323,
        -2.5e-323,
        2.5e-323,
        2.5e-323,
        -2.5e-323,
        -2.5e-323,
        2.5e-323,
        -2.5e-323,
        2.5e-323,
        2.5e-323,
        2.5e-323,
        -2.5e-323,
        -2.5e-323,
        2.5e-323,
        2.5e-323,
        -2.5e-323,
        -2.5e-323,
        2.5e-323
      ],
      "velocity_stats": {
        "min": -2.5e-323,
        "max": 100000000000.00009,
        "mean": 6451612903.225812,
        "std": 24567010018.91585
      }
    }
  },
  "convergence_analysis": {
    "iterations_to_converge": 100000,
    "final_cost_change": 0.0,
    "convergence_rate": "superlinear",
    "loss_reduction_ratio": 603181.1271247393,
    "velocity_contribution": "accelerated_convergence_with_lookahead"
  },
  "algorithm_specific": {
    "gradient_descent_type": "nesterov_accelerated",
    "momentum_coefficient": 0.9,
    "step_size_constant": true,
    "acceleration_used": true,
    "nesterov_lookahead": true,
    "momentum_description": "Nesterov acceleration with look-ahead gradient computation"
  }
}