{
  "algorithm": "Stochastic Gradient Descent - OLS",
  "loss_function": "OLS",
  "parameters": {
    "learning_rate": 0.01,
    "max_epochs": 100,
    "batch_size": 1,
    "tolerance": 1e-05,
    "learning_rate_schedule": "constant",
    "momentum": 0.0,
    "random_state": 42,
    "shuffle_each_epoch": false,
    "randomize_each_epoch": false
  },
  "training_results": {
    "training_time": 109.08858513832092,
    "converged": false,
    "final_epoch": 100,
    "total_epochs": 100,
    "final_loss": 0.012973085827063816,
    "final_gradient_norm": 0.04225734427935933,
    "best_epoch": 50,
    "best_loss": 0.012639074786611847,
    "best_gradient_norm": 0.038917289094762664,
    "improvement_from_final": {
      "loss_improvement": 0.00033401104045196854,
      "gradient_improvement": 0.003340055184596666,
      "epochs_earlier": 50
    }
  },
  "weights_analysis": {
    "n_features": 62,
    "n_weights_total": 63,
    "bias_value": 10.115631759151174,
    "weights_without_bias": [
      0.0014628202266465768,
      0.00048255405434002147,
      0.006672007955330556,
      -0.006714444357452778,
      0.0020307071854721885,
      0.010627706547869558,
      0.009546664790889822,
      0.0872658616160814,
      0.015970494940417405,
      -0.2595017705514656,
      -0.005992454498406538,
      0.001209567176573038,
      0.00841381877747267,
      0.06374857531200703,
      -0.006866099779828271,
      0.004760203252893151,
      0.0002547673419609376,
      0.01068775313936902,
      -0.09196161851377682,
      0.025322666598037773,
      0.02848557858009673,
      0.05280566066172919,
      0.006372487189767979,
      -0.019098905876113553,
      -0.011495354131767218,
      0.002974422963150179,
      0.007381850905651035,
      0.029466537836360877,
      0.035034593237738755,
      -0.006996372276687808,
      -0.007731477765516182,
      0.025364451245400727,
      0.054928451419215416,
      0.19574273197305403,
      -0.002880278870903511,
      0.030510720571088487,
      0.07162587319744551,
      -0.008360570747955242,
      -0.021603094183635648,
      -0.013866570266903654,
      -0.053101921933580216,
      -0.045497291310598785,
      -0.04408133777572088,
      -0.009273893914206414,
      -0.015508645877416568,
      -0.01232602007894347,
      -0.0006575342101735738,
      0.006516058041012725,
      -0.0006432518830633548,
      -0.0200829867773784,
      -0.02901162186628885,
      -0.005565234447383036,
      -0.0003330411183529188,
      0.003932560178539188,
      -0.0031793001287506732,
      0.00048778839889198196,
      0.0034830481113276002,
      -0.000268518706736357,
      -0.016348604450609795,
      -0.005242250346059736,
      -0.03472926070272544,
      -0.012941470738944314
    ],
    "complete_weight_vector": [
      0.0014628202266465768,
      0.00048255405434002147,
      0.006672007955330556,
      -0.006714444357452778,
      0.0020307071854721885,
      0.010627706547869558,
      0.009546664790889822,
      0.0872658616160814,
      0.015970494940417405,
      -0.2595017705514656,
      -0.005992454498406538,
      0.001209567176573038,
      0.00841381877747267,
      0.06374857531200703,
      -0.006866099779828271,
      0.004760203252893151,
      0.0002547673419609376,
      0.01068775313936902,
      -0.09196161851377682,
      0.025322666598037773,
      0.02848557858009673,
      0.05280566066172919,
      0.006372487189767979,
      -0.019098905876113553,
      -0.011495354131767218,
      0.002974422963150179,
      0.007381850905651035,
      0.029466537836360877,
      0.035034593237738755,
      -0.006996372276687808,
      -0.007731477765516182,
      0.025364451245400727,
      0.054928451419215416,
      0.19574273197305403,
      -0.002880278870903511,
      0.030510720571088487,
      0.07162587319744551,
      -0.008360570747955242,
      -0.021603094183635648,
      -0.013866570266903654,
      -0.053101921933580216,
      -0.045497291310598785,
      -0.04408133777572088,
      -0.009273893914206414,
      -0.015508645877416568,
      -0.01232602007894347,
      -0.0006575342101735738,
      0.006516058041012725,
      -0.0006432518830633548,
      -0.0200829867773784,
      -0.02901162186628885,
      -0.005565234447383036,
      -0.0003330411183529188,
      0.003932560178539188,
      -0.0031793001287506732,
      0.00048778839889198196,
      0.0034830481113276002,
      -0.000268518706736357,
      -0.016348604450609795,
      -0.005242250346059736,
      -0.03472926070272544,
      -0.012941470738944314,
      10.115631759151174
    ],
    "weights_stats": {
      "min": -0.2595017705514656,
      "max": 0.19574273197305403,
      "mean": 0.0005114158925562227,
      "std": 0.04991383526509333
    }
  },
  "convergence_analysis": {
    "epochs_to_converge": 100,
    "best_epoch_found": 50,
    "final_cost_change": 1.8834551471157493e-05,
    "convergence_rate": "sublinear",
    "loss_reduction_ratio": 1.1121479571667408
  },
  "algorithm_specific": {
    "sgd_type": "pure_sgd",
    "batch_size": 1,
    "learning_rate_schedule": "constant",
    "momentum_used": false,
    "momentum_value": null,
    "shuffling_strategy": {
      "shuffle_each_epoch": false,
      "randomize_each_epoch": false
    },
    "returns_best_result": true,
    "stochastic_variance": true
  },
  "computational_complexity": {
    "basic_metrics": {
      "function_evaluations": 10,
      "gradient_evaluations": 10000000,
      "matrix_vector_multiplications": 0,
      "vector_operations": 40000010,
      "memory_allocations": 10000001,
      "peak_memory_size": 63,
      "total_operations": 4474001260
    },
    "iterations": {
      "total_iterations": 100,
      "final_iteration": 100,
      "converged": false,
      "convergence_iteration": null
    },
    "per_iteration_averages": {
      "function_evaluations_per_iter": 0.1,
      "gradient_evaluations_per_iter": 100000.0,
      "operations_per_iter": 44740012.6,
      "matrix_operations_per_iter": 0.0
    },
    "scalability_metrics": {
      "problem_size": {
        "n_samples": 100000,
        "n_features": 62
      },
      "problem_complexity_factor": 6200000,
      "operations_per_problem_unit": 721.6131064516129,
      "memory_efficiency": 0.0006296096420219464,
      "theoretical_complexity": "O(100000*62*100)"
    },
    "operation_distribution": {
      "function_eval_percentage": 2.235135713841976e-07,
      "gradient_eval_percentage": 0.2235135713841976,
      "matrix_ops_percentage": 0.0,
      "vector_ops_percentage": 0.8940545090503618
    }
  }
}