{
  "algorithm": "Gradient Descent - OLS",
  "loss_function": "OLS",
  "parameters": {
    "learning_rate": 0.1,
    "max_iterations": 10000,
    "tolerance": 1e-05,
    "step_size_method": "decreasing_sqrt"
  },
  "training_results": {
    "training_time": 210.98800539970398,
    "converged": false,
    "final_iteration": 10000,
    "total_iterations": 10000,
    "final_loss": 0.012207427408944852,
    "final_gradient_norm": 0.004408882219999102,
    "best_iteration": 9900,
    "best_loss": 0.012207427408944852,
    "best_gradient_norm": 0.004408882219999102,
    "improvement_from_final": {
      "loss_improvement": 0.0,
      "gradient_improvement": 0.0,
      "iterations_earlier": 100
    }
  },
  "weights_analysis": {
    "n_features": 62,
    "n_weights_total": 63,
    "bias_value": 10.117548576271945,
    "weights_without_bias": [
      0.017466444585140416,
      -0.005103930567698063,
      0.007263677585324402,
      -0.019366777593829664,
      -0.0019513482853149042,
      -0.005358695336583343,
      0.0061424434287149655,
      0.08112308865300974,
      -0.01460834068368578,
      -0.17357312392646684,
      -0.010369367331856718,
      -0.011173802148097203,
      0.010027833483723922,
      0.10909838185745856,
      -0.01149703673936886,
      0.005842403316455921,
      0.0029508927138465948,
      0.01069055226734399,
      -0.11456764546213324,
      0.08934232826992394,
      0.021151964469422364,
      0.023113515841330857,
      0.0062523935848194006,
      -0.0090897258376999,
      -0.0006096091908948636,
      0.008722752306017465,
      0.009252840827335572,
      0.025326323779676637,
      0.03785436500318383,
      -0.012906041272609095,
      -0.01305260624899078,
      0.004558207889367502,
      0.024882161422676973,
      0.22186640511720337,
      -0.00506483176550854,
      0.05407547491812957,
      0.043531855954023806,
      -0.002564508360061436,
      -0.012895315371366413,
      -0.003806402137158636,
      -0.02015679473503648,
      -0.018720830425826958,
      -0.004345762664578646,
      0.0032696280632089347,
      -0.0044129107398671605,
      -0.013527908909900237,
      -0.0004396734163958053,
      0.01074731658337657,
      0.000591187380070488,
      -0.01561214316581573,
      -0.018450152529231722,
      0.009948731018246906,
      -0.0005528088837447623,
      0.000572965682907667,
      -0.0018927110068289118,
      0.003954809244025217,
      0.003533027777500182,
      0.004475827697698995,
      -0.013727985424330258,
      -0.004377676141884851,
      -0.03365675400102648,
      -0.008884666846714412
    ],
    "complete_weight_vector": [
      0.017466444585140416,
      -0.005103930567698063,
      0.007263677585324402,
      -0.019366777593829664,
      -0.0019513482853149042,
      -0.005358695336583343,
      0.0061424434287149655,
      0.08112308865300974,
      -0.01460834068368578,
      -0.17357312392646684,
      -0.010369367331856718,
      -0.011173802148097203,
      0.010027833483723922,
      0.10909838185745856,
      -0.01149703673936886,
      0.005842403316455921,
      0.0029508927138465948,
      0.01069055226734399,
      -0.11456764546213324,
      0.08934232826992394,
      0.021151964469422364,
      0.023113515841330857,
      0.0062523935848194006,
      -0.0090897258376999,
      -0.0006096091908948636,
      0.008722752306017465,
      0.009252840827335572,
      0.025326323779676637,
      0.03785436500318383,
      -0.012906041272609095,
      -0.01305260624899078,
      0.004558207889367502,
      0.024882161422676973,
      0.22186640511720337,
      -0.00506483176550854,
      0.05407547491812957,
      0.043531855954023806,
      -0.002564508360061436,
      -0.012895315371366413,
      -0.003806402137158636,
      -0.02015679473503648,
      -0.018720830425826958,
      -0.004345762664578646,
      0.0032696280632089347,
      -0.0044129107398671605,
      -0.013527908909900237,
      -0.0004396734163958053,
      0.01074731658337657,
      0.000591187380070488,
      -0.01561214316581573,
      -0.018450152529231722,
      0.009948731018246906,
      -0.0005528088837447623,
      0.000572965682907667,
      -0.0018927110068289118,
      0.003954809244025217,
      0.003533027777500182,
      0.004475827697698995,
      -0.013727985424330258,
      -0.004377676141884851,
      -0.03365675400102648,
      -0.008884666846714412,
      10.117548576271945
    ],
    "weights_stats": {
      "min": -0.17357312392646684,
      "max": 0.22186640511720337,
      "mean": 0.0043759986059783585,
      "std": 0.0461466228472777
    }
  },
  "convergence_analysis": {
    "iterations_to_converge": 10000,
    "best_iteration_found": 9900,
    "final_cost_change": -1.9601540609936324e-06,
    "convergence_rate": "linear",
    "loss_reduction_ratio": 97.73908748232715
  },
  "algorithm_specific": {
    "gradient_descent_type": "standard",
    "step_size_method": "decreasing_sqrt",
    "step_size_constant": false,
    "momentum_used": false,
    "returns_best_result": true,
    "backtracking_parameters": null,
    "adaptive_parameters": null
  },
  "computational_complexity": {
    "basic_metrics": {
      "function_evaluations": 100,
      "gradient_evaluations": 10000,
      "matrix_vector_multiplications": 0,
      "vector_operations": 10100,
      "memory_allocations": 10000,
      "peak_memory_size": 63,
      "total_operations": 126640642600
    },
    "iterations": {
      "total_iterations": 10000,
      "final_iteration": 10000,
      "converged": false,
      "convergence_iteration": null
    },
    "per_iteration_averages": {
      "function_evaluations_per_iter": 0.01,
      "gradient_evaluations_per_iter": 1.0,
      "operations_per_iter": 12664064.26,
      "matrix_operations_per_iter": 0.0
    },
    "scalability_metrics": {
      "problem_size": {
        "n_samples": 100000,
        "n_features": 62
      },
      "problem_complexity_factor": 6200000,
      "operations_per_problem_unit": 20425.910096774194,
      "memory_efficiency": 0.0006296096420219464,
      "theoretical_complexity": "O(100000*62*10000)"
    },
    "operation_distribution": {
      "function_eval_percentage": 7.89635917403344e-08,
      "gradient_eval_percentage": 7.89635917403344e-06,
      "matrix_ops_percentage": 0.0,
      "vector_ops_percentage": 7.975322765773773e-06
    }
  }
}