{
  "algorithm": "Gradient Descent - OLS",
  "loss_function": "OLS",
  "parameters": {
    "learning_rate": 0.1,
    "max_iterations": 10000,
    "tolerance": 1e-05,
    "step_size_method": "decreasing_sqrt"
  },
  "training_results": {
    "training_time": 225.48079657554626,
    "converged": false,
    "final_iteration": 10000,
    "total_iterations": 10000,
    "final_loss": 0.012236555586909946,
    "final_gradient_norm": 0.004624527104031895,
    "best_iteration": 9900,
    "best_loss": 0.012236555586909946,
    "best_gradient_norm": 0.004624527104031895,
    "improvement_from_final": {
      "loss_improvement": 0.0,
      "gradient_improvement": 0.0,
      "iterations_earlier": 100
    }
  },
  "weights_analysis": {
    "n_features": 62,
    "n_weights_total": 63,
    "bias_value": 10.117557769678571,
    "weights_without_bias": [
      0.020853287578605616,
      -0.0021848626330966806,
      0.00808355152761143,
      -0.010870342095811137,
      -7.220395029330135e-05,
      0.0018068924702921423,
      -0.0045365380104700846,
      0.07800692765728924,
      -0.006038373908079177,
      -0.17322413970838396,
      -0.010499425797571871,
      -0.01133250200094028,
      0.01003447719346995,
      0.10910391140532333,
      0.009951205679970715,
      -0.009169182024273833,
      -0.008491212414660032,
      0.0072017686619120875,
      -0.1137477020754086,
      0.08903194565430904,
      0.021333038705609184,
      0.013713042944359202,
      0.006321076302693697,
      -0.0004896040345925182,
      0.0026077755919253717,
      0.0057628952618354445,
      0.009259468585628261,
      0.02542297964044342,
      0.03999261969538481,
      0.0025531162274309523,
      -0.0010132601795696306,
      0.016396118633537286,
      0.034034134809844074,
      0.22257456212710203,
      -0.005001455783600567,
      0.03790004736515503,
      0.06002241044504612,
      0.000913594817621627,
      -0.008563913462082363,
      0.0006064907864703508,
      -0.010972147411616617,
      -0.007952707180957825,
      0.008517142270114101,
      0.00599070679237499,
      -0.001388930937522553,
      -0.013172541328523473,
      -0.0003105106905108139,
      0.012613462885173466,
      -0.013550733899807684,
      -0.011887509729252177,
      -0.013261877786160151,
      0.0007820159828670754,
      -0.0005399830526425127,
      0.0005777375208247909,
      -0.0027574602158075942,
      0.003963777166934477,
      0.0035714487731584306,
      0.004647776419865394,
      -0.01400639946579587,
      -0.004867306128773478,
      -0.034238702145591375,
      -0.0085396543634188
    ],
    "complete_weight_vector": [
      0.020853287578605616,
      -0.0021848626330966806,
      0.00808355152761143,
      -0.010870342095811137,
      -7.220395029330135e-05,
      0.0018068924702921423,
      -0.0045365380104700846,
      0.07800692765728924,
      -0.006038373908079177,
      -0.17322413970838396,
      -0.010499425797571871,
      -0.01133250200094028,
      0.01003447719346995,
      0.10910391140532333,
      0.009951205679970715,
      -0.009169182024273833,
      -0.008491212414660032,
      0.0072017686619120875,
      -0.1137477020754086,
      0.08903194565430904,
      0.021333038705609184,
      0.013713042944359202,
      0.006321076302693697,
      -0.0004896040345925182,
      0.0026077755919253717,
      0.0057628952618354445,
      0.009259468585628261,
      0.02542297964044342,
      0.03999261969538481,
      0.0025531162274309523,
      -0.0010132601795696306,
      0.016396118633537286,
      0.034034134809844074,
      0.22257456212710203,
      -0.005001455783600567,
      0.03790004736515503,
      0.06002241044504612,
      0.000913594817621627,
      -0.008563913462082363,
      0.0006064907864703508,
      -0.010972147411616617,
      -0.007952707180957825,
      0.008517142270114101,
      0.00599070679237499,
      -0.001388930937522553,
      -0.013172541328523473,
      -0.0003105106905108139,
      0.012613462885173466,
      -0.013550733899807684,
      -0.011887509729252177,
      -0.013261877786160151,
      0.0007820159828670754,
      -0.0005399830526425127,
      0.0005777375208247909,
      -0.0027574602158075942,
      0.003963777166934477,
      0.0035714487731584306,
      0.004647776419865394,
      -0.01400639946579587,
      -0.004867306128773478,
      -0.034238702145591375,
      -0.0085396543634188,
      10.117557769678571
    ],
    "weights_stats": {
      "min": -0.17322413970838396,
      "max": 0.22257456212710203,
      "mean": 0.005991455244596261,
      "std": 0.045752478736837444
    }
  },
  "convergence_analysis": {
    "iterations_to_converge": 10000,
    "best_iteration_found": 9900,
    "final_cost_change": -2.1564936103068283e-06,
    "convergence_rate": "linear",
    "loss_reduction_ratio": 97.4889520330156
  },
  "algorithm_specific": {
    "gradient_descent_type": "standard",
    "step_size_method": "decreasing_sqrt",
    "step_size_constant": false,
    "momentum_used": false,
    "returns_best_result": true,
    "backtracking_parameters": null,
    "adaptive_parameters": null
  },
  "computational_complexity": {
    "basic_metrics": {
      "function_evaluations": 100,
      "gradient_evaluations": 10000,
      "matrix_vector_multiplications": 0,
      "vector_operations": 10100,
      "memory_allocations": 10000,
      "peak_memory_size": 63,
      "total_operations": 126640642600
    },
    "iterations": {
      "total_iterations": 10000,
      "final_iteration": 10000,
      "converged": false,
      "convergence_iteration": null
    },
    "per_iteration_averages": {
      "function_evaluations_per_iter": 0.01,
      "gradient_evaluations_per_iter": 1.0,
      "operations_per_iter": 12664064.26,
      "matrix_operations_per_iter": 0.0
    },
    "scalability_metrics": {
      "problem_size": {
        "n_samples": 100000,
        "n_features": 62
      },
      "problem_complexity_factor": 6200000,
      "operations_per_problem_unit": 20425.910096774194,
      "memory_efficiency": 0.0006296096420219464,
      "theoretical_complexity": "O(100000*62*10000)"
    },
    "operation_distribution": {
      "function_eval_percentage": 7.89635917403344e-08,
      "gradient_eval_percentage": 7.89635917403344e-06,
      "matrix_ops_percentage": 0.0,
      "vector_ops_percentage": 7.975322765773773e-06
    }
  }
}