{
  "algorithm": "Damped Newton Method - OLS",
  "loss_function": "OLS",
  "parameters": {
    "regularization": 0.0,
    "numerical_regularization": 1e-08,
    "max_iterations": 100,
    "tolerance": 1e-08,
    "armijo_c1": 0.0001,
    "backtrack_rho": 0.8,
    "max_line_search_iter": 50
  },
  "training_results": {
    "training_time": 0.2673225402832031,
    "converged": true,
    "final_iteration": 3,
    "total_iterations": 100,
    "final_loss": 0.011924579974978759,
    "final_gradient_norm": 4.415909126972092e-11
  },
  "weights_analysis": {
    "n_features": 62,
    "n_weights_total": 63,
    "bias_value": 10.117576831152824,
    "weights_without_bias": [
      0.003322833751033421,
      -0.007236700266612756,
      0.0115188692505708,
      -0.016748478030190604,
      -0.0011754115611661447,
      -0.0008729465169611016,
      6.986521229565773e-05,
      0.08363572109726297,
      0.0038971933064380444,
      -0.2861126067969902,
      -0.010691466977764604,
      -0.005723591415319857,
      0.010001406196145682,
      0.09612597850234746,
      0.003936003620279359,
      0.0037590069751843418,
      -0.00603630492835923,
      0.0162230236956546,
      -0.0750489923062605,
      0.07748822907596327,
      0.014095860202106068,
      0.06945837107805385,
      0.005724328384976605,
      0.005925308344682535,
      -0.0064034651854243,
      0.010507952754932152,
      0.009109178023659128,
      0.025870623170691737,
      0.027790538724107635,
      0.0007172904591597841,
      -0.003178775914030198,
      0.011568015354506028,
      0.07315036080117406,
      0.21975651995244286,
      -0.005504525952288657,
      0.011580111070624878,
      0.08663003697667507,
      -0.014696547094152718,
      -0.027960234052874212,
      -0.018676424245566012,
      -0.05315015073787736,
      -0.0557046451380576,
      -0.05010661812737094,
      -0.007504543450381651,
      -0.015117194718010612,
      -0.013437150835167017,
      -0.0005254693814905907,
      0.011860057259585171,
      -0.012011685053016002,
      -0.015542649784711286,
      -0.01703961807067406,
      -0.00044669681874928116,
      -0.0004358977447932084,
      0.0006238835959249288,
      0.001081578487165371,
      0.0034482424746100798,
      0.0031457423883277866,
      0.0032328125886594704,
      -0.014044449447469121,
      -0.005206569859396805,
      -0.03526956751636137,
      -0.010969755895521927
    ],
    "complete_weight_vector": [
      0.003322833751033421,
      -0.007236700266612756,
      0.0115188692505708,
      -0.016748478030190604,
      -0.0011754115611661447,
      -0.0008729465169611016,
      6.986521229565773e-05,
      0.08363572109726297,
      0.0038971933064380444,
      -0.2861126067969902,
      -0.010691466977764604,
      -0.005723591415319857,
      0.010001406196145682,
      0.09612597850234746,
      0.003936003620279359,
      0.0037590069751843418,
      -0.00603630492835923,
      0.0162230236956546,
      -0.0750489923062605,
      0.07748822907596327,
      0.014095860202106068,
      0.06945837107805385,
      0.005724328384976605,
      0.005925308344682535,
      -0.0064034651854243,
      0.010507952754932152,
      0.009109178023659128,
      0.025870623170691737,
      0.027790538724107635,
      0.0007172904591597841,
      -0.003178775914030198,
      0.011568015354506028,
      0.07315036080117406,
      0.21975651995244286,
      -0.005504525952288657,
      0.011580111070624878,
      0.08663003697667507,
      -0.014696547094152718,
      -0.027960234052874212,
      -0.018676424245566012,
      -0.05315015073787736,
      -0.0557046451380576,
      -0.05010661812737094,
      -0.007504543450381651,
      -0.015117194718010612,
      -0.013437150835167017,
      -0.0005254693814905907,
      0.011860057259585171,
      -0.012011685053016002,
      -0.015542649784711286,
      -0.01703961807067406,
      -0.00044669681874928116,
      -0.0004358977447932084,
      0.0006238835959249288,
      0.001081578487165371,
      0.0034482424746100798,
      0.0031457423883277866,
      0.0032328125886594704,
      -0.014044449447469121,
      -0.005206569859396805,
      -0.03526956751636137,
      -0.010969755895521927,
      10.117576831152824
    ],
    "weights_stats": {
      "min": -0.2861126067969902,
      "max": 0.21975651995244286,
      "mean": 0.0018173517572940467,
      "std": 0.055578039712533556
    }
  },
  "convergence_analysis": {
    "iterations_to_converge": 3,
    "final_cost_change": -2.0052882965249097e-13,
    "convergence_rate": "superlinear",
    "loss_reduction_ratio": 4314.724528654065,
    "convergence_quality": "damped_superlinear"
  },
  "numerical_analysis": {
    "hessian_condition_number": 954610051.7705601,
    "average_step_size": 1.0,
    "max_step_size": 1.0,
    "min_step_size": 1.0,
    "step_size_stability": "line_search_controlled",
    "regularization_effect": "Applied for numerical stability"
  },
  "line_search_analysis": {
    "average_backtracks": 0.0,
    "max_backtracks": 0,
    "min_backtracks": 0,
    "total_line_search_calls": 2,
    "line_search_success_rate": "100%"
  },
  "algorithm_specific": {
    "method_type": "damped_newton",
    "second_order_method": true,
    "hessian_computation": "exact",
    "line_search_used": true,
    "line_search_type": "backtracking_armijo",
    "damping_applied": "line_search_based",
    "fast_convergence": true,
    "globalization_strategy": "armijo_line_search"
  }
}