{
  "algorithm": "Gradient Descent - OLS",
  "loss_function": "OLS",
  "parameters": {
    "learning_rate": 0.01,
    "max_iterations": 10000,
    "tolerance": 1e-05,
    "step_size_method": "constant"
  },
  "training_results": {
    "training_time": 188.32266068458557,
    "converged": false,
    "final_iteration": 10000,
    "total_iterations": 10000,
    "final_loss": 0.011935026339284538,
    "final_gradient_norm": 0.0005704299107587602,
    "best_iteration": 9900,
    "best_loss": 0.011935026339284538,
    "best_gradient_norm": 0.0005704299107587602,
    "improvement_from_final": {
      "loss_improvement": 0.0,
      "gradient_improvement": 0.0,
      "iterations_earlier": 100
    }
  },
  "weights_analysis": {
    "n_features": 62,
    "n_weights_total": 63,
    "bias_value": 10.11757185645244,
    "weights_without_bias": [
      -0.012699269126920805,
      -0.004474847816681538,
      0.010936014064640447,
      -0.010275669458658383,
      0.00034631855336863295,
      0.004899367855824358,
      0.009902325281818067,
      0.08435100551590531,
      -0.0005362162002122061,
      -0.2695729110650895,
      -0.010616358821896692,
      -0.005678965125286412,
      0.01006787752820421,
      0.08822354996660207,
      0.0016399785878275402,
      0.0027240914315650555,
      -0.0017989084137120504,
      0.014824367472063968,
      -0.09563259690290073,
      0.08300081119763289,
      0.014844181257122788,
      0.06814392592835546,
      0.005638578396928939,
      0.010492675080434836,
      -0.01018488867819256,
      0.007943419027409082,
      0.009144574290127662,
      0.0258766906356772,
      0.028160384282334423,
      -0.007442178731942719,
      -0.004759430978757825,
      0.021006976685193558,
      0.0612540234884552,
      0.21943504558971796,
      -0.005390716164182573,
      0.051238549859387375,
      0.04682010045081494,
      -0.010342776377815614,
      -0.02239461543263667,
      -0.01320905914456727,
      -0.04132477802682645,
      -0.04196750075014731,
      -0.033731415071013834,
      -0.00385746004325148,
      -0.011213722862422029,
      -0.01318361563425234,
      -0.0005193091996322531,
      0.011658177706549573,
      -0.003714960661598215,
      -0.01589062201829803,
      -0.01757247737625799,
      0.0011961297218042693,
      -0.0004545737782144707,
      0.0006016375491824816,
      0.00016425669627442963,
      0.003534879008015836,
      0.0031888079558465158,
      0.0035303149206403384,
      -0.013991281217867383,
      -0.005123768032682705,
      -0.035113718177319744,
      -0.010155476152478655
    ],
    "complete_weight_vector": [
      -0.012699269126920805,
      -0.004474847816681538,
      0.010936014064640447,
      -0.010275669458658383,
      0.00034631855336863295,
      0.004899367855824358,
      0.009902325281818067,
      0.08435100551590531,
      -0.0005362162002122061,
      -0.2695729110650895,
      -0.010616358821896692,
      -0.005678965125286412,
      0.01006787752820421,
      0.08822354996660207,
      0.0016399785878275402,
      0.0027240914315650555,
      -0.0017989084137120504,
      0.014824367472063968,
      -0.09563259690290073,
      0.08300081119763289,
      0.014844181257122788,
      0.06814392592835546,
      0.005638578396928939,
      0.010492675080434836,
      -0.01018488867819256,
      0.007943419027409082,
      0.009144574290127662,
      0.0258766906356772,
      0.028160384282334423,
      -0.007442178731942719,
      -0.004759430978757825,
      0.021006976685193558,
      0.0612540234884552,
      0.21943504558971796,
      -0.005390716164182573,
      0.051238549859387375,
      0.04682010045081494,
      -0.010342776377815614,
      -0.02239461543263667,
      -0.01320905914456727,
      -0.04132477802682645,
      -0.04196750075014731,
      -0.033731415071013834,
      -0.00385746004325148,
      -0.011213722862422029,
      -0.01318361563425234,
      -0.0005193091996322531,
      0.011658177706549573,
      -0.003714960661598215,
      -0.01589062201829803,
      -0.01757247737625799,
      0.0011961297218042693,
      -0.0004545737782144707,
      0.0006016375491824816,
      0.00016425669627442963,
      0.003534879008015836,
      0.0031888079558465158,
      0.0035303149206403384,
      -0.013991281217867383,
      -0.005123768032682705,
      -0.035113718177319744,
      -0.010155476152478655,
      10.11757185645244
    ],
    "weights_stats": {
      "min": -0.2695729110650895,
      "max": 0.21943504558971796,
      "mean": 0.0027736282023227248,
      "std": 0.053299753902125
    }
  },
  "convergence_analysis": {
    "iterations_to_converge": 10000,
    "best_iteration_found": 9900,
    "final_cost_change": -3.3147600583989523e-07,
    "convergence_rate": "linear",
    "loss_reduction_ratio": 576.4419808414408
  },
  "algorithm_specific": {
    "gradient_descent_type": "standard",
    "step_size_method": "constant",
    "step_size_constant": true,
    "momentum_used": false,
    "returns_best_result": true,
    "backtracking_parameters": null,
    "adaptive_parameters": null
  },
  "computational_complexity": {
    "basic_metrics": {
      "function_evaluations": 100,
      "gradient_evaluations": 10000,
      "matrix_vector_multiplications": 0,
      "vector_operations": 10100,
      "memory_allocations": 10000,
      "peak_memory_size": 63,
      "total_operations": 126640642600
    },
    "iterations": {
      "total_iterations": 10000,
      "final_iteration": 10000,
      "converged": false,
      "convergence_iteration": null
    },
    "per_iteration_averages": {
      "function_evaluations_per_iter": 0.01,
      "gradient_evaluations_per_iter": 1.0,
      "operations_per_iter": 12664064.26,
      "matrix_operations_per_iter": 0.0
    },
    "scalability_metrics": {
      "problem_size": {
        "n_samples": 100000,
        "n_features": 62
      },
      "problem_complexity_factor": 6200000,
      "operations_per_problem_unit": 20425.910096774194,
      "memory_efficiency": 0.0006296096420219464,
      "theoretical_complexity": "O(100000*62*10000)"
    },
    "operation_distribution": {
      "function_eval_percentage": 7.89635917403344e-08,
      "gradient_eval_percentage": 7.89635917403344e-06,
      "matrix_ops_percentage": 0.0,
      "vector_ops_percentage": 7.975322765773773e-06
    }
  }
}