{
  "algorithm": "Newton Method - RIDGE",
  "loss_function": "RIDGE",
  "parameters": {
    "regularization": 0.01,
    "numerical_regularization": 1e-08,
    "max_iterations": 50,
    "tolerance": 1e-10
  },
  "training_results": {
    "training_time": 0.49159955978393555,
    "converged": true,
    "final_iteration": 7,
    "total_iterations": 50,
    "final_loss": 0.012756605526931464,
    "final_gradient_norm": 9.540336484254595e-12
  },
  "weights_analysis": {
    "n_features": 62,
    "n_weights_total": 63,
    "bias_value": 10.11757036221592,
    "weights_without_bias": [
      0.003975198223856514,
      0.0015648805479304489,
      0.010478384752497112,
      -0.0149666363302611,
      -0.0010944142808598158,
      -0.0013794266322659204,
      0.002728336886021499,
      0.08032758182058716,
      -0.00382254187201638,
      -0.23393090197288446,
      -0.010407236436536517,
      -0.009553672677800338,
      0.010064717189954605,
      0.09540089468618088,
      0.00026395673647264234,
      0.00026395673647264234,
      0.0002639567364726491,
      0.013331666790177464,
      -0.09540089468618088,
      0.07898929308601892,
      0.017468505017471807,
      0.04806683541949576,
      0.006130851094812571,
      0.0034375159988693886,
      -0.004790023611393347,
      0.0015648805479304489,
      0.009131259360523216,
      0.025375512616861776,
      0.032598886333209176,
      -0.005323253278795995,
      -0.0013746054232188533,
      0.011527094847525435,
      0.04806683541949576,
      0.21553892864978844,
      -0.003982945079724804,
      0.047289191110242206,
      0.05239405964453648,
      -0.006953926945937051,
      -0.018595725047068325,
      -0.00958481196530806,
      -0.032156781473468544,
      -0.032529053325408355,
      -0.022140420049025777,
      -0.0012315008836111714,
      -0.008558977487764179,
      -0.012107298458343201,
      -0.0004970437391998518,
      0.011494520815446059,
      -0.005323253278795995,
      -0.01532338791022659,
      -0.01662216783108561,
      -0.0013746054232188533,
      -0.0005127980749165292,
      0.0005861545168489414,
      -0.00010310101198985854,
      0.0036856114979170857,
      0.0033179546355283,
      0.003901067613418355,
      -0.013880678759145003,
      -0.003930443646328951,
      -0.033876935662898414,
      -0.00923647783749145
    ],
    "complete_weight_vector": [
      0.003975198223856514,
      0.0015648805479304489,
      0.010478384752497112,
      -0.0149666363302611,
      -0.0010944142808598158,
      -0.0013794266322659204,
      0.002728336886021499,
      0.08032758182058716,
      -0.00382254187201638,
      -0.23393090197288446,
      -0.010407236436536517,
      -0.009553672677800338,
      0.010064717189954605,
      0.09540089468618088,
      0.00026395673647264234,
      0.00026395673647264234,
      0.0002639567364726491,
      0.013331666790177464,
      -0.09540089468618088,
      0.07898929308601892,
      0.017468505017471807,
      0.04806683541949576,
      0.006130851094812571,
      0.0034375159988693886,
      -0.004790023611393347,
      0.0015648805479304489,
      0.009131259360523216,
      0.025375512616861776,
      0.032598886333209176,
      -0.005323253278795995,
      -0.0013746054232188533,
      0.011527094847525435,
      0.04806683541949576,
      0.21553892864978844,
      -0.003982945079724804,
      0.047289191110242206,
      0.05239405964453648,
      -0.006953926945937051,
      -0.018595725047068325,
      -0.00958481196530806,
      -0.032156781473468544,
      -0.032529053325408355,
      -0.022140420049025777,
      -0.0012315008836111714,
      -0.008558977487764179,
      -0.012107298458343201,
      -0.0004970437391998518,
      0.011494520815446059,
      -0.005323253278795995,
      -0.01532338791022659,
      -0.01662216783108561,
      -0.0013746054232188533,
      -0.0005127980749165292,
      0.0005861545168489414,
      -0.00010310101198985854,
      0.0036856114979170857,
      0.0033179546355283,
      0.003901067613418355,
      -0.013880678759145003,
      -0.003930443646328951,
      -0.033876935662898414,
      -0.00923647783749145,
      10.11757036221592
    ],
    "weights_stats": {
      "min": -0.23393090197288446,
      "max": 0.21553892864978844,
      "mean": 0.0033655249716031234,
      "std": 0.04912542995842101
    }
  },
  "convergence_analysis": {
    "iterations_to_converge": 7,
    "final_cost_change": -1.734723475976807e-18,
    "convergence_rate": "quadratic",
    "loss_reduction_ratio": 4020.177475053437,
    "convergence_quality": "superlinear_to_quadratic"
  },
  "numerical_analysis": {
    "hessian_condition_number": 955.6089242061792,
    "average_step_size": 1.6866438641357133,
    "max_step_size": 10.019665497454907,
    "min_step_size": 9.54511531183229e-10,
    "step_size_stability": "Newton_steps",
    "regularization_effect": "Applied for numerical stability"
  },
  "algorithm_specific": {
    "method_type": "pure_newton",
    "second_order_method": true,
    "hessian_computation": "exact",
    "line_search_used": false,
    "damping_applied": "numerical_regularization_only",
    "fast_convergence": true
  }
}