{
  "algorithm": "Gradient Descent - RIDGE",
  "loss_function": "RIDGE",
  "parameters": {
    "learning_rate": 0.1,
    "max_iterations": 10000,
    "tolerance": 1e-05,
    "step_size_method": "constant",
    "regularization": 0.5
  },
  "training_results": {
    "training_time": 4.035163640975952,
    "converged": true,
    "final_iteration": 200,
    "total_iterations": 10000,
    "final_loss": 0.029766155308157204,
    "final_gradient_norm": 7.130946577733675e-07,
    "best_iteration": 100,
    "best_loss": 0.029766155308157204,
    "best_gradient_norm": 7.130946577733675e-07,
    "improvement_from_final": {
      "loss_improvement": 0.0,
      "gradient_improvement": 0.0,
      "iterations_earlier": 100
    }
  },
  "weights_analysis": {
    "n_features": 62,
    "n_weights_total": 63,
    "bias_value": 10.117648815963664,
    "weights_without_bias": [
      0.00023791709110699693,
      -0.0018228890657775347,
      0.014740741802236544,
      -0.0010880642942583667,
      -0.002540426845679272,
      -0.012253315475283678,
      -0.0012050269245545094,
      0.05081720593279672,
      0.005883598411109017,
      -0.08189459408331592,
      -0.0035241925076541555,
      -0.04067713187286202,
      0.008565754291113697,
      0.06480031381197322,
      0.004032403844948893,
      0.004031812947259148,
      0.004032291734630154,
      0.011967951635071954,
      -0.06479959166484153,
      -0.0019281780023130489,
      0.01931306966534553,
      -0.03192070248259348,
      0.005703662752843435,
      -0.0004426584315707411,
      -0.003947035277471665,
      -0.0018222631038565208,
      0.006763034995592279,
      0.021911385335925095,
      0.043133620085734785,
      0.001180496441979618,
      0.0019045108398520858,
      0.008616043579495289,
      -0.0319209794587387,
      0.12387311183017163,
      0.017880971234019702,
      0.0551737505415827,
      0.05541553988396951,
      0.004077446865829856,
      -0.00948615435721714,
      -0.003329646996614359,
      0.0031696232095359093,
      -0.01051990182431232,
      0.005595560187220571,
      0.0025223431542750092,
      -0.0031713267691519846,
      0.005398417993950792,
      -0.0005661454573670445,
      0.008483051839528738,
      0.001180348179367932,
      -0.011017232146350798,
      -0.005028082512597755,
      0.0019050383016164824,
      -0.0010349566836919037,
      0.0006471917529125017,
      0.007528512089334864,
      0.002143724119979559,
      0.0026664270937262952,
      0.002999524106275319,
      -0.008830579200325182,
      0.008267217788386598,
      -0.024793873694115235,
      -0.001093792646916823
    ],
    "complete_weight_vector": [
      0.00023791709110699693,
      -0.0018228890657775347,
      0.014740741802236544,
      -0.0010880642942583667,
      -0.002540426845679272,
      -0.012253315475283678,
      -0.0012050269245545094,
      0.05081720593279672,
      0.005883598411109017,
      -0.08189459408331592,
      -0.0035241925076541555,
      -0.04067713187286202,
      0.008565754291113697,
      0.06480031381197322,
      0.004032403844948893,
      0.004031812947259148,
      0.004032291734630154,
      0.011967951635071954,
      -0.06479959166484153,
      -0.0019281780023130489,
      0.01931306966534553,
      -0.03192070248259348,
      0.005703662752843435,
      -0.0004426584315707411,
      -0.003947035277471665,
      -0.0018222631038565208,
      0.006763034995592279,
      0.021911385335925095,
      0.043133620085734785,
      0.001180496441979618,
      0.0019045108398520858,
      0.008616043579495289,
      -0.0319209794587387,
      0.12387311183017163,
      0.017880971234019702,
      0.0551737505415827,
      0.05541553988396951,
      0.004077446865829856,
      -0.00948615435721714,
      -0.003329646996614359,
      0.0031696232095359093,
      -0.01051990182431232,
      0.005595560187220571,
      0.0025223431542750092,
      -0.0031713267691519846,
      0.005398417993950792,
      -0.0005661454573670445,
      0.008483051839528738,
      0.001180348179367932,
      -0.011017232146350798,
      -0.005028082512597755,
      0.0019050383016164824,
      -0.0010349566836919037,
      0.0006471917529125017,
      0.007528512089334864,
      0.002143724119979559,
      0.0026664270937262952,
      0.002999524106275319,
      -0.008830579200325182,
      0.008267217788386598,
      -0.024793873694115235,
      -0.001093792646916823,
      10.117648815963664
    ],
    "weights_stats": {
      "min": -0.08189459408331592,
      "max": 0.12387311183017163,
      "mean": 0.0036436269934075286,
      "std": 0.027621442414172526
    }
  },
  "convergence_analysis": {
    "iterations_to_converge": 200,
    "best_iteration_found": 100,
    "final_cost_change": -5.5524852538707536e-08,
    "convergence_rate": "linear",
    "loss_reduction_ratio": 1.0000018653686364
  },
  "algorithm_specific": {
    "gradient_descent_type": "standard",
    "step_size_method": "constant",
    "step_size_constant": true,
    "momentum_used": false,
    "returns_best_result": true,
    "backtracking_parameters": null,
    "adaptive_parameters": null
  },
  "computational_complexity": {
    "basic_metrics": {
      "function_evaluations": 2,
      "gradient_evaluations": 200,
      "matrix_vector_multiplications": 0,
      "vector_operations": 202,
      "memory_allocations": 200,
      "peak_memory_size": 63,
      "total_operations": 2532812852
    },
    "iterations": {
      "total_iterations": 199,
      "final_iteration": 200,
      "converged": true,
      "convergence_iteration": 200
    },
    "per_iteration_averages": {
      "function_evaluations_per_iter": 0.010050251256281407,
      "gradient_evaluations_per_iter": 1.0050251256281406,
      "operations_per_iter": 12727702.773869347,
      "matrix_operations_per_iter": 0.0
    },
    "efficiency_metrics": {
      "operations_to_convergence": 2513812663,
      "convergence_efficiency": 1.0,
      "operations_per_convergence_iter": 12664064.26
    },
    "scalability_metrics": {
      "problem_size": {
        "n_samples": 100000,
        "n_features": 62
      },
      "problem_complexity_factor": 6200000,
      "operations_per_problem_unit": 408.5182019354839,
      "memory_efficiency": 0.0006296096420219464,
      "theoretical_complexity": "O(100000*62*199)"
    },
    "operation_distribution": {
      "function_eval_percentage": 7.89635917403344e-08,
      "gradient_eval_percentage": 7.89635917403344e-06,
      "matrix_ops_percentage": 0.0,
      "vector_ops_percentage": 7.975322765773773e-06
    }
  }
}