{
  "algorithm": "Gradient Descent - RIDGE",
  "loss_function": "RIDGE",
  "parameters": {
    "learning_rate": 0.5,
    "max_iterations": 500,
    "tolerance": 1e-05,
    "step_size_method": "constant",
    "regularization": 0.01
  },
  "training_results": {
    "training_time": 26.65624165534973,
    "converged": false,
    "final_iteration": 500,
    "total_iterations": 500,
    "final_loss": Infinity,
    "final_gradient_norm": Infinity
  },
  "weights_analysis": {
    "n_features": 62,
    "n_weights_total": 63,
    "bias_value": -5.165566981815186e+283,
    "weights_without_bias": [
      -2.2998716552024963e+286,
      -3.826985517672728e+286,
      3.4230311709681514e+285,
      8.037788720605889e+286,
      2.3213865058853946e+286,
      8.97295334548048e+286,
      -9.233772720204518e+285,
      -2.991080070996818e+286,
      -1.9834170343695112e+287,
      1.8747091522219646e+287,
      -2.3017077116259015e+286,
      1.2589432684583227e+287,
      3.3045137830157314e+285,
      -1.7222501996309412e+287,
      -1.9577294087595952e+287,
      -1.9577294087595952e+287,
      -1.957729408759596e+287,
      -1.958665187912583e+287,
      1.7222501996309412e+287,
      1.1181556337529164e+287,
      3.6931343538066136e+286,
      1.9270683112786432e+287,
      2.190938671100354e+286,
      -1.6780436196952746e+286,
      4.524115251626874e+286,
      -3.826985517672728e+286,
      3.4794729328644636e+286,
      -4.271414694759511e+284,
      -2.8885098025618927e+286,
      -1.3666585466438924e+286,
      -1.3736301524228423e+286,
      -1.1470067967759105e+287,
      1.9270683112786432e+287,
      -1.5226575458065415e+287,
      -2.5819052635405354e+286,
      -6.806491541858614e+286,
      -6.817814556678077e+286,
      1.4799431733705084e+286,
      9.613889376104178e+285,
      1.488183870016359e+286,
      -2.964880619988444e+286,
      4.386472146768638e+286,
      -3.507915562456617e+286,
      -1.5074445919925908e+285,
      1.6021474109445119e+286,
      8.755700615116621e+285,
      3.841178185825088e+284,
      -4.6892512908963993e+285,
      -1.3666585466438924e+286,
      2.0484371497766883e+286,
      1.9050422225467386e+284,
      -1.3736301524228423e+286,
      8.233388800046859e+285,
      -8.625330336594394e+285,
      -1.2723988545868982e+286,
      -1.6461907495164127e+286,
      6.337147738353336e+283,
      2.6252004193166864e+286,
      -1.1375872611260766e+286,
      -1.2521723363048693e+286,
      2.31306663209988e+286,
      2.281116375046384e+286
    ],
    "complete_weight_vector": [
      -2.2998716552024963e+286,
      -3.826985517672728e+286,
      3.4230311709681514e+285,
      8.037788720605889e+286,
      2.3213865058853946e+286,
      8.97295334548048e+286,
      -9.233772720204518e+285,
      -2.991080070996818e+286,
      -1.9834170343695112e+287,
      1.8747091522219646e+287,
      -2.3017077116259015e+286,
      1.2589432684583227e+287,
      3.3045137830157314e+285,
      -1.7222501996309412e+287,
      -1.9577294087595952e+287,
      -1.9577294087595952e+287,
      -1.957729408759596e+287,
      -1.958665187912583e+287,
      1.7222501996309412e+287,
      1.1181556337529164e+287,
      3.6931343538066136e+286,
      1.9270683112786432e+287,
      2.190938671100354e+286,
      -1.6780436196952746e+286,
      4.524115251626874e+286,
      -3.826985517672728e+286,
      3.4794729328644636e+286,
      -4.271414694759511e+284,
      -2.8885098025618927e+286,
      -1.3666585466438924e+286,
      -1.3736301524228423e+286,
      -1.1470067967759105e+287,
      1.9270683112786432e+287,
      -1.5226575458065415e+287,
      -2.5819052635405354e+286,
      -6.806491541858614e+286,
      -6.817814556678077e+286,
      1.4799431733705084e+286,
      9.613889376104178e+285,
      1.488183870016359e+286,
      -2.964880619988444e+286,
      4.386472146768638e+286,
      -3.507915562456617e+286,
      -1.5074445919925908e+285,
      1.6021474109445119e+286,
      8.755700615116621e+285,
      3.841178185825088e+284,
      -4.6892512908963993e+285,
      -1.3666585466438924e+286,
      2.0484371497766883e+286,
      1.9050422225467386e+284,
      -1.3736301524228423e+286,
      8.233388800046859e+285,
      -8.625330336594394e+285,
      -1.2723988545868982e+286,
      -1.6461907495164127e+286,
      6.337147738353336e+283,
      2.6252004193166864e+286,
      -1.1375872611260766e+286,
      -1.2521723363048693e+286,
      2.31306663209988e+286,
      2.281116375046384e+286,
      -5.165566981815186e+283
    ],
    "weights_stats": {
      "min": -1.9834170343695112e+287,
      "max": 1.9270683112786432e+287,
      "mean": -7.206145893065438e+285,
      "std": Infinity
    }
  },
  "convergence_analysis": {
    "iterations_to_converge": 500,
    "final_cost_change": NaN,
    "convergence_rate": "linear",
    "loss_reduction_ratio": 0.0
  },
  "algorithm_specific": {
    "gradient_descent_type": "standard",
    "step_size_method": "constant",
    "step_size_constant": true,
    "momentum_used": false,
    "backtracking_parameters": null,
    "adaptive_parameters": null
  }
}