{
  "algorithm": "Stochastic Gradient Descent - OLS",
  "loss_function": "OLS",
  "parameters": {
    "learning_rate": 0.01,
    "epochs": 100,
    "batch_size": 6400,
    "random_state": 42,
    "tolerance": 1e-06
  },
  "training_results": {
    "training_time": 25.152923107147217,
    "converged": false,
    "final_epoch": 100,
    "total_epochs": 100,
    "final_cost": 0.012286872376760564,
    "final_gradient_norm": 0.005955318269214789
  },
  "weights_analysis": {
    "n_features": 62,
    "n_weights_total": 63,
    "bias_value": 10.117487998796648,
    "weights_without_bias": [
      0.0077126209889298095,
      0.00034570653866317964,
      0.006789994138414147,
      -0.0029816420708592035,
      0.001307482025454244,
      0.0069252420794411185,
      0.01936881668483229,
      0.0824559005091479,
      -0.008726453911265563,
      -0.166810791995484,
      -0.010456838709116971,
      -0.014058524125483005,
      0.009993945137417793,
      0.09147201701349321,
      -0.009263647280377105,
      0.002362655752343487,
      -0.00214278015859102,
      0.011579133400244353,
      -0.11968506021528331,
      0.07823990542848608,
      0.023130607993025125,
      0.018288997426568913,
      0.006818790309290242,
      -0.01107060838155937,
      -0.004224179911051319,
      0.0028375754474736898,
      0.009238227432869561,
      0.024921268484602816,
      0.03870540579440207,
      -0.010523009833899389,
      -0.0034710782277183336,
      0.025107451345480862,
      0.020411788184054907,
      0.22174826426671299,
      -0.005114176340564723,
      0.042251878103360306,
      0.056254684195851806,
      -0.00209044002927498,
      -0.012440615808019664,
      -0.0030215174346168165,
      -0.018407938579990298,
      -0.017271167806478502,
      -0.0017628416202641255,
      0.0042384663884317015,
      -0.003978409643146649,
      -0.014595712061470817,
      -0.0005015407118469543,
      0.009584114030028706,
      -0.004169889440282042,
      -0.017107354010011032,
      -0.020671889049202075,
      -0.0013048349095875283,
      -0.0005770728051586099,
      0.0005443815961198245,
      -0.001692672130232954,
      0.0040569595512082906,
      0.0035577902641797158,
      0.004533643320283239,
      -0.013626072856925582,
      -0.0038950181665301183,
      -0.03301662323372632,
      -0.00885114842203172
    ],
    "complete_weight_vector": [
      0.0077126209889298095,
      0.00034570653866317964,
      0.006789994138414147,
      -0.0029816420708592035,
      0.001307482025454244,
      0.0069252420794411185,
      0.01936881668483229,
      0.0824559005091479,
      -0.008726453911265563,
      -0.166810791995484,
      -0.010456838709116971,
      -0.014058524125483005,
      0.009993945137417793,
      0.09147201701349321,
      -0.009263647280377105,
      0.002362655752343487,
      -0.00214278015859102,
      0.011579133400244353,
      -0.11968506021528331,
      0.07823990542848608,
      0.023130607993025125,
      0.018288997426568913,
      0.006818790309290242,
      -0.01107060838155937,
      -0.004224179911051319,
      0.0028375754474736898,
      0.009238227432869561,
      0.024921268484602816,
      0.03870540579440207,
      -0.010523009833899389,
      -0.0034710782277183336,
      0.025107451345480862,
      0.020411788184054907,
      0.22174826426671299,
      -0.005114176340564723,
      0.042251878103360306,
      0.056254684195851806,
      -0.00209044002927498,
      -0.012440615808019664,
      -0.0030215174346168165,
      -0.018407938579990298,
      -0.017271167806478502,
      -0.0017628416202641255,
      0.0042384663884317015,
      -0.003978409643146649,
      -0.014595712061470817,
      -0.0005015407118469543,
      0.009584114030028706,
      -0.004169889440282042,
      -0.017107354010011032,
      -0.020671889049202075,
      -0.0013048349095875283,
      -0.0005770728051586099,
      0.0005443815961198245,
      -0.001692672130232954,
      0.0040569595512082906,
      0.0035577902641797158,
      0.004533643320283239,
      -0.013626072856925582,
      -0.0038950181665301183,
      -0.03301662323372632,
      -0.00885114842203172,
      10.117487998796648
    ],
    "weights_stats": {
      "min": -0.166810791995484,
      "max": 0.22174826426671299,
      "mean": 0.004633421999205844,
      "std": 0.04494717709681395
    }
  },
  "convergence_analysis": {
    "epochs_to_converge": 100,
    "final_cost_change": -6.165860894230546e-05,
    "convergence_rate": "sublinear",
    "cost_reduction_ratio": 168.85491088409668
  },
  "algorithm_specific": {
    "method_type": "stochastic_gradient_descent",
    "batch_processing": true,
    "batch_size": 6400,
    "epoch_based_training": true,
    "data_shuffling": true,
    "noisy_gradients": "inherent_in_SGD",
    "convergence_type": "probabilistic"
  }
}