{
  "algorithm": "Stochastic Gradient Descent - OLS",
  "loss_function": "OLS",
  "parameters": {
    "learning_rate": 0.01,
    "max_epochs": 100,
    "batch_size": 64,
    "tolerance": 1e-05,
    "learning_rate_schedule": "constant",
    "momentum": 0.9,
    "random_state": 42,
    "shuffle_each_epoch": false,
    "randomize_each_epoch": false
  },
  "training_results": {
    "training_time": 52.43563628196716,
    "converged": false,
    "final_epoch": 100,
    "total_epochs": 100,
    "final_loss": 0.014123409737216087,
    "final_gradient_norm": 0.2022715340754946,
    "best_epoch": 80,
    "best_loss": 0.016630159587395804,
    "best_gradient_norm": 0.11934000926189628,
    "improvement_from_final": {
      "loss_improvement": -0.0025067498501797174,
      "gradient_improvement": 0.08293152481359833,
      "epochs_earlier": 20
    }
  },
  "weights_analysis": {
    "n_features": 62,
    "n_weights_total": 63,
    "bias_value": 10.115027857769519,
    "weights_without_bias": [
      0.006748283192679465,
      0.0035922281248919074,
      0.011477863199233846,
      -0.007244634283269201,
      -0.00033370756402284924,
      0.004917533502264765,
      0.018110381706363435,
      0.08322306808910516,
      0.00416393845000142,
      -0.28479200541240374,
      -0.011808966789877973,
      -0.0018506874318312686,
      0.00968758754307504,
      0.08105709296274408,
      -0.006073042070164752,
      0.005553260962555993,
      0.0010478250516213657,
      0.013178600156336989,
      -0.10927013616453377,
      0.09948685872610326,
      0.008007544366030517,
      0.06928418681629032,
      0.0035824490444379274,
      -0.012187409359425184,
      -0.004657923417498693,
      0.0060840970337022685,
      0.008751167424936352,
      0.02345846365787011,
      0.030105564947177553,
      -0.007449332465009991,
      -0.004170057364388625,
      0.029582538198731464,
      0.07140697757377605,
      0.2167000948655868,
      -0.005292149711866064,
      0.01724337964096132,
      0.0826023631538159,
      -0.012703023854574991,
      -0.02794745510255184,
      -0.016063053723846733,
      -0.054388765969715244,
      -0.055527602243760875,
      -0.05086652758928341,
      -0.007263940188381622,
      -0.01691967858552705,
      -0.015033651900180548,
      0.002126174180988812,
      0.009275320079271787,
      -0.0010962120713925328,
      -0.01302744227601009,
      -0.01640527122265262,
      -0.0020038140462579645,
      0.040035313534035756,
      0.0017851319904251593,
      0.002067884235179062,
      0.008550014059979388,
      0.004742803630854762,
      -0.001399332693254799,
      -0.013037176699559826,
      -0.004424073519791564,
      -0.03788480366296564,
      -0.009592505321302945
    ],
    "complete_weight_vector": [
      0.006748283192679465,
      0.0035922281248919074,
      0.011477863199233846,
      -0.007244634283269201,
      -0.00033370756402284924,
      0.004917533502264765,
      0.018110381706363435,
      0.08322306808910516,
      0.00416393845000142,
      -0.28479200541240374,
      -0.011808966789877973,
      -0.0018506874318312686,
      0.00968758754307504,
      0.08105709296274408,
      -0.006073042070164752,
      0.005553260962555993,
      0.0010478250516213657,
      0.013178600156336989,
      -0.10927013616453377,
      0.09948685872610326,
      0.008007544366030517,
      0.06928418681629032,
      0.0035824490444379274,
      -0.012187409359425184,
      -0.004657923417498693,
      0.0060840970337022685,
      0.008751167424936352,
      0.02345846365787011,
      0.030105564947177553,
      -0.007449332465009991,
      -0.004170057364388625,
      0.029582538198731464,
      0.07140697757377605,
      0.2167000948655868,
      -0.005292149711866064,
      0.01724337964096132,
      0.0826023631538159,
      -0.012703023854574991,
      -0.02794745510255184,
      -0.016063053723846733,
      -0.054388765969715244,
      -0.055527602243760875,
      -0.05086652758928341,
      -0.007263940188381622,
      -0.01691967858552705,
      -0.015033651900180548,
      0.002126174180988812,
      0.009275320079271787,
      -0.0010962120713925328,
      -0.01302744227601009,
      -0.01640527122265262,
      -0.0020038140462579645,
      0.040035313534035756,
      0.0017851319904251593,
      0.002067884235179062,
      0.008550014059979388,
      0.004742803630854762,
      -0.001399332693254799,
      -0.013037176699559826,
      -0.004424073519791564,
      -0.03788480366296564,
      -0.009592505321302945,
      10.115027857769519
    ],
    "weights_stats": {
      "min": -0.28479200541240374,
      "max": 0.2167000948655868,
      "mean": 0.00269228399025364,
      "std": 0.056541202137445776
    }
  },
  "convergence_analysis": {
    "epochs_to_converge": 100,
    "best_epoch_found": 80,
    "final_cost_change": -0.0025067498501797174,
    "convergence_rate": "sublinear",
    "loss_reduction_ratio": 0.9967253124742247
  },
  "algorithm_specific": {
    "sgd_type": "mini_batch",
    "batch_size": 64,
    "learning_rate_schedule": "constant",
    "momentum_used": true,
    "momentum_value": 0.9,
    "shuffling_strategy": {
      "shuffle_each_epoch": false,
      "randomize_each_epoch": false
    },
    "returns_best_result": true,
    "stochastic_variance": true
  },
  "computational_complexity": {
    "basic_metrics": {
      "function_evaluations": 10,
      "gradient_evaluations": 10000000,
      "matrix_vector_multiplications": 0,
      "vector_operations": 10625210,
      "memory_allocations": 156302,
      "peak_memory_size": 63,
      "total_operations": 2003235760
    },
    "iterations": {
      "total_iterations": 100,
      "final_iteration": 100,
      "converged": false,
      "convergence_iteration": null
    },
    "per_iteration_averages": {
      "function_evaluations_per_iter": 0.1,
      "gradient_evaluations_per_iter": 100000.0,
      "operations_per_iter": 20032357.6,
      "matrix_operations_per_iter": 0.0
    },
    "scalability_metrics": {
      "problem_size": {
        "n_samples": 100000,
        "n_features": 62
      },
      "problem_complexity_factor": 6200000,
      "operations_per_problem_unit": 323.1025419354839,
      "memory_efficiency": 0.0006296096420219464,
      "theoretical_complexity": "O(100000*62*100)"
    },
    "operation_distribution": {
      "function_eval_percentage": 4.99192366653838e-07,
      "gradient_eval_percentage": 0.4991923666538381,
      "matrix_ops_percentage": 0.0,
      "vector_ops_percentage": 0.5304023726094027
    }
  }
}