{
  "algorithm": "Gradient Descent - RIDGE",
  "loss_function": "RIDGE",
  "parameters": {
    "learning_rate": 0.1,
    "max_iterations": 100000,
    "tolerance": 1e-05,
    "step_size_method": "constant",
    "regularization": 0.01
  },
  "training_results": {
    "training_time": 19.488985061645508,
    "converged": true,
    "final_iteration": 3500,
    "total_iterations": 100000,
    "final_loss": 0.012756609885267662,
    "final_gradient_norm": 9.35379808327998e-06
  },
  "weights_analysis": {
    "n_features": 62,
    "n_weights_total": 63,
    "bias_value": 10.11757037374358,
    "weights_without_bias": [
      0.004016567550832461,
      0.0018937369763029719,
      0.01047821109812497,
      -0.015295532447949524,
      -0.0011683636419248305,
      -0.0016641477633879223,
      0.0027687610428575346,
      0.08032773933064803,
      -0.0038234880466510744,
      -0.23393017500048927,
      -0.010407195929964102,
      -0.009553629775732285,
      0.010064733283655864,
      0.09536871893444147,
      -4.152455455043211e-05,
      0.00043929580968253437,
      0.00039446932738871476,
      0.013331924627702444,
      -0.09543311727047576,
      0.07898934061226429,
      0.017468603328171368,
      0.04821655280057199,
      0.00613091609973571,
      0.003356652502755082,
      -0.004790610010081645,
      0.0012360288486648369,
      0.009131248842406896,
      0.025375482561042075,
      0.03259891617372164,
      -0.0052218547084397415,
      -0.0013099177218558991,
      0.011058859052682946,
      0.047916255425212634,
      0.21553902768875915,
      -0.003982910549504956,
      0.04720876822138192,
      0.05247449014978822,
      -0.006951414484020243,
      -0.01859248087758692,
      -0.009581569530157668,
      -0.0321496575688217,
      -0.032520925947729845,
      -0.022130723845944843,
      -0.0012293330318507737,
      -0.00855671755632191,
      -0.0121071635389008,
      -0.000497048024944635,
      0.011494502583571754,
      -0.005424653746603958,
      -0.015323408579070691,
      -0.01662212313905942,
      -0.0014392159563631883,
      -0.0005128036708279233,
      0.000586147690316333,
      -0.0001034849158065862,
      0.003685647875508768,
      0.003317956347850869,
      0.0039011726826747037,
      -0.013880681479124914,
      -0.003930353244366872,
      -0.03387678195852121,
      -0.009235838413539777
    ],
    "complete_weight_vector": [
      0.004016567550832461,
      0.0018937369763029719,
      0.01047821109812497,
      -0.015295532447949524,
      -0.0011683636419248305,
      -0.0016641477633879223,
      0.0027687610428575346,
      0.08032773933064803,
      -0.0038234880466510744,
      -0.23393017500048927,
      -0.010407195929964102,
      -0.009553629775732285,
      0.010064733283655864,
      0.09536871893444147,
      -4.152455455043211e-05,
      0.00043929580968253437,
      0.00039446932738871476,
      0.013331924627702444,
      -0.09543311727047576,
      0.07898934061226429,
      0.017468603328171368,
      0.04821655280057199,
      0.00613091609973571,
      0.003356652502755082,
      -0.004790610010081645,
      0.0012360288486648369,
      0.009131248842406896,
      0.025375482561042075,
      0.03259891617372164,
      -0.0052218547084397415,
      -0.0013099177218558991,
      0.011058859052682946,
      0.047916255425212634,
      0.21553902768875915,
      -0.003982910549504956,
      0.04720876822138192,
      0.05247449014978822,
      -0.006951414484020243,
      -0.01859248087758692,
      -0.009581569530157668,
      -0.0321496575688217,
      -0.032520925947729845,
      -0.022130723845944843,
      -0.0012293330318507737,
      -0.00855671755632191,
      -0.0121071635389008,
      -0.000497048024944635,
      0.011494502583571754,
      -0.005424653746603958,
      -0.015323408579070691,
      -0.01662212313905942,
      -0.0014392159563631883,
      -0.0005128036708279233,
      0.000586147690316333,
      -0.0001034849158065862,
      0.003685647875508768,
      0.003317956347850869,
      0.0039011726826747037,
      -0.013880681479124914,
      -0.003930353244366872,
      -0.03387678195852121,
      -0.009235838413539777,
      10.11757037374358
    ],
    "weights_stats": {
      "min": -0.23393017500048927,
      "max": 0.21553902768875915,
      "mean": 0.0033464819441636584,
      "std": 0.04912667497257784
    }
  },
  "convergence_analysis": {
    "iterations_to_converge": 3500,
    "final_cost_change": -9.674217798377738e-10,
    "convergence_rate": "linear",
    "loss_reduction_ratio": 1.036129597825896
  },
  "algorithm_specific": {
    "gradient_descent_type": "standard",
    "step_size_method": "constant",
    "step_size_constant": true,
    "momentum_used": false,
    "backtracking_parameters": null,
    "adaptive_parameters": null
  }
}