{
  "algorithm": "Gradient Descent - RIDGE",
  "loss_function": "RIDGE",
  "parameters": {
    "learning_rate": 0.1,
    "max_iterations": 10000,
    "tolerance": 1e-05,
    "step_size_method": "constant",
    "regularization": 0.01
  },
  "training_results": {
    "training_time": 30.752948999404907,
    "converged": true,
    "final_iteration": 3800,
    "total_iterations": 10000,
    "final_loss": 0.012756610485387232,
    "final_gradient_norm": 9.980247781693593e-06
  },
  "weights_analysis": {
    "n_features": 62,
    "n_weights_total": 63,
    "bias_value": 10.117570347344667,
    "weights_without_bias": [
      0.004279246399238598,
      0.0020754290722745424,
      0.010478231328809961,
      -0.014860376022192992,
      -0.001070555685678339,
      -0.0012874901674682887,
      0.0023716241056927307,
      0.08032793234601888,
      -0.0038230751684379745,
      -0.23393062173880527,
      -0.010407234484559295,
      -0.009553582356177133,
      0.010064735460568035,
      0.09528019948858223,
      0.0001793283666671123,
      0.00019142895037062443,
      0.00042131946421634014,
      0.013331839127181241,
      -0.09552178058664472,
      0.07898934438017971,
      0.01746862921174979,
      0.04817608595241592,
      0.006130819398910482,
      0.003531741653583065,
      -0.004673130157825236,
      0.0010543285327544965,
      0.009131258182802766,
      0.025375536913944376,
      0.03259886979050754,
      -0.0051774993478775405,
      -0.0012666139922524668,
      0.011678285639132594,
      0.04795732955918252,
      0.2155390589389002,
      -0.003983028355523875,
      0.04740466992347657,
      0.05227855541742189,
      -0.0069518864875624895,
      -0.01859312144773028,
      -0.009582201510280634,
      -0.03215116840656674,
      -0.03252259842695412,
      -0.022132666054659474,
      -0.0012297741652746105,
      -0.008557155141867433,
      -0.012107280585027488,
      -0.0004970399314928888,
      0.011494553692377044,
      -0.005469000744785395,
      -0.015323308410300704,
      -0.01662205332220706,
      -0.001482455567352838,
      -0.0005127987241733963,
      0.0005861419185326445,
      -0.00010349689736787083,
      0.0036856256347515826,
      0.003317950356085051,
      0.003901160973321581,
      -0.013880633185661195,
      -0.003930445433702932,
      -0.0338768973570988,
      -0.009236188816585476
    ],
    "complete_weight_vector": [
      0.004279246399238598,
      0.0020754290722745424,
      0.010478231328809961,
      -0.014860376022192992,
      -0.001070555685678339,
      -0.0012874901674682887,
      0.0023716241056927307,
      0.08032793234601888,
      -0.0038230751684379745,
      -0.23393062173880527,
      -0.010407234484559295,
      -0.009553582356177133,
      0.010064735460568035,
      0.09528019948858223,
      0.0001793283666671123,
      0.00019142895037062443,
      0.00042131946421634014,
      0.013331839127181241,
      -0.09552178058664472,
      0.07898934438017971,
      0.01746862921174979,
      0.04817608595241592,
      0.006130819398910482,
      0.003531741653583065,
      -0.004673130157825236,
      0.0010543285327544965,
      0.009131258182802766,
      0.025375536913944376,
      0.03259886979050754,
      -0.0051774993478775405,
      -0.0012666139922524668,
      0.011678285639132594,
      0.04795732955918252,
      0.2155390589389002,
      -0.003983028355523875,
      0.04740466992347657,
      0.05227855541742189,
      -0.0069518864875624895,
      -0.01859312144773028,
      -0.009582201510280634,
      -0.03215116840656674,
      -0.03252259842695412,
      -0.022132666054659474,
      -0.0012297741652746105,
      -0.008557155141867433,
      -0.012107280585027488,
      -0.0004970399314928888,
      0.011494553692377044,
      -0.005469000744785395,
      -0.015323308410300704,
      -0.01662205332220706,
      -0.001482455567352838,
      -0.0005127987241733963,
      0.0005861419185326445,
      -0.00010349689736787083,
      0.0036856256347515826,
      0.003317950356085051,
      0.003901160973321581,
      -0.013880633185661195,
      -0.003930445433702932,
      -0.0338768973570988,
      -0.009236188816585476,
      10.117570347344667
    ],
    "weights_stats": {
      "min": -0.23393062173880527,
      "max": 0.2155390589389002,
      "mean": 0.0033707113145089555,
      "std": 0.04912482259413607
    }
  },
  "convergence_analysis": {
    "iterations_to_converge": 3800,
    "final_cost_change": -1.1013798414949427e-09,
    "convergence_rate": "linear",
    "loss_reduction_ratio": 1.0352550251051051
  },
  "algorithm_specific": {
    "gradient_descent_type": "standard",
    "step_size_method": "constant",
    "step_size_constant": true,
    "momentum_used": false,
    "backtracking_parameters": null,
    "adaptive_parameters": null
  }
}