{
  "algorithm": "Gradient Descent - RIDGE",
  "loss_function": "RIDGE",
  "parameters": {
    "learning_rate": 0.1,
    "max_iterations": 100000,
    "tolerance": 1e-05,
    "step_size_method": "constant",
    "regularization": 0.01
  },
  "training_results": {
    "training_time": 212.27035307884216,
    "converged": true,
    "final_iteration": 3500,
    "total_iterations": 100000,
    "final_loss": 0.012756609688823079,
    "final_gradient_norm": 9.1667578091847e-06,
    "best_iteration": 3400,
    "best_loss": 0.012756609688823079,
    "best_gradient_norm": 9.1667578091847e-06,
    "improvement_from_final": {
      "loss_improvement": 0.0,
      "gradient_improvement": 0.0,
      "iterations_earlier": 100
    }
  },
  "weights_analysis": {
    "n_features": 62,
    "n_weights_total": 63,
    "bias_value": 10.117570385523674,
    "weights_without_bias": [
      0.004138625166266247,
      0.0015472765583805126,
      0.010478075210460224,
      -0.015042953848697315,
      -0.0011116104953412648,
      -0.001445677650135933,
      0.0027948391549088895,
      0.08032786586348574,
      -0.003823265744127161,
      -0.23393176134771435,
      -0.010407158575340867,
      -0.009553579272158507,
      0.010064746649790155,
      0.0956288477724551,
      0.00022704565016312732,
      0.00027789760377672327,
      0.0002873662151692842,
      0.013331969711470696,
      -0.09517118330546244,
      0.07898862086771186,
      0.017468631982036114,
      0.04840079630186555,
      0.006130999135750992,
      0.00321613046170676,
      -0.004775273775489888,
      0.001582465278477254,
      0.009131231918131057,
      0.025375455771664956,
      0.032598907818383614,
      -0.005585388420146273,
      -0.0010560853933372103,
      0.01141816954918273,
      0.04773294747166245,
      0.21553921868684497,
      -0.003982900251435128,
      0.04712637132025767,
      0.05255691441527704,
      -0.00694865617653624,
      -0.018588915146002475,
      -0.009577990387249108,
      -0.032141794041149994,
      -0.0325119763600068,
      -0.022120035591947494,
      -0.0012269459915341277,
      -0.00855423648840379,
      -0.012107035272224169,
      -0.0004970519949554749,
      0.011494517558842203,
      -0.0050611410288486786,
      -0.015323364398151488,
      -0.01662196541268353,
      -0.001692938744160074,
      -0.0005128078412868809,
      0.0005861392858535783,
      -0.00010388630598648429,
      0.003685682870088915,
      0.003317952326781393,
      0.003901273128941475,
      -0.013880687540211462,
      -0.003930257636891296,
      -0.03387661580786071,
      -0.009235134388607175
    ],
    "complete_weight_vector": [
      0.004138625166266247,
      0.0015472765583805126,
      0.010478075210460224,
      -0.015042953848697315,
      -0.0011116104953412648,
      -0.001445677650135933,
      0.0027948391549088895,
      0.08032786586348574,
      -0.003823265744127161,
      -0.23393176134771435,
      -0.010407158575340867,
      -0.009553579272158507,
      0.010064746649790155,
      0.0956288477724551,
      0.00022704565016312732,
      0.00027789760377672327,
      0.0002873662151692842,
      0.013331969711470696,
      -0.09517118330546244,
      0.07898862086771186,
      0.017468631982036114,
      0.04840079630186555,
      0.006130999135750992,
      0.00321613046170676,
      -0.004775273775489888,
      0.001582465278477254,
      0.009131231918131057,
      0.025375455771664956,
      0.032598907818383614,
      -0.005585388420146273,
      -0.0010560853933372103,
      0.01141816954918273,
      0.04773294747166245,
      0.21553921868684497,
      -0.003982900251435128,
      0.04712637132025767,
      0.05255691441527704,
      -0.00694865617653624,
      -0.018588915146002475,
      -0.009577990387249108,
      -0.032141794041149994,
      -0.0325119763600068,
      -0.022120035591947494,
      -0.0012269459915341277,
      -0.00855423648840379,
      -0.012107035272224169,
      -0.0004970519949554749,
      0.011494517558842203,
      -0.0050611410288486786,
      -0.015323364398151488,
      -0.01662196541268353,
      -0.001692938744160074,
      -0.0005128078412868809,
      0.0005861392858535783,
      -0.00010388630598648429,
      0.003685682870088915,
      0.003317952326781393,
      0.003901273128941475,
      -0.013880687540211462,
      -0.003930257636891296,
      -0.03387661580786071,
      -0.009235134388607175,
      10.117570385523674
    ],
    "weights_stats": {
      "min": -0.23393176134771435,
      "max": 0.21553921868684497,
      "mean": 0.0033702694688984426,
      "std": 0.04912494802367693
    }
  },
  "convergence_analysis": {
    "iterations_to_converge": 3500,
    "best_iteration_found": 3400,
    "final_cost_change": -9.299051424715987e-10,
    "convergence_rate": "linear",
    "loss_reduction_ratio": 1.0366924859988116
  },
  "algorithm_specific": {
    "gradient_descent_type": "standard",
    "step_size_method": "constant",
    "step_size_constant": true,
    "momentum_used": false,
    "returns_best_result": true,
    "backtracking_parameters": null,
    "adaptive_parameters": null
  },
  "computational_complexity": {
    "basic_metrics": {
      "function_evaluations": 35,
      "gradient_evaluations": 3500,
      "matrix_vector_multiplications": 0,
      "vector_operations": 3535,
      "memory_allocations": 3500,
      "peak_memory_size": 63,
      "total_operations": 44324224910
    },
    "iterations": {
      "total_iterations": 3499,
      "final_iteration": 3500,
      "converged": true,
      "convergence_iteration": 3500
    },
    "per_iteration_averages": {
      "function_evaluations_per_iter": 0.010002857959416977,
      "gradient_evaluations_per_iter": 1.0002857959416975,
      "operations_per_iter": 12667683.598170906,
      "matrix_operations_per_iter": 0.0
    },
    "efficiency_metrics": {
      "operations_to_convergence": 44305224721,
      "convergence_efficiency": 1.0,
      "operations_per_convergence_iter": 12664064.26
    },
    "scalability_metrics": {
      "problem_size": {
        "n_samples": 100000,
        "n_features": 62
      },
      "problem_complexity_factor": 6200000,
      "operations_per_problem_unit": 7149.068533870968,
      "memory_efficiency": 0.0006296096420219464,
      "theoretical_complexity": "O(100000*62*3499)"
    },
    "operation_distribution": {
      "function_eval_percentage": 7.89635917403344e-08,
      "gradient_eval_percentage": 7.89635917403344e-06,
      "matrix_ops_percentage": 0.0,
      "vector_ops_percentage": 7.975322765773773e-06
    }
  }
}