{
  "algorithm": "Newton Method - RIDGE",
  "loss_function": "RIDGE",
  "parameters": {
    "regularization": 0.01,
    "numerical_regularization": 1e-08,
    "max_iterations": 10000,
    "tolerance": 1e-10
  },
  "training_results": {
    "training_time": 0.8238518238067627,
    "converged": true,
    "final_iteration": 7,
    "total_iterations": 10000,
    "final_loss": 0.012756605526931463,
    "final_gradient_norm": 9.559860946383302e-12,
    "best_iteration": 6,
    "best_loss": 0.012756605526931463,
    "best_gradient_norm": 9.559860946383302e-12,
    "improvement_from_final": {
      "loss_improvement": 0.0,
      "gradient_improvement": 0.0,
      "iterations_earlier": 1
    }
  },
  "weights_analysis": {
    "n_features": 62,
    "n_weights_total": 63,
    "bias_value": 10.1175703622159,
    "weights_without_bias": [
      0.003975198223856499,
      0.0015648805479304482,
      0.010478384752497056,
      -0.014966636330261055,
      -0.0010944142808598678,
      -0.0013794266322659278,
      0.002728336886021562,
      0.08032758182058741,
      -0.0038225418720162904,
      -0.2339309019728844,
      -0.010407236436536571,
      -0.00955367267780039,
      0.010064717189954664,
      0.09540089468618083,
      0.00026395673647263936,
      0.00026395673647263936,
      0.000263956736472554,
      0.01333166679017739,
      -0.09540089468618083,
      0.07898929308601894,
      0.017468505017471724,
      0.0480668354194957,
      0.006130851094812514,
      0.003437515998869515,
      -0.004790023611393242,
      0.0015648805479304482,
      0.009131259360523194,
      0.025375512616861717,
      0.03259888633320921,
      -0.005323253278796053,
      -0.001374605423218932,
      0.011527094847525505,
      0.04806683541949568,
      0.21553892864978844,
      -0.003982945079724784,
      0.04728919111024231,
      0.05239405964453636,
      -0.006953926945937061,
      -0.018595725047068377,
      -0.009584811965308056,
      -0.0321567814734685,
      -0.03252905332540843,
      -0.022140420049025833,
      -0.0012315008836111714,
      -0.008558977487764205,
      -0.012107298458343355,
      -0.0004970437391998563,
      0.011494520815445967,
      -0.005323253278796053,
      -0.015323387910226666,
      -0.016622167831085815,
      -0.001374605423218932,
      -0.0005127980749165081,
      0.0005861545168490125,
      -0.00010310101198986098,
      0.0036856114979171286,
      0.003317954635528272,
      0.003901067613418471,
      -0.013880678759145068,
      -0.003930443646328944,
      -0.0338769356628984,
      -0.009236477837491508
    ],
    "complete_weight_vector": [
      0.003975198223856499,
      0.0015648805479304482,
      0.010478384752497056,
      -0.014966636330261055,
      -0.0010944142808598678,
      -0.0013794266322659278,
      0.002728336886021562,
      0.08032758182058741,
      -0.0038225418720162904,
      -0.2339309019728844,
      -0.010407236436536571,
      -0.00955367267780039,
      0.010064717189954664,
      0.09540089468618083,
      0.00026395673647263936,
      0.00026395673647263936,
      0.000263956736472554,
      0.01333166679017739,
      -0.09540089468618083,
      0.07898929308601894,
      0.017468505017471724,
      0.0480668354194957,
      0.006130851094812514,
      0.003437515998869515,
      -0.004790023611393242,
      0.0015648805479304482,
      0.009131259360523194,
      0.025375512616861717,
      0.03259888633320921,
      -0.005323253278796053,
      -0.001374605423218932,
      0.011527094847525505,
      0.04806683541949568,
      0.21553892864978844,
      -0.003982945079724784,
      0.04728919111024231,
      0.05239405964453636,
      -0.006953926945937061,
      -0.018595725047068377,
      -0.009584811965308056,
      -0.0321567814734685,
      -0.03252905332540843,
      -0.022140420049025833,
      -0.0012315008836111714,
      -0.008558977487764205,
      -0.012107298458343355,
      -0.0004970437391998563,
      0.011494520815445967,
      -0.005323253278796053,
      -0.015323387910226666,
      -0.016622167831085815,
      -0.001374605423218932,
      -0.0005127980749165081,
      0.0005861545168490125,
      -0.00010310101198986098,
      0.0036856114979171286,
      0.003317954635528272,
      0.003901067613418471,
      -0.013880678759145068,
      -0.003930443646328944,
      -0.0338769356628984,
      -0.009236477837491508,
      10.1175703622159
    ],
    "weights_stats": {
      "min": -0.2339309019728844,
      "max": 0.21553892864978844,
      "mean": 0.003365524971603111,
      "std": 0.04912542995842101
    }
  },
  "convergence_analysis": {
    "iterations_to_converge": 7,
    "best_iteration_found": 6,
    "final_cost_change": 0.0,
    "convergence_rate": "quadratic",
    "loss_reduction_ratio": 4039.444570553751,
    "convergence_quality": "superlinear_to_quadratic"
  },
  "numerical_analysis": {
    "hessian_condition_number": 955.6089242061792,
    "average_step_size": 1.6900215793389248,
    "max_step_size": 10.039733019196404,
    "min_step_size": 9.56404869937493e-10,
    "step_size_stability": "Newton_steps",
    "regularization_effect": "Applied for numerical stability"
  },
  "algorithm_specific": {
    "method_type": "pure_newton",
    "second_order_method": true,
    "hessian_computation": "exact",
    "line_search_used": false,
    "damping_applied": "numerical_regularization_only",
    "fast_convergence": true,
    "returns_best_result": true
  }
}