{
  "algorithm": "Gradient Descent - RIDGE",
  "loss_function": "RIDGE",
  "parameters": {
    "learning_rate": 0.01,
    "max_iterations": 100000,
    "tolerance": 1e-05,
    "step_size_method": "constant",
    "regularization": 0.01
  },
  "training_results": {
    "training_time": 194.02980995178223,
    "converged": true,
    "final_iteration": 35500,
    "total_iterations": 100000,
    "final_loss": 0.01275661048359595,
    "final_gradient_norm": 9.978451242193051e-06
  },
  "weights_analysis": {
    "n_features": 62,
    "n_weights_total": 63,
    "bias_value": 10.11757037951777,
    "weights_without_bias": [
      0.0036537941628086565,
      0.0016729378362749178,
      0.010478092591751835,
      -0.01509573958670332,
      -0.0011234811078823053,
      -0.0014913502778112937,
      0.0029889734032106166,
      0.08032789586540247,
      -0.003822917547416849,
      -0.23393203885013678,
      -0.010407168830690532,
      -0.009553573172504173,
      0.010064746218196988,
      0.09501060787746025,
      7.241279499236919e-05,
      5.5618845552018514e-05,
      0.000664156964659538,
      0.0133318340821183,
      -0.09578933774077882,
      0.07898857968230782,
      0.017468627909959098,
      0.04833194371937702,
      0.006130976657255605,
      0.0034611015960045676,
      -0.004891252942884112,
      0.0014568004319936805,
      0.009131234231534429,
      0.025375469708397713,
      0.03259889404870542,
      -0.005274904642886437,
      -0.001399798345134514,
      0.011343056379865702,
      0.04780208701488252,
      0.21553922521162935,
      -0.003982927747710221,
      0.047170416904561606,
      0.05251286275222033,
      -0.006948864608537356,
      -0.018589189931050396,
      -0.009578262468546562,
      -0.03214241798468824,
      -0.032512678050342185,
      -0.022120861145196728,
      -0.0012271326615093626,
      -0.008554426372015313,
      -0.012107066797640327,
      -0.0004970498044392495,
      0.011494531783938862,
      -0.005371623745971614,
      -0.015323337309823833,
      -0.016621944496716636,
      -0.001349213830935691,
      -0.0005128064616307999,
      0.0005861381447677024,
      -0.0001038709009507921,
      0.003685676730147189,
      0.0033179508203600603,
      0.0039012652758716915,
      -0.013880678305313799,
      -0.003930281222794612,
      -0.03387664738671537,
      -0.009235234731874481
    ],
    "complete_weight_vector": [
      0.0036537941628086565,
      0.0016729378362749178,
      0.010478092591751835,
      -0.01509573958670332,
      -0.0011234811078823053,
      -0.0014913502778112937,
      0.0029889734032106166,
      0.08032789586540247,
      -0.003822917547416849,
      -0.23393203885013678,
      -0.010407168830690532,
      -0.009553573172504173,
      0.010064746218196988,
      0.09501060787746025,
      7.241279499236919e-05,
      5.5618845552018514e-05,
      0.000664156964659538,
      0.0133318340821183,
      -0.09578933774077882,
      0.07898857968230782,
      0.017468627909959098,
      0.04833194371937702,
      0.006130976657255605,
      0.0034611015960045676,
      -0.004891252942884112,
      0.0014568004319936805,
      0.009131234231534429,
      0.025375469708397713,
      0.03259889404870542,
      -0.005274904642886437,
      -0.001399798345134514,
      0.011343056379865702,
      0.04780208701488252,
      0.21553922521162935,
      -0.003982927747710221,
      0.047170416904561606,
      0.05251286275222033,
      -0.006948864608537356,
      -0.018589189931050396,
      -0.009578262468546562,
      -0.03214241798468824,
      -0.032512678050342185,
      -0.022120861145196728,
      -0.0012271326615093626,
      -0.008554426372015313,
      -0.012107066797640327,
      -0.0004970498044392495,
      0.011494531783938862,
      -0.005371623745971614,
      -0.015323337309823833,
      -0.016621944496716636,
      -0.001349213830935691,
      -0.0005128064616307999,
      0.0005861381447677024,
      -0.0001038709009507921,
      0.003685676730147189,
      0.0033179508203600603,
      0.0039012652758716915,
      -0.013880678305313799,
      -0.003930281222794612,
      -0.03387664738671537,
      -0.009235234731874481,
      10.11757037951777
    ],
    "weights_stats": {
      "min": -0.23393203885013678,
      "max": 0.21553922521162935,
      "mean": 0.003344674687693155,
      "std": 0.04912669638170636
    }
  },
  "convergence_analysis": {
    "iterations_to_converge": 35500,
    "final_cost_change": -1.0056323135332335e-10,
    "convergence_rate": "linear",
    "loss_reduction_ratio": 539.5700107692205
  },
  "algorithm_specific": {
    "gradient_descent_type": "standard",
    "step_size_method": "constant",
    "step_size_constant": true,
    "momentum_used": false,
    "backtracking_parameters": null,
    "adaptive_parameters": null
  }
}