{
  "algorithm": "Gradient Descent - RIDGE",
  "loss_function": "RIDGE",
  "parameters": {
    "learning_rate": 0.01,
    "max_iterations": 10000,
    "tolerance": 1e-05,
    "step_size_method": "constant",
    "regularization": 0.01
  },
  "training_results": {
    "training_time": 75.93668794631958,
    "converged": false,
    "final_iteration": 10000,
    "total_iterations": 10000,
    "final_loss": 0.012757913664038235,
    "final_gradient_norm": 0.0002304322021035036
  },
  "weights_analysis": {
    "n_features": 62,
    "n_weights_total": 63,
    "bias_value": 10.117570060619572,
    "weights_without_bias": [
      0.0034393209769917727,
      0.003428362880352452,
      0.010356723087384511,
      -0.014251860889824783,
      -0.0009190044256398062,
      -0.0007288189285198361,
      -0.0008855658069235483,
      0.08044543057534109,
      -0.004342715176438636,
      -0.23032343859310586,
      -0.010389121737387425,
      -0.009549562446657804,
      0.010080160702443738,
      0.09518172756980568,
      -0.0009333551345943499,
      -0.0004507442406196846,
      0.002217718347529989,
      0.012730438506507886,
      -0.09837724179745735,
      0.08021311385199957,
      0.017634042358120557,
      0.04481988508602471,
      0.00611475297069765,
      0.007763747130028717,
      -0.004047859654375291,
      -0.00025517299495953085,
      0.00913898607530332,
      0.02537860290527386,
      0.032710535995327875,
      -0.00907600933024923,
      -0.0019136586676944162,
      0.012588770315439533,
      0.048425998736547855,
      0.21547419739228194,
      -0.0039525589355825395,
      0.0493675868763616,
      0.05028489279783207,
      -0.0058921911974228434,
      -0.01723722960902333,
      -0.008248331635040036,
      -0.029262772985063374,
      -0.029169987397585587,
      -0.018138359064979567,
      -0.0003426018248659249,
      -0.007607565246128393,
      -0.0120425661674071,
      -0.0004954471019234775,
      0.011443966182156677,
      -0.0015426755490684843,
      -0.015409654220129177,
      -0.016747972925179388,
      -0.0008266379030075568,
      -0.0005173068804554484,
      0.0005803149786872674,
      -0.00032012293403302106,
      0.0037065663529372984,
      0.003328492327044741,
      0.003971232591728177,
      -0.013871608798497642,
      -0.0039058060321756492,
      -0.03383445540650662,
      -0.00902495556587053
    ],
    "complete_weight_vector": [
      0.0034393209769917727,
      0.003428362880352452,
      0.010356723087384511,
      -0.014251860889824783,
      -0.0009190044256398062,
      -0.0007288189285198361,
      -0.0008855658069235483,
      0.08044543057534109,
      -0.004342715176438636,
      -0.23032343859310586,
      -0.010389121737387425,
      -0.009549562446657804,
      0.010080160702443738,
      0.09518172756980568,
      -0.0009333551345943499,
      -0.0004507442406196846,
      0.002217718347529989,
      0.012730438506507886,
      -0.09837724179745735,
      0.08021311385199957,
      0.017634042358120557,
      0.04481988508602471,
      0.00611475297069765,
      0.007763747130028717,
      -0.004047859654375291,
      -0.00025517299495953085,
      0.00913898607530332,
      0.02537860290527386,
      0.032710535995327875,
      -0.00907600933024923,
      -0.0019136586676944162,
      0.012588770315439533,
      0.048425998736547855,
      0.21547419739228194,
      -0.0039525589355825395,
      0.0493675868763616,
      0.05028489279783207,
      -0.0058921911974228434,
      -0.01723722960902333,
      -0.008248331635040036,
      -0.029262772985063374,
      -0.029169987397585587,
      -0.018138359064979567,
      -0.0003426018248659249,
      -0.007607565246128393,
      -0.0120425661674071,
      -0.0004954471019234775,
      0.011443966182156677,
      -0.0015426755490684843,
      -0.015409654220129177,
      -0.016747972925179388,
      -0.0008266379030075568,
      -0.0005173068804554484,
      0.0005803149786872674,
      -0.00032012293403302106,
      0.0037065663529372984,
      0.003328492327044741,
      0.003971232591728177,
      -0.013871608798497642,
      -0.0039058060321756492,
      -0.03383445540650662,
      -0.00902495556587053,
      10.117570060619572
    ],
    "weights_stats": {
      "min": -0.23032343859310586,
      "max": 0.21547419739228194,
      "mean": 0.003645010167189633,
      "std": 0.04880676596622084
    }
  },
  "convergence_analysis": {
    "iterations_to_converge": 10000,
    "final_cost_change": -5.439262256400068e-08,
    "convergence_rate": "linear",
    "loss_reduction_ratio": 537.8907815052225
  },
  "algorithm_specific": {
    "gradient_descent_type": "standard",
    "step_size_method": "constant",
    "step_size_constant": true,
    "momentum_used": false,
    "backtracking_parameters": null,
    "adaptive_parameters": null
  }
}