{
  "algorithm": "Nesterov Accelerated Gradient Descent - OLS",
  "loss_function": "OLS",
  "parameters": {
    "learning_rate": 0.1,
    "momentum": 0.9,
    "max_iterations": 10000,
    "tolerance": 1e-05
  },
  "training_results": {
    "training_time": 27.98383665084839,
    "converged": true,
    "final_iteration": 400,
    "total_iterations": 10000,
    "final_loss": 10000000000.0,
    "final_gradient_norm": 0.0,
    "final_velocity_norm": 10000000000.0
  },
  "weights_analysis": {
    "n_features": 62,
    "n_weights_total": 63,
    "bias_value": 1.370430956360779e+304,
    "weights_without_bias": [
      6.09445506637645e+306,
      1.014117080034238e+307,
      -9.07072780066997e+305,
      -2.1299424284910887e+307,
      -6.151467509690439e+306,
      -2.3777527261159925e+307,
      2.4468675427571454e+306,
      7.926095808056893e+306,
      5.255878502594003e+307,
      -4.96781229662057e+307,
      6.099320445948137e+306,
      -3.3360875433825555e+307,
      -8.756667170519994e+305,
      4.563809649547001e+307,
      5.187808582300896e+307,
      5.187808582300896e+307,
      5.187808582300898e+307,
      5.190288313814275e+307,
      -4.563809649547001e+307,
      -2.9630128491214643e+307,
      -9.786477139308852e+306,
      -5.10655940513183e+307,
      -5.805792365033147e+306,
      4.446666152957484e+306,
      -1.1988502498269507e+307,
      1.014117080034238e+307,
      -9.220293400833897e+306,
      1.1318867906529096e+305,
      7.654293730801458e+306,
      3.621523436388385e+306,
      3.6399975640661454e+306,
      3.0394658623094e+307,
      -5.10655940513183e+307,
      4.0349068918313203e+307,
      6.841819006276247e+306,
      1.803659640872942e+307,
      1.8066601389389593e+307,
      -3.921717606289519e+306,
      -2.547595065905806e+306,
      -3.9435547196359936e+306,
      7.856669600803597e+306,
      -1.162376053272965e+307,
      9.295663824338293e+306,
      3.994593894656077e+305,
      -4.245547955917519e+306,
      -2.3201826941378045e+306,
      -1.0178780115685346e+305,
      1.2426098274855315e+306,
      3.621523436388385e+306,
      -5.4281760139513475e+306,
      -5.048192223374831e+304,
      3.6399975640661454e+306,
      -2.181774682823784e+306,
      2.2856357301485254e+306,
      3.371743642206611e+306,
      4.362258883155378e+306,
      -1.679288005093244e+304,
      -6.956547304570664e+306,
      3.014504924149676e+306,
      3.318145172368476e+306,
      -6.12942057087292e+306,
      -6.044755246457631e+306
    ],
    "complete_weight_vector": [
      6.09445506637645e+306,
      1.014117080034238e+307,
      -9.07072780066997e+305,
      -2.1299424284910887e+307,
      -6.151467509690439e+306,
      -2.3777527261159925e+307,
      2.4468675427571454e+306,
      7.926095808056893e+306,
      5.255878502594003e+307,
      -4.96781229662057e+307,
      6.099320445948137e+306,
      -3.3360875433825555e+307,
      -8.756667170519994e+305,
      4.563809649547001e+307,
      5.187808582300896e+307,
      5.187808582300896e+307,
      5.187808582300898e+307,
      5.190288313814275e+307,
      -4.563809649547001e+307,
      -2.9630128491214643e+307,
      -9.786477139308852e+306,
      -5.10655940513183e+307,
      -5.805792365033147e+306,
      4.446666152957484e+306,
      -1.1988502498269507e+307,
      1.014117080034238e+307,
      -9.220293400833897e+306,
      1.1318867906529096e+305,
      7.654293730801458e+306,
      3.621523436388385e+306,
      3.6399975640661454e+306,
      3.0394658623094e+307,
      -5.10655940513183e+307,
      4.0349068918313203e+307,
      6.841819006276247e+306,
      1.803659640872942e+307,
      1.8066601389389593e+307,
      -3.921717606289519e+306,
      -2.547595065905806e+306,
      -3.9435547196359936e+306,
      7.856669600803597e+306,
      -1.162376053272965e+307,
      9.295663824338293e+306,
      3.994593894656077e+305,
      -4.245547955917519e+306,
      -2.3201826941378045e+306,
      -1.0178780115685346e+305,
      1.2426098274855315e+306,
      3.621523436388385e+306,
      -5.4281760139513475e+306,
      -5.048192223374831e+304,
      3.6399975640661454e+306,
      -2.181774682823784e+306,
      2.2856357301485254e+306,
      3.371743642206611e+306,
      4.362258883155378e+306,
      -1.679288005093244e+304,
      -6.956547304570664e+306,
      3.014504924149676e+306,
      3.318145172368476e+306,
      -6.12942057087292e+306,
      -6.044755246457631e+306,
      1.370430956360779e+304
    ],
    "weights_stats": {
      "min": -5.10655940513183e+307,
      "max": 5.255878502594003e+307,
      "mean": 1.9095644847362597e+306,
      "std": Infinity
    },
    "velocity_analysis": {
      "final_velocity": [
        -1.3295695850769973e+304,
        -2.21240325941445e+304,
        1.9788748406432005e+303,
        4.646693822570977e+304,
        1.3420074502799764e+304,
        5.187318096607754e+304,
        -5.33809935118001e+303,
        -1.7291613113925944e+304,
        -1.1466252722844102e+305,
        1.0837805943305338e+305,
        -1.3306310188931336e+304,
        7.278026472468367e+304,
        1.9103592051730158e+303,
        -9.956431602220927e+304,
        -1.1317751019747397e+305,
        -1.1317751019747397e+305,
        -1.1317751019747397e+305,
        -1.1323160815313094e+305,
        9.956431602220927e+304,
        6.464124719072779e+304,
        2.1350231001395765e+304,
        1.1140497379184006e+305,
        1.2665947753733896e+304,
        -9.700870721947528e+303,
        2.6154181331581856e+304,
        -2.21240325941445e+304,
        2.0115041521708473e+304,
        -2.4693302915717833e+302,
        -1.6698648244805273e+304,
        -7.900734947133535e+303,
        -7.941038203132071e+303,
        -6.630915022578299e+304,
        1.1140497379184006e+305,
        -8.802574510055639e+304,
        -1.4926149029358916e+304,
        -3.934873543601963e+304,
        -3.941419446271209e+304,
        8.555640157806087e+303,
        5.557847055773753e+303,
        8.60328012137154e+303,
        -1.7140152527924572e+304,
        2.535845830384389e+304,
        -2.0279470041755617e+304,
        -8.714627459263181e+302,
        9.262110184906006e+303,
        5.0617230061583445e+303,
        2.2206081278154675e+302,
        -2.7108842624133866e+303,
        -7.900734947133535e+303,
        1.1842137897466257e+304,
        1.1013163222508313e+302,
        -7.941038203132071e+303,
        4.759771346543473e+303,
        -4.986355164281428e+303,
        -7.355814008847994e+303,
        -9.516727369562447e+303,
        3.663543716114419e+301,
        1.5176440900081622e+304,
        -6.576460106050584e+303,
        -7.23888329965856e+303,
        1.3371976782861643e+304,
        1.3187270457148746e+304,
        -2.9897395225334176e+301
      ],
      "velocity_stats": {
        "min": -1.1466252722844102e+305,
        "max": 1.1140497379184006e+305,
        "mean": -4.165916118827174e+303,
        "std": Infinity
      }
    }
  },
  "convergence_analysis": {
    "iterations_to_converge": 400,
    "final_cost_change": 0.0,
    "convergence_rate": "superlinear",
    "loss_reduction_ratio": 2.295612671557502e+172,
    "velocity_contribution": "accelerated_convergence_with_lookahead"
  },
  "algorithm_specific": {
    "gradient_descent_type": "nesterov_accelerated",
    "momentum_coefficient": 0.9,
    "step_size_constant": true,
    "acceleration_used": true,
    "nesterov_lookahead": true,
    "momentum_description": "Nesterov acceleration with look-ahead gradient computation"
  }
}