{
  "algorithm": "Stochastic Gradient Descent - OLS",
  "loss_function": "OLS",
  "parameters": {
    "learning_rate": 0.01,
    "max_epochs": 100,
    "batch_size": 64,
    "tolerance": 1e-05,
    "learning_rate_schedule": "exponential_decay",
    "momentum": 0.0,
    "random_state": 42,
    "shuffle_each_epoch": false,
    "randomize_each_epoch": false
  },
  "training_results": {
    "training_time": 52.69441485404968,
    "converged": false,
    "final_epoch": 100,
    "total_epochs": 100,
    "final_loss": 0.012038110652157598,
    "final_gradient_norm": 0.007307427945651858,
    "best_epoch": 80,
    "best_loss": 0.011984587365055583,
    "best_gradient_norm": 0.007193207449629054,
    "improvement_from_final": {
      "loss_improvement": 5.352328710201554e-05,
      "gradient_improvement": 0.00011422049602280437,
      "epochs_earlier": 20
    }
  },
  "weights_analysis": {
    "n_features": 62,
    "n_weights_total": 63,
    "bias_value": 10.115848642194702,
    "weights_without_bias": [
      0.006311095119145897,
      0.0016312480506220513,
      0.008999547840242948,
      -0.0076384231964708275,
      0.0011561665731966196,
      0.008797241637375119,
      0.016434785467356765,
      0.08476208182274013,
      0.007136148060890087,
      -0.2794765673960505,
      -0.010386278036308429,
      -0.0025807764400300097,
      0.008957810780370277,
      0.08378333523632396,
      -0.0056492386959425215,
      0.00597706433677813,
      0.0014716284258436648,
      0.008276212665725577,
      -0.11199637843811365,
      0.09611873384827752,
      0.011869756719366634,
      0.06630916551602796,
      0.0021322959556500233,
      -0.013217980482689577,
      -0.0078116521865919854,
      0.004123116959432542,
      0.00898450204656814,
      0.025013661804568675,
      0.029273726234282763,
      -0.00810172289869886,
      -0.003554455805123687,
      0.02726486260713546,
      0.0684319562735138,
      0.2133851903883304,
      -0.006100238745120909,
      0.03174828953052685,
      0.07086561096762994,
      -0.013777049664915433,
      -0.0271335911390877,
      -0.016962590830867885,
      -0.05428034512942645,
      -0.05344011745885892,
      -0.04943302040857342,
      -0.006664006256784798,
      -0.0155192911742384,
      -0.011813314763482075,
      0.00024337940861801147,
      0.011027407213391816,
      -0.0017486025050818161,
      -0.0159126029107643,
      -0.019686833891512153,
      -0.001388212486992782,
      -0.00016498417560145475,
      0.0009352258071448894,
      0.0019367837035896927,
      0.005106896072689547,
      0.003943687142393018,
      0.0012942713054019661,
      -0.013915087419321017,
      -0.0045383894714180915,
      -0.03606779797202272,
      -0.01003783039044309
    ],
    "complete_weight_vector": [
      0.006311095119145897,
      0.0016312480506220513,
      0.008999547840242948,
      -0.0076384231964708275,
      0.0011561665731966196,
      0.008797241637375119,
      0.016434785467356765,
      0.08476208182274013,
      0.007136148060890087,
      -0.2794765673960505,
      -0.010386278036308429,
      -0.0025807764400300097,
      0.008957810780370277,
      0.08378333523632396,
      -0.0056492386959425215,
      0.00597706433677813,
      0.0014716284258436648,
      0.008276212665725577,
      -0.11199637843811365,
      0.09611873384827752,
      0.011869756719366634,
      0.06630916551602796,
      0.0021322959556500233,
      -0.013217980482689577,
      -0.0078116521865919854,
      0.004123116959432542,
      0.00898450204656814,
      0.025013661804568675,
      0.029273726234282763,
      -0.00810172289869886,
      -0.003554455805123687,
      0.02726486260713546,
      0.0684319562735138,
      0.2133851903883304,
      -0.006100238745120909,
      0.03174828953052685,
      0.07086561096762994,
      -0.013777049664915433,
      -0.0271335911390877,
      -0.016962590830867885,
      -0.05428034512942645,
      -0.05344011745885892,
      -0.04943302040857342,
      -0.006664006256784798,
      -0.0155192911742384,
      -0.011813314763482075,
      0.00024337940861801147,
      0.011027407213391816,
      -0.0017486025050818161,
      -0.0159126029107643,
      -0.019686833891512153,
      -0.001388212486992782,
      -0.00016498417560145475,
      0.0009352258071448894,
      0.0019367837035896927,
      0.005106896072689547,
      0.003943687142393018,
      0.0012942713054019661,
      -0.013915087419321017,
      -0.0045383894714180915,
      -0.03606779797202272,
      -0.01003783039044309,
      10.115848642194702
    ],
    "weights_stats": {
      "min": -0.2794765673960505,
      "max": 0.2133851903883304,
      "mean": 0.0018500887927518934,
      "std": 0.05544175631697222
    }
  },
  "convergence_analysis": {
    "epochs_to_converge": 100,
    "best_epoch_found": 80,
    "final_cost_change": 5.352328710201554e-05,
    "convergence_rate": "sublinear",
    "loss_reduction_ratio": 1.2421259822351778
  },
  "algorithm_specific": {
    "sgd_type": "mini_batch",
    "batch_size": 64,
    "learning_rate_schedule": "exponential_decay",
    "momentum_used": false,
    "momentum_value": null,
    "shuffling_strategy": {
      "shuffle_each_epoch": false,
      "randomize_each_epoch": false
    },
    "returns_best_result": true,
    "stochastic_variance": true
  },
  "computational_complexity": {
    "basic_metrics": {
      "function_evaluations": 10,
      "gradient_evaluations": 10000000,
      "matrix_vector_multiplications": 0,
      "vector_operations": 10468910,
      "memory_allocations": 156301,
      "peak_memory_size": 63,
      "total_operations": 1993388860
    },
    "iterations": {
      "total_iterations": 100,
      "final_iteration": 100,
      "converged": false,
      "convergence_iteration": null
    },
    "per_iteration_averages": {
      "function_evaluations_per_iter": 0.1,
      "gradient_evaluations_per_iter": 100000.0,
      "operations_per_iter": 19933888.6,
      "matrix_operations_per_iter": 0.0
    },
    "scalability_metrics": {
      "problem_size": {
        "n_samples": 100000,
        "n_features": 62
      },
      "problem_complexity_factor": 6200000,
      "operations_per_problem_unit": 321.51433225806454,
      "memory_efficiency": 0.0006296096420219464,
      "theoretical_complexity": "O(100000*62*100)"
    },
    "operation_distribution": {
      "function_eval_percentage": 5.016582665160474e-07,
      "gradient_eval_percentage": 0.5016582665160475,
      "matrix_ops_percentage": 0.0,
      "vector_ops_percentage": 0.5251815242912514
    }
  }
}