{
  "algorithm": "Gradient Descent - OLS",
  "loss_function": "OLS",
  "parameters": {
    "learning_rate": 0.1,
    "max_iterations": 10000,
    "tolerance": 1e-05,
    "step_size_method": "decreasing_sqrt"
  },
  "training_results": {
    "training_time": 90.91427707672119,
    "converged": false,
    "final_iteration": 10000,
    "total_iterations": 10000,
    "final_loss": 0.012210134516920356,
    "final_gradient_norm": 0.0044857393137848495
  },
  "weights_analysis": {
    "n_features": 62,
    "n_weights_total": 63,
    "bias_value": 10.117547896234917,
    "weights_without_bias": [
      -0.0006087912634053766,
      -0.005395199201136226,
      0.006898986088692651,
      -0.011519823545701958,
      -0.0002861381084044213,
      0.0010699039514625106,
      -0.002324774581025913,
      0.07752610299648079,
      -0.007282692669326911,
      -0.17941998262843167,
      -0.010236094488602906,
      -0.01136075195588702,
      0.01003047157082184,
      0.1082028949664844,
      -0.00045019610474688736,
      0.002630376292777339,
      -0.007452381656058811,
      0.007674727432740902,
      -0.10910250556398741,
      0.08647630777653059,
      0.021138509206797093,
      0.016963962913138227,
      0.00633246070002178,
      0.016986480998117216,
      -0.001782431037240811,
      0.008888963596264137,
      0.009212007767533083,
      0.02537111532967816,
      0.04054724992990947,
      -0.01021599851227369,
      -0.00035355086625832354,
      0.015230388509658854,
      0.035302612766969416,
      0.22278047570600368,
      -0.004981059009928656,
      0.05058909843260326,
      0.04715285268498645,
      0.00048543575301139525,
      -0.00919915939879708,
      -5.4990248466043395e-05,
      -0.011969150586454855,
      -0.009329789894035084,
      0.006867271110625223,
      0.005723935882761887,
      -0.0018230163024268871,
      -0.012618342277528581,
      -0.0005069380185766402,
      0.009482174211982506,
      -0.002828128861207845,
      -0.017834289540062134,
      -0.021203223654027485,
      -0.004219351833743918,
      -0.0005710419251735894,
      0.0005505533489952211,
      -0.002325336177695778,
      0.003954018574388525,
      0.003565467053709206,
      0.004604816768065275,
      -0.013711280903039956,
      -0.004268458736902566,
      -0.03351073607286009,
      -0.008110926758494992
    ],
    "complete_weight_vector": [
      -0.0006087912634053766,
      -0.005395199201136226,
      0.006898986088692651,
      -0.011519823545701958,
      -0.0002861381084044213,
      0.0010699039514625106,
      -0.002324774581025913,
      0.07752610299648079,
      -0.007282692669326911,
      -0.17941998262843167,
      -0.010236094488602906,
      -0.01136075195588702,
      0.01003047157082184,
      0.1082028949664844,
      -0.00045019610474688736,
      0.002630376292777339,
      -0.007452381656058811,
      0.007674727432740902,
      -0.10910250556398741,
      0.08647630777653059,
      0.021138509206797093,
      0.016963962913138227,
      0.00633246070002178,
      0.016986480998117216,
      -0.001782431037240811,
      0.008888963596264137,
      0.009212007767533083,
      0.02537111532967816,
      0.04054724992990947,
      -0.01021599851227369,
      -0.00035355086625832354,
      0.015230388509658854,
      0.035302612766969416,
      0.22278047570600368,
      -0.004981059009928656,
      0.05058909843260326,
      0.04715285268498645,
      0.00048543575301139525,
      -0.00919915939879708,
      -5.4990248466043395e-05,
      -0.011969150586454855,
      -0.009329789894035084,
      0.006867271110625223,
      0.005723935882761887,
      -0.0018230163024268871,
      -0.012618342277528581,
      -0.0005069380185766402,
      0.009482174211982506,
      -0.002828128861207845,
      -0.017834289540062134,
      -0.021203223654027485,
      -0.004219351833743918,
      -0.0005710419251735894,
      0.0005505533489952211,
      -0.002325336177695778,
      0.003954018574388525,
      0.003565467053709206,
      0.004604816768065275,
      -0.013711280903039956,
      -0.004268458736902566,
      -0.03351073607286009,
      -0.008110926758494992,
      10.117547896234917
    ],
    "weights_stats": {
      "min": -0.17941998262843167,
      "max": 0.22278047570600368,
      "mean": 0.0054094046764403304,
      "std": 0.04590201030710397
    }
  },
  "convergence_analysis": {
    "iterations_to_converge": 10000,
    "final_cost_change": -2.0293873509349275e-06,
    "convergence_rate": "linear",
    "loss_reduction_ratio": 97.57745123439534
  },
  "algorithm_specific": {
    "gradient_descent_type": "standard",
    "step_size_method": "decreasing_sqrt",
    "step_size_constant": false,
    "momentum_used": false,
    "backtracking_parameters": null,
    "adaptive_parameters": null
  }
}