{
  "algorithm": "Gradient Descent - OLS",
  "loss_function": "OLS",
  "parameters": {
    "learning_rate": 0.1,
    "max_iterations": 1000,
    "tolerance": 1e-05,
    "step_size_method": "decreasing_sqrt"
  },
  "training_results": {
    "training_time": 59.68846106529236,
    "converged": false,
    "final_iteration": 1000,
    "total_iterations": 1000,
    "final_loss": 0.013481393597931402,
    "final_gradient_norm": 0.026173253029039195
  },
  "weights_analysis": {
    "n_features": 62,
    "n_weights_total": 63,
    "bias_value": 10.097229616000774,
    "weights_without_bias": [
      0.01141200342309,
      -0.010591995024667745,
      0.003955269012257915,
      -0.0006469944269422214,
      -0.0007058309257886457,
      -0.0010840469580105144,
      0.001309106414594405,
      0.07036887758405282,
      0.00047607845367344116,
      -0.11522170790462408,
      -0.012113190336529737,
      -0.03041798955350424,
      0.01097532691518099,
      0.08763550007950854,
      -0.006097785809570554,
      -0.013943636734130675,
      -0.00025651249455580996,
      0.007207130455853483,
      -0.09888385098963835,
      0.04367756857322041,
      0.030674462068364373,
      -0.019312544493217364,
      0.010587308936346677,
      0.0102725522520093,
      0.0064812714380897,
      0.012025731138006498,
      0.009646380034804454,
      0.021609065811649394,
      0.052818367682062155,
      -0.010098566202319224,
      0.0059719532724521514,
      0.014846441766068886,
      -0.010053312835331634,
      0.1944623392327029,
      0.0013173377879849295,
      0.06790504558114661,
      0.046560828644624366,
      0.0022190120064107567,
      -0.009024679418288746,
      0.0010327752515632265,
      -0.0022511903778262244,
      -0.008408480047263632,
      0.01271906160809024,
      0.008024303434979268,
      -0.0011057524728112576,
      -0.006504683147893788,
      -0.0005970207931635095,
      0.008841355294439173,
      -0.004121937854157058,
      -0.019909476664834246,
      -0.020965858672109955,
      -0.009981814609995258,
      -0.0007296638243498302,
      0.001040896490457983,
      -0.000793473966493747,
      0.006450736528205315,
      0.0040007134226727435,
      0.007106270557178382,
      -0.01607922959822742,
      0.003637492102450173,
      -0.026090802336791934,
      -0.0070725824750775
    ],
    "complete_weight_vector": [
      0.01141200342309,
      -0.010591995024667745,
      0.003955269012257915,
      -0.0006469944269422214,
      -0.0007058309257886457,
      -0.0010840469580105144,
      0.001309106414594405,
      0.07036887758405282,
      0.00047607845367344116,
      -0.11522170790462408,
      -0.012113190336529737,
      -0.03041798955350424,
      0.01097532691518099,
      0.08763550007950854,
      -0.006097785809570554,
      -0.013943636734130675,
      -0.00025651249455580996,
      0.007207130455853483,
      -0.09888385098963835,
      0.04367756857322041,
      0.030674462068364373,
      -0.019312544493217364,
      0.010587308936346677,
      0.0102725522520093,
      0.0064812714380897,
      0.012025731138006498,
      0.009646380034804454,
      0.021609065811649394,
      0.052818367682062155,
      -0.010098566202319224,
      0.0059719532724521514,
      0.014846441766068886,
      -0.010053312835331634,
      0.1944623392327029,
      0.0013173377879849295,
      0.06790504558114661,
      0.046560828644624366,
      0.0022190120064107567,
      -0.009024679418288746,
      0.0010327752515632265,
      -0.0022511903778262244,
      -0.008408480047263632,
      0.01271906160809024,
      0.008024303434979268,
      -0.0011057524728112576,
      -0.006504683147893788,
      -0.0005970207931635095,
      0.008841355294439173,
      -0.004121937854157058,
      -0.019909476664834246,
      -0.020965858672109955,
      -0.009981814609995258,
      -0.0007296638243498302,
      0.001040896490457983,
      -0.000793473966493747,
      0.006450736528205315,
      0.0040007134226727435,
      0.007106270557178382,
      -0.01607922959822742,
      0.003637492102450173,
      -0.026090802336791934,
      -0.0070725824750775,
      10.097229616000774
    ],
    "weights_stats": {
      "min": -0.11522170790462408,
      "max": 0.1944623392327029,
      "mean": 0.005067805682356076,
      "std": 0.03819298956799157
    }
  },
  "convergence_analysis": {
    "iterations_to_converge": 1000,
    "final_cost_change": -2.2109860187078875e-05,
    "convergence_rate": "linear",
    "loss_reduction_ratio": 1352.1535797228917
  },
  "algorithm_specific": {
    "gradient_descent_type": "standard",
    "step_size_method": "decreasing_sqrt",
    "step_size_constant": false,
    "momentum_used": false,
    "backtracking_parameters": null,
    "adaptive_parameters": null
  }
}