{
  "algorithm": "Damped Newton Method - OLS",
  "loss_function": "OLS",
  "parameters": {
    "regularization": 0.01,
    "numerical_regularization": 1e-08,
    "max_iterations": 10000,
    "tolerance": 1e-08,
    "armijo_c1": 0.0001,
    "backtrack_rho": 0.8,
    "max_line_search_iter": 50
  },
  "training_results": {
    "training_time": 16.195432662963867,
    "converged": true,
    "final_iteration": 200,
    "total_iterations": 10000,
    "final_loss": 0.011924579971040126,
    "final_gradient_norm": 8.039018120684623e-09
  },
  "weights_analysis": {
    "n_features": 62,
    "n_weights_total": 63,
    "bias_value": 10.117576823815584,
    "weights_without_bias": [
      2.5036576633050257e-05,
      0.0011729749963208965,
      0.011518869168707584,
      -0.052691929393475716,
      -0.009255740889719775,
      -0.031980330155422974,
      -0.038519298073993694,
      0.08363572091933137,
      0.0038971933062323365,
      -0.2861126064444067,
      -0.010691466948157065,
      -0.005723591497953017,
      0.01000140618957855,
      0.08678884073067177,
      0.011727561419029397,
      -0.0012005203815357581,
      -0.008868335446355064,
      0.016223023495813137,
      -0.08438613011202023,
      0.07748822909485331,
      0.014095860174112011,
      0.07070756154957208,
      0.005724328349767523,
      0.04966022806182069,
      0.0002657359758694601,
      0.0020982774646380884,
      0.00910917799451437,
      0.025870623162156978,
      0.027790538680122698,
      -0.0074107326039010765,
      -0.007066510548021157,
      -0.03959022848802783,
      0.07190117016213246,
      0.21975651969339888,
      -0.005504525885740745,
      0.01158011108256299,
      0.0866300368348911,
      -0.014696547064827932,
      -0.02796023395641274,
      -0.018676424297202343,
      -0.05315015066745737,
      -0.05570464502573914,
      -0.0501066181577477,
      -0.007504543347743868,
      -0.015117194711992002,
      -0.013437150777745724,
      -0.0005254693495237138,
      0.011860057236500098,
      -0.0038836622800023286,
      -0.01554264983711648,
      -0.01703961808644158,
      0.003441037823524864,
      -0.00043589774769371524,
      0.0006238836006745922,
      0.0010815785611754242,
      0.003448242478885761,
      0.0031457424025049716,
      0.0032328125994708218,
      -0.014044449415536266,
      -0.0052065698724925984,
      -0.03526956747351106,
      -0.010969755814096318
    ],
    "complete_weight_vector": [
      2.5036576633050257e-05,
      0.0011729749963208965,
      0.011518869168707584,
      -0.052691929393475716,
      -0.009255740889719775,
      -0.031980330155422974,
      -0.038519298073993694,
      0.08363572091933137,
      0.0038971933062323365,
      -0.2861126064444067,
      -0.010691466948157065,
      -0.005723591497953017,
      0.01000140618957855,
      0.08678884073067177,
      0.011727561419029397,
      -0.0012005203815357581,
      -0.008868335446355064,
      0.016223023495813137,
      -0.08438613011202023,
      0.07748822909485331,
      0.014095860174112011,
      0.07070756154957208,
      0.005724328349767523,
      0.04966022806182069,
      0.0002657359758694601,
      0.0020982774646380884,
      0.00910917799451437,
      0.025870623162156978,
      0.027790538680122698,
      -0.0074107326039010765,
      -0.007066510548021157,
      -0.03959022848802783,
      0.07190117016213246,
      0.21975651969339888,
      -0.005504525885740745,
      0.01158011108256299,
      0.0866300368348911,
      -0.014696547064827932,
      -0.02796023395641274,
      -0.018676424297202343,
      -0.05315015066745737,
      -0.05570464502573914,
      -0.0501066181577477,
      -0.007504543347743868,
      -0.015117194711992002,
      -0.013437150777745724,
      -0.0005254693495237138,
      0.011860057236500098,
      -0.0038836622800023286,
      -0.01554264983711648,
      -0.01703961808644158,
      0.003441037823524864,
      -0.00043589774769371524,
      0.0006238836006745922,
      0.0010815785611754242,
      0.003448242478885761,
      0.0031457424025049716,
      0.0032328125994708218,
      -0.014044449415536266,
      -0.0052065698724925984,
      -0.03526956747351106,
      -0.010969755814096318,
      10.117576823815584
    ],
    "weights_stats": {
      "min": -0.2861126064444067,
      "max": 0.21975651969339888,
      "mean": -0.0003833986284926846,
      "std": 0.05684629129118633
    }
  },
  "convergence_analysis": {
    "iterations_to_converge": 200,
    "final_cost_change": -1.9523271888033378e-13,
    "convergence_rate": "superlinear",
    "loss_reduction_ratio": 648.2565634346905,
    "convergence_quality": "damped_superlinear"
  },
  "numerical_analysis": {
    "hessian_condition_number": 954610051.7705601,
    "average_step_size": 0.09999999999999999,
    "max_step_size": 0.1,
    "min_step_size": 0.1,
    "step_size_stability": "line_search_controlled",
    "regularization_effect": "Applied for numerical stability"
  },
  "line_search_analysis": {
    "average_backtracks": 0.0,
    "max_backtracks": 0,
    "min_backtracks": 0,
    "total_line_search_calls": 199,
    "line_search_success_rate": "N/A (fixed step)"
  },
  "algorithm_specific": {
    "method_type": "damped_newton",
    "second_order_method": true,
    "hessian_computation": "exact",
    "line_search_used": false,
    "line_search_type": "fixed_step",
    "damping_applied": "fixed_step_based",
    "fast_convergence": false,
    "globalization_strategy": "fixed_step_size",
    "step_size_strategy": "fixed",
    "fixed_learning_rate": 0.1
  }
}