{
  "algorithm": "Damped Newton Method - RIDGE",
  "loss_function": "RIDGE",
  "parameters": {
    "regularization": 0.01,
    "numerical_regularization": 1e-08,
    "max_iterations": 100,
    "tolerance": 1e-08,
    "armijo_c1": 0.0001,
    "backtrack_rho": 0.8,
    "max_line_search_iter": 50
  },
  "training_results": {
    "training_time": 0.4775707721710205,
    "converged": true,
    "final_iteration": 6,
    "total_iterations": 100,
    "final_loss": 0.012756605526931466,
    "final_gradient_norm": 9.610314767426073e-10
  },
  "weights_analysis": {
    "n_features": 62,
    "n_weights_total": 63,
    "bias_value": 10.117570361264136,
    "weights_without_bias": [
      0.003975198225490425,
      0.0015648805479263014,
      0.01047838474830444,
      -0.01496663632951063,
      -0.0010944142838126964,
      -0.001379426634128459,
      0.0027283368902384438,
      0.08032758183347823,
      -0.003822541866346394,
      -0.23393090197144253,
      -0.010407236439550608,
      -0.009553672680426952,
      0.010064717193162098,
      0.09540089468296187,
      0.00026395673444696655,
      0.00026395673444696655,
      0.00026395673444699024,
      0.013331666787214773,
      -0.09540089468296187,
      0.0789892930864321,
      0.017468505012665787,
      0.048066835416470534,
      0.006130851092044969,
      0.003437516001750546,
      -0.0047900236050796,
      0.0015648805479263014,
      0.00913125935906024,
      0.025375512614031516,
      0.03259888633483124,
      -0.00532325328154355,
      -0.0013746054271568603,
      0.011527094848598145,
      0.048066835416470576,
      0.21553892864828517,
      -0.003982945079469692,
      0.04728919111595311,
      0.052394059638484355,
      -0.006953926946374536,
      -0.01859572504936186,
      -0.00958481196508449,
      -0.03215678147012619,
      -0.03252905332881073,
      -0.02214042005086057,
      -0.0012315008833218124,
      -0.008558977488775136,
      -0.01210729846576949,
      -0.0004970437393041385,
      0.01149452081089506,
      -0.00532325328154355,
      -0.015323387913925264,
      -0.016622167842167,
      -0.0013746054271568603,
      -0.0005127980738820179,
      0.0005861545202166372,
      -0.00010310101228331208,
      0.0036856115000132375,
      0.0033179546341763648,
      0.0039010676192305113,
      -0.013880678762988924,
      -0.003930443645973606,
      -0.033876935661894696,
      -0.009236477840646202
    ],
    "complete_weight_vector": [
      0.003975198225490425,
      0.0015648805479263014,
      0.01047838474830444,
      -0.01496663632951063,
      -0.0010944142838126964,
      -0.001379426634128459,
      0.0027283368902384438,
      0.08032758183347823,
      -0.003822541866346394,
      -0.23393090197144253,
      -0.010407236439550608,
      -0.009553672680426952,
      0.010064717193162098,
      0.09540089468296187,
      0.00026395673444696655,
      0.00026395673444696655,
      0.00026395673444699024,
      0.013331666787214773,
      -0.09540089468296187,
      0.0789892930864321,
      0.017468505012665787,
      0.048066835416470534,
      0.006130851092044969,
      0.003437516001750546,
      -0.0047900236050796,
      0.0015648805479263014,
      0.00913125935906024,
      0.025375512614031516,
      0.03259888633483124,
      -0.00532325328154355,
      -0.0013746054271568603,
      0.011527094848598145,
      0.048066835416470576,
      0.21553892864828517,
      -0.003982945079469692,
      0.04728919111595311,
      0.052394059638484355,
      -0.006953926946374536,
      -0.01859572504936186,
      -0.00958481196508449,
      -0.03215678147012619,
      -0.03252905332881073,
      -0.02214042005086057,
      -0.0012315008833218124,
      -0.008558977488775136,
      -0.01210729846576949,
      -0.0004970437393041385,
      0.01149452081089506,
      -0.00532325328154355,
      -0.015323387913925264,
      -0.016622167842167,
      -0.0013746054271568603,
      -0.0005127980738820179,
      0.0005861545202166372,
      -0.00010310101228331208,
      0.0036856115000132375,
      0.0033179546341763648,
      0.0039010676192305113,
      -0.013880678762988924,
      -0.003930443645973606,
      -0.033876935661894696,
      -0.009236477840646202,
      10.117570361264136
    ],
    "weights_stats": {
      "min": -0.23393090197144253,
      "max": 0.21553892864828517,
      "mean": 0.00336552497093506,
      "std": 0.04912542995839977
    }
  },
  "convergence_analysis": {
    "iterations_to_converge": 6,
    "final_cost_change": -4.709774237277031e-15,
    "convergence_rate": "superlinear",
    "loss_reduction_ratio": 4002.7290759351545,
    "convergence_quality": "damped_superlinear"
  },
  "numerical_analysis": {
    "hessian_condition_number": 955.6089242061792,
    "average_step_size": 1.0,
    "max_step_size": 1.0,
    "min_step_size": 1.0,
    "step_size_stability": "line_search_controlled",
    "regularization_effect": "Applied for numerical stability"
  },
  "line_search_analysis": {
    "average_backtracks": 0.0,
    "max_backtracks": 0,
    "min_backtracks": 0,
    "total_line_search_calls": 5,
    "line_search_success_rate": "100%"
  },
  "algorithm_specific": {
    "method_type": "damped_newton",
    "second_order_method": true,
    "hessian_computation": "exact",
    "line_search_used": true,
    "line_search_type": "backtracking_armijo",
    "damping_applied": "line_search_based",
    "fast_convergence": true,
    "globalization_strategy": "armijo_line_search"
  }
}