{
  "algorithm": "Gradient Descent - OLS",
  "loss_function": "OLS",
  "parameters": {
    "learning_rate": 1.0,
    "max_iterations": 100000,
    "tolerance": 1e-05,
    "step_size_method": "backtracking"
  },
  "training_results": {
    "training_time": 526.6756575107574,
    "converged": true,
    "final_iteration": 6000,
    "total_iterations": 100000,
    "final_loss": 0.011924627913684557,
    "final_gradient_norm": 9.394069232091907e-06,
    "best_iteration": 5900,
    "best_loss": 0.011924627913684557,
    "best_gradient_norm": 9.394069232091907e-06,
    "improvement_from_final": {
      "loss_improvement": 0.0,
      "gradient_improvement": 0.0,
      "iterations_earlier": 100
    }
  },
  "weights_analysis": {
    "n_features": 62,
    "n_weights_total": 63,
    "bias_value": 10.117575739690377,
    "weights_without_bias": [
      -0.008594943779958626,
      -0.005023820391012871,
      0.011517565159343076,
      -0.01463465920592385,
      -0.0007008609271641666,
      0.0009588539952551209,
      0.014169249302515516,
      0.08364642474913561,
      0.003887305802820528,
      -0.2860886144950427,
      -0.010692858713845179,
      -0.005720809855366243,
      0.010001707803441272,
      0.08364859183608665,
      0.007131310101247455,
      -0.012743456274828141,
      0.007270363990816033,
      0.01622484985749113,
      -0.0875621805307192,
      0.07750140318816676,
      0.014099174548920342,
      0.06850286857218808,
      0.005720288033349536,
      0.002117734265329117,
      -0.010991880206250354,
      0.00829500227231137,
      0.009109698502652728,
      0.025872767124927736,
      0.027789239907284595,
      -0.0037658069609758627,
      -0.0030237453921938117,
      0.014579119972849228,
      0.07409768236327718,
      0.2197570047444422,
      -0.005509263308585994,
      0.01981017841328417,
      0.07839786156293725,
      -0.01469854417601429,
      -0.02796432687184758,
      -0.018680369558788105,
      -0.05316456218134446,
      -0.05571820452931124,
      -0.050120774673156614,
      -0.007507963077369256,
      -0.015119580322278227,
      -0.013441106456177496,
      -0.0005251451500560289,
      0.011861672590136756,
      -0.007527990429164727,
      -0.015539262096774774,
      -0.017037834069378578,
      -0.0005986724508545634,
      -0.0004357254747925557,
      0.0006235599113653763,
      0.0010776943288622668,
      0.0034475439210746076,
      0.0031455760196062365,
      0.003233400871142233,
      -0.014042241844520775,
      -0.005210050814097169,
      -0.0352735385688894,
      -0.010980766083673725
    ],
    "complete_weight_vector": [
      -0.008594943779958626,
      -0.005023820391012871,
      0.011517565159343076,
      -0.01463465920592385,
      -0.0007008609271641666,
      0.0009588539952551209,
      0.014169249302515516,
      0.08364642474913561,
      0.003887305802820528,
      -0.2860886144950427,
      -0.010692858713845179,
      -0.005720809855366243,
      0.010001707803441272,
      0.08364859183608665,
      0.007131310101247455,
      -0.012743456274828141,
      0.007270363990816033,
      0.01622484985749113,
      -0.0875621805307192,
      0.07750140318816676,
      0.014099174548920342,
      0.06850286857218808,
      0.005720288033349536,
      0.002117734265329117,
      -0.010991880206250354,
      0.00829500227231137,
      0.009109698502652728,
      0.025872767124927736,
      0.027789239907284595,
      -0.0037658069609758627,
      -0.0030237453921938117,
      0.014579119972849228,
      0.07409768236327718,
      0.2197570047444422,
      -0.005509263308585994,
      0.01981017841328417,
      0.07839786156293725,
      -0.01469854417601429,
      -0.02796432687184758,
      -0.018680369558788105,
      -0.05316456218134446,
      -0.05571820452931124,
      -0.050120774673156614,
      -0.007507963077369256,
      -0.015119580322278227,
      -0.013441106456177496,
      -0.0005251451500560289,
      0.011861672590136756,
      -0.007527990429164727,
      -0.015539262096774774,
      -0.017037834069378578,
      -0.0005986724508545634,
      -0.0004357254747925557,
      0.0006235599113653763,
      0.0010776943288622668,
      0.0034475439210746076,
      0.0031455760196062365,
      0.003233400871142233,
      -0.014042241844520775,
      -0.005210050814097169,
      -0.0352735385688894,
      -0.010980766083673725,
      10.117575739690377
    ],
    "weights_stats": {
      "min": -0.2860886144950427,
      "max": 0.2197570047444422,
      "mean": 0.0014331634651919944,
      "std": 0.05545507195882784
    }
  },
  "convergence_analysis": {
    "iterations_to_converge": 6000,
    "best_iteration_found": 5900,
    "final_cost_change": -2.1524940111566915e-09,
    "convergence_rate": "linear",
    "loss_reduction_ratio": 1.0104953390405575
  },
  "algorithm_specific": {
    "gradient_descent_type": "standard",
    "step_size_method": "backtracking",
    "step_size_constant": false,
    "momentum_used": false,
    "returns_best_result": true,
    "backtracking_parameters": {
      "c1": 0.01,
      "rho": 0.5
    },
    "adaptive_parameters": null
  },
  "computational_complexity": {
    "basic_metrics": {
      "function_evaluations": 60,
      "gradient_evaluations": 6000,
      "matrix_vector_multiplications": 0,
      "vector_operations": 6060,
      "memory_allocations": 6000,
      "peak_memory_size": 63,
      "total_operations": 75984385560
    },
    "iterations": {
      "total_iterations": 5999,
      "final_iteration": 6000,
      "converged": true,
      "convergence_iteration": 6000
    },
    "per_iteration_averages": {
      "function_evaluations_per_iter": 0.010001666944490749,
      "gradient_evaluations_per_iter": 1.0001666944490748,
      "operations_per_iter": 12666175.28921487,
      "matrix_operations_per_iter": 0.0
    },
    "efficiency_metrics": {
      "operations_to_convergence": 75965385371,
      "convergence_efficiency": 1.0,
      "operations_per_convergence_iter": 12664064.26
    },
    "scalability_metrics": {
      "problem_size": {
        "n_samples": 100000,
        "n_features": 62
      },
      "problem_complexity_factor": 6200000,
      "operations_per_problem_unit": 12255.546058064516,
      "memory_efficiency": 0.0006296096420219464,
      "theoretical_complexity": "O(100000*62*5999)"
    },
    "operation_distribution": {
      "function_eval_percentage": 7.89635917403344e-08,
      "gradient_eval_percentage": 7.89635917403344e-06,
      "matrix_ops_percentage": 0.0,
      "vector_ops_percentage": 7.975322765773773e-06
    }
  }
}