{
  "algorithm": "Gradient Descent - OLS",
  "loss_function": "OLS",
  "parameters": {
    "learning_rate": 1.0,
    "max_iterations": 10000,
    "tolerance": 1e-05,
    "step_size_method": "backtracking"
  },
  "training_results": {
    "training_time": 350.3546919822693,
    "converged": true,
    "final_iteration": 7800,
    "total_iterations": 10000,
    "final_loss": 0.011924627904297809,
    "final_gradient_norm": 9.271308794010247e-06,
    "best_iteration": 7700,
    "best_loss": 0.011924627904297809,
    "best_gradient_norm": 9.271308794010247e-06,
    "improvement_from_final": {
      "loss_improvement": 0.0,
      "gradient_improvement": 0.0,
      "iterations_earlier": 100
    }
  },
  "weights_analysis": {
    "n_features": 62,
    "n_weights_total": 63,
    "bias_value": 10.1175757398359,
    "weights_without_bias": [
      0.007564822730394772,
      0.00956813329992473,
      0.011517564751953703,
      -0.018703283532896405,
      -0.0016155157271071628,
      -0.0025623541221511986,
      0.00549388999615456,
      0.08364642831380677,
      0.0038873361339580156,
      -0.286088644264482,
      -0.01069285515701068,
      -0.005720828899253754,
      0.010001707284487302,
      0.0864552249583511,
      0.007049615129768577,
      -0.00561907900364654,
      0.00022776954681110807,
      0.016224878995403327,
      -0.08475559633029987,
      0.07750138552702278,
      0.014099168779326996,
      0.06572340709686209,
      0.0057202850597996985,
      -0.00372302054710369,
      -0.006713989134579215,
      -0.006296939967190112,
      0.009109693258159395,
      0.02587276703187381,
      0.02778924431455564,
      0.0023117043737397504,
      -0.008014861447558773,
      0.008788289015376538,
      0.07687708677707045,
      0.21975702746226158,
      -0.005509259047324676,
      0.019809565709535085,
      0.07839849477369434,
      -0.014698546322674588,
      -0.027964328079582403,
      -0.018680371589389594,
      -0.053164556905661284,
      -0.055718210338609825,
      -0.05012076870826417,
      -0.0075079626922639475,
      -0.015119582648249745,
      -0.013441107486112254,
      -0.000525145234233166,
      0.011861673159493316,
      -0.01360549775049108,
      -0.015539265418493474,
      -0.01703783426540003,
      0.004392447513812145,
      -0.0004357267182398598,
      0.0006235612257509235,
      0.0010776965247208633,
      0.0034475464409375683,
      0.0031455760378882812,
      0.0032333969043102963,
      -0.014042240291706547,
      -0.005210048678022526,
      -0.035273541724751285,
      -0.010980768678965662
    ],
    "complete_weight_vector": [
      0.007564822730394772,
      0.00956813329992473,
      0.011517564751953703,
      -0.018703283532896405,
      -0.0016155157271071628,
      -0.0025623541221511986,
      0.00549388999615456,
      0.08364642831380677,
      0.0038873361339580156,
      -0.286088644264482,
      -0.01069285515701068,
      -0.005720828899253754,
      0.010001707284487302,
      0.0864552249583511,
      0.007049615129768577,
      -0.00561907900364654,
      0.00022776954681110807,
      0.016224878995403327,
      -0.08475559633029987,
      0.07750138552702278,
      0.014099168779326996,
      0.06572340709686209,
      0.0057202850597996985,
      -0.00372302054710369,
      -0.006713989134579215,
      -0.006296939967190112,
      0.009109693258159395,
      0.02587276703187381,
      0.02778924431455564,
      0.0023117043737397504,
      -0.008014861447558773,
      0.008788289015376538,
      0.07687708677707045,
      0.21975702746226158,
      -0.005509259047324676,
      0.019809565709535085,
      0.07839849477369434,
      -0.014698546322674588,
      -0.027964328079582403,
      -0.018680371589389594,
      -0.053164556905661284,
      -0.055718210338609825,
      -0.05012076870826417,
      -0.0075079626922639475,
      -0.015119582648249745,
      -0.013441107486112254,
      -0.000525145234233166,
      0.011861673159493316,
      -0.01360549775049108,
      -0.015539265418493474,
      -0.01703783426540003,
      0.004392447513812145,
      -0.0004357267182398598,
      0.0006235612257509235,
      0.0010776965247208633,
      0.0034475464409375683,
      0.0031455760378882812,
      0.0032333969043102963,
      -0.014042240291706547,
      -0.005210048678022526,
      -0.035273541724751285,
      -0.010980768678965662,
      10.1175757398359
    ],
    "weights_stats": {
      "min": -0.286088644264482,
      "max": 0.21975702746226158,
      "mean": 0.0013886396357337097,
      "std": 0.05543306743168135
    }
  },
  "convergence_analysis": {
    "iterations_to_converge": 7800,
    "best_iteration_found": 7700,
    "final_cost_change": -2.153723003758823e-09,
    "convergence_rate": "linear",
    "loss_reduction_ratio": 1.0111608226032365
  },
  "algorithm_specific": {
    "gradient_descent_type": "standard",
    "step_size_method": "backtracking",
    "step_size_constant": false,
    "momentum_used": false,
    "returns_best_result": true,
    "backtracking_parameters": {
      "c1": 0.01,
      "rho": 0.5
    },
    "adaptive_parameters": null
  },
  "computational_complexity": {
    "basic_metrics": {
      "function_evaluations": 78,
      "gradient_evaluations": 7800,
      "matrix_vector_multiplications": 0,
      "vector_operations": 7878,
      "memory_allocations": 7800,
      "peak_memory_size": 63,
      "total_operations": 98779701228
    },
    "iterations": {
      "total_iterations": 7799,
      "final_iteration": 7800,
      "converged": true,
      "convergence_iteration": 7800
    },
    "per_iteration_averages": {
      "function_evaluations_per_iter": 0.010001282215668676,
      "gradient_evaluations_per_iter": 1.0001282215668676,
      "operations_per_iter": 12665688.06616233,
      "matrix_operations_per_iter": 0.0
    },
    "efficiency_metrics": {
      "operations_to_convergence": 98760701039,
      "convergence_efficiency": 1.0,
      "operations_per_convergence_iter": 12664064.26
    },
    "scalability_metrics": {
      "problem_size": {
        "n_samples": 100000,
        "n_features": 62
      },
      "problem_complexity_factor": 6200000,
      "operations_per_problem_unit": 15932.209875483872,
      "memory_efficiency": 0.0006296096420219464,
      "theoretical_complexity": "O(100000*62*7799)"
    },
    "operation_distribution": {
      "function_eval_percentage": 7.89635917403344e-08,
      "gradient_eval_percentage": 7.89635917403344e-06,
      "matrix_ops_percentage": 0.0,
      "vector_ops_percentage": 7.975322765773773e-06
    }
  }
}