{
  "algorithm": "Newton Method - RIDGE",
  "loss_function": "RIDGE",
  "parameters": {
    "regularization": 0.01,
    "numerical_regularization": 0.1,
    "max_iterations": 100,
    "tolerance": 1e-08
  },
  "training_results": {
    "training_time": 6.263552188873291,
    "converged": false,
    "final_iteration": 100,
    "total_iterations": 100,
    "final_loss": 0.012756605526974085,
    "final_gradient_norm": 2.9261288266190277e-08
  },
  "weights_analysis": {
    "n_features": 62,
    "n_weights_total": 63,
    "bias_value": 10.117570362164424,
    "weights_without_bias": [
      0.003976155257200342,
      0.0015645364748774183,
      0.010478384676259986,
      -0.014966300589758312,
      -0.0010943388417375252,
      -0.0013791359379361583,
      0.002728089912482387,
      0.08032758242290002,
      -0.0038225423774214434,
      -0.2339309007125899,
      -0.010407236509587844,
      -0.009553672540160124,
      0.010064717206553058,
      0.09540176270519578,
      0.000263281071984732,
      0.00026500682665462277,
      0.0002635823672241396,
      0.013331666916070307,
      -0.09540002865664164,
      0.07898929378232568,
      0.017468505196970095,
      0.04806709462834929,
      0.006130850869247161,
      0.0034368890161527977,
      -0.004789819806365349,
      0.001565224627455042,
      0.009131259383999708,
      0.025375512735488732,
      0.03259888626486412,
      -0.0053237571013516165,
      -0.0013751839874004486,
      0.01152757287414294,
      0.048066575728614766,
      0.21553892870384056,
      -0.003982945339093066,
      0.04728964643873088,
      0.05239360421931766,
      -0.006953926987744669,
      -0.018595725183678025,
      -0.009584812094134228,
      -0.032156782066800546,
      -0.032529053853846406,
      -0.02214042055425475,
      -0.001231501011740274,
      -0.008558977558497443,
      -0.012107298676139374,
      -0.0004970437213197574,
      0.011494520906442054,
      -0.005322749419608488,
      -0.015323387723513455,
      -0.01662216772747065,
      -0.0013740266822771794,
      -0.0005127980666458223,
      0.0005861544998441423,
      -0.00010310123639797421,
      0.0036856114623643613,
      0.003317954626178877,
      0.0039010676448413286,
      -0.013880678634952938,
      -0.003930443835555443,
      -0.033876935882724266,
      -0.00923647843452458
    ],
    "complete_weight_vector": [
      0.003976155257200342,
      0.0015645364748774183,
      0.010478384676259986,
      -0.014966300589758312,
      -0.0010943388417375252,
      -0.0013791359379361583,
      0.002728089912482387,
      0.08032758242290002,
      -0.0038225423774214434,
      -0.2339309007125899,
      -0.010407236509587844,
      -0.009553672540160124,
      0.010064717206553058,
      0.09540176270519578,
      0.000263281071984732,
      0.00026500682665462277,
      0.0002635823672241396,
      0.013331666916070307,
      -0.09540002865664164,
      0.07898929378232568,
      0.017468505196970095,
      0.04806709462834929,
      0.006130850869247161,
      0.0034368890161527977,
      -0.004789819806365349,
      0.001565224627455042,
      0.009131259383999708,
      0.025375512735488732,
      0.03259888626486412,
      -0.0053237571013516165,
      -0.0013751839874004486,
      0.01152757287414294,
      0.048066575728614766,
      0.21553892870384056,
      -0.003982945339093066,
      0.04728964643873088,
      0.05239360421931766,
      -0.006953926987744669,
      -0.018595725183678025,
      -0.009584812094134228,
      -0.032156782066800546,
      -0.032529053853846406,
      -0.02214042055425475,
      -0.001231501011740274,
      -0.008558977558497443,
      -0.012107298676139374,
      -0.0004970437213197574,
      0.011494520906442054,
      -0.005322749419608488,
      -0.015323387723513455,
      -0.01662216772747065,
      -0.0013740266822771794,
      -0.0005127980666458223,
      0.0005861544998441423,
      -0.00010310123639797421,
      0.0036856114623643613,
      0.003317954626178877,
      0.0039010676448413286,
      -0.013880678634952938,
      -0.003930443835555443,
      -0.033876935882724266,
      -0.00923647843452458,
      10.117570362164424
    ],
    "weights_stats": {
      "min": -0.2339309007125899,
      "max": 0.21553892870384056,
      "mean": 0.0033655765757210202,
      "std": 0.04912542567805088
    }
  },
  "convergence_analysis": {
    "iterations_to_converge": 100,
    "final_cost_change": -8.987602329035838e-15,
    "convergence_rate": "quadratic",
    "loss_reduction_ratio": 4019.2081067100326,
    "convergence_quality": "superlinear_to_quadratic"
  },
  "numerical_analysis": {
    "hessian_condition_number": 87.78271625590479,
    "average_step_size": 0.10193998241806743,
    "max_step_size": 9.10977688048553,
    "min_step_size": 2.658963761798037e-07,
    "step_size_stability": "Newton_steps",
    "regularization_effect": "Applied for numerical stability"
  },
  "algorithm_specific": {
    "method_type": "pure_newton",
    "second_order_method": true,
    "hessian_computation": "exact",
    "line_search_used": false,
    "damping_applied": "numerical_regularization_only",
    "fast_convergence": false
  }
}