{
  "algorithm": "Gradient Descent - LASSO",
  "loss_function": "LASSO",
  "parameters": {
    "learning_rate": 0.1,
    "max_iterations": 1000,
    "tolerance": 1e-05,
    "regularization": 0.1
  },
  "training_results": {
    "training_time": 5.9664530754089355,
    "converged": false,
    "final_iteration": 1000,
    "total_iterations": 1000,
    "final_loss": 0.09931818156230389,
    "final_gradient_norm": 0.7273083503490078
  },
  "weights_analysis": {
    "n_features": 62,
    "n_weights_total": 63,
    "bias_value": 10.117717323352462,
    "weights_without_bias": [
      0.003848530250545273,
      -0.007024001041189861,
      0.011407521046546205,
      0.0023636741456003205,
      0.00034592156394123476,
      0.0031252646628259365,
      0.0032911150249351224,
      0.017065842628693224,
      -0.0002460541266120237,
      -0.07579415814843742,
      0.005180516675303462,
      -0.006470595976133297,
      -0.000673307811882207,
      0.007834715148262832,
      0.004762990220516281,
      0.006591758400058118,
      0.001720178071015259,
      0.0006574535599021807,
      -0.018423551002826513,
      0.0026161241965940336,
      0.0007790923276215275,
      -0.007112213649057692,
      -0.0025316357989964185,
      -0.0081383446801912,
      0.0016973093394020058,
      0.004103053858053311,
      0.00950143774287668,
      0.004969873649202247,
      0.0002093414023276504,
      0.008804822064711738,
      -0.0037002804428927245,
      0.003552023324201804,
      -0.013026718220705143,
      0.31735250010570265,
      0.013681848409161805,
      0.009938837905172731,
      0.012109658896035389,
      0.00862782304091238,
      0.0051031937161060935,
      0.0027801351314322553,
      -0.006072197552484989,
      -0.003963304278604211,
      0.002593996051489659,
      -0.001847682043033554,
      0.0026105269171971136,
      0.0002789209790353365,
      0.004682427875439802,
      -0.002422654639841759,
      0.008811818382638592,
      -0.008593839982709328,
      0.0015592988403812704,
      0.0063557572419234345,
      0.005559999417596988,
      0.008608562966211973,
      -0.005096123897506823,
      -0.00040715491379154055,
      0.005551124301631839,
      0.005729486939070678,
      -0.0026584677178549225,
      0.008051355720929583,
      -0.014382564467789898,
      0.00016359415573052698
    ],
    "complete_weight_vector": [
      0.003848530250545273,
      -0.007024001041189861,
      0.011407521046546205,
      0.0023636741456003205,
      0.00034592156394123476,
      0.0031252646628259365,
      0.0032911150249351224,
      0.017065842628693224,
      -0.0002460541266120237,
      -0.07579415814843742,
      0.005180516675303462,
      -0.006470595976133297,
      -0.000673307811882207,
      0.007834715148262832,
      0.004762990220516281,
      0.006591758400058118,
      0.001720178071015259,
      0.0006574535599021807,
      -0.018423551002826513,
      0.0026161241965940336,
      0.0007790923276215275,
      -0.007112213649057692,
      -0.0025316357989964185,
      -0.0081383446801912,
      0.0016973093394020058,
      0.004103053858053311,
      0.00950143774287668,
      0.004969873649202247,
      0.0002093414023276504,
      0.008804822064711738,
      -0.0037002804428927245,
      0.003552023324201804,
      -0.013026718220705143,
      0.31735250010570265,
      0.013681848409161805,
      0.009938837905172731,
      0.012109658896035389,
      0.00862782304091238,
      0.0051031937161060935,
      0.0027801351314322553,
      -0.006072197552484989,
      -0.003963304278604211,
      0.002593996051489659,
      -0.001847682043033554,
      0.0026105269171971136,
      0.0002789209790353365,
      0.004682427875439802,
      -0.002422654639841759,
      0.008811818382638592,
      -0.008593839982709328,
      0.0015592988403812704,
      0.0063557572419234345,
      0.005559999417596988,
      0.008608562966211973,
      -0.005096123897506823,
      -0.00040715491379154055,
      0.005551124301631839,
      0.005729486939070678,
      -0.0026584677178549225,
      0.008051355720929583,
      -0.014382564467789898,
      0.00016359415573052698,
      10.117717323352462
    ],
    "weights_stats": {
      "min": -0.07579415814843742,
      "max": 0.31735250010570265,
      "mean": 0.005580557675877339,
      "std": 0.04162485933086507
    }
  },
  "convergence_analysis": {
    "iterations_to_converge": 1000,
    "final_cost_change": -0.0036616179423344802,
    "convergence_rate": "linear",
    "loss_reduction_ratio": 63.89923317169108
  },
  "algorithm_specific": {
    "gradient_descent_type": "standard",
    "step_size_constant": true,
    "momentum_used": false
  }
}