{
  "algorithm": "Gradient Descent - OLS",
  "loss_function": "OLS",
  "parameters": {
    "learning_rate": 0.1,
    "max_iterations": 100000,
    "tolerance": 1e-05,
    "step_size_method": "decreasing_exponential"
  },
  "training_results": {
    "training_time": 756.4928870201111,
    "converged": false,
    "final_iteration": 100000,
    "total_iterations": 100000,
    "final_loss": 0.8578735100361625,
    "final_gradient_norm": 1.298108580507106
  },
  "weights_analysis": {
    "n_features": 62,
    "n_weights_total": 63,
    "bias_value": 8.819446426355672,
    "weights_without_bias": [
      0.0037035189610152056,
      0.0039366397643270275,
      0.0124559477957567,
      0.0043362785957581276,
      -0.01026169162972084,
      -0.009921733148554646,
      0.009190142633599224,
      0.06814308486721074,
      0.0035860521803145902,
      -0.08734952100704149,
      -0.017290527482978275,
      -0.05163900801157474,
      0.019732457876192037,
      0.07710205794303004,
      -0.0034147529807900625,
      -0.015003306518856632,
      -0.0014836605925890518,
      0.0076590074502232075,
      -0.06445614451037864,
      0.0031047136608928524,
      0.02197257328612383,
      -0.03827880556594695,
      0.000985394507724844,
      0.013725221684449064,
      0.009663961487226175,
      -0.006904704730354273,
      0.004502496861584879,
      0.013086934730643702,
      0.06020283863057214,
      -0.010833063599442522,
      -0.010594294401497355,
      0.01602704502725023,
      -0.04029175740759729,
      0.15392673283006986,
      0.029073917068654684,
      0.06341218798374083,
      0.050024978642888705,
      0.0045358316907841995,
      -0.016410629060028544,
      -0.00016668446849889767,
      0.006717386323019895,
      -0.01901861089105045,
      -0.00110531907533574,
      0.00016851549844191298,
      -0.007682282309246264,
      -0.01385099865939118,
      -0.0014061313653197431,
      0.014894801306398604,
      0.00572452058487385,
      0.002149756436139298,
      0.0014755499344949838,
      0.01203813723185459,
      0.0008858406419965486,
      0.00853597691205361,
      0.006802760631066038,
      0.013769867953162516,
      -0.0003229269547273382,
      0.022501162610238976,
      -0.023683875602581176,
      0.010123093022206124,
      -0.02239727581451536,
      -0.007715868079424074
    ],
    "complete_weight_vector": [
      0.0037035189610152056,
      0.0039366397643270275,
      0.0124559477957567,
      0.0043362785957581276,
      -0.01026169162972084,
      -0.009921733148554646,
      0.009190142633599224,
      0.06814308486721074,
      0.0035860521803145902,
      -0.08734952100704149,
      -0.017290527482978275,
      -0.05163900801157474,
      0.019732457876192037,
      0.07710205794303004,
      -0.0034147529807900625,
      -0.015003306518856632,
      -0.0014836605925890518,
      0.0076590074502232075,
      -0.06445614451037864,
      0.0031047136608928524,
      0.02197257328612383,
      -0.03827880556594695,
      0.000985394507724844,
      0.013725221684449064,
      0.009663961487226175,
      -0.006904704730354273,
      0.004502496861584879,
      0.013086934730643702,
      0.06020283863057214,
      -0.010833063599442522,
      -0.010594294401497355,
      0.01602704502725023,
      -0.04029175740759729,
      0.15392673283006986,
      0.029073917068654684,
      0.06341218798374083,
      0.050024978642888705,
      0.0045358316907841995,
      -0.016410629060028544,
      -0.00016668446849889767,
      0.006717386323019895,
      -0.01901861089105045,
      -0.00110531907533574,
      0.00016851549844191298,
      -0.007682282309246264,
      -0.01385099865939118,
      -0.0014061313653197431,
      0.014894801306398604,
      0.00572452058487385,
      0.002149756436139298,
      0.0014755499344949838,
      0.01203813723185459,
      0.0008858406419965486,
      0.00853597691205361,
      0.006802760631066038,
      0.013769867953162516,
      -0.0003229269547273382,
      0.022501162610238976,
      -0.023683875602581176,
      0.010123093022206124,
      -0.02239727581451536,
      -0.007715868079424074,
      8.819446426355672
    ],
    "weights_stats": {
      "min": -0.08734952100704149,
      "max": 0.15392673283006986,
      "mean": 0.004490222764169972,
      "std": 0.03310623602016247
    }
  },
  "convergence_analysis": {
    "iterations_to_converge": 100000,
    "final_cost_change": 0.0,
    "convergence_rate": "linear",
    "loss_reduction_ratio": 1.0235398870590062
  },
  "algorithm_specific": {
    "gradient_descent_type": "standard",
    "step_size_method": "decreasing_exponential",
    "step_size_constant": false,
    "momentum_used": false,
    "backtracking_parameters": null,
    "adaptive_parameters": null
  }
}