{
  "algorithm": "Gradient Descent - OLS",
  "loss_function": "OLS",
  "parameters": {
    "learning_rate": 1.0,
    "max_iterations": 10000,
    "tolerance": 1e-05,
    "step_size_method": "backtracking"
  },
  "training_results": {
    "training_time": 366.14260935783386,
    "converged": false,
    "final_iteration": 10000,
    "total_iterations": 10000,
    "final_loss": 0.011924635522380746,
    "final_gradient_norm": 6.972226702683303e-05,
    "best_iteration": 9800,
    "best_loss": 0.011924637105969138,
    "best_gradient_norm": 5.75534474782136e-05,
    "improvement_from_final": {
      "loss_improvement": -1.5835883923620564e-09,
      "gradient_improvement": 1.2168819548619428e-05,
      "iterations_earlier": 200
    }
  },
  "weights_analysis": {
    "n_features": 62,
    "n_weights_total": 63,
    "bias_value": 10.117575640796,
    "weights_without_bias": [
      -0.00405009914313489,
      -0.003035358073823051,
      0.011517467536677933,
      -0.007587389014211444,
      0.0008833842398310912,
      0.007058271879927035,
      0.006754138480744392,
      0.08364721519027195,
      0.00388525185699079,
      -0.28608535164692883,
      -0.010693119103755212,
      -0.005719821409535951,
      0.01000175437498318,
      0.08810947810669743,
      0.01071612310965302,
      -0.016066523597822575,
      0.007005133867474235,
      0.016223867310617642,
      -0.08310250666972173,
      0.07750324679981026,
      0.014099689913221148,
      0.06465910815613797,
      0.005720051850113311,
      0.005719393772798264,
      -0.008858207729026762,
      0.006306085235689553,
      0.0091099492905538,
      0.025872958052437913,
      0.02778895351057701,
      -0.01866982518522315,
      0.005719685070598375,
      0.024608370271145465,
      0.0779429623389699,
      0.21975615652465008,
      -0.005509841934305079,
      0.020552309918621222,
      0.07765474175775099,
      -0.01469863774413382,
      -0.02796463989488098,
      -0.018680638450269446,
      -0.05316603630051595,
      -0.05571917117621857,
      -0.050122257713292026,
      -0.007508280499456169,
      -0.015119701791210366,
      -0.01344141204658975,
      -0.0005251136480613556,
      0.011861790851126677,
      0.007375921503706283,
      -0.01553883646632083,
      -0.017037672019908894,
      -0.009341988221458654,
      -0.0004356617025140795,
      0.0006234801789894426,
      0.0010772693775215117,
      0.0034473844701923217,
      0.0031455613915596903,
      0.0032336077280962967,
      -0.014042109298264835,
      -0.005210438220482846,
      -0.0352737613405047,
      -0.010981625820529816
    ],
    "complete_weight_vector": [
      -0.00405009914313489,
      -0.003035358073823051,
      0.011517467536677933,
      -0.007587389014211444,
      0.0008833842398310912,
      0.007058271879927035,
      0.006754138480744392,
      0.08364721519027195,
      0.00388525185699079,
      -0.28608535164692883,
      -0.010693119103755212,
      -0.005719821409535951,
      0.01000175437498318,
      0.08810947810669743,
      0.01071612310965302,
      -0.016066523597822575,
      0.007005133867474235,
      0.016223867310617642,
      -0.08310250666972173,
      0.07750324679981026,
      0.014099689913221148,
      0.06465910815613797,
      0.005720051850113311,
      0.005719393772798264,
      -0.008858207729026762,
      0.006306085235689553,
      0.0091099492905538,
      0.025872958052437913,
      0.02778895351057701,
      -0.01866982518522315,
      0.005719685070598375,
      0.024608370271145465,
      0.0779429623389699,
      0.21975615652465008,
      -0.005509841934305079,
      0.020552309918621222,
      0.07765474175775099,
      -0.01469863774413382,
      -0.02796463989488098,
      -0.018680638450269446,
      -0.05316603630051595,
      -0.05571917117621857,
      -0.050122257713292026,
      -0.007508280499456169,
      -0.015119701791210366,
      -0.01344141204658975,
      -0.0005251136480613556,
      0.011861790851126677,
      0.007375921503706283,
      -0.01553883646632083,
      -0.017037672019908894,
      -0.009341988221458654,
      -0.0004356617025140795,
      0.0006234801789894426,
      0.0010772693775215117,
      0.0034473844701923217,
      0.0031455613915596903,
      0.0032336077280962967,
      -0.014042109298264835,
      -0.005210438220482846,
      -0.0352737613405047,
      -0.010981625820529816,
      10.117575640796
    ],
    "weights_stats": {
      "min": -0.28608535164692883,
      "max": 0.21975615652465008,
      "mean": 0.0020224957750973297,
      "std": 0.055524330319596055
    }
  },
  "convergence_analysis": {
    "iterations_to_converge": 10000,
    "best_iteration_found": 9800,
    "final_cost_change": -1.5835883923620564e-09,
    "convergence_rate": "linear",
    "loss_reduction_ratio": 1.02389988449903
  },
  "algorithm_specific": {
    "gradient_descent_type": "standard",
    "step_size_method": "backtracking",
    "step_size_constant": false,
    "momentum_used": false,
    "returns_best_result": true,
    "backtracking_parameters": {
      "c1": 0.01,
      "rho": 0.8
    },
    "adaptive_parameters": null
  },
  "computational_complexity": {
    "basic_metrics": {
      "function_evaluations": 100,
      "gradient_evaluations": 10000,
      "matrix_vector_multiplications": 0,
      "vector_operations": 10100,
      "memory_allocations": 10000,
      "peak_memory_size": 63,
      "total_operations": 126640642600
    },
    "iterations": {
      "total_iterations": 10000,
      "final_iteration": 10000,
      "converged": false,
      "convergence_iteration": null
    },
    "per_iteration_averages": {
      "function_evaluations_per_iter": 0.01,
      "gradient_evaluations_per_iter": 1.0,
      "operations_per_iter": 12664064.26,
      "matrix_operations_per_iter": 0.0
    },
    "scalability_metrics": {
      "problem_size": {
        "n_samples": 100000,
        "n_features": 62
      },
      "problem_complexity_factor": 6200000,
      "operations_per_problem_unit": 20425.910096774194,
      "memory_efficiency": 0.0006296096420219464,
      "theoretical_complexity": "O(100000*62*10000)"
    },
    "operation_distribution": {
      "function_eval_percentage": 7.89635917403344e-08,
      "gradient_eval_percentage": 7.89635917403344e-06,
      "matrix_ops_percentage": 0.0,
      "vector_ops_percentage": 7.975322765773773e-06
    }
  }
}