{
  "algorithm": "Gradient Descent - OLS",
  "loss_function": "OLS",
  "parameters": {
    "learning_rate": 1.0,
    "max_iterations": 10000,
    "tolerance": 1e-05,
    "step_size_method": "backtracking"
  },
  "training_results": {
    "training_time": 389.619925737381,
    "converged": false,
    "final_iteration": 10000,
    "total_iterations": 10000,
    "final_loss": 0.011924601446238121,
    "final_gradient_norm": 3.8459058182605244e-05,
    "best_iteration": 9600,
    "best_loss": 0.01192460342553492,
    "best_gradient_norm": 3.567920013106445e-05,
    "improvement_from_final": {
      "loss_improvement": -1.979296799375918e-09,
      "gradient_improvement": 2.7798580515407914e-06,
      "iterations_earlier": 400
    }
  },
  "weights_analysis": {
    "n_features": 62,
    "n_weights_total": 63,
    "bias_value": 10.117576068583086,
    "weights_without_bias": [
      0.009378874745739535,
      -1.3514142062379424e-05,
      0.011517970478506669,
      -0.019754213442157987,
      -0.0018515568073859277,
      -0.0034725299518601808,
      -0.0005976536663923019,
      0.08364309139951209,
      0.0038895786150940762,
      -0.28609517788885674,
      -0.010692521294506969,
      -0.0057211991773083795,
      0.010001628674772136,
      0.08819561690365112,
      -0.016235777643664188,
      0.0167903190582817,
      0.0011017280092182108,
      0.01622360054291842,
      -0.08300313450012202,
      0.0774978309272357,
      0.014098307229496494,
      0.07095132385929019,
      0.005721584135026256,
      0.0010148044678614237,
      -0.005278942505670351,
      0.003284444228519604,
      0.009109665746863487,
      0.025872119325449108,
      0.027789528358371875,
      -0.004963213770545322,
      0.01243839692012482,
      0.0072908943209948375,
      0.07165306821450722,
      0.21975631533608714,
      -0.005507927339811752,
      0.01732903893215435,
      0.08087915039118558,
      -0.014697889411061888,
      -0.027963058843478435,
      -0.018679127232388983,
      -0.05316032386180998,
      -0.05571396078168557,
      -0.050116632630834206,
      -0.007506937688153281,
      -0.015118804107675242,
      -0.01343988283619169,
      -0.0005252415187920503,
      0.011861168919938518,
      -0.0063308612090772305,
      -0.015540210211974765,
      -0.017038371193874025,
      -0.01606183362507635,
      -0.00043574802837863,
      0.0006236267098895597,
      0.0010788197837924712,
      0.0034476957683973663,
      0.00314562641192582,
      0.0032333172045586104,
      -0.014042947879632218,
      -0.005209046178916938,
      -0.03527225899098969,
      -0.010977365756345002
    ],
    "complete_weight_vector": [
      0.009378874745739535,
      -1.3514142062379424e-05,
      0.011517970478506669,
      -0.019754213442157987,
      -0.0018515568073859277,
      -0.0034725299518601808,
      -0.0005976536663923019,
      0.08364309139951209,
      0.0038895786150940762,
      -0.28609517788885674,
      -0.010692521294506969,
      -0.0057211991773083795,
      0.010001628674772136,
      0.08819561690365112,
      -0.016235777643664188,
      0.0167903190582817,
      0.0011017280092182108,
      0.01622360054291842,
      -0.08300313450012202,
      0.0774978309272357,
      0.014098307229496494,
      0.07095132385929019,
      0.005721584135026256,
      0.0010148044678614237,
      -0.005278942505670351,
      0.003284444228519604,
      0.009109665746863487,
      0.025872119325449108,
      0.027789528358371875,
      -0.004963213770545322,
      0.01243839692012482,
      0.0072908943209948375,
      0.07165306821450722,
      0.21975631533608714,
      -0.005507927339811752,
      0.01732903893215435,
      0.08087915039118558,
      -0.014697889411061888,
      -0.027963058843478435,
      -0.018679127232388983,
      -0.05316032386180998,
      -0.05571396078168557,
      -0.050116632630834206,
      -0.007506937688153281,
      -0.015118804107675242,
      -0.01343988283619169,
      -0.0005252415187920503,
      0.011861168919938518,
      -0.0063308612090772305,
      -0.015540210211974765,
      -0.017038371193874025,
      -0.01606183362507635,
      -0.00043574802837863,
      0.0006236267098895597,
      0.0010788197837924712,
      0.0034476957683973663,
      0.00314562641192582,
      0.0032333172045586104,
      -0.014042947879632218,
      -0.005209046178916938,
      -0.03527225899098969,
      -0.010977365756345002,
      10.117576068583086
    ],
    "weights_stats": {
      "min": -0.28609517788885674,
      "max": 0.21975631533608714,
      "mean": 0.0014161495403658656,
      "std": 0.055547778406422596
    }
  },
  "convergence_analysis": {
    "iterations_to_converge": 10000,
    "best_iteration_found": 9600,
    "final_cost_change": -7.096057162009339e-10,
    "convergence_rate": "linear",
    "loss_reduction_ratio": 1.0214903625279201
  },
  "algorithm_specific": {
    "gradient_descent_type": "standard",
    "step_size_method": "backtracking",
    "step_size_constant": false,
    "momentum_used": false,
    "returns_best_result": true,
    "backtracking_parameters": {
      "c1": 0.01,
      "rho": 0.8
    },
    "adaptive_parameters": null
  },
  "computational_complexity": {
    "basic_metrics": {
      "function_evaluations": 100,
      "gradient_evaluations": 10000,
      "matrix_vector_multiplications": 0,
      "vector_operations": 10100,
      "memory_allocations": 10000,
      "peak_memory_size": 63,
      "total_operations": 126640642600
    },
    "iterations": {
      "total_iterations": 10000,
      "final_iteration": 10000,
      "converged": false,
      "convergence_iteration": null
    },
    "per_iteration_averages": {
      "function_evaluations_per_iter": 0.01,
      "gradient_evaluations_per_iter": 1.0,
      "operations_per_iter": 12664064.26,
      "matrix_operations_per_iter": 0.0
    },
    "scalability_metrics": {
      "problem_size": {
        "n_samples": 100000,
        "n_features": 62
      },
      "problem_complexity_factor": 6200000,
      "operations_per_problem_unit": 20425.910096774194,
      "memory_efficiency": 0.0006296096420219464,
      "theoretical_complexity": "O(100000*62*10000)"
    },
    "operation_distribution": {
      "function_eval_percentage": 7.89635917403344e-08,
      "gradient_eval_percentage": 7.89635917403344e-06,
      "matrix_ops_percentage": 0.0,
      "vector_ops_percentage": 7.975322765773773e-06
    }
  }
}