{
  "algorithm": "Gradient Descent - RIDGE",
  "loss_function": "RIDGE",
  "parameters": {
    "learning_rate": 0.1,
    "max_iterations": 500,
    "tolerance": 1e-05,
    "regularization": 0.01
  },
  "training_results": {
    "training_time": 3.061245918273926,
    "converged": false,
    "final_iteration": 500,
    "total_iterations": 500,
    "final_loss": 0.012770190775512759,
    "final_gradient_norm": 0.0008893850635498281
  },
  "weights_analysis": {
    "n_features": 62,
    "n_weights_total": 63,
    "bias_value": 10.117569281318545,
    "weights_without_bias": [
      0.005413147239213423,
      0.0009507253422809053,
      0.010213314108575282,
      -0.01827158937737882,
      -0.0017502052013685728,
      -0.004083597454515635,
      0.004347558529174585,
      0.07918107898568619,
      -0.007267011477666973,
      -0.2143014579309017,
      -0.01036157188847655,
      -0.009759550662624341,
      0.010111045900444442,
      0.10008649925667602,
      0.0024713672164005315,
      -0.0038975681682754263,
      0.0022057066688992173,
      0.011203195720916478,
      -0.10497655448182763,
      0.08488767904348965,
      0.018286823912607164,
      0.03753249406190054,
      0.006041139049149198,
      0.0004903061289795306,
      -0.004284418195935309,
      0.002385056356537715,
      0.009169682614391664,
      0.025373913399770007,
      0.03429143602965272,
      -0.004915734782770661,
      0.0009251919449294707,
      0.007039091740111935,
      0.043009516532160987,
      0.21535647915244774,
      -0.0037150005677258732,
      0.054184914643584686,
      0.045369347269283496,
      -0.004673383266286888,
      -0.01578848215759442,
      -0.0068838274798052575,
      -0.02632250475021332,
      -0.02564785064124243,
      -0.013968875897119593,
      0.0005524834870636643,
      -0.006581661425482973,
      -0.01180829991040241,
      -0.0004898682397619201,
      0.011177949224393934,
      -0.005646753362501829,
      -0.015785137974440484,
      -0.017362264700877105,
      -0.0037816756128988102,
      -0.0005341421811694893,
      0.0005706018625068316,
      -0.000699068064675104,
      0.0037251641040031546,
      0.003391457633061767,
      0.004144175086857077,
      -0.013846653368899597,
      -0.0037832090033486283,
      -0.03367612755537046,
      -0.00876613413399007
    ],
    "complete_weight_vector": [
      0.005413147239213423,
      0.0009507253422809053,
      0.010213314108575282,
      -0.01827158937737882,
      -0.0017502052013685728,
      -0.004083597454515635,
      0.004347558529174585,
      0.07918107898568619,
      -0.007267011477666973,
      -0.2143014579309017,
      -0.01036157188847655,
      -0.009759550662624341,
      0.010111045900444442,
      0.10008649925667602,
      0.0024713672164005315,
      -0.0038975681682754263,
      0.0022057066688992173,
      0.011203195720916478,
      -0.10497655448182763,
      0.08488767904348965,
      0.018286823912607164,
      0.03753249406190054,
      0.006041139049149198,
      0.0004903061289795306,
      -0.004284418195935309,
      0.002385056356537715,
      0.009169682614391664,
      0.025373913399770007,
      0.03429143602965272,
      -0.004915734782770661,
      0.0009251919449294707,
      0.007039091740111935,
      0.043009516532160987,
      0.21535647915244774,
      -0.0037150005677258732,
      0.054184914643584686,
      0.045369347269283496,
      -0.004673383266286888,
      -0.01578848215759442,
      -0.0068838274798052575,
      -0.02632250475021332,
      -0.02564785064124243,
      -0.013968875897119593,
      0.0005524834870636643,
      -0.006581661425482973,
      -0.01180829991040241,
      -0.0004898682397619201,
      0.011177949224393934,
      -0.005646753362501829,
      -0.015785137974440484,
      -0.017362264700877105,
      -0.0037816756128988102,
      -0.0005341421811694893,
      0.0005706018625068316,
      -0.000699068064675104,
      0.0037251641040031546,
      0.003391457633061767,
      0.004144175086857077,
      -0.013846653368899597,
      -0.0037832090033486283,
      -0.03367612755537046,
      -0.00876613413399007,
      10.117569281318545
    ],
    "weights_stats": {
      "min": -0.2143014579309017,
      "max": 0.21535647915244774,
      "mean": 0.0037170703601548663,
      "std": 0.047831431895479753
    }
  },
  "convergence_analysis": {
    "iterations_to_converge": 500,
    "final_cost_change": -8.127303498493832e-07,
    "convergence_rate": "linear",
    "loss_reduction_ratio": 489.56427283118734
  },
  "algorithm_specific": {
    "gradient_descent_type": "standard",
    "step_size_constant": true,
    "momentum_used": false
  }
}