{
  "algorithm": "Gradient Descent - LASSO",
  "loss_function": "LASSO",
  "parameters": {
    "learning_rate": 0.01,
    "max_iterations": 1000,
    "tolerance": 1e-05,
    "regularization": 0.1
  },
  "training_results": {
    "training_time": 5.804488897323608,
    "converged": false,
    "final_iteration": 1000,
    "total_iterations": 1000,
    "final_loss": 0.07898679192978372,
    "final_gradient_norm": 0.6077952665187992
  },
  "weights_analysis": {
    "n_features": 62,
    "n_weights_total": 63,
    "bias_value": 10.117240244859115,
    "weights_without_bias": [
      -0.0008960827899643092,
      0.00032759882262801564,
      0.00032401508371443467,
      -0.00014816916271390146,
      -0.0008285169028656437,
      0.00022188152060741335,
      0.0002017113910172994,
      0.00026312684059110353,
      1.0883370545348417e-05,
      -0.10130369583781802,
      0.0008015113226357464,
      -0.00014687282473555252,
      0.0007886099240490222,
      0.016756851589218,
      -9.000072461118184e-05,
      -9.013448716113312e-05,
      -9.074297376427683e-05,
      4.215554257092427e-05,
      -0.015930849242809235,
      -0.0003559488118794042,
      0.00027563198122299145,
      -0.000791573904286567,
      -0.00023173008479347452,
      0.0003936070516743484,
      -1.0161367477239027e-05,
      -0.0006464965773196011,
      0.0007295745919658142,
      0.0009081232453842956,
      0.00021440905118952163,
      0.000650267644608736,
      -0.0004978839636274855,
      0.0012012524367613837,
      -0.0007621624961201488,
      0.3122575057169764,
      -1.1269061079545938e-05,
      0.03031633814148558,
      0.029029450597937084,
      0.000759211856633922,
      0.0003868856644104633,
      -0.0007828010821863442,
      -5.181840701761484e-05,
      0.0001836254927903473,
      -0.00041716808384958053,
      0.0007407631079710784,
      -0.000769499921061471,
      0.0006619143546990596,
      0.0004695340104333395,
      0.0006476812240684198,
      0.000650267644608736,
      -0.0003310310354724689,
      6.909085573762405e-05,
      0.00048191151116341467,
      -0.0007781322228477513,
      -0.00021899848604395235,
      0.0008649412681604444,
      0.00018253087963159334,
      0.00042927822740534093,
      -0.0006678446028796193,
      0.0007175179611998468,
      0.000823328621517384,
      -9.282412856649537e-05,
      0.0007518535168087392
    ],
    "complete_weight_vector": [
      -0.0008960827899643092,
      0.00032759882262801564,
      0.00032401508371443467,
      -0.00014816916271390146,
      -0.0008285169028656437,
      0.00022188152060741335,
      0.0002017113910172994,
      0.00026312684059110353,
      1.0883370545348417e-05,
      -0.10130369583781802,
      0.0008015113226357464,
      -0.00014687282473555252,
      0.0007886099240490222,
      0.016756851589218,
      -9.000072461118184e-05,
      -9.013448716113312e-05,
      -9.074297376427683e-05,
      4.215554257092427e-05,
      -0.015930849242809235,
      -0.0003559488118794042,
      0.00027563198122299145,
      -0.000791573904286567,
      -0.00023173008479347452,
      0.0003936070516743484,
      -1.0161367477239027e-05,
      -0.0006464965773196011,
      0.0007295745919658142,
      0.0009081232453842956,
      0.00021440905118952163,
      0.000650267644608736,
      -0.0004978839636274855,
      0.0012012524367613837,
      -0.0007621624961201488,
      0.3122575057169764,
      -1.1269061079545938e-05,
      0.03031633814148558,
      0.029029450597937084,
      0.000759211856633922,
      0.0003868856644104633,
      -0.0007828010821863442,
      -5.181840701761484e-05,
      0.0001836254927903473,
      -0.00041716808384958053,
      0.0007407631079710784,
      -0.000769499921061471,
      0.0006619143546990596,
      0.0004695340104333395,
      0.0006476812240684198,
      0.000650267644608736,
      -0.0003310310354724689,
      6.909085573762405e-05,
      0.00048191151116341467,
      -0.0007781322228477513,
      -0.00021899848604395235,
      0.0008649412681604444,
      0.00018253087963159334,
      0.00042927822740534093,
      -0.0006678446028796193,
      0.0007175179611998468,
      0.000823328621517384,
      -9.282412856649537e-05,
      0.0007518535168087392,
      10.117240244859115
    ],
    "weights_stats": {
      "min": -0.10130369583781802,
      "max": 0.3122575057169764,
      "mean": 0.004477297304533408,
      "std": 0.04189807455692031
    }
  },
  "convergence_analysis": {
    "iterations_to_converge": 1000,
    "final_cost_change": 0.00010820929253853306,
    "convergence_rate": "linear",
    "loss_reduction_ratio": 532.0531874144541
  },
  "algorithm_specific": {
    "gradient_descent_type": "standard",
    "step_size_constant": true,
    "momentum_used": false
  }
}