{
  "algorithm": "Stochastic Gradient Descent - OLS",
  "loss_function": "OLS",
  "parameters": {
    "learning_rate": 0.0001,
    "learning_rate_schedule": "constant",
    "epochs": 100,
    "batch_size": 25000,
    "random_state": 42,
    "tolerance": 1e-06
  },
  "training_results": {
    "training_time": 84.2770369052887,
    "converged": false,
    "final_epoch": 100,
    "total_epochs": 100,
    "final_cost": 39.38469590646501,
    "final_gradient_norm": 8.89432038207994
  },
  "weights_analysis": {
    "n_features": 62,
    "n_weights_total": 63,
    "bias_value": 1.2474619676051824,
    "weights_without_bias": [
      -0.00024602960891834574,
      -0.0009989611627180465,
      0.021228268985188387,
      0.006371509214366172,
      -0.008855328582017824,
      -0.017645794706431427,
      0.009054500383255623,
      0.037395358746334574,
      0.017276699075968998,
      -0.032623993223319075,
      -0.002760255236182309,
      -0.031923879666495535,
      0.009172240587182912,
      0.01347886690432655,
      0.00294418209360331,
      0.014570485126323906,
      0.010065049215389381,
      0.025597444260830448,
      -0.041691910106116614,
      -0.031976355558721706,
      0.008720152258378648,
      -0.03393642375372607,
      -0.004990452790372668,
      -0.020254250907474514,
      -0.007615896262048384,
      0.0014929077460924605,
      -0.011754786502930985,
      0.011129833845974615,
      0.02146867248376314,
      -0.0014667517235378029,
      -0.00896125826020216,
      0.03508180144772656,
      -0.031813632996240036,
      0.037053763317364624,
      0.02629549995138427,
      0.01971855648893157,
      0.033889401415473745,
      -0.013945202964892055,
      -0.019700775019860724,
      -3.4773105058952166e-05,
      0.023363328856716662,
      -0.009790572404694301,
      -0.0013458460043109005,
      -0.003440916431334031,
      -0.017467678649224716,
      0.003737539488735445,
      -0.004231202328642684,
      0.01166966021048728,
      0.004886368670079585,
      -0.01458292661739266,
      -0.0022395679098290563,
      -0.0067950149420713665,
      0.0011935267831182682,
      0.010675932409518307,
      0.01574079066003351,
      0.005333356491495768,
      -0.00956273910119623,
      0.002423571724459472,
      0.0024396264771600605,
      0.01293350952489987,
      -0.019631241056781618,
      -0.0015763641909359316
    ],
    "complete_weight_vector": [
      -0.00024602960891834574,
      -0.0009989611627180465,
      0.021228268985188387,
      0.006371509214366172,
      -0.008855328582017824,
      -0.017645794706431427,
      0.009054500383255623,
      0.037395358746334574,
      0.017276699075968998,
      -0.032623993223319075,
      -0.002760255236182309,
      -0.031923879666495535,
      0.009172240587182912,
      0.01347886690432655,
      0.00294418209360331,
      0.014570485126323906,
      0.010065049215389381,
      0.025597444260830448,
      -0.041691910106116614,
      -0.031976355558721706,
      0.008720152258378648,
      -0.03393642375372607,
      -0.004990452790372668,
      -0.020254250907474514,
      -0.007615896262048384,
      0.0014929077460924605,
      -0.011754786502930985,
      0.011129833845974615,
      0.02146867248376314,
      -0.0014667517235378029,
      -0.00896125826020216,
      0.03508180144772656,
      -0.031813632996240036,
      0.037053763317364624,
      0.02629549995138427,
      0.01971855648893157,
      0.033889401415473745,
      -0.013945202964892055,
      -0.019700775019860724,
      -3.4773105058952166e-05,
      0.023363328856716662,
      -0.009790572404694301,
      -0.0013458460043109005,
      -0.003440916431334031,
      -0.017467678649224716,
      0.003737539488735445,
      -0.004231202328642684,
      0.01166966021048728,
      0.004886368670079585,
      -0.01458292661739266,
      -0.0022395679098290563,
      -0.0067950149420713665,
      0.0011935267831182682,
      0.010675932409518307,
      0.01574079066003351,
      0.005333356491495768,
      -0.00956273910119623,
      0.002423571724459472,
      0.0024396264771600605,
      0.01293350952489987,
      -0.019631241056781618,
      -0.0015763641909359316,
      1.2474619676051824
    ],
    "weights_stats": {
      "min": -0.041691910106116614,
      "max": 0.037395358746334574,
      "mean": 0.0006861552108207318,
      "std": 0.018027233680095556
    }
  },
  "convergence_analysis": {
    "epochs_to_converge": 100,
    "final_cost_change": -1.0685544516597147,
    "convergence_rate": "sublinear",
    "cost_reduction_ratio": 1.2740825334349593
  },
  "algorithm_specific": {
    "method_type": "stochastic_gradient_descent",
    "batch_processing": true,
    "batch_size": 25000,
    "epoch_based_training": true,
    "data_shuffling": true,
    "noisy_gradients": "inherent_in_SGD",
    "convergence_type": "probabilistic",
    "learning_rate_schedule": "constant",
    "adaptive_learning_rate": false
  }
}