{
  "algorithm": "Momentum Gradient Descent - OLS",
  "loss_function": "OLS",
  "parameters": {
    "learning_rate": 0.1,
    "momentum": 0.9,
    "max_iterations": 10000,
    "tolerance": 1e-05
  },
  "training_results": {
    "training_time": 35.206214427948,
    "converged": true,
    "final_iteration": 1800,
    "total_iterations": 10000,
    "final_loss": 0.011924644131832082,
    "final_gradient_norm": 9.533454485445114e-06,
    "final_velocity_norm": 9.594972932358819e-05
  },
  "weights_analysis": {
    "n_features": 62,
    "n_weights_total": 63,
    "bias_value": 10.117575568232377,
    "weights_without_bias": [
      0.012749188018660054,
      0.0015996490451099118,
      0.011517350055495227,
      -0.0023450730525488685,
      0.0020618030306942528,
      0.011595233029911478,
      0.00294912824722203,
      0.08364819550388058,
      0.003886350068697974,
      -0.2860854111190397,
      -0.010693007968980157,
      -0.005720751972269829,
      0.010001745221993425,
      0.08492877318914505,
      -0.007706738628754133,
      0.01019516560194778,
      -0.0008285178690122312,
      0.01622572629026659,
      -0.08628865822019954,
      0.07750313544849229,
      0.014099583858626691,
      0.07133591095171884,
      0.00571958761253666,
      -0.005847627346277013,
      -0.005385357110199984,
      0.0016717521558453157,
      0.009109675511234677,
      0.025873105088428168,
      0.02778912287263484,
      0.0021012743656114493,
      0.001773407706753756,
      0.03207194769010499,
      0.07126219511134593,
      0.21975753920885058,
      -0.005509929455279425,
      0.021102791658691836,
      0.07710532734813123,
      -0.014698902412248385,
      -0.027964998573570505,
      -0.018681033999269868,
      -0.053166736243585776,
      -0.05572046610710179,
      -0.05012289247505625,
      -0.0075084956409011494,
      -0.015120003290624554,
      -0.013441754001580567,
      -0.000525095394103131,
      0.011861940353564167,
      -0.013394895757403817,
      -0.015538791768776636,
      -0.017037554539949897,
      -0.005395263086604826,
      -0.0004357232060619543,
      0.000623535039593501,
      0.001077122675451697,
      0.003447483787210879,
      0.0031455497276559564,
      0.003233414237990221,
      -0.01404186090068841,
      -0.00521055974773348,
      -0.03527423177447601,
      -0.010982563740755732
    ],
    "complete_weight_vector": [
      0.012749188018660054,
      0.0015996490451099118,
      0.011517350055495227,
      -0.0023450730525488685,
      0.0020618030306942528,
      0.011595233029911478,
      0.00294912824722203,
      0.08364819550388058,
      0.003886350068697974,
      -0.2860854111190397,
      -0.010693007968980157,
      -0.005720751972269829,
      0.010001745221993425,
      0.08492877318914505,
      -0.007706738628754133,
      0.01019516560194778,
      -0.0008285178690122312,
      0.01622572629026659,
      -0.08628865822019954,
      0.07750313544849229,
      0.014099583858626691,
      0.07133591095171884,
      0.00571958761253666,
      -0.005847627346277013,
      -0.005385357110199984,
      0.0016717521558453157,
      0.009109675511234677,
      0.025873105088428168,
      0.02778912287263484,
      0.0021012743656114493,
      0.001773407706753756,
      0.03207194769010499,
      0.07126219511134593,
      0.21975753920885058,
      -0.005509929455279425,
      0.021102791658691836,
      0.07710532734813123,
      -0.014698902412248385,
      -0.027964998573570505,
      -0.018681033999269868,
      -0.053166736243585776,
      -0.05572046610710179,
      -0.05012289247505625,
      -0.0075084956409011494,
      -0.015120003290624554,
      -0.013441754001580567,
      -0.000525095394103131,
      0.011861940353564167,
      -0.013394895757403817,
      -0.015538791768776636,
      -0.017037554539949897,
      -0.005395263086604826,
      -0.0004357232060619543,
      0.000623535039593501,
      0.001077122675451697,
      0.003447483787210879,
      0.0031455497276559564,
      0.003233414237990221,
      -0.01404186090068841,
      -0.00521055974773348,
      -0.03527423177447601,
      -0.010982563740755732,
      10.117575568232377
    ],
    "weights_stats": {
      "min": -0.2860854111190397,
      "max": 0.21975753920885058,
      "mean": 0.0022959808759749085,
      "std": 0.05547758090178867
    },
    "velocity_analysis": {
      "final_velocity": [
        -8.983928142732909e-11,
        5.296601742131438e-10,
        -1.0822772041201546e-08,
        -1.3411793213765931e-08,
        -8.483419681527416e-09,
        7.649692011070901e-09,
        1.62936851689168e-08,
        8.886701542998053e-08,
        -7.724584471818018e-08,
        1.937389042234038e-07,
        -1.0977872544284962e-08,
        2.022775794241805e-08,
        2.4151922294436842e-09,
        1.5124244818504907e-07,
        2.8576749308148543e-09,
        2.8576749308148543e-09,
        2.8576749308148543e-09,
        1.9252392997157197e-08,
        -1.5124244818504907e-07,
        1.0619146078261054e-07,
        2.6527024683225055e-08,
        -3.78483895389286e-08,
        -3.377291312113187e-08,
        7.385090698843444e-09,
        4.3002463270995316e-08,
        5.296601742131438e-10,
        3.543982054422459e-09,
        1.768099140220029e-08,
        -1.0086394420526758e-08,
        2.753984566296904e-09,
        1.2884860179627395e-08,
        6.5162921392480085e-09,
        -3.78483895389286e-08,
        7.261079930911154e-09,
        -3.849422183464677e-08,
        6.783882514137742e-05,
        -6.785327985352077e-05,
        -1.677707892628566e-08,
        -3.393952213439654e-08,
        -3.2837053156848325e-08,
        -1.1814818966728991e-07,
        -1.1270078231687384e-07,
        -1.15929459093372e-07,
        -2.81531543029325e-08,
        -2.000612003735723e-08,
        -3.2792425296243076e-08,
        2.664269231629026e-09,
        1.3415051069093691e-08,
        2.753984566296904e-09,
        2.748415711348319e-08,
        1.4700643922851602e-08,
        1.2884860179627395e-08,
        1.2434070832804601e-09,
        -2.483074236308788e-09,
        -3.1743020282281474e-08,
        -5.4048280446170535e-09,
        -1.3725353870002637e-09,
        4.2861641025895e-09,
        1.8440549993465503e-08,
        -2.8423645802925943e-08,
        -3.322774162462168e-08,
        -9.124156714874607e-08,
        -8.995183055370199e-09
      ],
      "velocity_stats": {
        "min": -6.785327985352077e-05,
        "max": 6.783882514137742e-05,
        "mean": -4.984184797129495e-09,
        "std": 1.2185626736861088e-05
      }
    }
  },
  "convergence_analysis": {
    "iterations_to_converge": 1800,
    "final_cost_change": -9.820303851354462e-09,
    "convergence_rate": "superlinear",
    "loss_reduction_ratio": 1.0602687939166904,
    "velocity_contribution": "accelerated_convergence"
  },
  "algorithm_specific": {
    "gradient_descent_type": "momentum",
    "momentum_coefficient": 0.9,
    "step_size_constant": true,
    "acceleration_used": true,
    "momentum_description": "Nesterov-style momentum with velocity accumulation"
  }
}