{
  "algorithm": "Momentum Gradient Descent - OLS",
  "loss_function": "OLS",
  "parameters": {
    "learning_rate": 0.1,
    "momentum": 0.9,
    "max_iterations": 10000,
    "tolerance": 1e-05
  },
  "training_results": {
    "training_time": 38.6923611164093,
    "converged": true,
    "final_iteration": 1800,
    "total_iterations": 10000,
    "final_loss": 0.011924643224977122,
    "final_gradient_norm": 9.465913818401334e-06,
    "final_velocity_norm": 9.526996432014685e-05
  },
  "weights_analysis": {
    "n_features": 62,
    "n_weights_total": 63,
    "bias_value": 10.117575577360935,
    "weights_without_bias": [
      -0.001586329901576243,
      -0.012116839424498451,
      0.011517360796120986,
      -0.012716079915378617,
      -0.0002696635404952369,
      0.0026195903096470586,
      -0.002419284064918703,
      0.08364810716670391,
      0.0038864269318203987,
      -0.28608560377391967,
      -0.010692997050765105,
      -0.005720772112747481,
      0.010001742820900127,
      0.09279195228306066,
      -0.007550118951319623,
      -0.006554270276118623,
      0.01576428978000936,
      0.01622570708509322,
      -0.07842517829931676,
      0.0775030298469406,
      0.014099557469370257,
      0.08415240469922351,
      0.00571962119344141,
      0.013104944820189209,
      -0.006738957748391921,
      0.01538823956355439,
      0.009109671981295595,
      0.025873087502880816,
      0.027789132906234783,
      -0.0043572825578715715,
      -0.008328318815108725,
      0.017310888503180452,
      0.05844577664572024,
      0.21975753196002562,
      -0.0055098911827949565,
      0.021035327322716027,
      0.07717280605921507,
      -0.014698885716143814,
      -0.0279649648115129,
      -0.018681001361498233,
      -0.053166618713239494,
      -0.055720353974765456,
      -0.050122777152718956,
      -0.007508467587200012,
      -0.015119983360032493,
      -0.013441721361309094,
      -0.0005250980411576429,
      0.011861927013759911,
      -0.006936344379629918,
      -0.015538819121131137,
      -0.01703756914567945,
      0.00470643777813209,
      -0.0004357244415280539,
      0.0006235375102222267,
      0.0010771542769766548,
      0.00344748916007929,
      0.0031455510879437243,
      0.0032334099735227477,
      -0.014041879250913896,
      -0.00521053148626197,
      -0.03527419872901774,
      -0.010982472979250247
    ],
    "complete_weight_vector": [
      -0.001586329901576243,
      -0.012116839424498451,
      0.011517360796120986,
      -0.012716079915378617,
      -0.0002696635404952369,
      0.0026195903096470586,
      -0.002419284064918703,
      0.08364810716670391,
      0.0038864269318203987,
      -0.28608560377391967,
      -0.010692997050765105,
      -0.005720772112747481,
      0.010001742820900127,
      0.09279195228306066,
      -0.007550118951319623,
      -0.006554270276118623,
      0.01576428978000936,
      0.01622570708509322,
      -0.07842517829931676,
      0.0775030298469406,
      0.014099557469370257,
      0.08415240469922351,
      0.00571962119344141,
      0.013104944820189209,
      -0.006738957748391921,
      0.01538823956355439,
      0.009109671981295595,
      0.025873087502880816,
      0.027789132906234783,
      -0.0043572825578715715,
      -0.008328318815108725,
      0.017310888503180452,
      0.05844577664572024,
      0.21975753196002562,
      -0.0055098911827949565,
      0.021035327322716027,
      0.07717280605921507,
      -0.014698885716143814,
      -0.0279649648115129,
      -0.018681001361498233,
      -0.053166618713239494,
      -0.055720353974765456,
      -0.050122777152718956,
      -0.007508467587200012,
      -0.015119983360032493,
      -0.013441721361309094,
      -0.0005250980411576429,
      0.011861927013759911,
      -0.006936344379629918,
      -0.015538819121131137,
      -0.01703756914567945,
      0.00470643777813209,
      -0.0004357244415280539,
      0.0006235375102222267,
      0.0010771542769766548,
      0.00344748916007929,
      0.0031455510879437243,
      0.0032334099735227477,
      -0.014041879250913896,
      -0.00521053148626197,
      -0.03527419872901774,
      -0.010982472979250247,
      10.117575577360935
    ],
    "weights_stats": {
      "min": -0.28608560377391967,
      "max": 0.21975753196002562,
      "mean": 0.0019279629874156161,
      "std": 0.05552530361407654
    },
    "velocity_analysis": {
      "final_velocity": [
        -8.956492264918994e-11,
        5.259030379918902e-10,
        -1.0746149824051736e-08,
        -1.3315677769132973e-08,
        -8.423084631920904e-09,
        7.596407972177821e-09,
        1.6180013204694383e-08,
        8.823751537795114e-08,
        -7.669839261602015e-08,
        1.923657529275229e-07,
        -1.090008998773364e-08,
        2.0084479425272555e-08,
        2.398087639907097e-09,
        1.501706568473061e-07,
        2.8374233111085105e-09,
        2.8374233111085105e-09,
        2.8374233111085105e-09,
        1.911594661586777e-08,
        -1.501706568473061e-07,
        1.05438895949009e-07,
        2.6339111738769343e-08,
        -3.758005720825082e-08,
        -3.353362971490006e-08,
        7.331319109325511e-09,
        4.269749303815234e-08,
        5.259030379918902e-10,
        3.518869676204233e-09,
        1.755572776525536e-08,
        -1.0014945678305266e-08,
        2.734470891398362e-09,
        1.27936032717185e-08,
        6.4716310144964435e-09,
        -3.758005720825082e-08,
        7.2097155589393814e-09,
        -3.8221520440699347e-08,
        6.735821453201284e-05,
        -6.73725668341496e-05,
        -1.6657188916154563e-08,
        -3.3697746381257034e-08,
        -3.260308201554751e-08,
        -1.1730824862396006e-07,
        -1.1189902214963327e-07,
        -1.1510417110408291e-07,
        -2.7952814418491347e-08,
        -1.986345922844387e-08,
        -3.256007166256065e-08,
        2.645393929396708e-09,
        1.3320024249629135e-08,
        2.734470891398362e-09,
        2.728947531806687e-08,
        1.4596566736937574e-08,
        1.27936032717185e-08,
        1.234597077808209e-09,
        -2.465487141923509e-09,
        -3.1518299158209374e-08,
        -5.3665262631577e-09,
        -1.3628137371060525e-09,
        4.255837742386355e-09,
        1.830991175100774e-08,
        -2.8222253143891526e-08,
        -3.29922899186943e-08,
        -9.059493401663276e-08,
        -8.931468154137728e-09
      ],
      "velocity_stats": {
        "min": -6.73725668341496e-05,
        "max": 6.735821453201284e-05,
        "mean": -4.9485626107111e-09,
        "std": 1.2099296502821755e-05
      }
    }
  },
  "convergence_analysis": {
    "iterations_to_converge": 1800,
    "final_cost_change": -9.68165098959306e-09,
    "convergence_rate": "superlinear",
    "loss_reduction_ratio": 1.0602926526239043,
    "velocity_contribution": "accelerated_convergence"
  },
  "algorithm_specific": {
    "gradient_descent_type": "momentum",
    "momentum_coefficient": 0.9,
    "step_size_constant": true,
    "acceleration_used": true,
    "momentum_description": "Nesterov-style momentum with velocity accumulation"
  }
}