{
  "algorithm": "Momentum Gradient Descent - OLS",
  "loss_function": "OLS",
  "parameters": {
    "learning_rate": 0.01,
    "momentum": 0.9,
    "max_iterations": 100000,
    "tolerance": 1e-06
  },
  "training_results": {
    "training_time": 383.58470392227173,
    "converged": true,
    "final_iteration": 52680,
    "total_iterations": 100000,
    "final_loss": 0.01192458068032788,
    "final_gradient_norm": 9.99307913059371e-07,
    "final_velocity_norm": 9.999449174729653e-06
  },
  "weights_analysis": {
    "n_features": 62,
    "n_weights_total": 63,
    "bias_value": 10.117576698931805,
    "weights_without_bias": [
      0.0015375066770660904,
      -0.0033064734436387094,
      0.01151870993036788,
      -0.029873115565520678,
      -0.004125998755908509,
      -0.012231425700870296,
      0.0067000704538025015,
      0.08363702953561634,
      0.0038960559678865767,
      -0.2861097542641656,
      -0.010691628612271846,
      -0.005723293632608502,
      0.010001441750762714,
      0.07303957909723909,
      -0.001549445241527881,
      0.006530757865660531,
      -0.0033224807294557797,
      0.01622330708054211,
      -0.09813984535317359,
      0.07748979259686917,
      0.014096250767876177,
      0.06195974021901219,
      0.0057238311251311446,
      0.0005923686638214495,
      -0.007935319167088695,
      0.006577741517954999,
      0.009109230191251353,
      0.025870883499669015,
      0.027790390229400455,
      -0.005542820895856497,
      -0.0011321749043071206,
      -0.007111878512070192,
      0.0806478771263143,
      0.21975662685540115,
      -0.005505092738570624,
      0.01257893006599829,
      0.08563100516818103,
      -0.014696794145257248,
      -0.027960733824339744,
      -0.018676907753640313,
      -0.05315189040085622,
      -0.0557063046062907,
      -0.05010832513590511,
      -0.007504957999944765,
      -0.015117489301865416,
      -0.013437633664211513,
      -0.0005254301539747345,
      0.01186025477972812,
      -0.005751492546194308,
      -0.01554224512295652,
      -0.017039401618397208,
      -0.002492918410896713,
      -0.0004358794368830966,
      0.0006238470417690003,
      0.001081111117562322,
      0.003448162891657568,
      0.0031457221723206453,
      0.0032328756913011336,
      -0.014044177947118062,
      -0.005206988357237962,
      -0.03527005675588747,
      -0.010971099305594619
    ],
    "complete_weight_vector": [
      0.0015375066770660904,
      -0.0033064734436387094,
      0.01151870993036788,
      -0.029873115565520678,
      -0.004125998755908509,
      -0.012231425700870296,
      0.0067000704538025015,
      0.08363702953561634,
      0.0038960559678865767,
      -0.2861097542641656,
      -0.010691628612271846,
      -0.005723293632608502,
      0.010001441750762714,
      0.07303957909723909,
      -0.001549445241527881,
      0.006530757865660531,
      -0.0033224807294557797,
      0.01622330708054211,
      -0.09813984535317359,
      0.07748979259686917,
      0.014096250767876177,
      0.06195974021901219,
      0.0057238311251311446,
      0.0005923686638214495,
      -0.007935319167088695,
      0.006577741517954999,
      0.009109230191251353,
      0.025870883499669015,
      0.027790390229400455,
      -0.005542820895856497,
      -0.0011321749043071206,
      -0.007111878512070192,
      0.0806478771263143,
      0.21975662685540115,
      -0.005505092738570624,
      0.01257893006599829,
      0.08563100516818103,
      -0.014696794145257248,
      -0.027960733824339744,
      -0.018676907753640313,
      -0.05315189040085622,
      -0.0557063046062907,
      -0.05010832513590511,
      -0.007504957999944765,
      -0.015117489301865416,
      -0.013437633664211513,
      -0.0005254301539747345,
      0.01186025477972812,
      -0.005751492546194308,
      -0.01554224512295652,
      -0.017039401618397208,
      -0.002492918410896713,
      -0.0004358794368830966,
      0.0006238470417690003,
      0.001081111117562322,
      0.003448162891657568,
      0.0031457221723206453,
      0.0032328756913011336,
      -0.014044177947118062,
      -0.005206988357237962,
      -0.03527005675588747,
      -0.010971099305594619,
      10.117576698931805
    ],
    "weights_stats": {
      "min": -0.2861097542641656,
      "max": 0.21975662685540115,
      "mean": 0.0002961230012205981,
      "std": 0.0556978277257786
    },
    "velocity_analysis": {
      "final_velocity": [
        -5.6384879047464214e-11,
        5.519981088165919e-11,
        -1.1278889883850551e-09,
        -1.2628582802463304e-09,
        -8.537838072298413e-10,
        9.139388418746565e-10,
        1.916220303952693e-09,
        9.261301761292409e-09,
        -8.050257265718181e-09,
        2.0190725794935994e-08,
        -1.1440663542709482e-09,
        2.1080399200817893e-09,
        2.516991285931389e-10,
        1.576187322297479e-08,
        2.978155041101545e-10,
        2.978155041101545e-10,
        2.978155041101545e-10,
        2.006409060348925e-09,
        -1.576187322297479e-08,
        1.1066849011196008e-08,
        2.7645226769374964e-09,
        -3.944430992567836e-09,
        -3.5196645695326633e-09,
        5.832623668513219e-10,
        4.433006782452086e-09,
        5.519981088165919e-11,
        3.6933891380276413e-10,
        1.8426336003408768e-09,
        -1.0511565030376399e-09,
        2.87008513328137e-10,
        1.342796227270757e-09,
        8.710554505464474e-10,
        -3.944430992567836e-09,
        7.567002980616651e-10,
        -4.011691371844077e-09,
        7.0698571837911754e-06,
        -7.071363589556451e-06,
        -1.7486570221693329e-09,
        -3.5373144954275733e-09,
        -3.4224214286577007e-09,
        -1.231350838772756e-08,
        -1.1745894306036249e-08,
        -1.2082515264750554e-08,
        -2.9341887159405026e-09,
        -2.0851500786809996e-09,
        -3.417486061271871e-09,
        2.7765815973447076e-10,
        1.3980533709719948e-09,
        2.87008513328137e-10,
        2.8642681803182716e-09,
        1.5320194463878196e-09,
        1.342796227270757e-09,
        1.2958249249842148e-10,
        -2.58773826253442e-10,
        -3.308078628205441e-09,
        -5.632692615041726e-10,
        -1.4303898779314613e-10,
        4.466761052834158e-10,
        1.9217899953505165e-09,
        -2.9621894240191506e-09,
        -3.462856073917047e-09,
        -9.508834497071989e-09,
        -9.37437100400584e-10
      ],
      "velocity_stats": {
        "min": -7.071363589556451e-06,
        "max": 7.0698571837911754e-06,
        "mean": -5.128707895491147e-10,
        "std": 1.2699312059787353e-06
      }
    }
  },
  "convergence_analysis": {
    "iterations_to_converge": 52680,
    "final_cost_change": -9.998547129130841e-13,
    "convergence_rate": "superlinear",
    "loss_reduction_ratio": 1661.3200951915921,
    "velocity_contribution": "accelerated_convergence"
  },
  "algorithm_specific": {
    "gradient_descent_type": "momentum",
    "momentum_coefficient": 0.9,
    "step_size_constant": true,
    "acceleration_used": true,
    "momentum_description": "Nesterov-style momentum with velocity accumulation"
  }
}