{
  "algorithm": "BFGS Quasi-Newton - RIDGE",
  "loss_function": "RIDGE",
  "parameters": {
    "max_iterations": 10000,
    "tolerance": 1e-05,
    "armijo_c1": 0.0001,
    "wolfe_c2": 0.9,
    "backtrack_rho": 0.8,
    "damping": 1e-08,
    "regularization": 0.01
  },
  "training_results": {
    "training_time": 10.798208236694336,
    "converged": true,
    "final_iteration": 190,
    "total_iterations": 10000,
    "final_loss": 0.012754364799579618,
    "final_gradient_norm": 9.419017947335779e-06
  },
  "weights_analysis": {
    "n_features": 62,
    "n_weights_total": 63,
    "bias_value": 10.119238432261177,
    "weights_without_bias": [
      0.01307434676022261,
      0.001315945642738104,
      0.0165446178696946,
      -0.018868605685305073,
      -0.00640446293816028,
      0.0022892419793073926,
      0.009683628671517988,
      0.08208373990452641,
      0.004133631565701653,
      -0.22150453814791055,
      -0.01724744574121719,
      0.0007472747707135073,
      0.009366496746118188,
      0.10862533179576057,
      -0.0035896174299819457,
      -0.003628989078104398,
      -0.003557001026363489,
      0.009850144508985277,
      -0.10865344082596551,
      0.08120700242625284,
      0.011503928682405221,
      0.04238111418428438,
      0.0052314552600529396,
      0.01165534589652303,
      -0.01383502261175029,
      0.0013945994332372675,
      0.008049127323521392,
      0.03140430445744855,
      0.046560468527570224,
      -0.016520575852451484,
      -0.008779667043584415,
      0.012932437360213433,
      0.042397989241253056,
      0.2053805044915288,
      -0.008163327034475516,
      0.051470714868273766,
      0.05108407967970895,
      -0.01095929222815432,
      -0.015128714210612142,
      -0.005001765940666227,
      -0.025295911220040518,
      -0.023015870933141395,
      -0.007292751555525085,
      0.0018533646919771261,
      -0.006038760137207928,
      -0.011750234865928418,
      -0.0002642353449733468,
      0.01714048819037483,
      -0.016530954059256375,
      -0.02006876994806885,
      -0.01675270077197518,
      -0.008738399514956708,
      -0.00012582432104904287,
      0.001920548300280315,
      -0.005793415426051196,
      8.049198442725724e-05,
      0.0022460715789750065,
      0.00277232910007959,
      -0.01674812956231943,
      -7.565633077504461e-05,
      -0.031088747186216972,
      -0.006154478007449187
    ],
    "complete_weight_vector": [
      0.01307434676022261,
      0.001315945642738104,
      0.0165446178696946,
      -0.018868605685305073,
      -0.00640446293816028,
      0.0022892419793073926,
      0.009683628671517988,
      0.08208373990452641,
      0.004133631565701653,
      -0.22150453814791055,
      -0.01724744574121719,
      0.0007472747707135073,
      0.009366496746118188,
      0.10862533179576057,
      -0.0035896174299819457,
      -0.003628989078104398,
      -0.003557001026363489,
      0.009850144508985277,
      -0.10865344082596551,
      0.08120700242625284,
      0.011503928682405221,
      0.04238111418428438,
      0.0052314552600529396,
      0.01165534589652303,
      -0.01383502261175029,
      0.0013945994332372675,
      0.008049127323521392,
      0.03140430445744855,
      0.046560468527570224,
      -0.016520575852451484,
      -0.008779667043584415,
      0.012932437360213433,
      0.042397989241253056,
      0.2053805044915288,
      -0.008163327034475516,
      0.051470714868273766,
      0.05108407967970895,
      -0.01095929222815432,
      -0.015128714210612142,
      -0.005001765940666227,
      -0.025295911220040518,
      -0.023015870933141395,
      -0.007292751555525085,
      0.0018533646919771261,
      -0.006038760137207928,
      -0.011750234865928418,
      -0.0002642353449733468,
      0.01714048819037483,
      -0.016530954059256375,
      -0.02006876994806885,
      -0.01675270077197518,
      -0.008738399514956708,
      -0.00012582432104904287,
      0.001920548300280315,
      -0.005793415426051196,
      8.049198442725724e-05,
      0.0022460715789750065,
      0.00277232910007959,
      -0.01674812956231943,
      -7.565633077504461e-05,
      -0.031088747186216972,
      -0.006154478007449187,
      10.119238432261177
    ],
    "weights_stats": {
      "min": -0.22150453814791055,
      "max": 0.2053805044915288,
      "mean": 0.003690378401839304,
      "std": 0.048593154386355614
    }
  },
  "convergence_analysis": {
    "iterations_to_converge": 190,
    "final_cost_change": -2.2041648367610023e-10,
    "convergence_rate": "superlinear",
    "loss_reduction_ratio": 2.1741411162021183
  },
  "numerical_analysis": {
    "average_step_size": 0.9819211509434922,
    "average_line_search_iterations": 1.1746031746031746,
    "final_condition_number": 114.63712489976504,
    "max_condition_number": 1268.7953598709448,
    "min_condition_number": 10.731057520925495,
    "hessian_approximation_quality": "BFGS_secant_approximation",
    "line_search_efficiency": "Wolfe_conditions_satisfied"
  },
  "algorithm_specific": {
    "method_type": "quasi_newton_bfgs",
    "second_order_approximation": true,
    "line_search_used": true,
    "line_search_type": "wolfe_conditions",
    "hessian_computation": "bfgs_secant_approximation",
    "superlinear_convergence": "BFGS provides superlinear convergence rate",
    "memory_efficient": "inverse_hessian_approximation",
    "positive_definite": "guaranteed_by_bfgs_updates"
  }
}