{
  "algorithm": "Gradient Descent - OLS",
  "loss_function": "OLS",
  "parameters": {
    "learning_rate": 0.001,
    "max_iterations": 100000,
    "tolerance": 1e-05,
    "step_size_method": "backtracking"
  },
  "training_results": {
    "training_time": 925.8242130279541,
    "converged": false,
    "final_iteration": 100000,
    "total_iterations": 100000,
    "final_loss": 0.011939499456692409,
    "final_gradient_norm": 0.0006629608171797213
  },
  "weights_analysis": {
    "n_features": 62,
    "n_weights_total": 63,
    "bias_value": 10.117573164015003,
    "weights_without_bias": [
      -0.00838188224532833,
      -0.004953754861316694,
      0.010793993961668157,
      -0.017092190108813868,
      -0.0012023175522825197,
      -0.0010412035678669684,
      -0.0018341078719008943,
      0.08433064363098464,
      -0.0029853274676890098,
      -0.2689888602922406,
      -0.010593336659612583,
      -0.005604967696794674,
      0.010080378043492735,
      0.0756466891757812,
      -0.006689980601659769,
      -0.0074359953923212145,
      0.017563993684532004,
      0.01615661227331778,
      -0.10833316702621325,
      0.08297140963933347,
      0.014930270953361623,
      0.05755322025628241,
      0.00566437965182309,
      0.01895198848672998,
      -0.007134861027320726,
      0.008422446439595799,
      0.009134806103703643,
      0.02585840381224575,
      0.02832678317217692,
      -0.002907031208490761,
      0.003060034338274296,
      0.011229029521468566,
      0.07119944266068944,
      0.2195334911993535,
      -0.005384493245697103,
      0.04911902783642462,
      0.04894502145592249,
      -0.008506330081281386,
      -0.020050431546774976,
      -0.010864876781144379,
      -0.03620088930772956,
      -0.03610606381574919,
      -0.02673361499669451,
      -0.002293418149195749,
      -0.00957909010431315,
      -0.013091987317025159,
      -0.0005275297357363956,
      0.011586034200149488,
      -0.008281899610888212,
      -0.01601096747514095,
      -0.0176927613254449,
      -0.006631823865075553,
      -0.0004582943158559404,
      0.0005964348925478665,
      -0.00013478112742323263,
      0.0035486109547475547,
      0.003188816337946631,
      0.0036099879904020926,
      -0.01396791848251478,
      -0.005062316360963485,
      -0.03500145162844443,
      -0.00974477794491971
    ],
    "complete_weight_vector": [
      -0.00838188224532833,
      -0.004953754861316694,
      0.010793993961668157,
      -0.017092190108813868,
      -0.0012023175522825197,
      -0.0010412035678669684,
      -0.0018341078719008943,
      0.08433064363098464,
      -0.0029853274676890098,
      -0.2689888602922406,
      -0.010593336659612583,
      -0.005604967696794674,
      0.010080378043492735,
      0.0756466891757812,
      -0.006689980601659769,
      -0.0074359953923212145,
      0.017563993684532004,
      0.01615661227331778,
      -0.10833316702621325,
      0.08297140963933347,
      0.014930270953361623,
      0.05755322025628241,
      0.00566437965182309,
      0.01895198848672998,
      -0.007134861027320726,
      0.008422446439595799,
      0.009134806103703643,
      0.02585840381224575,
      0.02832678317217692,
      -0.002907031208490761,
      0.003060034338274296,
      0.011229029521468566,
      0.07119944266068944,
      0.2195334911993535,
      -0.005384493245697103,
      0.04911902783642462,
      0.04894502145592249,
      -0.008506330081281386,
      -0.020050431546774976,
      -0.010864876781144379,
      -0.03620088930772956,
      -0.03610606381574919,
      -0.02673361499669451,
      -0.002293418149195749,
      -0.00957909010431315,
      -0.013091987317025159,
      -0.0005275297357363956,
      0.011586034200149488,
      -0.008281899610888212,
      -0.01601096747514095,
      -0.0176927613254449,
      -0.006631823865075553,
      -0.0004582943158559404,
      0.0005964348925478665,
      -0.00013478112742323263,
      0.0035486109547475547,
      0.003188816337946631,
      0.0036099879904020926,
      -0.01396791848251478,
      -0.005062316360963485,
      -0.03500145162844443,
      -0.00974477794491971,
      10.117573164015003
    ],
    "weights_stats": {
      "min": -0.2689888602922406,
      "max": 0.2195334911993535,
      "mean": 0.0024918911270175987,
      "std": 0.05317185115038262
    }
  },
  "convergence_analysis": {
    "iterations_to_converge": 100000,
    "final_cost_change": -4.4027091623474734e-08,
    "convergence_rate": "linear",
    "loss_reduction_ratio": 3509.7530611093744
  },
  "algorithm_specific": {
    "gradient_descent_type": "standard",
    "step_size_method": "backtracking",
    "step_size_constant": false,
    "momentum_used": false,
    "backtracking_parameters": {
      "c1": 0.0001,
      "rho": 0.8
    },
    "adaptive_parameters": null
  }
}