{
  "algorithm": "Gradient Descent - OLS",
  "loss_function": "OLS",
  "parameters": {
    "learning_rate": 0.001,
    "max_iterations": 10000,
    "tolerance": 1e-05,
    "step_size_method": "backtracking"
  },
  "training_results": {
    "training_time": 131.2136960029602,
    "converged": false,
    "final_iteration": 10000,
    "total_iterations": 10000,
    "final_loss": 0.012568688788572641,
    "final_gradient_norm": 0.009289274330458081
  },
  "weights_analysis": {
    "n_features": 62,
    "n_weights_total": 63,
    "bias_value": 10.117033167338715,
    "weights_without_bias": [
      0.005598737288383413,
      0.00032596574041025063,
      0.0023413869620470032,
      -0.008134054747430708,
      -0.00078754594377011,
      -0.0016012221891818846,
      0.009096794115296,
      0.07516016665748862,
      -0.00939945484390249,
      -0.14831015210202259,
      -0.0107055735248349,
      -0.019948810892418043,
      0.010022344410762059,
      0.1033977746043633,
      -0.003902378667354654,
      -0.00024151943272224393,
      -0.010058139258284807,
      0.01587203241532045,
      -0.0918032833627851,
      0.0614462205770131,
      0.0258154702205781,
      0.008024393362727986,
      0.008562597473595564,
      0.006425004760828501,
      0.0008529555918594718,
      0.00206793838515634,
      0.009465549961958126,
      0.023762312148357136,
      0.04996805732095186,
      -0.017801736457770615,
      -0.002406384539387161,
      0.01209106830731783,
      0.005939975816671671,
      0.21524353360872583,
      -0.003977493596369315,
      0.0478606232675982,
      0.055797144310924404,
      0.00028764067983224446,
      -0.01005703987984481,
      -0.0002511569527760593,
      -0.010722537450637037,
      -0.011622565646241693,
      0.007144085185186454,
      0.00729176088687734,
      -0.002152875277035542,
      -0.012519600298519104,
      -0.0006087917483544446,
      0.007875721452175669,
      0.0012413723297815126,
      -0.02006106716410739,
      -0.02397104915229328,
      -0.0036422361739407026,
      -0.0006408654063606041,
      0.0005892495236658432,
      -0.0012577391308721386,
      0.004767984869537819,
      0.0037829977896505817,
      0.005094003898619572,
      -0.014433296522919048,
      -0.0032049120344677167,
      -0.03270532318118667,
      -0.00876150292341721
    ],
    "complete_weight_vector": [
      0.005598737288383413,
      0.00032596574041025063,
      0.0023413869620470032,
      -0.008134054747430708,
      -0.00078754594377011,
      -0.0016012221891818846,
      0.009096794115296,
      0.07516016665748862,
      -0.00939945484390249,
      -0.14831015210202259,
      -0.0107055735248349,
      -0.019948810892418043,
      0.010022344410762059,
      0.1033977746043633,
      -0.003902378667354654,
      -0.00024151943272224393,
      -0.010058139258284807,
      0.01587203241532045,
      -0.0918032833627851,
      0.0614462205770131,
      0.0258154702205781,
      0.008024393362727986,
      0.008562597473595564,
      0.006425004760828501,
      0.0008529555918594718,
      0.00206793838515634,
      0.009465549961958126,
      0.023762312148357136,
      0.04996805732095186,
      -0.017801736457770615,
      -0.002406384539387161,
      0.01209106830731783,
      0.005939975816671671,
      0.21524353360872583,
      -0.003977493596369315,
      0.0478606232675982,
      0.055797144310924404,
      0.00028764067983224446,
      -0.01005703987984481,
      -0.0002511569527760593,
      -0.010722537450637037,
      -0.011622565646241693,
      0.007144085185186454,
      0.00729176088687734,
      -0.002152875277035542,
      -0.012519600298519104,
      -0.0006087917483544446,
      0.007875721452175669,
      0.0012413723297815126,
      -0.02006106716410739,
      -0.02397104915229328,
      -0.0036422361739407026,
      -0.0006408654063606041,
      0.0005892495236658432,
      -0.0012577391308721386,
      0.004767984869537819,
      0.0037829977896505817,
      0.005094003898619572,
      -0.014433296522919048,
      -0.0032049120344677167,
      -0.03270532318118667,
      -0.00876150292341721,
      10.117033167338715
    ],
    "weights_stats": {
      "min": -0.14831015210202259,
      "max": 0.21524353360872583,
      "mean": 0.004960041216491197,
      "std": 0.04205022115491879
    }
  },
  "convergence_analysis": {
    "iterations_to_converge": 10000,
    "final_cost_change": -8.725346409166335e-06,
    "convergence_rate": "linear",
    "loss_reduction_ratio": 3343.575781008337
  },
  "algorithm_specific": {
    "gradient_descent_type": "standard",
    "step_size_method": "backtracking",
    "step_size_constant": false,
    "momentum_used": false,
    "backtracking_parameters": {
      "c1": 0.0001,
      "rho": 0.8
    },
    "adaptive_parameters": null
  }
}