{
  "algorithm": "Gradient Descent - OLS",
  "loss_function": "OLS",
  "parameters": {
    "learning_rate": 0.1,
    "max_iterations": 1000,
    "tolerance": 1e-05,
    "step_size_method": "backtracking"
  },
  "training_results": {
    "training_time": 88.06346011161804,
    "converged": false,
    "final_iteration": 1000,
    "total_iterations": 1000,
    "final_loss": 0.011938055274433687,
    "final_gradient_norm": 0.0006627120688003112
  },
  "weights_analysis": {
    "n_features": 62,
    "n_weights_total": 63,
    "bias_value": 10.117573383050185,
    "weights_without_bias": [
      0.0058052159183669926,
      0.01254215633780093,
      0.010841492792943849,
      -0.020457525933334636,
      -0.0019320520235597302,
      -0.003879837395757325,
      -0.0014226741480858173,
      0.08430374158538655,
      -0.003762080704018962,
      -0.2667770285337431,
      -0.010603961418758034,
      -0.005641842452050412,
      0.010075854186093044,
      0.09762334823372498,
      -0.0015247021960387657,
      -0.0011269558778418337,
      0.00623214449428208,
      0.016205021842354134,
      -0.08826222873068318,
      0.08376702952262804,
      0.014956693268754427,
      0.06783937731725123,
      0.005637594613468627,
      0.005265417338696623,
      -0.004934962312747021,
      -0.009042994365321444,
      0.009144699214046996,
      0.02585579083812221,
      0.028317281822851807,
      -0.02302663770160042,
      -0.004152127817789803,
      0.0065462456838935095,
      0.05927531239918066,
      0.21939525349705905,
      -0.005352264633830971,
      0.04608928968338742,
      0.05195678405517202,
      -0.009734861004730791,
      -0.021630981356556476,
      -0.01246131415401498,
      -0.03968029460837555,
      -0.04007200043883123,
      -0.031482047499464226,
      -0.003351996774739605,
      -0.010678145715067524,
      -0.013126297151025392,
      -0.0005237424665214946,
      0.011610296454661903,
      0.011890554992891047,
      -0.015973581360610917,
      -0.017687850474580897,
      0.0005827289260772459,
      -0.00045773294763079667,
      0.0006022615768829444,
      4.4345568659002025e-05,
      0.003539227945868131,
      0.0031946765153243076,
      0.0035725125719830394,
      -0.013976529582911228,
      -0.0050892027205294114,
      -0.03505838738853275,
      -0.010016662223001183
    ],
    "complete_weight_vector": [
      0.0058052159183669926,
      0.01254215633780093,
      0.010841492792943849,
      -0.020457525933334636,
      -0.0019320520235597302,
      -0.003879837395757325,
      -0.0014226741480858173,
      0.08430374158538655,
      -0.003762080704018962,
      -0.2667770285337431,
      -0.010603961418758034,
      -0.005641842452050412,
      0.010075854186093044,
      0.09762334823372498,
      -0.0015247021960387657,
      -0.0011269558778418337,
      0.00623214449428208,
      0.016205021842354134,
      -0.08826222873068318,
      0.08376702952262804,
      0.014956693268754427,
      0.06783937731725123,
      0.005637594613468627,
      0.005265417338696623,
      -0.004934962312747021,
      -0.009042994365321444,
      0.009144699214046996,
      0.02585579083812221,
      0.028317281822851807,
      -0.02302663770160042,
      -0.004152127817789803,
      0.0065462456838935095,
      0.05927531239918066,
      0.21939525349705905,
      -0.005352264633830971,
      0.04608928968338742,
      0.05195678405517202,
      -0.009734861004730791,
      -0.021630981356556476,
      -0.01246131415401498,
      -0.03968029460837555,
      -0.04007200043883123,
      -0.031482047499464226,
      -0.003351996774739605,
      -0.010678145715067524,
      -0.013126297151025392,
      -0.0005237424665214946,
      0.011610296454661903,
      0.011890554992891047,
      -0.015973581360610917,
      -0.017687850474580897,
      0.0005827289260772459,
      -0.00045773294763079667,
      0.0006022615768829444,
      4.4345568659002025e-05,
      0.003539227945868131,
      0.0031946765153243076,
      0.0035725125719830394,
      -0.013976529582911228,
      -0.0050892027205294114,
      -0.03505838738853275,
      -0.010016662223001183,
      10.117573383050185
    ],
    "weights_stats": {
      "min": -0.2667770285337431,
      "max": 0.21939525349705905,
      "mean": 0.0027388845981536603,
      "std": 0.05308496848897848
    }
  },
  "convergence_analysis": {
    "iterations_to_converge": 1000,
    "final_cost_change": -4.462063584002862e-07,
    "convergence_rate": "linear",
    "loss_reduction_ratio": 522.4721863163795
  },
  "algorithm_specific": {
    "gradient_descent_type": "standard",
    "step_size_method": "backtracking",
    "step_size_constant": false,
    "momentum_used": false,
    "backtracking_parameters": {
      "c1": 0.0001,
      "rho": 0.8
    },
    "adaptive_parameters": null
  }
}