{
  "algorithm": "Gradient Descent - OLS",
  "loss_function": "OLS",
  "parameters": {
    "learning_rate": 0.3,
    "max_iterations": 10000,
    "tolerance": 1e-05,
    "step_size_method": "constant"
  },
  "training_results": {
    "training_time": 5.0167858600616455,
    "converged": true,
    "final_iteration": 600,
    "total_iterations": 10000,
    "final_loss": Infinity,
    "final_gradient_norm": Infinity
  },
  "weights_analysis": {
    "n_features": 62,
    "n_weights_total": 63,
    "bias_value": -1.8783081905936594e+157,
    "weights_without_bias": [
      -8.353040198960308e+159,
      -1.3899455560371824e+160,
      1.2432309882936659e+159,
      2.919292132419546e+160,
      8.43118126746537e+159,
      3.2589401165678484e+160,
      -3.3536686584078606e+159,
      -1.0863481014205627e+160,
      -7.203689900879353e+160,
      6.80886730029388e+160,
      -8.359708672302523e+159,
      4.57243068553686e+160,
      1.2001859409517167e+159,
      -6.255142592385198e+160,
      -7.110393490559537e+160,
      -7.110393490559537e+160,
      -7.110393490559537e+160,
      -7.113792202468691e+160,
      6.255142592385198e+160,
      4.061095728688847e+160,
      1.3413313587601295e+160,
      6.999033633831752e+160,
      7.957400043770098e+159,
      -6.094586098752563e+159,
      1.6431402348975072e+160,
      -1.3899455560371824e+160,
      1.2637304005781439e+160,
      -1.5513603365717684e+158,
      -1.0490949975294315e+160,
      -4.963648187764054e+159,
      -4.988968766790794e+159,
      -4.165881978736662e+160,
      6.999033633831752e+160,
      -5.5302302009698927e+160,
      -9.377374772805646e+159,
      -2.472090009913179e+160,
      -2.4762024827576556e+160,
      5.375093336077975e+159,
      3.4917254724853693e+159,
      5.405023212272934e+159,
      -1.0768325681410153e+160,
      1.593148820288334e+160,
      -1.2740606461946592e+160,
      -5.474977338773362e+158,
      5.818934155088961e+159,
      3.1800348188617242e+159,
      1.395100276508398e+158,
      -1.703116969042e+159,
      -4.963648187764054e+159,
      7.439840306924518e+159,
      6.91903576524008e+157,
      -4.988968766790794e+159,
      2.9903332508342603e+159,
      -3.132684862908025e+159,
      -4.62130081807069e+159,
      -5.978897770581726e+159,
      2.3016266523261628e+157,
      9.534621003547231e+159,
      -4.131670598460461e+159,
      -4.547838930455726e+159,
      8.400963805165427e+159,
      8.28492178818502e+159
    ],
    "complete_weight_vector": [
      -8.353040198960308e+159,
      -1.3899455560371824e+160,
      1.2432309882936659e+159,
      2.919292132419546e+160,
      8.43118126746537e+159,
      3.2589401165678484e+160,
      -3.3536686584078606e+159,
      -1.0863481014205627e+160,
      -7.203689900879353e+160,
      6.80886730029388e+160,
      -8.359708672302523e+159,
      4.57243068553686e+160,
      1.2001859409517167e+159,
      -6.255142592385198e+160,
      -7.110393490559537e+160,
      -7.110393490559537e+160,
      -7.110393490559537e+160,
      -7.113792202468691e+160,
      6.255142592385198e+160,
      4.061095728688847e+160,
      1.3413313587601295e+160,
      6.999033633831752e+160,
      7.957400043770098e+159,
      -6.094586098752563e+159,
      1.6431402348975072e+160,
      -1.3899455560371824e+160,
      1.2637304005781439e+160,
      -1.5513603365717684e+158,
      -1.0490949975294315e+160,
      -4.963648187764054e+159,
      -4.988968766790794e+159,
      -4.165881978736662e+160,
      6.999033633831752e+160,
      -5.5302302009698927e+160,
      -9.377374772805646e+159,
      -2.472090009913179e+160,
      -2.4762024827576556e+160,
      5.375093336077975e+159,
      3.4917254724853693e+159,
      5.405023212272934e+159,
      -1.0768325681410153e+160,
      1.593148820288334e+160,
      -1.2740606461946592e+160,
      -5.474977338773362e+158,
      5.818934155088961e+159,
      3.1800348188617242e+159,
      1.395100276508398e+158,
      -1.703116969042e+159,
      -4.963648187764054e+159,
      7.439840306924518e+159,
      6.91903576524008e+157,
      -4.988968766790794e+159,
      2.9903332508342603e+159,
      -3.132684862908025e+159,
      -4.62130081807069e+159,
      -5.978897770581726e+159,
      2.3016266523261628e+157,
      9.534621003547231e+159,
      -4.131670598460461e+159,
      -4.547838930455726e+159,
      8.400963805165427e+159,
      8.28492178818502e+159,
      -1.8783081905936594e+157
    ],
    "weights_stats": {
      "min": -7.203689900879353e+160,
      "max": 6.999033633831752e+160,
      "mean": -2.617242842844125e+159,
      "std": Infinity
    }
  },
  "convergence_analysis": {
    "iterations_to_converge": 600,
    "final_cost_change": Infinity,
    "convergence_rate": "linear",
    "loss_reduction_ratio": 0.0
  },
  "algorithm_specific": {
    "gradient_descent_type": "standard",
    "step_size_method": "constant",
    "step_size_constant": true,
    "momentum_used": false,
    "backtracking_parameters": null,
    "adaptive_parameters": null
  }
}