{
  "algorithm": "Gradient Descent - OLS",
  "loss_function": "OLS",
  "parameters": {
    "learning_rate": 0.3,
    "max_iterations": 100000,
    "tolerance": 1e-05,
    "step_size_method": "constant"
  },
  "training_results": {
    "training_time": 3.1556763648986816,
    "converged": false,
    "final_iteration": 100000,
    "total_iterations": 100000,
    "final_loss": Infinity,
    "final_gradient_norm": Infinity
  },
  "weights_analysis": {
    "n_features": 62,
    "n_weights_total": 63,
    "bias_value": -1.8975165767060842e+157,
    "weights_without_bias": [
      -8.438461974871297e+159,
      -1.4041597361426557e+160,
      1.2559448022294364e+159,
      2.949146067324024e+160,
      8.517402147497048e+159,
      3.2922674376047365e+160,
      -3.3879647141905027e+159,
      -1.0974575635888908e+160,
      -7.277357927105509e+160,
      6.87849770106769e+160,
      -8.445198642885386e+159,
      4.6191903251513155e+160,
      1.2124595577496173e+159,
      -6.319110366523826e+160,
      -7.183107427631827e+160,
      -7.183107427631827e+160,
      -7.183107427631827e+160,
      -7.18654089622839e+160,
      6.319110366523826e+160,
      4.102626237464838e+160,
      1.355048389209074e+160,
      7.070608757190672e+160,
      8.038775833564295e+159,
      -6.1569119532435586e+159,
      1.6599436925120435e+160,
      -1.4041597361426557e+160,
      1.276653850306486e+160,
      -1.567225213535258e+158,
      -1.0598234934607033e+160,
      -5.014408585546999e+159,
      -5.039988103687646e+159,
      -4.20848407670137e+160,
      7.070608757190672e+160,
      -5.5867847097129806e+160,
      -9.473271833923065e+159,
      -2.4973706638821226e+160,
      -2.5015251926398226e+160,
      5.430061348624146e+159,
      3.527433356531046e+159,
      5.460297300585107e+159,
      -1.0878447203800101e+160,
      1.6094410442305177e+160,
      -1.2870897374505338e+160,
      -5.53096680802177e+158,
      5.878441074437759e+159,
      3.2125552204419446e+159,
      1.409367170998871e+158,
      -1.7205337744942002e+159,
      -5.014408585546999e+159,
      7.515923308607035e+159,
      6.989792796043431e+157,
      -5.039988103687646e+159,
      3.0209136827210578e+159,
      -3.164721043506362e+159,
      -4.668560224645515e+159,
      -6.04004054655171e+159,
      2.3251640748026916e+157,
      9.632126132142511e+159,
      -4.173922836159931e+159,
      -4.5943470842229e+159,
      8.486875668452104e+159,
      8.369646955977043e+159
    ],
    "complete_weight_vector": [
      -8.438461974871297e+159,
      -1.4041597361426557e+160,
      1.2559448022294364e+159,
      2.949146067324024e+160,
      8.517402147497048e+159,
      3.2922674376047365e+160,
      -3.3879647141905027e+159,
      -1.0974575635888908e+160,
      -7.277357927105509e+160,
      6.87849770106769e+160,
      -8.445198642885386e+159,
      4.6191903251513155e+160,
      1.2124595577496173e+159,
      -6.319110366523826e+160,
      -7.183107427631827e+160,
      -7.183107427631827e+160,
      -7.183107427631827e+160,
      -7.18654089622839e+160,
      6.319110366523826e+160,
      4.102626237464838e+160,
      1.355048389209074e+160,
      7.070608757190672e+160,
      8.038775833564295e+159,
      -6.1569119532435586e+159,
      1.6599436925120435e+160,
      -1.4041597361426557e+160,
      1.276653850306486e+160,
      -1.567225213535258e+158,
      -1.0598234934607033e+160,
      -5.014408585546999e+159,
      -5.039988103687646e+159,
      -4.20848407670137e+160,
      7.070608757190672e+160,
      -5.5867847097129806e+160,
      -9.473271833923065e+159,
      -2.4973706638821226e+160,
      -2.5015251926398226e+160,
      5.430061348624146e+159,
      3.527433356531046e+159,
      5.460297300585107e+159,
      -1.0878447203800101e+160,
      1.6094410442305177e+160,
      -1.2870897374505338e+160,
      -5.53096680802177e+158,
      5.878441074437759e+159,
      3.2125552204419446e+159,
      1.409367170998871e+158,
      -1.7205337744942002e+159,
      -5.014408585546999e+159,
      7.515923308607035e+159,
      6.989792796043431e+157,
      -5.039988103687646e+159,
      3.0209136827210578e+159,
      -3.164721043506362e+159,
      -4.668560224645515e+159,
      -6.04004054655171e+159,
      2.3251640748026916e+157,
      9.632126132142511e+159,
      -4.173922836159931e+159,
      -4.5943470842229e+159,
      8.486875668452104e+159,
      8.369646955977043e+159,
      -1.8975165767060842e+157
    ],
    "weights_stats": {
      "min": -7.277357927105509e+160,
      "max": 7.070608757190672e+160,
      "mean": -2.6440078920119595e+159,
      "std": Infinity
    }
  },
  "convergence_analysis": {
    "iterations_to_converge": 100000,
    "final_cost_change": Infinity,
    "convergence_rate": "linear",
    "loss_reduction_ratio": 0.0
  },
  "algorithm_specific": {
    "gradient_descent_type": "standard",
    "step_size_method": "constant",
    "step_size_constant": true,
    "momentum_used": false,
    "backtracking_parameters": null,
    "adaptive_parameters": null
  }
}