{
  "algorithm": "Damped Newton Method - OLS",
  "loss_function": "OLS",
  "parameters": {
    "regularization": 0.0,
    "numerical_regularization": 1e-08,
    "max_iterations": 100,
    "tolerance": 1e-08,
    "armijo_c1": 0.0001,
    "backtrack_rho": 0.8,
    "max_line_search_iter": 50
  },
  "training_results": {
    "training_time": 0.2578597068786621,
    "converged": true,
    "final_iteration": 3,
    "total_iterations": 100,
    "final_loss": 0.011924579974447415,
    "final_gradient_norm": 4.415908606545122e-11
  },
  "weights_analysis": {
    "n_features": 62,
    "n_weights_total": 63,
    "bias_value": 10.117576831235413,
    "weights_without_bias": [
      -0.001941391054180168,
      0.007584446589135536,
      0.011518869238213094,
      -0.021482724971437155,
      -0.0022397020756543553,
      -0.004970216819700573,
      -0.003935307334248188,
      0.08363572110569205,
      0.0038971933217940465,
      -0.2861126067849832,
      -0.010691466976024326,
      -0.005723591425995428,
      0.010001406196650887,
      0.0936077381089823,
      -0.006167723614272869,
      -0.0009441581750083975,
      0.008770587444060665,
      0.01622302367025916,
      -0.07756723270471205,
      0.07748822908182085,
      0.01409586019832663,
      0.07638371214717042,
      0.005724328382325749,
      0.01502882988321506,
      -0.006520442917484183,
      -0.004313194104059016,
      0.009109178021372472,
      0.025870623169906945,
      0.027790538723756635,
      -0.004626117898505765,
      0.006137922297649799,
      0.004829770970725482,
      0.0662250197293929,
      0.21975651993791842,
      -0.005504525951095716,
      0.011580111072281676,
      0.08663003697209976,
      -0.014696547093415713,
      -0.027960234050002718,
      -0.018676424261060743,
      -0.053150150734665204,
      -0.05570464512706043,
      -0.05010661813325925,
      -0.007504543429195248,
      -0.015117194709324428,
      -0.013437150822162944,
      -0.0005254693805083899,
      0.011860057258881179,
      -0.006668276735647596,
      -0.0155426497948758,
      -0.017039618067748962,
      -0.009763395041466586,
      -0.00043589774424432196,
      0.0006238835962437855,
      0.0010815785037863567,
      0.003448242474533805,
      0.0031457423881107007,
      0.003232812588318442,
      -0.014044449450634744,
      -0.00520656986161287,
      -0.035269567514632054,
      -0.010969755883903167
    ],
    "complete_weight_vector": [
      -0.001941391054180168,
      0.007584446589135536,
      0.011518869238213094,
      -0.021482724971437155,
      -0.0022397020756543553,
      -0.004970216819700573,
      -0.003935307334248188,
      0.08363572110569205,
      0.0038971933217940465,
      -0.2861126067849832,
      -0.010691466976024326,
      -0.005723591425995428,
      0.010001406196650887,
      0.0936077381089823,
      -0.006167723614272869,
      -0.0009441581750083975,
      0.008770587444060665,
      0.01622302367025916,
      -0.07756723270471205,
      0.07748822908182085,
      0.01409586019832663,
      0.07638371214717042,
      0.005724328382325749,
      0.01502882988321506,
      -0.006520442917484183,
      -0.004313194104059016,
      0.009109178021372472,
      0.025870623169906945,
      0.027790538723756635,
      -0.004626117898505765,
      0.006137922297649799,
      0.004829770970725482,
      0.0662250197293929,
      0.21975651993791842,
      -0.005504525951095716,
      0.011580111072281676,
      0.08663003697209976,
      -0.014696547093415713,
      -0.027960234050002718,
      -0.018676424261060743,
      -0.053150150734665204,
      -0.05570464512706043,
      -0.05010661813325925,
      -0.007504543429195248,
      -0.015117194709324428,
      -0.013437150822162944,
      -0.0005254693805083899,
      0.011860057258881179,
      -0.006668276735647596,
      -0.0155426497948758,
      -0.017039618067748962,
      -0.009763395041466586,
      -0.00043589774424432196,
      0.0006238835962437855,
      0.0010815785037863567,
      0.003448242474533805,
      0.0031457423881107007,
      0.003232812588318442,
      -0.014044449450634744,
      -0.00520656986161287,
      -0.035269567514632054,
      -0.010969755883903167,
      10.117576831235413
    ],
    "weights_stats": {
      "min": -0.2861126067849832,
      "max": 0.21975651993791842,
      "mean": 0.0014632648779006822,
      "std": 0.055625728040059066
    }
  },
  "convergence_analysis": {
    "iterations_to_converge": 3,
    "final_cost_change": -2.005409727168228e-13,
    "convergence_rate": "superlinear",
    "loss_reduction_ratio": 4279.358678558671,
    "convergence_quality": "damped_superlinear"
  },
  "numerical_analysis": {
    "hessian_condition_number": 954610051.7705601,
    "average_step_size": 1.0,
    "max_step_size": 1.0,
    "min_step_size": 1.0,
    "step_size_stability": "line_search_controlled",
    "regularization_effect": "Applied for numerical stability"
  },
  "line_search_analysis": {
    "average_backtracks": 0.0,
    "max_backtracks": 0,
    "min_backtracks": 0,
    "total_line_search_calls": 2,
    "line_search_success_rate": "100%"
  },
  "algorithm_specific": {
    "method_type": "damped_newton",
    "second_order_method": true,
    "hessian_computation": "exact",
    "line_search_used": true,
    "line_search_type": "backtracking_armijo",
    "damping_applied": "line_search_based",
    "fast_convergence": true,
    "globalization_strategy": "armijo_line_search"
  }
}