{
  "algorithm": "Gradient Descent - OLS",
  "loss_function": "OLS",
  "parameters": {
    "learning_rate": 0.01,
    "max_iterations": 1000,
    "tolerance": 1e-05,
    "step_size_method": "constant"
  },
  "training_results": {
    "training_time": 51.608835220336914,
    "converged": false,
    "final_iteration": 1000,
    "total_iterations": 1000,
    "final_loss": 0.012605047060729076,
    "final_gradient_norm": 0.009312303318399311
  },
  "weights_analysis": {
    "n_features": 62,
    "n_weights_total": 63,
    "bias_value": 10.117064722309188,
    "weights_without_bias": [
      0.0014093216540895226,
      0.008899311617210916,
      0.005135190510780664,
      -0.014396415890623076,
      -0.0019618906427889406,
      -0.006495174766113103,
      0.0015460955762070022,
      0.08573969434019985,
      -0.0070181622836771205,
      -0.13480639112479667,
      -0.010933911416792936,
      -0.020268170977056344,
      0.010069007731079167,
      0.0967647956646214,
      0.007081753510232128,
      -0.012346789027084547,
      -0.003868077705813341,
      0.0035473054570831376,
      -0.11050576546856232,
      0.06647604267105178,
      0.02684799878559843,
      0.004368556423546341,
      0.0084574717845321,
      0.013206953823270627,
      0.00290820447214031,
      -0.00621870665516127,
      0.009385837068920568,
      0.022818891287901932,
      0.03658288301412716,
      -0.010791362928419103,
      0.002986491129517181,
      0.004102573067245875,
      -0.0007585785337127701,
      0.2158017885674949,
      -0.0035781468335771287,
      0.04814196569939127,
      0.055487401137571245,
      -0.0005897632803878918,
      -0.010270187696200061,
      -0.0008777969267399023,
      -0.012458150710111545,
      -0.013080280689267323,
      0.004921560623832119,
      0.006364713850868273,
      -0.0024044608071869906,
      -0.014004575452284016,
      -0.0004467226007394794,
      0.010142061851111986,
      -0.000528847505358273,
      -0.015530281537300714,
      -0.018132809764396542,
      -0.004223095958169918,
      -0.0006288653421296591,
      0.0005277100771778702,
      -0.001774948498911841,
      0.005161964085752419,
      0.0037114053530118173,
      0.004950164511867502,
      -0.014152114016247353,
      -0.0028518080979242403,
      -0.03210253971358583,
      -0.00918043608327581
    ],
    "complete_weight_vector": [
      0.0014093216540895226,
      0.008899311617210916,
      0.005135190510780664,
      -0.014396415890623076,
      -0.0019618906427889406,
      -0.006495174766113103,
      0.0015460955762070022,
      0.08573969434019985,
      -0.0070181622836771205,
      -0.13480639112479667,
      -0.010933911416792936,
      -0.020268170977056344,
      0.010069007731079167,
      0.0967647956646214,
      0.007081753510232128,
      -0.012346789027084547,
      -0.003868077705813341,
      0.0035473054570831376,
      -0.11050576546856232,
      0.06647604267105178,
      0.02684799878559843,
      0.004368556423546341,
      0.0084574717845321,
      0.013206953823270627,
      0.00290820447214031,
      -0.00621870665516127,
      0.009385837068920568,
      0.022818891287901932,
      0.03658288301412716,
      -0.010791362928419103,
      0.002986491129517181,
      0.004102573067245875,
      -0.0007585785337127701,
      0.2158017885674949,
      -0.0035781468335771287,
      0.04814196569939127,
      0.055487401137571245,
      -0.0005897632803878918,
      -0.010270187696200061,
      -0.0008777969267399023,
      -0.012458150710111545,
      -0.013080280689267323,
      0.004921560623832119,
      0.006364713850868273,
      -0.0024044608071869906,
      -0.014004575452284016,
      -0.0004467226007394794,
      0.010142061851111986,
      -0.000528847505358273,
      -0.015530281537300714,
      -0.018132809764396542,
      -0.004223095958169918,
      -0.0006288653421296591,
      0.0005277100771778702,
      -0.001774948498911841,
      0.005161964085752419,
      0.0037114053530118173,
      0.004950164511867502,
      -0.014152114016247353,
      -0.0028518080979242403,
      -0.03210253971358583,
      -0.00918043608327581,
      10.117064722309188
    ],
    "weights_stats": {
      "min": -0.13480639112479667,
      "max": 0.2158017885674949,
      "mean": 0.00445741752279096,
      "std": 0.042014951875004064
    }
  },
  "convergence_analysis": {
    "iterations_to_converge": 1000,
    "final_cost_change": -8.7552394623866e-06,
    "convergence_rate": "linear",
    "loss_reduction_ratio": 3321.511582803955
  },
  "algorithm_specific": {
    "gradient_descent_type": "standard",
    "step_size_method": "constant",
    "step_size_constant": true,
    "momentum_used": false,
    "backtracking_parameters": null,
    "adaptive_parameters": null
  }
}