{
  "algorithm": "Gradient Descent - OLS",
  "loss_function": "OLS",
  "parameters": {
    "learning_rate": 0.01,
    "max_iterations": 1000,
    "tolerance": 1e-05,
    "step_size_method": "constant"
  },
  "training_results": {
    "training_time": 54.15611124038696,
    "converged": false,
    "final_iteration": 1000,
    "total_iterations": 1000,
    "final_loss": 0.012652145635268501,
    "final_gradient_norm": 0.010053895061352814
  },
  "weights_analysis": {
    "n_features": 62,
    "n_weights_total": 63,
    "bias_value": 10.117069876509118,
    "weights_without_bias": [
      0.012791337492489662,
      -0.0091051847431897,
      0.0029020421419586814,
      -0.010255085531136136,
      -0.001318783931696525,
      -0.004071431594942375,
      0.0012458877637087958,
      0.07910360162207035,
      -0.01222397027965155,
      -0.140110319376338,
      -0.010828379274006315,
      -0.021600288673022775,
      0.009960490763293377,
      0.09944759465510876,
      -0.013008927518696202,
      0.003376907290087092,
      0.001476224291665596,
      0.010434192045876341,
      -0.09331549342727276,
      0.056944383151761487,
      0.02725311458764857,
      -0.0009925540675174047,
      0.00898432484666699,
      0.00253104909268103,
      0.004636890096047595,
      0.011442947012252482,
      0.009356780686839513,
      0.022163513855527846,
      0.0438909066930198,
      -0.010744369422550474,
      0.0065319919281035446,
      0.0083118871048012,
      0.006861104692513354,
      0.21765752648832531,
      -0.0037210415905368625,
      0.05626414762672497,
      0.04828837262589083,
      -0.00022103939469603014,
      -0.009995168733705201,
      -0.0008626478214511145,
      -0.01168045165213756,
      -0.012210340993156935,
      0.005394967309478027,
      0.006416649989812955,
      -0.0023925001198232014,
      -0.013575864820281225,
      -0.0003585236768309111,
      0.01185356209765743,
      0.0008622483733871594,
      -0.012327480330333315,
      -0.013864679636368175,
      -0.0056014171048113775,
      -0.0006188139184323384,
      0.0005790099717614177,
      -0.0019028127758549548,
      0.005279884848295063,
      0.003759293052687648,
      0.00485966376393774,
      -0.0141803041091361,
      -0.0022528006352810466,
      -0.03091666503910933,
      -0.008783233070767366
    ],
    "complete_weight_vector": [
      0.012791337492489662,
      -0.0091051847431897,
      0.0029020421419586814,
      -0.010255085531136136,
      -0.001318783931696525,
      -0.004071431594942375,
      0.0012458877637087958,
      0.07910360162207035,
      -0.01222397027965155,
      -0.140110319376338,
      -0.010828379274006315,
      -0.021600288673022775,
      0.009960490763293377,
      0.09944759465510876,
      -0.013008927518696202,
      0.003376907290087092,
      0.001476224291665596,
      0.010434192045876341,
      -0.09331549342727276,
      0.056944383151761487,
      0.02725311458764857,
      -0.0009925540675174047,
      0.00898432484666699,
      0.00253104909268103,
      0.004636890096047595,
      0.011442947012252482,
      0.009356780686839513,
      0.022163513855527846,
      0.0438909066930198,
      -0.010744369422550474,
      0.0065319919281035446,
      0.0083118871048012,
      0.006861104692513354,
      0.21765752648832531,
      -0.0037210415905368625,
      0.05626414762672497,
      0.04828837262589083,
      -0.00022103939469603014,
      -0.009995168733705201,
      -0.0008626478214511145,
      -0.01168045165213756,
      -0.012210340993156935,
      0.005394967309478027,
      0.006416649989812955,
      -0.0023925001198232014,
      -0.013575864820281225,
      -0.0003585236768309111,
      0.01185356209765743,
      0.0008622483733871594,
      -0.012327480330333315,
      -0.013864679636368175,
      -0.0056014171048113775,
      -0.0006188139184323384,
      0.0005790099717614177,
      -0.0019028127758549548,
      0.005279884848295063,
      0.003759293052687648,
      0.00485966376393774,
      -0.0141803041091361,
      -0.0022528006352810466,
      -0.03091666503910933,
      -0.008783233070767366,
      10.117069876509118
    ],
    "weights_stats": {
      "min": -0.140110319376338,
      "max": 0.21765752648832531,
      "mean": 0.0051261600757959245,
      "std": 0.041489381087751256
    }
  },
  "convergence_analysis": {
    "iterations_to_converge": 1000,
    "final_cost_change": -1.0205132092112532e-05,
    "convergence_rate": "linear",
    "loss_reduction_ratio": 3306.289632604786
  },
  "algorithm_specific": {
    "gradient_descent_type": "standard",
    "step_size_method": "constant",
    "step_size_constant": true,
    "momentum_used": false,
    "backtracking_parameters": null,
    "adaptive_parameters": null
  }
}