{
  "algorithm": "Gradient Descent - RIDGE",
  "loss_function": "RIDGE",
  "parameters": {
    "learning_rate": 0.1,
    "max_iterations": 100000,
    "tolerance": 1e-05,
    "step_size_method": "constant",
    "regularization": 0.5
  },
  "training_results": {
    "training_time": 18.650352478027344,
    "converged": true,
    "final_iteration": 200,
    "total_iterations": 100000,
    "final_loss": 0.029766155308335436,
    "final_gradient_norm": 8.445212794727342e-07,
    "best_iteration": 100,
    "best_loss": 0.029766155308335436,
    "best_gradient_norm": 8.445212794727342e-07,
    "improvement_from_final": {
      "loss_improvement": 0.0,
      "gradient_improvement": 0.0,
      "iterations_earlier": 100
    }
  },
  "weights_analysis": {
    "n_features": 62,
    "n_weights_total": 63,
    "bias_value": 10.117648815287449,
    "weights_without_bias": [
      0.0002379695748951567,
      -0.0018222071106737102,
      0.014740692972095197,
      -0.0010876974398531082,
      -0.0025403422367218024,
      -0.012252990540930079,
      -0.0012047846238063225,
      0.05081741497406106,
      0.005883533253921286,
      -0.08189434468206497,
      -0.0035241841006996358,
      -0.04067713125153772,
      0.008565755189763444,
      0.06479984633084053,
      0.004032402751541921,
      0.004031810174133395,
      0.004032288640257868,
      0.011967956469547727,
      -0.06480029314977176,
      -0.001928070758165537,
      0.019313078363790776,
      -0.0319215104952653,
      0.0057036575614003585,
      -0.0004429915855130609,
      -0.0039470764600298275,
      -0.001822942001262517,
      0.006763037359511198,
      0.021911384044581123,
      0.04313347253212627,
      0.0011801749796339345,
      0.0019042734959216234,
      0.008616575557689504,
      -0.031920364113752354,
      0.12387306380325408,
      0.017880965332952282,
      0.05517351937154687,
      0.055415759470531574,
      0.004077406644519628,
      -0.00948619627935205,
      -0.003329691693669544,
      0.0031695080804828753,
      -0.010520012011170143,
      0.005595423265826125,
      0.002522317497533182,
      -0.0031713553669918616,
      0.005398410608716165,
      -0.0005661500222170543,
      0.00848297762814742,
      0.0011806333193522098,
      -0.011017382612546365,
      -0.005028289684219099,
      0.0019051721133993235,
      -0.0010349574488638315,
      0.0006471917292438439,
      0.007528520691509806,
      0.0021437309426659418,
      0.002666426123730213,
      0.0029995222576985037,
      -0.008830573810441021,
      0.008267203673352628,
      -0.024793893464308735,
      -0.0010938111056438622
    ],
    "complete_weight_vector": [
      0.0002379695748951567,
      -0.0018222071106737102,
      0.014740692972095197,
      -0.0010876974398531082,
      -0.0025403422367218024,
      -0.012252990540930079,
      -0.0012047846238063225,
      0.05081741497406106,
      0.005883533253921286,
      -0.08189434468206497,
      -0.0035241841006996358,
      -0.04067713125153772,
      0.008565755189763444,
      0.06479984633084053,
      0.004032402751541921,
      0.004031810174133395,
      0.004032288640257868,
      0.011967956469547727,
      -0.06480029314977176,
      -0.001928070758165537,
      0.019313078363790776,
      -0.0319215104952653,
      0.0057036575614003585,
      -0.0004429915855130609,
      -0.0039470764600298275,
      -0.001822942001262517,
      0.006763037359511198,
      0.021911384044581123,
      0.04313347253212627,
      0.0011801749796339345,
      0.0019042734959216234,
      0.008616575557689504,
      -0.031920364113752354,
      0.12387306380325408,
      0.017880965332952282,
      0.05517351937154687,
      0.055415759470531574,
      0.004077406644519628,
      -0.00948619627935205,
      -0.003329691693669544,
      0.0031695080804828753,
      -0.010520012011170143,
      0.005595423265826125,
      0.002522317497533182,
      -0.0031713553669918616,
      0.005398410608716165,
      -0.0005661500222170543,
      0.00848297762814742,
      0.0011806333193522098,
      -0.011017382612546365,
      -0.005028289684219099,
      0.0019051721133993235,
      -0.0010349574488638315,
      0.0006471917292438439,
      0.007528520691509806,
      0.0021437309426659418,
      0.002666426123730213,
      0.0029995222576985037,
      -0.008830573810441021,
      0.008267203673352628,
      -0.024793893464308735,
      -0.0010938111056438622,
      10.117648815287449
    ],
    "weights_stats": {
      "min": -0.08189434468206497,
      "max": 0.12387306380325408,
      "mean": 0.0036436102053339315,
      "std": 0.027621444609070216
    }
  },
  "convergence_analysis": {
    "iterations_to_converge": 200,
    "best_iteration_found": 100,
    "final_cost_change": -6.272270942908609e-08,
    "convergence_rate": "linear",
    "loss_reduction_ratio": 1.0000021071820926
  },
  "algorithm_specific": {
    "gradient_descent_type": "standard",
    "step_size_method": "constant",
    "step_size_constant": true,
    "momentum_used": false,
    "returns_best_result": true,
    "backtracking_parameters": null,
    "adaptive_parameters": null
  },
  "computational_complexity": {
    "basic_metrics": {
      "function_evaluations": 2,
      "gradient_evaluations": 200,
      "matrix_vector_multiplications": 0,
      "vector_operations": 202,
      "memory_allocations": 200,
      "peak_memory_size": 63,
      "total_operations": 2532812852
    },
    "iterations": {
      "total_iterations": 199,
      "final_iteration": 200,
      "converged": true,
      "convergence_iteration": 200
    },
    "per_iteration_averages": {
      "function_evaluations_per_iter": 0.010050251256281407,
      "gradient_evaluations_per_iter": 1.0050251256281406,
      "operations_per_iter": 12727702.773869347,
      "matrix_operations_per_iter": 0.0
    },
    "efficiency_metrics": {
      "operations_to_convergence": 2513812663,
      "convergence_efficiency": 1.0,
      "operations_per_convergence_iter": 12664064.26
    },
    "scalability_metrics": {
      "problem_size": {
        "n_samples": 100000,
        "n_features": 62
      },
      "problem_complexity_factor": 6200000,
      "operations_per_problem_unit": 408.5182019354839,
      "memory_efficiency": 0.0006296096420219464,
      "theoretical_complexity": "O(100000*62*199)"
    },
    "operation_distribution": {
      "function_eval_percentage": 7.89635917403344e-08,
      "gradient_eval_percentage": 7.89635917403344e-06,
      "matrix_ops_percentage": 0.0,
      "vector_ops_percentage": 7.975322765773773e-06
    }
  }
}