{
  "algorithm": "Gradient Descent - RIDGE",
  "loss_function": "RIDGE",
  "parameters": {
    "learning_rate": 0.1,
    "max_iterations": 100000,
    "tolerance": 1e-05,
    "step_size_method": "constant",
    "regularization": 0.5
  },
  "training_results": {
    "training_time": 1.0783519744873047,
    "converged": true,
    "final_iteration": 200,
    "total_iterations": 100000,
    "final_loss": 0.029766155308316895,
    "final_gradient_norm": 8.289277584156491e-07
  },
  "weights_analysis": {
    "n_features": 62,
    "n_weights_total": 63,
    "bias_value": 10.11764881580475,
    "weights_without_bias": [
      0.000238012540826956,
      -0.0018230613273709703,
      0.014740727444545569,
      -0.0010883475231401505,
      -0.00254049032207179,
      -0.012253557687408408,
      -0.0012045440143858429,
      0.050817360802949615,
      0.005883293680737009,
      -0.08189460249965863,
      -0.0035241916171382696,
      -0.0406771248495541,
      0.008565754896759025,
      0.06479988607616524,
      0.00403220503981055,
      0.004032299759675665,
      0.004032224502929963,
      0.011968021778109343,
      -0.06480002438539326,
      -0.0019281763556626196,
      0.01931307162816989,
      -0.03192051638054167,
      0.005703664730844214,
      -0.00044325293046050106,
      -0.003947113768099433,
      -0.0018220889696408899,
      0.006763033759905703,
      0.02191139006163351,
      0.04313352651876637,
      0.0011809684807362777,
      0.0019046912280042988,
      0.008615644938441826,
      -0.03192118143252195,
      0.12387308639853366,
      0.01788095966633945,
      0.05517338593377063,
      0.05541589650105277,
      0.004077480998906416,
      -0.009486105755991956,
      -0.0033295956685258326,
      0.0031697143572598507,
      -0.010519780939739945,
      0.005595703342603272,
      0.0025223843098279445,
      -0.0031712935561712344,
      0.005398379362367668,
      -0.0005661474377348918,
      0.008483024785668425,
      0.0011798485078243154,
      -0.011017280839679055,
      -0.005028157386905796,
      0.001904819993285144,
      -0.001034956726878901,
      0.0006471920303844358,
      0.007528512747264794,
      0.0021437253767745794,
      0.0026664252303839676,
      0.0029995229368098095,
      -0.008830578743276923,
      0.008267191216239008,
      -0.024793904436655172,
      -0.0010938043000274912
    ],
    "complete_weight_vector": [
      0.000238012540826956,
      -0.0018230613273709703,
      0.014740727444545569,
      -0.0010883475231401505,
      -0.00254049032207179,
      -0.012253557687408408,
      -0.0012045440143858429,
      0.050817360802949615,
      0.005883293680737009,
      -0.08189460249965863,
      -0.0035241916171382696,
      -0.0406771248495541,
      0.008565754896759025,
      0.06479988607616524,
      0.00403220503981055,
      0.004032299759675665,
      0.004032224502929963,
      0.011968021778109343,
      -0.06480002438539326,
      -0.0019281763556626196,
      0.01931307162816989,
      -0.03192051638054167,
      0.005703664730844214,
      -0.00044325293046050106,
      -0.003947113768099433,
      -0.0018220889696408899,
      0.006763033759905703,
      0.02191139006163351,
      0.04313352651876637,
      0.0011809684807362777,
      0.0019046912280042988,
      0.008615644938441826,
      -0.03192118143252195,
      0.12387308639853366,
      0.01788095966633945,
      0.05517338593377063,
      0.05541589650105277,
      0.004077480998906416,
      -0.009486105755991956,
      -0.0033295956685258326,
      0.0031697143572598507,
      -0.010519780939739945,
      0.005595703342603272,
      0.0025223843098279445,
      -0.0031712935561712344,
      0.005398379362367668,
      -0.0005661474377348918,
      0.008483024785668425,
      0.0011798485078243154,
      -0.011017280839679055,
      -0.005028157386905796,
      0.001904819993285144,
      -0.001034956726878901,
      0.0006471920303844358,
      0.007528512747264794,
      0.0021437253767745794,
      0.0026664252303839676,
      0.0029995229368098095,
      -0.008830578743276923,
      0.008267191216239008,
      -0.024793904436655172,
      -0.0010938043000274912,
      10.11764881580475
    ],
    "weights_stats": {
      "min": -0.08189460249965863,
      "max": 0.12387308639853366,
      "mean": 0.0036435992211237334,
      "std": 0.027621446944040725
    }
  },
  "convergence_analysis": {
    "iterations_to_converge": 200,
    "final_cost_change": -6.107509180341975e-08,
    "convergence_rate": "linear",
    "loss_reduction_ratio": 1.0000020518300456
  },
  "algorithm_specific": {
    "gradient_descent_type": "standard",
    "step_size_method": "constant",
    "step_size_constant": true,
    "momentum_used": false,
    "backtracking_parameters": null,
    "adaptive_parameters": null
  }
}