{
  "algorithm": "Gradient Descent - RIDGE",
  "loss_function": "RIDGE",
  "parameters": {
    "learning_rate": 0.1,
    "max_iterations": 10000,
    "tolerance": 1e-05,
    "step_size_method": "constant",
    "regularization": 0.5
  },
  "training_results": {
    "training_time": 1.8403749465942383,
    "converged": true,
    "final_iteration": 200,
    "total_iterations": 10000,
    "final_loss": 0.029766155308240158,
    "final_gradient_norm": 7.750808942950563e-07
  },
  "weights_analysis": {
    "n_features": 62,
    "n_weights_total": 63,
    "bias_value": 10.117648815878285,
    "weights_without_bias": [
      0.00023818964691958561,
      -0.001822472206168264,
      0.014740709881321885,
      -0.0010874513088820138,
      -0.0025402890672272505,
      -0.012252783047136645,
      -0.0012047405503168673,
      0.05081737229945787,
      0.005883275208719785,
      -0.08189460090935637,
      -0.003524189573396751,
      -0.040677127113873356,
      0.008565754033468034,
      0.06480012195717684,
      0.004031892610837812,
      0.00403216491832129,
      0.004032599389738708,
      0.011968126015300673,
      -0.06479977539887466,
      -0.0019281929427290411,
      0.019313070922516985,
      -0.031921020285540606,
      0.005703663791956234,
      -0.0004432295791569473,
      -0.003947044193422087,
      -0.0018226796940728049,
      0.006763034924570477,
      0.021911383701831263,
      0.04313350705612383,
      0.001180772181096095,
      0.0019052479779066319,
      0.008616917431940124,
      -0.031920666348848326,
      0.12387309463622988,
      0.017880959750512775,
      0.05517347623059339,
      0.05541580560862966,
      0.004077433977858803,
      -0.009486162409757592,
      -0.003329655867564293,
      0.003169598790311561,
      -0.010519925773859186,
      0.005595532071722218,
      0.0025223434463147905,
      -0.0031713327529391475,
      0.005398394956732362,
      -0.0005661465154240673,
      0.00848304555260708,
      0.001180072775663201,
      -0.01101724909726033,
      -0.0050281107769536044,
      0.0019042917717284928,
      -0.0010349565254302025,
      0.0006471924674549855,
      0.007528517507648761,
      0.002143728403077677,
      0.002666425168601354,
      0.0029995210422679975,
      -0.008830577359950425,
      0.008267202848954007,
      -0.02479388924754963,
      -0.0010938058895198406
    ],
    "complete_weight_vector": [
      0.00023818964691958561,
      -0.001822472206168264,
      0.014740709881321885,
      -0.0010874513088820138,
      -0.0025402890672272505,
      -0.012252783047136645,
      -0.0012047405503168673,
      0.05081737229945787,
      0.005883275208719785,
      -0.08189460090935637,
      -0.003524189573396751,
      -0.040677127113873356,
      0.008565754033468034,
      0.06480012195717684,
      0.004031892610837812,
      0.00403216491832129,
      0.004032599389738708,
      0.011968126015300673,
      -0.06479977539887466,
      -0.0019281929427290411,
      0.019313070922516985,
      -0.031921020285540606,
      0.005703663791956234,
      -0.0004432295791569473,
      -0.003947044193422087,
      -0.0018226796940728049,
      0.006763034924570477,
      0.021911383701831263,
      0.04313350705612383,
      0.001180772181096095,
      0.0019052479779066319,
      0.008616917431940124,
      -0.031920666348848326,
      0.12387309463622988,
      0.017880959750512775,
      0.05517347623059339,
      0.05541580560862966,
      0.004077433977858803,
      -0.009486162409757592,
      -0.003329655867564293,
      0.003169598790311561,
      -0.010519925773859186,
      0.005595532071722218,
      0.0025223434463147905,
      -0.0031713327529391475,
      0.005398394956732362,
      -0.0005661465154240673,
      0.00848304555260708,
      0.001180072775663201,
      -0.01101724909726033,
      -0.0050281107769536044,
      0.0019042917717284928,
      -0.0010349565254302025,
      0.0006471924674549855,
      0.007528517507648761,
      0.002143728403077677,
      0.002666425168601354,
      0.0029995210422679975,
      -0.008830577359950425,
      0.008267202848954007,
      -0.02479388924754963,
      -0.0010938058895198406,
      10.117648815878285
    ],
    "weights_stats": {
      "min": -0.08189460090935637,
      "max": 0.12387309463622988,
      "mean": 0.003643651072917787,
      "std": 0.027621440209534838
    }
  },
  "convergence_analysis": {
    "iterations_to_converge": 200,
    "final_cost_change": -5.7914696351135664e-08,
    "convergence_rate": "linear",
    "loss_reduction_ratio": 1.000001945655922
  },
  "algorithm_specific": {
    "gradient_descent_type": "standard",
    "step_size_method": "constant",
    "step_size_constant": true,
    "momentum_used": false,
    "backtracking_parameters": null,
    "adaptive_parameters": null
  }
}