{
  "algorithm": "Newton Method - RIDGE",
  "loss_function": "RIDGE",
  "parameters": {
    "regularization": 0.01,
    "numerical_regularization": 1e-08,
    "max_iterations": 50,
    "tolerance": 1e-10
  },
  "training_results": {
    "training_time": 0.06160998344421387,
    "converged": true,
    "final_iteration": 7,
    "total_iterations": 50,
    "final_loss": 0.012756605526931463,
    "final_gradient_norm": 9.543828567465943e-12
  },
  "weights_analysis": {
    "n_features": 62,
    "n_weights_total": 63,
    "bias_value": 10.117570362215917,
    "weights_without_bias": [
      0.003975198223856475,
      0.0015648805479304513,
      0.010478384752497122,
      -0.014966636330261096,
      -0.0010944142808598219,
      -0.0013794266322659195,
      0.0027283368860215426,
      0.08032758182058718,
      -0.003822541872016403,
      -0.2339309019728845,
      -0.010407236436536526,
      -0.009553672677800346,
      0.010064717189954608,
      0.0954008946861809,
      0.00026395673647263145,
      0.00026395673647263145,
      0.00026395673647263145,
      0.01333166679017744,
      -0.0954008946861809,
      0.07898929308601896,
      0.017468505017471804,
      0.048066835419495746,
      0.00613085109481257,
      0.0034375159988694172,
      -0.0047900236113933604,
      0.0015648805479304513,
      0.009131259360523215,
      0.02537551261686177,
      0.03259888633320918,
      -0.005323253278796007,
      -0.0013746054232188626,
      0.011527094847525454,
      0.048066835419495746,
      0.21553892864978846,
      -0.003982945079724795,
      0.04728919111024219,
      0.05239405964453648,
      -0.006953926945937052,
      -0.018595725047068336,
      -0.00958481196530806,
      -0.03215678147346856,
      -0.03252905332540837,
      -0.022140420049025777,
      -0.0012315008836111723,
      -0.008558977487764187,
      -0.012107298458343211,
      -0.0004970437391998513,
      0.01149452081544606,
      -0.005323253278796007,
      -0.01532338791022658,
      -0.016622167831085607,
      -0.0013746054232188626,
      -0.0005127980749165276,
      0.0005861545168489535,
      -0.00010310101198986028,
      0.0036856114979170965,
      0.0033179546355282937,
      0.0039010676134183736,
      -0.01388067875914501,
      -0.003930443646328947,
      -0.03387693566289842,
      -0.009236477837491453
    ],
    "complete_weight_vector": [
      0.003975198223856475,
      0.0015648805479304513,
      0.010478384752497122,
      -0.014966636330261096,
      -0.0010944142808598219,
      -0.0013794266322659195,
      0.0027283368860215426,
      0.08032758182058718,
      -0.003822541872016403,
      -0.2339309019728845,
      -0.010407236436536526,
      -0.009553672677800346,
      0.010064717189954608,
      0.0954008946861809,
      0.00026395673647263145,
      0.00026395673647263145,
      0.00026395673647263145,
      0.01333166679017744,
      -0.0954008946861809,
      0.07898929308601896,
      0.017468505017471804,
      0.048066835419495746,
      0.00613085109481257,
      0.0034375159988694172,
      -0.0047900236113933604,
      0.0015648805479304513,
      0.009131259360523215,
      0.02537551261686177,
      0.03259888633320918,
      -0.005323253278796007,
      -0.0013746054232188626,
      0.011527094847525454,
      0.048066835419495746,
      0.21553892864978846,
      -0.003982945079724795,
      0.04728919111024219,
      0.05239405964453648,
      -0.006953926945937052,
      -0.018595725047068336,
      -0.00958481196530806,
      -0.03215678147346856,
      -0.03252905332540837,
      -0.022140420049025777,
      -0.0012315008836111723,
      -0.008558977487764187,
      -0.012107298458343211,
      -0.0004970437391998513,
      0.01149452081544606,
      -0.005323253278796007,
      -0.01532338791022658,
      -0.016622167831085607,
      -0.0013746054232188626,
      -0.0005127980749165276,
      0.0005861545168489535,
      -0.00010310101198986028,
      0.0036856114979170965,
      0.0033179546355282937,
      0.0039010676134183736,
      -0.01388067875914501,
      -0.003930443646328947,
      -0.03387693566289842,
      -0.009236477837491453,
      10.117570362215917
    ],
    "weights_stats": {
      "min": -0.2339309019728845,
      "max": 0.21553892864978846,
      "mean": 0.0033655249716031195,
      "std": 0.04912542995842101
    }
  },
  "convergence_analysis": {
    "iterations_to_converge": 7,
    "final_cost_change": -1.734723475976807e-18,
    "convergence_rate": "quadratic",
    "loss_reduction_ratio": 4024.0004017219735,
    "convergence_quality": "superlinear_to_quadratic"
  },
  "numerical_analysis": {
    "hessian_condition_number": 955.6089243174138,
    "average_step_size": 1.6870945262135075,
    "max_step_size": 10.022340584854433,
    "min_step_size": 9.547859640786113e-10,
    "step_size_stability": "Newton_steps",
    "regularization_effect": "Applied for numerical stability"
  },
  "algorithm_specific": {
    "method_type": "pure_newton",
    "second_order_method": true,
    "hessian_computation": "exact",
    "line_search_used": false,
    "damping_applied": "numerical_regularization_only",
    "fast_convergence": true
  }
}