{
  "algorithm": "Gradient Descent - OLS",
  "loss_function": "OLS",
  "parameters": {
    "learning_rate": 0.1,
    "max_iterations": 100000,
    "tolerance": 1e-05,
    "step_size_method": "decreasing_sqrt"
  },
  "training_results": {
    "training_time": 613.5927431583405,
    "converged": false,
    "final_iteration": 100000,
    "total_iterations": 100000,
    "final_loss": 0.011972256356828219,
    "final_gradient_norm": 0.001290148635485797
  },
  "weights_analysis": {
    "n_features": 62,
    "n_weights_total": 63,
    "bias_value": 10.117571624267322,
    "weights_without_bias": [
      0.009384268287461858,
      0.011222086174454719,
      0.010267641451614204,
      -0.018990871218822026,
      -0.0015259510373884064,
      -0.002483894480939279,
      0.0071312976144479075,
      0.08474450665783557,
      -0.004381914445860352,
      -0.2478319312684412,
      -0.01052006754710455,
      -0.005776372641585887,
      0.010142599255892686,
      0.0909158049551355,
      0.0012027696660372345,
      0.01336557526975356,
      -0.011719740283306024,
      0.012030769023702316,
      -0.10897467332735085,
      0.0898586209051105,
      0.015826335118888212,
      0.058738468582709515,
      0.005555298059534082,
      -0.006908175303102961,
      -0.005203482644981614,
      -0.007510693553491719,
      0.009189999407397087,
      0.025875353281054277,
      0.02899812445840375,
      -0.006052436256000571,
      -0.009022457531192605,
      0.008817867856008615,
      0.053246759834833096,
      0.21912545087706048,
      -0.005192097608093349,
      0.049676297210950335,
      0.04818710577512437,
      -0.005362336965722872,
      -0.016045971549648142,
      -0.006980728453736934,
      -0.02783010806794908,
      -0.026290773161049243,
      -0.01503741447464559,
      0.0003022294282994373,
      -0.006758538619975663,
      -0.012839284662804434,
      -0.000509810815270662,
      0.01136845492946597,
      -0.004982424820821637,
      -0.01634901538286002,
      -0.01828093190685215,
      0.005480008872416654,
      -0.000479937533055271,
      0.0005753814133277769,
      -0.0008962879150419096,
      0.003641867451785856,
      0.0032541558273791013,
      0.0038916516924657374,
      -0.0139437295213484,
      -0.004993884762370738,
      -0.034894227578468676,
      -0.009166457806893992
    ],
    "complete_weight_vector": [
      0.009384268287461858,
      0.011222086174454719,
      0.010267641451614204,
      -0.018990871218822026,
      -0.0015259510373884064,
      -0.002483894480939279,
      0.0071312976144479075,
      0.08474450665783557,
      -0.004381914445860352,
      -0.2478319312684412,
      -0.01052006754710455,
      -0.005776372641585887,
      0.010142599255892686,
      0.0909158049551355,
      0.0012027696660372345,
      0.01336557526975356,
      -0.011719740283306024,
      0.012030769023702316,
      -0.10897467332735085,
      0.0898586209051105,
      0.015826335118888212,
      0.058738468582709515,
      0.005555298059534082,
      -0.006908175303102961,
      -0.005203482644981614,
      -0.007510693553491719,
      0.009189999407397087,
      0.025875353281054277,
      0.02899812445840375,
      -0.006052436256000571,
      -0.009022457531192605,
      0.008817867856008615,
      0.053246759834833096,
      0.21912545087706048,
      -0.005192097608093349,
      0.049676297210950335,
      0.04818710577512437,
      -0.005362336965722872,
      -0.016045971549648142,
      -0.006980728453736934,
      -0.02783010806794908,
      -0.026290773161049243,
      -0.01503741447464559,
      0.0003022294282994373,
      -0.006758538619975663,
      -0.012839284662804434,
      -0.000509810815270662,
      0.01136845492946597,
      -0.004982424820821637,
      -0.01634901538286002,
      -0.01828093190685215,
      0.005480008872416654,
      -0.000479937533055271,
      0.0005753814133277769,
      -0.0008962879150419096,
      0.003641867451785856,
      0.0032541558273791013,
      0.0038916516924657374,
      -0.0139437295213484,
      -0.004993884762370738,
      -0.034894227578468676,
      -0.009166457806893992,
      10.117571624267322
    ],
    "weights_stats": {
      "min": -0.2478319312684412,
      "max": 0.21912545087706048,
      "mean": 0.003520647196651188,
      "std": 0.0513406047428498
    }
  },
  "convergence_analysis": {
    "iterations_to_converge": 100000,
    "final_cost_change": -5.268045496012452e-08,
    "convergence_rate": "linear",
    "loss_reduction_ratio": 100.04344382079151
  },
  "algorithm_specific": {
    "gradient_descent_type": "standard",
    "step_size_method": "decreasing_sqrt",
    "step_size_constant": false,
    "momentum_used": false,
    "backtracking_parameters": null,
    "adaptive_parameters": null
  }
}