{
  "algorithm": "Gradient Descent - OLS",
  "loss_function": "OLS",
  "parameters": {
    "learning_rate": 0.1,
    "max_iterations": 10000,
    "tolerance": 1e-05,
    "step_size_method": "decreasing_sqrt"
  },
  "training_results": {
    "training_time": 363.6166498661041,
    "converged": false,
    "final_iteration": 10000,
    "total_iterations": 10000,
    "final_loss": 0.012182346393313514,
    "final_gradient_norm": 0.0043106291413180075,
    "best_iteration": 9900,
    "best_loss": 0.012182346393313514,
    "best_gradient_norm": 0.0043106291413180075,
    "improvement_from_final": {
      "loss_improvement": 0.0,
      "gradient_improvement": 0.0,
      "iterations_earlier": 100
    }
  },
  "weights_analysis": {
    "n_features": 62,
    "n_weights_total": 63,
    "bias_value": 10.117551338035241,
    "weights_without_bias": [
      -0.0023928796456582227,
      -0.0031042222854227378,
      0.007993223401976252,
      -0.016210980542643357,
      -0.0012492078291003142,
      -0.002687869053752711,
      0.005539114872331557,
      0.07940662759385061,
      -0.004199571303127969,
      -0.1800406535596313,
      -0.010520830628907784,
      -0.011266389880585806,
      0.010023198101879915,
      0.09090098210617675,
      -0.006280706478213647,
      -0.00841005960269101,
      0.010216436018018379,
      0.003684559455654935,
      -0.12823240950740522,
      0.08798307830902266,
      0.02084610111412447,
      0.018241577785630767,
      0.006299491542853911,
      0.011260118874910862,
      -0.004101872451164495,
      0.006700924848794423,
      0.009245517534609081,
      0.025292617840001665,
      0.038580651804379834,
      -0.007541000641812071,
      -0.004607678419361993,
      0.009046880935567846,
      0.03501059468297072,
      0.222372884381785,
      -0.004905714700365175,
      0.053444153406558434,
      0.04432533752012682,
      -0.0033332031384501145,
      -0.014047364853842774,
      -0.004761674281659368,
      -0.0222641627711826,
      -0.021297067941363802,
      -0.00732967988386446,
      0.002558009444361869,
      -0.0051410559772670705,
      -0.012999570967253161,
      -0.0003551284266784298,
      0.01184741486672766,
      -0.0050974807178574945,
      -0.013406948605392944,
      -0.015374409968232696,
      0.002557264458712929,
      -0.0005376623916975111,
      0.0005702032907169397,
      -0.0017943284858909115,
      0.0037832516017689047,
      0.00352173145368301,
      0.0044428004979976616,
      -0.013898272095227223,
      -0.004414571314797233,
      -0.03386055797662295,
      -0.009077685750949555
    ],
    "complete_weight_vector": [
      -0.0023928796456582227,
      -0.0031042222854227378,
      0.007993223401976252,
      -0.016210980542643357,
      -0.0012492078291003142,
      -0.002687869053752711,
      0.005539114872331557,
      0.07940662759385061,
      -0.004199571303127969,
      -0.1800406535596313,
      -0.010520830628907784,
      -0.011266389880585806,
      0.010023198101879915,
      0.09090098210617675,
      -0.006280706478213647,
      -0.00841005960269101,
      0.010216436018018379,
      0.003684559455654935,
      -0.12823240950740522,
      0.08798307830902266,
      0.02084610111412447,
      0.018241577785630767,
      0.006299491542853911,
      0.011260118874910862,
      -0.004101872451164495,
      0.006700924848794423,
      0.009245517534609081,
      0.025292617840001665,
      0.038580651804379834,
      -0.007541000641812071,
      -0.004607678419361993,
      0.009046880935567846,
      0.03501059468297072,
      0.222372884381785,
      -0.004905714700365175,
      0.053444153406558434,
      0.04432533752012682,
      -0.0033332031384501145,
      -0.014047364853842774,
      -0.004761674281659368,
      -0.0222641627711826,
      -0.021297067941363802,
      -0.00732967988386446,
      0.002558009444361869,
      -0.0051410559772670705,
      -0.012999570967253161,
      -0.0003551284266784298,
      0.01184741486672766,
      -0.0050974807178574945,
      -0.013406948605392944,
      -0.015374409968232696,
      0.002557264458712929,
      -0.0005376623916975111,
      0.0005702032907169397,
      -0.0017943284858909115,
      0.0037832516017689047,
      0.00352173145368301,
      0.0044428004979976616,
      -0.013898272095227223,
      -0.004414571314797233,
      -0.03386055797662295,
      -0.009077685750949555,
      10.117551338035241
    ],
    "weights_stats": {
      "min": -0.1800406535596313,
      "max": 0.222372884381785,
      "mean": 0.0038863205752761253,
      "std": 0.04642080843647605
    }
  },
  "convergence_analysis": {
    "iterations_to_converge": 10000,
    "best_iteration_found": 9900,
    "final_cost_change": -1.8740867187595767e-06,
    "convergence_rate": "linear",
    "loss_reduction_ratio": 97.95255787316137
  },
  "algorithm_specific": {
    "gradient_descent_type": "standard",
    "step_size_method": "decreasing_sqrt",
    "step_size_constant": false,
    "momentum_used": false,
    "returns_best_result": true,
    "backtracking_parameters": null,
    "adaptive_parameters": null
  },
  "computational_complexity": {
    "basic_metrics": {
      "function_evaluations": 100,
      "gradient_evaluations": 10000,
      "matrix_vector_multiplications": 0,
      "vector_operations": 10100,
      "memory_allocations": 10000,
      "peak_memory_size": 63,
      "total_operations": 126640642600
    },
    "iterations": {
      "total_iterations": 10000,
      "final_iteration": 10000,
      "converged": false,
      "convergence_iteration": null
    },
    "per_iteration_averages": {
      "function_evaluations_per_iter": 0.01,
      "gradient_evaluations_per_iter": 1.0,
      "operations_per_iter": 12664064.26,
      "matrix_operations_per_iter": 0.0
    },
    "scalability_metrics": {
      "problem_size": {
        "n_samples": 100000,
        "n_features": 62
      },
      "problem_complexity_factor": 6200000,
      "operations_per_problem_unit": 20425.910096774194,
      "memory_efficiency": 0.0006296096420219464,
      "theoretical_complexity": "O(100000*62*10000)"
    },
    "operation_distribution": {
      "function_eval_percentage": 7.89635917403344e-08,
      "gradient_eval_percentage": 7.89635917403344e-06,
      "matrix_ops_percentage": 0.0,
      "vector_ops_percentage": 7.975322765773773e-06
    }
  }
}