{
  "algorithm": "Gradient Descent - OLS",
  "loss_function": "OLS",
  "parameters": {
    "learning_rate": 0.1,
    "max_iterations": 100000,
    "tolerance": 1e-05,
    "step_size_method": "wolfe_conditions"
  },
  "training_results": {
    "training_time": 36573.633143901825,
    "converged": false,
    "final_iteration": 100000,
    "total_iterations": 100000,
    "final_loss": 5.794416458423032,
    "final_gradient_norm": 3.3990881722306403
  },
  "weights_analysis": {
    "n_features": 62,
    "n_weights_total": 63,
    "bias_value": 6.718205348920205,
    "weights_without_bias": [
      -0.004583930821321044,
      -0.0017181525552328323,
      0.00924623585995607,
      -0.0002164785090019096,
      -0.014316202623688637,
      -0.025939412596914613,
      0.0030083020999135497,
      0.07913207038083991,
      0.011193316889249431,
      -0.07913158640005244,
      -0.00950322019201957,
      -0.06210334438476705,
      0.022319585654386558,
      0.05873504768538846,
      0.005316151239110286,
      -0.006882805613705059,
      -0.0037066640391671497,
      0.004938985085196863,
      -0.05083024414055743,
      -0.01813198389050717,
      0.006055276565768508,
      -0.055584454305312614,
      -0.0013786299137716989,
      0.0013065169300550449,
      0.009671163302003625,
      -0.008741208686603785,
      -0.0012634589422535066,
      0.008842691493895815,
      0.049890522411576585,
      0.00273520968740197,
      -0.015879212432459718,
      0.010580590915164301,
      -0.04284787948112191,
      0.11795916413098168,
      0.036403633170970104,
      0.053253862308240446,
      0.06490738094179087,
      0.010213759910085031,
      -0.008728088833339203,
      -0.004632561805222609,
      0.010390110804252744,
      -0.012811670106513913,
      -0.003236294015788363,
      -0.009076159590681495,
      -0.004844097675206298,
      -0.005507832408705615,
      0.0003408949782606443,
      0.0032181428900639047,
      0.006220593069324904,
      -0.008197098544496724,
      -0.01726141050852334,
      0.0019549550309770937,
      0.003370101669510704,
      0.020562336998450875,
      0.0054773139131655164,
      0.012614570564187584,
      -0.009368695934795035,
      0.02692122987000251,
      -0.020248863956291635,
      0.018258070378164907,
      -0.004034942204996041,
      -0.0014125538824460804
    ],
    "complete_weight_vector": [
      -0.004583930821321044,
      -0.0017181525552328323,
      0.00924623585995607,
      -0.0002164785090019096,
      -0.014316202623688637,
      -0.025939412596914613,
      0.0030083020999135497,
      0.07913207038083991,
      0.011193316889249431,
      -0.07913158640005244,
      -0.00950322019201957,
      -0.06210334438476705,
      0.022319585654386558,
      0.05873504768538846,
      0.005316151239110286,
      -0.006882805613705059,
      -0.0037066640391671497,
      0.004938985085196863,
      -0.05083024414055743,
      -0.01813198389050717,
      0.006055276565768508,
      -0.055584454305312614,
      -0.0013786299137716989,
      0.0013065169300550449,
      0.009671163302003625,
      -0.008741208686603785,
      -0.0012634589422535066,
      0.008842691493895815,
      0.049890522411576585,
      0.00273520968740197,
      -0.015879212432459718,
      0.010580590915164301,
      -0.04284787948112191,
      0.11795916413098168,
      0.036403633170970104,
      0.053253862308240446,
      0.06490738094179087,
      0.010213759910085031,
      -0.008728088833339203,
      -0.004632561805222609,
      0.010390110804252744,
      -0.012811670106513913,
      -0.003236294015788363,
      -0.009076159590681495,
      -0.004844097675206298,
      -0.005507832408705615,
      0.0003408949782606443,
      0.0032181428900639047,
      0.006220593069324904,
      -0.008197098544496724,
      -0.01726141050852334,
      0.0019549550309770937,
      0.003370101669510704,
      0.020562336998450875,
      0.0054773139131655164,
      0.012614570564187584,
      -0.009368695934795035,
      0.02692122987000251,
      -0.020248863956291635,
      0.018258070378164907,
      -0.004034942204996041,
      -0.0014125538824460804,
      6.718205348920205
    ],
    "weights_stats": {
      "min": -0.07913158640005244,
      "max": 0.11795916413098168,
      "mean": 0.0026277201263366456,
      "std": 0.03051696029557535
    }
  },
  "convergence_analysis": {
    "iterations_to_converge": 100000,
    "final_cost_change": -0.0016492453162966214,
    "convergence_rate": "linear",
    "loss_reduction_ratio": 1.3289778904637428
  },
  "algorithm_specific": {
    "gradient_descent_type": "standard",
    "step_size_method": "wolfe_conditions",
    "step_size_constant": false,
    "momentum_used": false,
    "backtracking_parameters": null,
    "adaptive_parameters": null
  }
}