{
  "algorithm": "LBFGS Quasi-Newton - OLS",
  "loss_function": "OLS",
  "parameters": {
    "max_iterations": 10000,
    "tolerance": 1e-05,
    "armijo_c1": 0.0001,
    "wolfe_c2": 0.9,
    "backtrack_rho": 0.8,
    "damping": 1e-08,
    "memory_size": 10
  },
  "training_results": {
    "training_time": 0.6063895225524902,
    "converged": true,
    "final_iteration": 200,
    "total_iterations": 10000,
    "final_loss": 0.011945514856561012,
    "final_gradient_norm": 4.724715789840214e-06
  },
  "weights_analysis": {
    "n_features": 62,
    "n_weights_total": 63,
    "bias_value": 10.118529796735194,
    "weights_without_bias": [
      0.0076771366935038604,
      -0.0018616781009613984,
      0.017488384129763338,
      -0.023836613817761358,
      -0.007188723073468911,
      0.0003736591005853601,
      0.015458891778698268,
      0.08483497850847484,
      0.01303493711053921,
      -0.27103000372515546,
      -0.01812444423235722,
      0.004955309836925036,
      0.009450112005396104,
      0.09680786804838526,
      -0.01512985610795663,
      0.016695612018637195,
      -0.013319294779217585,
      0.01152209928164042,
      -0.1084571614698345,
      0.08944797118227085,
      0.005471136267141833,
      0.06652215199293383,
      0.004825636790999461,
      0.01247005898270091,
      -0.018427886481670385,
      0.004526835522404001,
      0.00795192532816027,
      0.0316133138348765,
      0.04345755653853788,
      -0.007558313845499064,
      0.003027153382292092,
      0.008743788527210878,
      0.06204207527551435,
      0.20950288757488833,
      -0.009589411410774368,
      0.206841647791111,
      -0.10568298285774892,
      -0.016225466583258852,
      -0.021620571487270934,
      -0.01152988495007183,
      -0.04017734348962137,
      -0.03892333879719573,
      -0.026857404122438342,
      -0.0023571960136088256,
      -0.010764937296302866,
      -0.012595490310855932,
      -0.07715973394194227,
      0.017591225874554715,
      -0.028918971729234192,
      -0.021675849309582534,
      -0.018862627699159945,
      -0.023263173370296524,
      -0.022774846676023655,
      0.0022241165534447075,
      -0.004668153733412452,
      -0.0005898280814251398,
      0.002040323622560837,
      0.002028640782748865,
      -0.016835462355739492,
      -0.0006238572885837187,
      -0.03177735121443722,
      -0.0074823815624012685
    ],
    "complete_weight_vector": [
      0.0076771366935038604,
      -0.0018616781009613984,
      0.017488384129763338,
      -0.023836613817761358,
      -0.007188723073468911,
      0.0003736591005853601,
      0.015458891778698268,
      0.08483497850847484,
      0.01303493711053921,
      -0.27103000372515546,
      -0.01812444423235722,
      0.004955309836925036,
      0.009450112005396104,
      0.09680786804838526,
      -0.01512985610795663,
      0.016695612018637195,
      -0.013319294779217585,
      0.01152209928164042,
      -0.1084571614698345,
      0.08944797118227085,
      0.005471136267141833,
      0.06652215199293383,
      0.004825636790999461,
      0.01247005898270091,
      -0.018427886481670385,
      0.004526835522404001,
      0.00795192532816027,
      0.0316133138348765,
      0.04345755653853788,
      -0.007558313845499064,
      0.003027153382292092,
      0.008743788527210878,
      0.06204207527551435,
      0.20950288757488833,
      -0.009589411410774368,
      0.206841647791111,
      -0.10568298285774892,
      -0.016225466583258852,
      -0.021620571487270934,
      -0.01152988495007183,
      -0.04017734348962137,
      -0.03892333879719573,
      -0.026857404122438342,
      -0.0023571960136088256,
      -0.010764937296302866,
      -0.012595490310855932,
      -0.07715973394194227,
      0.017591225874554715,
      -0.028918971729234192,
      -0.021675849309582534,
      -0.018862627699159945,
      -0.023263173370296524,
      -0.022774846676023655,
      0.0022241165534447075,
      -0.004668153733412452,
      -0.0005898280814251398,
      0.002040323622560837,
      0.002028640782748865,
      -0.016835462355739492,
      -0.0006238572885837187,
      -0.03177735121443722,
      -0.0074823815624012685,
      10.118529796735194
    ],
    "weights_stats": {
      "min": -0.27103000372515546,
      "max": 0.20950288757488833,
      "mean": 0.00036672894228437583,
      "std": 0.061915130667599724
    }
  },
  "convergence_analysis": {
    "iterations_to_converge": 200,
    "final_cost_change": -7.364535335729894e-10,
    "convergence_rate": "superlinear",
    "loss_reduction_ratio": 1.4047659025437296
  },
  "numerical_analysis": {
    "average_step_size": 0.9688184924623116,
    "average_line_search_iterations": 1.1909547738693467,
    "final_condition_number": NaN,
    "max_condition_number": NaN,
    "min_condition_number": NaN,
    "hessian_approximation_quality": "BFGS_secant_approximation",
    "line_search_efficiency": "Wolfe_conditions_satisfied"
  },
  "algorithm_specific": {
    "method_type": "quasi_newton_lbfgs",
    "second_order_approximation": true,
    "line_search_used": true,
    "line_search_type": "wolfe_conditions",
    "hessian_computation": "lbfgs_limited_memory",
    "superlinear_convergence": "L-BFGS provides superlinear convergence rate",
    "memory_efficient": "limited_memory_size_10",
    "two_loop_recursion": "efficient_matrix_free_computation",
    "memory_usage": 10
  }
}