{
  "algorithm": "Gradient Descent - RIDGE",
  "loss_function": "RIDGE",
  "parameters": {
    "learning_rate": 0.1,
    "max_iterations": 500,
    "tolerance": 1e-05,
    "step_size_method": "constant",
    "regularization": 0.01
  },
  "training_results": {
    "training_time": 24.99492645263672,
    "converged": false,
    "final_iteration": 500,
    "total_iterations": 500,
    "final_loss": 0.01277442911754724,
    "final_gradient_norm": 0.0009867168018944429
  },
  "weights_analysis": {
    "n_features": 62,
    "n_weights_total": 63,
    "bias_value": 10.117567331293436,
    "weights_without_bias": [
      -0.0009373504665417324,
      0.0029535588329423507,
      0.00983496340328919,
      -0.016226983819770058,
      -0.0012981997380333726,
      -0.002357565863491848,
      0.004328120820408477,
      0.08121194254992763,
      -0.004521183539528972,
      -0.21390800288972414,
      -0.010328244263894476,
      -0.009802242610570994,
      0.010120345328597109,
      0.10867815780249582,
      -0.0019267426021861835,
      -0.0005265285941253497,
      0.0023220022872211987,
      0.0092474971087898,
      -0.09651854667057956,
      0.08505520472731198,
      0.01838610427733258,
      0.04683741056408476,
      0.006046411432417853,
      0.006518981495154181,
      -0.005168028174807618,
      0.0003869063631744745,
      0.009184595464359428,
      0.025385694782021007,
      0.03297724645899317,
      -0.011278769565143157,
      -0.0051864922496493646,
      0.009896001745857556,
      0.03332870111465666,
      0.21526465009915643,
      -0.0038568213540594296,
      0.054313152071604795,
      0.04513807760327157,
      -0.0035916095575242875,
      -0.014288114244969074,
      -0.00537474277529247,
      -0.02306903722377842,
      -0.021951259326173447,
      -0.00946641943284567,
      0.0016080580809709319,
      -0.005520261491672729,
      -0.011899035069971815,
      -0.000474693974454003,
      0.011365508793703405,
      0.000750479461436148,
      -0.01547524933189119,
      -0.016964067270690344,
      0.0025742249970468344,
      -0.0005326385958017455,
      0.0005658160423121252,
      -0.0008908827104834077,
      0.0037934961511782313,
      0.0033754405333241023,
      0.004179872484432596,
      -0.013856272680233353,
      -0.0039031038635656753,
      -0.03380510100922228,
      -0.008653374698101297
    ],
    "complete_weight_vector": [
      -0.0009373504665417324,
      0.0029535588329423507,
      0.00983496340328919,
      -0.016226983819770058,
      -0.0012981997380333726,
      -0.002357565863491848,
      0.004328120820408477,
      0.08121194254992763,
      -0.004521183539528972,
      -0.21390800288972414,
      -0.010328244263894476,
      -0.009802242610570994,
      0.010120345328597109,
      0.10867815780249582,
      -0.0019267426021861835,
      -0.0005265285941253497,
      0.0023220022872211987,
      0.0092474971087898,
      -0.09651854667057956,
      0.08505520472731198,
      0.01838610427733258,
      0.04683741056408476,
      0.006046411432417853,
      0.006518981495154181,
      -0.005168028174807618,
      0.0003869063631744745,
      0.009184595464359428,
      0.025385694782021007,
      0.03297724645899317,
      -0.011278769565143157,
      -0.0051864922496493646,
      0.009896001745857556,
      0.03332870111465666,
      0.21526465009915643,
      -0.0038568213540594296,
      0.054313152071604795,
      0.04513807760327157,
      -0.0035916095575242875,
      -0.014288114244969074,
      -0.00537474277529247,
      -0.02306903722377842,
      -0.021951259326173447,
      -0.00946641943284567,
      0.0016080580809709319,
      -0.005520261491672729,
      -0.011899035069971815,
      -0.000474693974454003,
      0.011365508793703405,
      0.000750479461436148,
      -0.01547524933189119,
      -0.016964067270690344,
      0.0025742249970468344,
      -0.0005326385958017455,
      0.0005658160423121252,
      -0.0008908827104834077,
      0.0037934961511782313,
      0.0033754405333241023,
      0.004179872484432596,
      -0.013856272680233353,
      -0.0039031038635656753,
      -0.03380510100922228,
      -0.008653374698101297,
      10.117567331293436
    ],
    "weights_stats": {
      "min": -0.21390800288972414,
      "max": 0.21526465009915643,
      "mean": 0.004388242858366048,
      "std": 0.04771403069155192
    }
  },
  "convergence_analysis": {
    "iterations_to_converge": 500,
    "final_cost_change": -9.992371960820118e-07,
    "convergence_rate": "linear",
    "loss_reduction_ratio": 486.1226958400593
  },
  "algorithm_specific": {
    "gradient_descent_type": "standard",
    "step_size_method": "constant",
    "step_size_constant": true,
    "momentum_used": false,
    "backtracking_parameters": null,
    "adaptive_parameters": null
  }
}