{
  "algorithm": "Stochastic Gradient Descent - OLS",
  "loss_function": "OLS",
  "parameters": {
    "learning_rate": 0.0001,
    "learning_rate_schedule": "constant",
    "epochs": 100,
    "batch_size": 25000,
    "random_state": 42,
    "tolerance": 1e-06
  },
  "training_results": {
    "training_time": 55.9101505279541,
    "converged": false,
    "final_epoch": 100,
    "total_epochs": 100,
    "final_cost": 47.46044797663823,
    "final_gradient_norm": 9.80432954449363
  },
  "weights_analysis": {
    "n_features": 62,
    "n_weights_total": 63,
    "bias_value": 0.3861097148492173,
    "weights_without_bias": [
      0.002449532255407929,
      -0.0007425812273458204,
      0.012800782485339742,
      0.010838727158341895,
      -0.004952849395208554,
      -0.009026393795948856,
      0.012370052344377477,
      0.019584827457486575,
      0.005898392426312257,
      -0.010171494921418493,
      -0.0033254310019033865,
      -0.015772142687090412,
      0.004727019896098812,
      -0.005490193692750894,
      -0.007302747789132928,
      0.004323555243587679,
      -0.00018188066734683517,
      0.013864944023366759,
      -0.02272284950903917,
      -0.022028209486551605,
      0.011986891872707829,
      -0.015917567092533644,
      -0.001547597850793362,
      -0.01722815609810423,
      -0.006942971986668021,
      0.0017492876814646878,
      -0.012058368005449722,
      0.00658186438204854,
      0.005134446059337708,
      -0.0025107002527353867,
      -0.007169254296570977,
      0.026085636192524984,
      -0.013794776335047613,
      0.008582147936437485,
      0.015656535860605655,
      0.0008997362534555353,
      0.015158452661669982,
      -0.017846150358349373,
      -0.016054658795144904,
      0.0011230461620987825,
      0.014284917135466353,
      -0.0035710796760946156,
      -0.0006596422092851228,
      -0.0030660752907360916,
      -0.01617397304704973,
      -0.0022535267779483846,
      -0.004488882054831885,
      0.01126627915178423,
      0.0038424201408819953,
      -0.016495625412140745,
      0.0012081398733009843,
      -0.005003010978440174,
      -0.0036907573338632394,
      0.007840129685463406,
      0.012918161586176266,
      0.0074857079940838225,
      -0.008928258137559366,
      -0.0018026724585176019,
      0.003763475501502459,
      0.011054418075794981,
      -0.011220573899299643,
      -0.0018185530717776182
    ],
    "complete_weight_vector": [
      0.002449532255407929,
      -0.0007425812273458204,
      0.012800782485339742,
      0.010838727158341895,
      -0.004952849395208554,
      -0.009026393795948856,
      0.012370052344377477,
      0.019584827457486575,
      0.005898392426312257,
      -0.010171494921418493,
      -0.0033254310019033865,
      -0.015772142687090412,
      0.004727019896098812,
      -0.005490193692750894,
      -0.007302747789132928,
      0.004323555243587679,
      -0.00018188066734683517,
      0.013864944023366759,
      -0.02272284950903917,
      -0.022028209486551605,
      0.011986891872707829,
      -0.015917567092533644,
      -0.001547597850793362,
      -0.01722815609810423,
      -0.006942971986668021,
      0.0017492876814646878,
      -0.012058368005449722,
      0.00658186438204854,
      0.005134446059337708,
      -0.0025107002527353867,
      -0.007169254296570977,
      0.026085636192524984,
      -0.013794776335047613,
      0.008582147936437485,
      0.015656535860605655,
      0.0008997362534555353,
      0.015158452661669982,
      -0.017846150358349373,
      -0.016054658795144904,
      0.0011230461620987825,
      0.014284917135466353,
      -0.0035710796760946156,
      -0.0006596422092851228,
      -0.0030660752907360916,
      -0.01617397304704973,
      -0.0022535267779483846,
      -0.004488882054831885,
      0.01126627915178423,
      0.0038424201408819953,
      -0.016495625412140745,
      0.0012081398733009843,
      -0.005003010978440174,
      -0.0036907573338632394,
      0.007840129685463406,
      0.012918161586176266,
      0.0074857079940838225,
      -0.008928258137559366,
      -0.0018026724585176019,
      0.003763475501502459,
      0.011054418075794981,
      -0.011220573899299643,
      -0.0018185530717776182,
      0.3861097148492173
    ],
    "weights_stats": {
      "min": -0.02272284950903917,
      "max": 0.026085636192524984,
      "mean": -0.0006206464208960256,
      "std": 0.01080714723619742
    }
  },
  "convergence_analysis": {
    "epochs_to_converge": 100,
    "final_cost_change": -0.3860218170836873,
    "convergence_rate": "sublinear",
    "cost_reduction_ratio": 1.0759364390818533
  },
  "algorithm_specific": {
    "method_type": "stochastic_gradient_descent",
    "batch_processing": true,
    "batch_size": 25000,
    "epoch_based_training": true,
    "data_shuffling": true,
    "noisy_gradients": "inherent_in_SGD",
    "convergence_type": "probabilistic",
    "learning_rate_schedule": "constant",
    "adaptive_learning_rate": false
  }
}