{
  "algorithm": "Stochastic Gradient Descent - OLS",
  "loss_function": "OLS",
  "parameters": {
    "learning_rate": 0.01,
    "learning_rate_schedule": "constant",
    "epochs": 100,
    "batch_size": 1000,
    "random_state": 42,
    "tolerance": 1e-06
  },
  "training_results": {
    "training_time": 54.00389266014099,
    "converged": false,
    "final_epoch": 100,
    "total_epochs": 100,
    "final_cost": 1.1124074909196597e+129,
    "final_gradient_norm": 2.4337970274432298e+64
  },
  "weights_analysis": {
    "n_features": 62,
    "n_weights_total": 63,
    "bias_value": -2.663028134289525e+61,
    "weights_without_bias": [
      8.493541484112564e+60,
      7.633009764624877e+60,
      -4.732812977762466e+60,
      4.507249277927568e+60,
      6.890200877176645e+60,
      -2.819912712064518e+61,
      1.9499638089607897e+61,
      3.763103862781549e+61,
      -6.50892469534867e+60,
      -2.03473622551924e+61,
      9.698466388911663e+59,
      4.880970481848391e+61,
      -1.3242086826451462e+61,
      2.0438500020679562e+61,
      -5.741092992533746e+60,
      -5.741092992533746e+60,
      -5.741092992533746e+60,
      -3.789476601672287e+60,
      -2.0438500020679562e+61,
      -8.93200767032948e+60,
      3.0529082926552487e+61,
      1.1279558280218524e+61,
      6.673602340743131e+60,
      1.3829006981934583e+61,
      2.634111863368819e+61,
      7.633009764624877e+60,
      1.5425567565194945e+61,
      9.301418159818098e+60,
      3.2111077532881496e+61,
      -2.5051049929888663e+60,
      1.3216062345575437e+61,
      1.289175982899344e+61,
      1.1279558280218524e+61,
      9.552134867216467e+60,
      2.063111564272261e+60,
      -1.3246640101696003e+61,
      -1.3373955409547475e+61,
      1.5526040192966775e+61,
      2.2084498157840643e+60,
      -3.1398420619976296e+60,
      -2.0899815249613184e+61,
      -1.459882603067292e+60,
      1.3013620284351963e+60,
      2.3070765252391868e+61,
      3.6426579282414796e+60,
      -1.9112829080196322e+61,
      2.017150201931968e+60,
      1.716951738775939e+61,
      -2.5051049929888663e+60,
      3.347880836400137e+61,
      4.383947390111988e+61,
      1.3216062345575437e+61,
      -1.997311372349402e+64,
      -1.3721531107378487e+61,
      2.7930910462882234e+61,
      -5.5162056065995005e+60,
      6.503892720932473e+59,
      1.0115391682940579e+61,
      9.445676447641329e+60,
      -4.1417491406999745e+60,
      -5.532683394483786e+60,
      -5.038962056916986e+61
    ],
    "complete_weight_vector": [
      8.493541484112564e+60,
      7.633009764624877e+60,
      -4.732812977762466e+60,
      4.507249277927568e+60,
      6.890200877176645e+60,
      -2.819912712064518e+61,
      1.9499638089607897e+61,
      3.763103862781549e+61,
      -6.50892469534867e+60,
      -2.03473622551924e+61,
      9.698466388911663e+59,
      4.880970481848391e+61,
      -1.3242086826451462e+61,
      2.0438500020679562e+61,
      -5.741092992533746e+60,
      -5.741092992533746e+60,
      -5.741092992533746e+60,
      -3.789476601672287e+60,
      -2.0438500020679562e+61,
      -8.93200767032948e+60,
      3.0529082926552487e+61,
      1.1279558280218524e+61,
      6.673602340743131e+60,
      1.3829006981934583e+61,
      2.634111863368819e+61,
      7.633009764624877e+60,
      1.5425567565194945e+61,
      9.301418159818098e+60,
      3.2111077532881496e+61,
      -2.5051049929888663e+60,
      1.3216062345575437e+61,
      1.289175982899344e+61,
      1.1279558280218524e+61,
      9.552134867216467e+60,
      2.063111564272261e+60,
      -1.3246640101696003e+61,
      -1.3373955409547475e+61,
      1.5526040192966775e+61,
      2.2084498157840643e+60,
      -3.1398420619976296e+60,
      -2.0899815249613184e+61,
      -1.459882603067292e+60,
      1.3013620284351963e+60,
      2.3070765252391868e+61,
      3.6426579282414796e+60,
      -1.9112829080196322e+61,
      2.017150201931968e+60,
      1.716951738775939e+61,
      -2.5051049929888663e+60,
      3.347880836400137e+61,
      4.383947390111988e+61,
      1.3216062345575437e+61,
      -1.997311372349402e+64,
      -1.3721531107378487e+61,
      2.7930910462882234e+61,
      -5.5162056065995005e+60,
      6.503892720932473e+59,
      1.0115391682940579e+61,
      9.445676447641329e+60,
      -4.1417491406999745e+60,
      -5.532683394483786e+60,
      -5.038962056916986e+61,
      -2.663028134289525e+61
    ],
    "weights_stats": {
      "min": -1.997311372349402e+64,
      "max": 4.880970481848391e+61,
      "mean": -3.1760420662895344e+62,
      "std": 2.516690322408066e+63
    }
  },
  "convergence_analysis": {
    "epochs_to_converge": 100,
    "final_cost_change": 1.1124074909195912e+129,
    "convergence_rate": "sublinear",
    "cost_reduction_ratio": 1.266220470481819e-119
  },
  "algorithm_specific": {
    "method_type": "stochastic_gradient_descent",
    "batch_processing": true,
    "batch_size": 1000,
    "epoch_based_training": true,
    "data_shuffling": true,
    "noisy_gradients": "inherent_in_SGD",
    "convergence_type": "probabilistic",
    "learning_rate_schedule": "constant",
    "adaptive_learning_rate": false
  }
}