{
  "algorithm": "Stochastic Gradient Descent - OLS",
  "loss_function": "OLS",
  "parameters": {
    "learning_rate": 0.0001,
    "learning_rate_schedule": "constant",
    "epochs": 100,
    "batch_size": 20000,
    "random_state": 42,
    "tolerance": 1e-06
  },
  "training_results": {
    "training_time": 85.12421655654907,
    "converged": false,
    "final_epoch": 100,
    "total_epochs": 100,
    "final_cost": 46.51021012631164,
    "final_gradient_norm": 9.697438535197847
  },
  "weights_analysis": {
    "n_features": 62,
    "n_weights_total": 63,
    "bias_value": 0.4829445382881027,
    "weights_without_bias": [
      0.001979715508619958,
      -0.0006792574071451877,
      0.014069306722419066,
      0.010039824989671486,
      -0.005497374530631492,
      -0.010344277318664979,
      0.011751085138468469,
      0.02207161277850436,
      0.007856428685679949,
      -0.013367166338956247,
      -0.0031268887015886647,
      -0.018060355812831656,
      0.005263060457139417,
      -0.0027297209501293894,
      -0.005488468431384452,
      0.006137834601336151,
      0.0016323986904016464,
      0.015858582026652066,
      -0.02548332225166068,
      -0.02357508626711936,
      0.01146796551268739,
      -0.018627455450104666,
      -0.002018490594302586,
      -0.01777507323717782,
      -0.007170198526604622,
      0.0018126115016653187,
      -0.012108779627132181,
      0.007190341973561497,
      0.0074433696599780315,
      -0.002400727744460221,
      -0.0074156826196195465,
      0.027534302090889973,
      -0.016504664692618652,
      0.01256023106722514,
      0.017183988086064708,
      0.0035918335396569654,
      0.01784092197156613,
      -0.017410029140795716,
      -0.0166059871033636,
      0.0009524372087292527,
      0.015660546051527852,
      -0.0045816465971784005,
      -0.0006366136501286682,
      -0.003094303038903202,
      -0.01642110792887777,
      -0.001292137644817899,
      -0.004460402497667852,
      0.011377522408780727,
      0.00395239264915716,
      -0.016244896467795797,
      0.0007617906906673895,
      -0.005249439301488742,
      -0.0030260765032099914,
      0.008214241147472835,
      0.01340487302031393,
      0.0071324439906238725,
      -0.009031707496491837,
      -0.001408688152752053,
      0.0037511242368416637,
      0.011321487819349656,
      -0.012499375444306295,
      -0.0017973979358080249
    ],
    "complete_weight_vector": [
      0.001979715508619958,
      -0.0006792574071451877,
      0.014069306722419066,
      0.010039824989671486,
      -0.005497374530631492,
      -0.010344277318664979,
      0.011751085138468469,
      0.02207161277850436,
      0.007856428685679949,
      -0.013367166338956247,
      -0.0031268887015886647,
      -0.018060355812831656,
      0.005263060457139417,
      -0.0027297209501293894,
      -0.005488468431384452,
      0.006137834601336151,
      0.0016323986904016464,
      0.015858582026652066,
      -0.02548332225166068,
      -0.02357508626711936,
      0.01146796551268739,
      -0.018627455450104666,
      -0.002018490594302586,
      -0.01777507323717782,
      -0.007170198526604622,
      0.0018126115016653187,
      -0.012108779627132181,
      0.007190341973561497,
      0.0074433696599780315,
      -0.002400727744460221,
      -0.0074156826196195465,
      0.027534302090889973,
      -0.016504664692618652,
      0.01256023106722514,
      0.017183988086064708,
      0.0035918335396569654,
      0.01784092197156613,
      -0.017410029140795716,
      -0.0166059871033636,
      0.0009524372087292527,
      0.015660546051527852,
      -0.0045816465971784005,
      -0.0006366136501286682,
      -0.003094303038903202,
      -0.01642110792887777,
      -0.001292137644817899,
      -0.004460402497667852,
      0.011377522408780727,
      0.00395239264915716,
      -0.016244896467795797,
      0.0007617906906673895,
      -0.005249439301488742,
      -0.0030260765032099914,
      0.008214241147472835,
      0.01340487302031393,
      0.0071324439906238725,
      -0.009031707496491837,
      -0.001408688152752053,
      0.0037511242368416637,
      0.011321487819349656,
      -0.012499375444306295,
      -0.0017973979358080249,
      0.4829445382881027
    ],
    "weights_stats": {
      "min": -0.02548332225166068,
      "max": 0.027534302090889973,
      "mean": -0.00042449234161397105,
      "std": 0.011675965911077422
    }
  },
  "convergence_analysis": {
    "epochs_to_converge": 100,
    "final_cost_change": -0.4725024634096613,
    "convergence_rate": "sublinear",
    "cost_reduction_ratio": 1.0956774454202478
  },
  "algorithm_specific": {
    "method_type": "stochastic_gradient_descent",
    "batch_processing": true,
    "batch_size": 20000,
    "epoch_based_training": true,
    "data_shuffling": true,
    "noisy_gradients": "inherent_in_SGD",
    "convergence_type": "probabilistic",
    "learning_rate_schedule": "constant",
    "adaptive_learning_rate": false
  }
}