{
  "algorithm": "Stochastic Gradient Descent - OLS",
  "loss_function": "OLS",
  "parameters": {
    "learning_rate": 0.01,
    "epochs": 100,
    "batch_size": 3200,
    "random_state": 42,
    "tolerance": 1e-06
  },
  "training_results": {
    "training_time": 25.17709493637085,
    "converged": false,
    "final_epoch": 100,
    "total_epochs": 100,
    "final_cost": 0.012055504148737238,
    "final_gradient_norm": 0.003376775799182018
  },
  "weights_analysis": {
    "n_features": 62,
    "n_weights_total": 63,
    "bias_value": 10.117536942713455,
    "weights_without_bias": [
      0.0063499371895616935,
      0.0008317729154240085,
      0.008937622633727035,
      -0.006080326435167915,
      0.0013535456543292191,
      0.008407987140920132,
      0.01701165099267696,
      0.0834278097022922,
      -0.010214143742414136,
      -0.21019125014841947,
      -0.010332978400051575,
      -0.007727183963577749,
      0.01011381380862705,
      0.09446737287610849,
      -0.006195451468122859,
      0.005430851564597754,
      0.0009254156536632296,
      0.011204792531373053,
      -0.12268041607789873,
      0.09438420878745869,
      0.018580734084184456,
      0.03939125018805616,
      0.005509439658053707,
      -0.012923438994895127,
      -0.006386581370093018,
      0.0033236418242345214,
      0.009201416443399854,
      0.02560428971047794,
      0.03237956084045182,
      -0.009101686497097703,
      -0.0032207243511573782,
      0.02637568992394598,
      0.041514040945542174,
      0.220073950325235,
      -0.005033320533171473,
      0.04136522020104537,
      0.0559530546653207,
      -0.004100099108178151,
      -0.014764525731091861,
      -0.005601336522107868,
      -0.02491096294645069,
      -0.02295967228326849,
      -0.010697896340044836,
      0.0015048392825100223,
      -0.005576039796049126,
      -0.01289560113024813,
      -0.0005125262352972757,
      0.010620484479955294,
      -0.002748566103480264,
      -0.017376606022718264,
      -0.02024077142521444,
      -0.0010544810330265905,
      -0.0005123699626853426,
      0.0005573820157925739,
      -0.0013967938902957285,
      0.0037415341401071016,
      0.0033496361837290086,
      0.004120159629163612,
      -0.013803009122545846,
      -0.004927303239830078,
      -0.0345419090618118,
      -0.008940727447644913
    ],
    "complete_weight_vector": [
      0.0063499371895616935,
      0.0008317729154240085,
      0.008937622633727035,
      -0.006080326435167915,
      0.0013535456543292191,
      0.008407987140920132,
      0.01701165099267696,
      0.0834278097022922,
      -0.010214143742414136,
      -0.21019125014841947,
      -0.010332978400051575,
      -0.007727183963577749,
      0.01011381380862705,
      0.09446737287610849,
      -0.006195451468122859,
      0.005430851564597754,
      0.0009254156536632296,
      0.011204792531373053,
      -0.12268041607789873,
      0.09438420878745869,
      0.018580734084184456,
      0.03939125018805616,
      0.005509439658053707,
      -0.012923438994895127,
      -0.006386581370093018,
      0.0033236418242345214,
      0.009201416443399854,
      0.02560428971047794,
      0.03237956084045182,
      -0.009101686497097703,
      -0.0032207243511573782,
      0.02637568992394598,
      0.041514040945542174,
      0.220073950325235,
      -0.005033320533171473,
      0.04136522020104537,
      0.0559530546653207,
      -0.004100099108178151,
      -0.014764525731091861,
      -0.005601336522107868,
      -0.02491096294645069,
      -0.02295967228326849,
      -0.010697896340044836,
      0.0015048392825100223,
      -0.005576039796049126,
      -0.01289560113024813,
      -0.0005125262352972757,
      0.010620484479955294,
      -0.002748566103480264,
      -0.017376606022718264,
      -0.02024077142521444,
      -0.0010544810330265905,
      -0.0005123699626853426,
      0.0005573820157925739,
      -0.0013967938902957285,
      0.0037415341401071016,
      0.0033496361837290086,
      0.004120159629163612,
      -0.013803009122545846,
      -0.004927303239830078,
      -0.0345419090618118,
      -0.008940727447644913,
      10.117536942713455
    ],
    "weights_stats": {
      "min": -0.21019125014841947,
      "max": 0.220073950325235,
      "mean": 0.00432845817109529,
      "std": 0.048823219567162214
    }
  },
  "convergence_analysis": {
    "epochs_to_converge": 100,
    "final_cost_change": -2.1688085993204487e-05,
    "convergence_rate": "sublinear",
    "cost_reduction_ratio": 8.087344492638438
  },
  "algorithm_specific": {
    "method_type": "stochastic_gradient_descent",
    "batch_processing": true,
    "batch_size": 3200,
    "epoch_based_training": true,
    "data_shuffling": true,
    "noisy_gradients": "inherent_in_SGD",
    "convergence_type": "probabilistic"
  }
}