{
  "algorithm": "Stochastic Gradient Descent - OLS",
  "loss_function": "OLS",
  "parameters": {
    "learning_rate": 0.01,
    "learning_rate_schedule": "constant",
    "epochs": 100,
    "batch_size": 3200,
    "random_state": 42,
    "tolerance": 1e-06
  },
  "training_results": {
    "training_time": 55.36467719078064,
    "converged": false,
    "final_epoch": 100,
    "total_epochs": 100,
    "final_cost": 0.01205550414873724,
    "final_gradient_norm": 0.003376775799181989
  },
  "weights_analysis": {
    "n_features": 62,
    "n_weights_total": 63,
    "bias_value": 10.117536942713455,
    "weights_without_bias": [
      0.0063499371895616614,
      0.0008317729154240249,
      0.008937622633727042,
      -0.006080326435167857,
      0.0013535456543292347,
      0.00840798714092019,
      0.017011650992676913,
      0.08342780970229213,
      -0.01021414374241418,
      -0.2101912501484193,
      -0.010332978400051573,
      -0.007727183963577741,
      0.010113813808627055,
      0.09446737287610854,
      -0.0061954514681228645,
      0.005430851564597749,
      0.0009254156536632534,
      0.011204792531373067,
      -0.12268041607789877,
      0.09438420878745869,
      0.01858073408418449,
      0.039391250188056046,
      0.005509439658053693,
      -0.012923438994895073,
      -0.0063865813700930115,
      0.0033236418242345166,
      0.009201416443399849,
      0.02560428971047793,
      0.03237956084045183,
      -0.0091016864970977,
      -0.003220724351157391,
      0.02637568992394608,
      0.041514040945542174,
      0.22007395032523508,
      -0.005033320533171476,
      0.04136522020104529,
      0.05595305466532073,
      -0.004100099108178146,
      -0.014764525731091863,
      -0.005601336522107883,
      -0.024910962946450694,
      -0.022959672283268485,
      -0.010697896340044857,
      0.001504839282510015,
      -0.0055760397960491325,
      -0.012895601130248138,
      -0.0005125262352972739,
      0.010620484479955273,
      -0.0027485661034802474,
      -0.017376606022718285,
      -0.020240771425214462,
      -0.0010544810330265905,
      -0.0005123699626853516,
      0.0005573820157925738,
      -0.0013967938902957392,
      0.0037415341401071034,
      0.003349636183729006,
      0.004120159629163614,
      -0.013803009122545853,
      -0.004927303239830065,
      -0.03454190906181176,
      -0.008940727447644894
    ],
    "complete_weight_vector": [
      0.0063499371895616614,
      0.0008317729154240249,
      0.008937622633727042,
      -0.006080326435167857,
      0.0013535456543292347,
      0.00840798714092019,
      0.017011650992676913,
      0.08342780970229213,
      -0.01021414374241418,
      -0.2101912501484193,
      -0.010332978400051573,
      -0.007727183963577741,
      0.010113813808627055,
      0.09446737287610854,
      -0.0061954514681228645,
      0.005430851564597749,
      0.0009254156536632534,
      0.011204792531373067,
      -0.12268041607789877,
      0.09438420878745869,
      0.01858073408418449,
      0.039391250188056046,
      0.005509439658053693,
      -0.012923438994895073,
      -0.0063865813700930115,
      0.0033236418242345166,
      0.009201416443399849,
      0.02560428971047793,
      0.03237956084045183,
      -0.0091016864970977,
      -0.003220724351157391,
      0.02637568992394608,
      0.041514040945542174,
      0.22007395032523508,
      -0.005033320533171476,
      0.04136522020104529,
      0.05595305466532073,
      -0.004100099108178146,
      -0.014764525731091863,
      -0.005601336522107883,
      -0.024910962946450694,
      -0.022959672283268485,
      -0.010697896340044857,
      0.001504839282510015,
      -0.0055760397960491325,
      -0.012895601130248138,
      -0.0005125262352972739,
      0.010620484479955273,
      -0.0027485661034802474,
      -0.017376606022718285,
      -0.020240771425214462,
      -0.0010544810330265905,
      -0.0005123699626853516,
      0.0005573820157925738,
      -0.0013967938902957392,
      0.0037415341401071034,
      0.003349636183729006,
      0.004120159629163614,
      -0.013803009122545853,
      -0.004927303239830065,
      -0.03454190906181176,
      -0.008940727447644894,
      10.117536942713455
    ],
    "weights_stats": {
      "min": -0.2101912501484193,
      "max": 0.22007395032523508,
      "mean": 0.0043284581710952945,
      "std": 0.0488232195671622
    }
  },
  "convergence_analysis": {
    "epochs_to_converge": 100,
    "final_cost_change": -2.1688085993207956e-05,
    "convergence_rate": "sublinear",
    "cost_reduction_ratio": 8.087344492638438
  },
  "algorithm_specific": {
    "method_type": "stochastic_gradient_descent",
    "batch_processing": true,
    "batch_size": 3200,
    "epoch_based_training": true,
    "data_shuffling": true,
    "noisy_gradients": "inherent_in_SGD",
    "convergence_type": "probabilistic",
    "learning_rate_schedule": "constant",
    "adaptive_learning_rate": false
  }
}