{
  "algorithm": "Stochastic Gradient Descent - OLS",
  "loss_function": "OLS",
  "parameters": {
    "learning_rate": 0.01,
    "learning_rate_schedule": "constant",
    "epochs": 100,
    "batch_size": 1600,
    "random_state": 42,
    "tolerance": 1e-06
  },
  "training_results": {
    "training_time": 52.73387837409973,
    "converged": false,
    "final_epoch": 100,
    "total_epochs": 100,
    "final_cost": 5.820943595362699e+76,
    "final_gradient_norm": 3.2161064239442785e+38
  },
  "weights_analysis": {
    "n_features": 62,
    "n_weights_total": 63,
    "bias_value": -1.9153106329971088e+35,
    "weights_without_bias": [
      6.312665714396951e+34,
      5.661599311774326e+34,
      -4.729612891865568e+34,
      7.7680855255205115e+34,
      5.819318520901432e+34,
      -3.0399784480479165e+35,
      1.6770830094306167e+35,
      2.963872970272603e+35,
      -8.272765525863328e+34,
      -1.799490189209314e+35,
      1.117666705170391e+34,
      3.826967383244885e+35,
      -1.3531737708706635e+35,
      2.1667076654074755e+35,
      -8.032565043452474e+34,
      -8.032565043452474e+34,
      -8.032565043452474e+34,
      -6.317452941645127e+34,
      -2.1667076654074755e+35,
      -1.3891316118196947e+35,
      2.2180457317031217e+35,
      9.16401865900382e+34,
      6.084639177027956e+34,
      1.1358737183099252e+35,
      2.5672753495470788e+35,
      5.661599311774326e+34,
      1.4949523027489764e+35,
      8.374964474811915e+34,
      2.65650001294955e+35,
      -2.032510980539378e+34,
      7.5893855928450295e+34,
      1.2107997224697242e+35,
      9.16401865900382e+34,
      1.0003360458124072e+35,
      2.3216466435353085e+34,
      -9.892032487752646e+34,
      -9.981147149114118e+34,
      1.2229152647316429e+35,
      1.649493829349144e+34,
      4.8597136459677086e+33,
      -2.062388324415575e+35,
      1.7357513224144743e+34,
      2.5024145239206057e+34,
      1.453292176864308e+35,
      3.0113156388311533e+34,
      -1.4844274362634063e+35,
      1.5090823215784116e+34,
      1.1592694187231327e+35,
      -2.032510980539378e+34,
      2.3011107502555135e+35,
      3.522505990900196e+35,
      7.5893855928450295e+34,
      -1.4447726659094992e+38,
      -1.5386670096294708e+35,
      2.9536777571574627e+35,
      -4.897726462544488e+34,
      6.654859368250444e+33,
      9.301076244208854e+34,
      8.796144309342216e+34,
      -9.303106316989778e+31,
      -3.7718640745169996e+33,
      -4.664040370862284e+35
    ],
    "complete_weight_vector": [
      6.312665714396951e+34,
      5.661599311774326e+34,
      -4.729612891865568e+34,
      7.7680855255205115e+34,
      5.819318520901432e+34,
      -3.0399784480479165e+35,
      1.6770830094306167e+35,
      2.963872970272603e+35,
      -8.272765525863328e+34,
      -1.799490189209314e+35,
      1.117666705170391e+34,
      3.826967383244885e+35,
      -1.3531737708706635e+35,
      2.1667076654074755e+35,
      -8.032565043452474e+34,
      -8.032565043452474e+34,
      -8.032565043452474e+34,
      -6.317452941645127e+34,
      -2.1667076654074755e+35,
      -1.3891316118196947e+35,
      2.2180457317031217e+35,
      9.16401865900382e+34,
      6.084639177027956e+34,
      1.1358737183099252e+35,
      2.5672753495470788e+35,
      5.661599311774326e+34,
      1.4949523027489764e+35,
      8.374964474811915e+34,
      2.65650001294955e+35,
      -2.032510980539378e+34,
      7.5893855928450295e+34,
      1.2107997224697242e+35,
      9.16401865900382e+34,
      1.0003360458124072e+35,
      2.3216466435353085e+34,
      -9.892032487752646e+34,
      -9.981147149114118e+34,
      1.2229152647316429e+35,
      1.649493829349144e+34,
      4.8597136459677086e+33,
      -2.062388324415575e+35,
      1.7357513224144743e+34,
      2.5024145239206057e+34,
      1.453292176864308e+35,
      3.0113156388311533e+34,
      -1.4844274362634063e+35,
      1.5090823215784116e+34,
      1.1592694187231327e+35,
      -2.032510980539378e+34,
      2.3011107502555135e+35,
      3.522505990900196e+35,
      7.5893855928450295e+34,
      -1.4447726659094992e+38,
      -1.5386670096294708e+35,
      2.9536777571574627e+35,
      -4.897726462544488e+34,
      6.654859368250444e+33,
      9.301076244208854e+34,
      8.796144309342216e+34,
      -9.303106316989778e+31,
      -3.7718640745169996e+33,
      -4.664040370862284e+35,
      -1.9153106329971088e+35
    ],
    "weights_stats": {
      "min": -1.4447726659094992e+38,
      "max": 3.826967383244885e+35,
      "mean": -2.2980240434418187e+36,
      "std": 1.82048298558522e+37
    }
  },
  "convergence_analysis": {
    "epochs_to_converge": 100,
    "final_cost_change": 5.820943523432699e+76,
    "convergence_rate": "sublinear",
    "cost_reduction_ratio": 1.163771757288879e-72
  },
  "algorithm_specific": {
    "method_type": "stochastic_gradient_descent",
    "batch_processing": true,
    "batch_size": 1600,
    "epoch_based_training": true,
    "data_shuffling": true,
    "noisy_gradients": "inherent_in_SGD",
    "convergence_type": "probabilistic",
    "learning_rate_schedule": "constant",
    "adaptive_learning_rate": false
  }
}