{
  "algorithm": "Gradient Descent - OLS",
  "loss_function": "OLS",
  "parameters": {
    "learning_rate": 0.01,
    "max_iterations": 10000,
    "tolerance": 1e-05,
    "step_size_method": "adaptive"
  },
  "training_results": {
    "training_time": 84.46234512329102,
    "converged": false,
    "final_iteration": 10000,
    "total_iterations": 10000,
    "final_loss": 0.02105305189479143,
    "final_gradient_norm": 0.3619977358642575
  },
  "weights_analysis": {
    "n_features": 62,
    "n_weights_total": 63,
    "bias_value": 10.11757256851119,
    "weights_without_bias": [
      -0.01196942401053593,
      -0.007777115995292889,
      0.021400742611416758,
      -0.014543581724803927,
      -0.003231101491187732,
      0.0013659076236481106,
      -0.0018205752175738908,
      0.09393608685711255,
      0.005323377427307792,
      -0.28685522460883306,
      -0.002397149592303159,
      -0.006730887432987399,
      0.020022143138843727,
      0.08391094280140915,
      0.0077575129311026276,
      -0.0024251069037704515,
      0.00036095416972805293,
      0.01782403547954403,
      -0.08930244618010041,
      0.07671828870912094,
      0.013740403195419103,
      0.07486071080662675,
      0.008045206683597603,
      -0.0065274126586624855,
      -0.007121148381599691,
      0.013624130141947742,
      0.008935970662853353,
      0.03626146311023075,
      0.03805493277121942,
      -0.004972536693596635,
      -0.020221075738325024,
      0.020736612818503353,
      0.06570843208826645,
      0.22677950652240422,
      0.0046749890186184445,
      0.05347651260850003,
      0.06435841082148237,
      -0.012354959208733241,
      -0.038442235395968305,
      -0.014045366166217817,
      -0.043053992191704464,
      -0.06511384845026456,
      -0.047714601663193044,
      0.002093826724442617,
      -0.02567176255264221,
      -0.0036533018237363026,
      0.009165237775284643,
      0.02148580301074363,
      -0.02312954748035275,
      -0.006876786378401927,
      -0.024659568941149457,
      0.0010419768063069934,
      0.0014354179365178837,
      0.009250477525322928,
      0.011294651965417768,
      -0.005846951808992057,
      -0.006970238774537943,
      3.0657613918211313e-06,
      -0.0038378089203279717,
      -0.002281775233166564,
      -0.045589441074043474,
      -0.0064339141436902236
    ],
    "complete_weight_vector": [
      -0.01196942401053593,
      -0.007777115995292889,
      0.021400742611416758,
      -0.014543581724803927,
      -0.003231101491187732,
      0.0013659076236481106,
      -0.0018205752175738908,
      0.09393608685711255,
      0.005323377427307792,
      -0.28685522460883306,
      -0.002397149592303159,
      -0.006730887432987399,
      0.020022143138843727,
      0.08391094280140915,
      0.0077575129311026276,
      -0.0024251069037704515,
      0.00036095416972805293,
      0.01782403547954403,
      -0.08930244618010041,
      0.07671828870912094,
      0.013740403195419103,
      0.07486071080662675,
      0.008045206683597603,
      -0.0065274126586624855,
      -0.007121148381599691,
      0.013624130141947742,
      0.008935970662853353,
      0.03626146311023075,
      0.03805493277121942,
      -0.004972536693596635,
      -0.020221075738325024,
      0.020736612818503353,
      0.06570843208826645,
      0.22677950652240422,
      0.0046749890186184445,
      0.05347651260850003,
      0.06435841082148237,
      -0.012354959208733241,
      -0.038442235395968305,
      -0.014045366166217817,
      -0.043053992191704464,
      -0.06511384845026456,
      -0.047714601663193044,
      0.002093826724442617,
      -0.02567176255264221,
      -0.0036533018237363026,
      0.009165237775284643,
      0.02148580301074363,
      -0.02312954748035275,
      -0.006876786378401927,
      -0.024659568941149457,
      0.0010419768063069934,
      0.0014354179365178837,
      0.009250477525322928,
      0.011294651965417768,
      -0.005846951808992057,
      -0.006970238774537943,
      3.0657613918211313e-06,
      -0.0038378089203279717,
      -0.002281775233166564,
      -0.045589441074043474,
      -0.0064339141436902236,
      10.11757256851119
    ],
    "weights_stats": {
      "min": -0.28685522460883306,
      "max": 0.22677950652240422,
      "mean": 0.0027754329623812355,
      "std": 0.056930875885242475
    }
  },
  "convergence_analysis": {
    "iterations_to_converge": 10000,
    "final_cost_change": 0.003971778690637428,
    "convergence_rate": "linear",
    "loss_reduction_ratio": 1981.9523672698217
  },
  "algorithm_specific": {
    "gradient_descent_type": "standard",
    "step_size_method": "adaptive",
    "step_size_constant": false,
    "momentum_used": false,
    "backtracking_parameters": null,
    "adaptive_parameters": {
      "beta1": 0.9,
      "beta2": 0.999,
      "eps": 1e-08
    }
  }
}