{
  "algorithm": "Gradient Descent - OLS",
  "loss_function": "OLS",
  "parameters": {
    "learning_rate": 0.01,
    "max_iterations": 100000,
    "tolerance": 1e-05,
    "step_size_method": "adaptive"
  },
  "training_results": {
    "training_time": 548.3669760227203,
    "converged": false,
    "final_iteration": 100000,
    "total_iterations": 100000,
    "final_loss": 0.013830910609115045,
    "final_gradient_norm": 0.1801337055269629
  },
  "weights_analysis": {
    "n_features": 62,
    "n_weights_total": 63,
    "bias_value": 10.11321649890269,
    "weights_without_bias": [
      -0.012544634884428717,
      0.004998975958676989,
      0.014288288603380384,
      -0.016633687724266818,
      -0.004018464692677779,
      -0.0010368358602881262,
      0.0021698169950630456,
      0.08703605627710348,
      0.007047584632472733,
      -0.2890530489213264,
      -0.006412198175477593,
      -0.008724818038374344,
      0.012876185164083702,
      0.08670155351923872,
      0.001067816939952085,
      0.014818047488032362,
      -0.0048912318341678435,
      0.01941484022866189,
      -0.09042254447543044,
      0.07456051854940414,
      0.011331494564506897,
      0.06930313101371112,
      0.004022508715843257,
      0.011374130386650992,
      -0.011412995030623445,
      0.004486592229760858,
      0.006389723451295846,
      0.029382863162347898,
      0.031191616237663995,
      0.004834950952857433,
      -0.005057682888694575,
      0.02013085293755455,
      0.06730570409215451,
      0.22414066588062923,
      -0.001702602929438646,
      0.01570407044359889,
      0.09075501142328458,
      -0.016358047004632385,
      -0.03126992097296412,
      -0.01929771006110722,
      -0.049560994108289846,
      -0.060020674721013745,
      -0.046613817687881504,
      -0.004911178532585289,
      -0.019089622920446254,
      -0.010774112449846312,
      0.001705996061827796,
      0.015455716628050491,
      -0.019041786559089353,
      -0.013816813469207241,
      -0.0203810253578241,
      -0.0007229010408543028,
      -0.001010612845202785,
      0.0047928158631669205,
      0.005013512073322889,
      0.0013194718464879813,
      0.0004659253260176927,
      -0.00042341153995548685,
      -0.010480622944980887,
      -0.0015677035661023605,
      -0.03906921477139745,
      -0.011617793412796982
    ],
    "complete_weight_vector": [
      -0.012544634884428717,
      0.004998975958676989,
      0.014288288603380384,
      -0.016633687724266818,
      -0.004018464692677779,
      -0.0010368358602881262,
      0.0021698169950630456,
      0.08703605627710348,
      0.007047584632472733,
      -0.2890530489213264,
      -0.006412198175477593,
      -0.008724818038374344,
      0.012876185164083702,
      0.08670155351923872,
      0.001067816939952085,
      0.014818047488032362,
      -0.0048912318341678435,
      0.01941484022866189,
      -0.09042254447543044,
      0.07456051854940414,
      0.011331494564506897,
      0.06930313101371112,
      0.004022508715843257,
      0.011374130386650992,
      -0.011412995030623445,
      0.004486592229760858,
      0.006389723451295846,
      0.029382863162347898,
      0.031191616237663995,
      0.004834950952857433,
      -0.005057682888694575,
      0.02013085293755455,
      0.06730570409215451,
      0.22414066588062923,
      -0.001702602929438646,
      0.01570407044359889,
      0.09075501142328458,
      -0.016358047004632385,
      -0.03126992097296412,
      -0.01929771006110722,
      -0.049560994108289846,
      -0.060020674721013745,
      -0.046613817687881504,
      -0.004911178532585289,
      -0.019089622920446254,
      -0.010774112449846312,
      0.001705996061827796,
      0.015455716628050491,
      -0.019041786559089353,
      -0.013816813469207241,
      -0.0203810253578241,
      -0.0007229010408543028,
      -0.001010612845202785,
      0.0047928158631669205,
      0.005013512073322889,
      0.0013194718464879813,
      0.0004659253260176927,
      -0.00042341153995548685,
      -0.010480622944980887,
      -0.0015677035661023605,
      -0.03906921477139745,
      -0.011617793412796982,
      10.11321649890269
    ],
    "weights_stats": {
      "min": -0.2890530489213264,
      "max": 0.22414066588062923,
      "mean": 0.0018733504552488878,
      "std": 0.0565122375440059
    }
  },
  "convergence_analysis": {
    "iterations_to_converge": 100000,
    "final_cost_change": -0.0019803541524845286,
    "convergence_rate": "linear",
    "loss_reduction_ratio": 3034.9975025489603
  },
  "algorithm_specific": {
    "gradient_descent_type": "standard",
    "step_size_method": "adaptive",
    "step_size_constant": false,
    "momentum_used": false,
    "backtracking_parameters": null,
    "adaptive_parameters": {
      "beta1": 0.9,
      "beta2": 0.999,
      "eps": 1e-08
    }
  }
}