{
  "algorithm": "Gradient Descent - OLS",
  "loss_function": "OLS",
  "parameters": {
    "learning_rate": 0.001,
    "max_iterations": 1000,
    "tolerance": 1e-05,
    "step_size_method": "adaptive"
  },
  "training_results": {
    "training_time": 78.32633185386658,
    "converged": false,
    "final_iteration": 1000,
    "total_iterations": 1000,
    "final_loss": 41.73888191803291,
    "final_gradient_norm": 9.13477152248739
  },
  "weights_analysis": {
    "n_features": 62,
    "n_weights_total": 63,
    "bias_value": 0.9808651845653029,
    "weights_without_bias": [
      0.022692582664956062,
      0.005311789261576884,
      -0.034327680050348836,
      -0.014198714276603285,
      -0.03142972127508946,
      -0.026467482764763493,
      0.03877344166925069,
      0.182733058047906,
      0.024717058707173663,
      -0.13374736091060124,
      -0.03979078906384552,
      -0.0395342248978385,
      0.041386675686330206,
      0.08530480360390476,
      -0.02580552392638237,
      -0.01042499483821714,
      -0.02590596856046974,
      -0.006902982835552182,
      -0.09054119537000131,
      0.09736538942342514,
      -0.025787862920071934,
      -0.02202239299688265,
      -0.02011757171984561,
      0.038627957554463736,
      0.06006536012233116,
      -0.002971778705234091,
      -0.004292091361154663,
      -0.0003904190448019915,
      0.08211996334621029,
      -0.04357549145056509,
      -0.05270301328208183,
      0.0102690176735838,
      -0.017561980439780647,
      0.18843665317322106,
      -0.0021370951281197118,
      0.05920989631533319,
      0.043656150788791113,
      -0.015005186586060195,
      -0.04711328258852178,
      -0.013380663373743716,
      -0.015117812231256083,
      -0.0816858189481749,
      -0.05822654774089162,
      -0.0012869472551243835,
      -0.0230038664565731,
      -0.08714386995611753,
      -0.002157834429755174,
      -0.04527173689367267,
      -0.03113233542154405,
      -0.07400869429047147,
      -0.15664050026516516,
      -0.04290194756064806,
      0.00962955078699305,
      0.033312551154263494,
      -0.0024593519918884852,
      0.023999076770879573,
      -0.009749257176653491,
      0.06114807360400953,
      -0.051914018931682675,
      -0.001695715796539159,
      -0.02608768562466807,
      -0.04175389996526937
    ],
    "complete_weight_vector": [
      0.022692582664956062,
      0.005311789261576884,
      -0.034327680050348836,
      -0.014198714276603285,
      -0.03142972127508946,
      -0.026467482764763493,
      0.03877344166925069,
      0.182733058047906,
      0.024717058707173663,
      -0.13374736091060124,
      -0.03979078906384552,
      -0.0395342248978385,
      0.041386675686330206,
      0.08530480360390476,
      -0.02580552392638237,
      -0.01042499483821714,
      -0.02590596856046974,
      -0.006902982835552182,
      -0.09054119537000131,
      0.09736538942342514,
      -0.025787862920071934,
      -0.02202239299688265,
      -0.02011757171984561,
      0.038627957554463736,
      0.06006536012233116,
      -0.002971778705234091,
      -0.004292091361154663,
      -0.0003904190448019915,
      0.08211996334621029,
      -0.04357549145056509,
      -0.05270301328208183,
      0.0102690176735838,
      -0.017561980439780647,
      0.18843665317322106,
      -0.0021370951281197118,
      0.05920989631533319,
      0.043656150788791113,
      -0.015005186586060195,
      -0.04711328258852178,
      -0.013380663373743716,
      -0.015117812231256083,
      -0.0816858189481749,
      -0.05822654774089162,
      -0.0012869472551243835,
      -0.0230038664565731,
      -0.08714386995611753,
      -0.002157834429755174,
      -0.04527173689367267,
      -0.03113233542154405,
      -0.07400869429047147,
      -0.15664050026516516,
      -0.04290194756064806,
      0.00962955078699305,
      0.033312551154263494,
      -0.0024593519918884852,
      0.023999076770879573,
      -0.009749257176653491,
      0.06114807360400953,
      -0.051914018931682675,
      -0.001695715796539159,
      -0.02608768562466807,
      -0.04175389996526937,
      0.9808651845653029
    ],
    "weights_stats": {
      "min": -0.15664050026516516,
      "max": 0.18843665317322106,
      "mean": -0.0062841009507753065,
      "std": 0.05847017649816716
    }
  },
  "convergence_analysis": {
    "iterations_to_converge": 1000,
    "final_cost_change": -0.08750122921250636,
    "convergence_rate": "linear",
    "loss_reduction_ratio": 1.2260836630026162
  },
  "algorithm_specific": {
    "gradient_descent_type": "standard",
    "step_size_method": "adaptive",
    "step_size_constant": false,
    "momentum_used": false,
    "backtracking_parameters": null,
    "adaptive_parameters": {
      "beta1": 0.9,
      "beta2": 0.999,
      "eps": 1e-08
    }
  }
}