{
  "algorithm": "Momentum Gradient Descent - RIDGE",
  "loss_function": "RIDGE",
  "parameters": {
    "learning_rate": 0.1,
    "momentum": 0.9,
    "max_iterations": 1000,
    "tolerance": 1e-05,
    "regularization": 0.01
  },
  "training_results": {
    "training_time": 15.301350355148315,
    "converged": true,
    "final_iteration": 310,
    "total_iterations": 1000,
    "final_loss": 0.012756609534671573,
    "final_gradient_norm": 9.079591354274233e-06,
    "final_velocity_norm": 0.00010099744139985709
  },
  "weights_analysis": {
    "n_features": 62,
    "n_weights_total": 63,
    "bias_value": 10.117569831701559,
    "weights_without_bias": [
      0.0038241037948880527,
      0.001302505340715899,
      0.0104782545081224,
      -0.014934420054070805,
      -0.0010872121749192895,
      -0.0013516873187729727,
      0.0028143092238428003,
      0.08032766725787407,
      -0.0038218595082569347,
      -0.23393287002985644,
      -0.010407215420431866,
      -0.00955362441406276,
      0.01006467423835404,
      0.09548313777984231,
      0.0006122417893908905,
      2.3093259673536983e-05,
      0.00015644281351687918,
      0.01333148824464141,
      -0.09531645570461261,
      0.07898844078038805,
      0.017468514469435776,
      0.0485080762342573,
      0.006130907962605207,
      0.003487140543631641,
      -0.004830812580946187,
      0.0018272318939068024,
      0.009131242927631593,
      0.025375493529826303,
      0.03259886830450035,
      -0.0053382934238821525,
      -0.0014139518759597835,
      0.011572757538204448,
      0.047626778965163694,
      0.21553911439955276,
      -0.003982909237295781,
      0.047174417225438324,
      0.05250886303857099,
      -0.006951027972665929,
      -0.01859196866372204,
      -0.009581062479257463,
      -0.032148503105001,
      -0.0325196525815457,
      -0.022129179099509313,
      -0.0012289900387665936,
      -0.00855636772993939,
      -0.012107135047649332,
      -0.0004971123200588845,
      0.011494535063870746,
      -0.00530823790053496,
      -0.015323332244046592,
      -0.016621994139862296,
      -0.0013351670083708669,
      -0.0005128019950354442,
      0.0005860491445994263,
      -0.00010351931517006493,
      0.003685621462198488,
      0.0033180519566861177,
      0.0039010942144800725,
      -0.013880655830211638,
      -0.003930364605175127,
      -0.03387674574227106,
      -0.00923568786683648
    ],
    "complete_weight_vector": [
      0.0038241037948880527,
      0.001302505340715899,
      0.0104782545081224,
      -0.014934420054070805,
      -0.0010872121749192895,
      -0.0013516873187729727,
      0.0028143092238428003,
      0.08032766725787407,
      -0.0038218595082569347,
      -0.23393287002985644,
      -0.010407215420431866,
      -0.00955362441406276,
      0.01006467423835404,
      0.09548313777984231,
      0.0006122417893908905,
      2.3093259673536983e-05,
      0.00015644281351687918,
      0.01333148824464141,
      -0.09531645570461261,
      0.07898844078038805,
      0.017468514469435776,
      0.0485080762342573,
      0.006130907962605207,
      0.003487140543631641,
      -0.004830812580946187,
      0.0018272318939068024,
      0.009131242927631593,
      0.025375493529826303,
      0.03259886830450035,
      -0.0053382934238821525,
      -0.0014139518759597835,
      0.011572757538204448,
      0.047626778965163694,
      0.21553911439955276,
      -0.003982909237295781,
      0.047174417225438324,
      0.05250886303857099,
      -0.006951027972665929,
      -0.01859196866372204,
      -0.009581062479257463,
      -0.032148503105001,
      -0.0325196525815457,
      -0.022129179099509313,
      -0.0012289900387665936,
      -0.00855636772993939,
      -0.012107135047649332,
      -0.0004971123200588845,
      0.011494535063870746,
      -0.00530823790053496,
      -0.015323332244046592,
      -0.016621994139862296,
      -0.0013351670083708669,
      -0.0005128019950354442,
      0.0005860491445994263,
      -0.00010351931517006493,
      0.003685621462198488,
      0.0033180519566861177,
      0.0039010942144800725,
      -0.013880655830211638,
      -0.003930364605175127,
      -0.03387674574227106,
      -0.00923568786683648,
      10.117569831701559
    ],
    "weights_stats": {
      "min": -0.23393287002985644,
      "max": 0.21553911439955276,
      "mean": 0.003369843556082461,
      "std": 0.049125223338479275
    },
    "velocity_analysis": {
      "final_velocity": [
        -1.6973715015464007e-05,
        -2.950633031825815e-05,
        -2.246465624370289e-08,
        3.588785528716403e-06,
        7.59239535936081e-07,
        3.1039869901610077e-06,
        9.724599435802758e-06,
        4.687470391942378e-08,
        2.1504870407900104e-07,
        -5.192111070630631e-07,
        -2.2536530277127542e-08,
        2.2492129634816918e-08,
        -3.080411771473216e-07,
        9.124834963867426e-06,
        3.9225999100226153e-05,
        -2.70649002126146e-05,
        -1.2060429520845848e-05,
        -8.647076463733655e-09,
        9.63020575839136e-06,
        -2.2974007138193873e-07,
        -1.960038337601006e-08,
        4.967905136637009e-05,
        -9.903364617994057e-08,
        5.622716802139032e-06,
        -4.536450385896654e-06,
        2.9535818392594437e-05,
        -2.410624012270479e-08,
        -4.7905216656306354e-08,
        -1.4441844691178426e-08,
        -1.662772783357283e-06,
        -4.422418994974477e-06,
        5.1819400818267875e-06,
        -4.948437785952213e-05,
        4.105723973867852e-08,
        -6.32069027681383e-08,
        -1.396968009820164e-05,
        1.3961536105805298e-05,
        8.340643226888243e-07,
        9.529648701277971e-07,
        8.913461761938829e-07,
        2.1892733355788863e-06,
        2.5815915630700407e-06,
        3.143005310651586e-06,
        6.404957102772967e-07,
        4.106840182554241e-07,
        6.41698511904345e-08,
        1.373504049796766e-07,
        6.499533267415195e-08,
        1.7190699464537183e-06,
        5.989853632219779e-08,
        -1.081525655351754e-08,
        4.442441835991144e-06,
        -2.4354267890455933e-09,
        -1.0044130973192353e-08,
        -1.1939342969398999e-07,
        2.7722901340873588e-08,
        2.074764009571582e-07,
        -1.2903137467143094e-07,
        6.57516912841555e-09,
        7.082608989807405e-08,
        -2.1878682584506098e-08,
        2.455898022968908e-07,
        1.806983306558237e-06
      ],
      "velocity_stats": {
        "min": -4.948437785952213e-05,
        "max": 4.967905136637009e-05,
        "mean": 5.935503237824776e-07,
        "std": 1.281089207532071e-05
      }
    }
  },
  "convergence_analysis": {
    "iterations_to_converge": 310,
    "final_cost_change": -1.0100969990989306e-09,
    "convergence_rate": "superlinear",
    "loss_reduction_ratio": 1386.216628392356,
    "velocity_contribution": "accelerated_convergence"
  },
  "algorithm_specific": {
    "gradient_descent_type": "momentum",
    "momentum_coefficient": 0.9,
    "step_size_constant": true,
    "acceleration_used": true,
    "momentum_description": "Nesterov-style momentum with velocity accumulation"
  }
}