{
  "algorithm": "Momentum Gradient Descent - OLS",
  "loss_function": "OLS",
  "parameters": {
    "learning_rate": 0.01,
    "momentum": 0.9,
    "max_iterations": 1000,
    "tolerance": 1e-06
  },
  "training_results": {
    "training_time": 59.94767141342163,
    "converged": false,
    "final_iteration": 1000,
    "total_iterations": 1000,
    "final_loss": 0.01193672741933565,
    "final_gradient_norm": 0.0006063681833962273,
    "final_velocity_norm": 0.006166532979742822
  },
  "weights_analysis": {
    "n_features": 62,
    "n_weights_total": 63,
    "bias_value": 10.11757237533581,
    "weights_without_bias": [
      0.014049843128527341,
      0.0035629198546839966,
      0.010873570387126875,
      -0.02517545842136129,
      -0.00300765490177899,
      -0.007998377382123632,
      -0.003754951275747785,
      0.0844567927128234,
      -0.0029244394936689864,
      -0.2690623711005733,
      -0.010612358092371743,
      -0.005633349228138441,
      0.010071046997569433,
      0.08985291183660442,
      -0.009399701369192383,
      0.00361622124777448,
      0.00918009886108673,
      0.016210305271017886,
      -0.09425381282764864,
      0.08301043962584631,
      0.014881093492767694,
      0.06417923916186216,
      0.005649288701988323,
      0.00011403475452568711,
      -0.003177359242552848,
      -9.134775359734576e-05,
      0.009140301796388098,
      0.025857808315983437,
      0.02812809523373864,
      -0.004183104414020742,
      -0.007811011621233393,
      -0.00021766817860637764,
      0.06473959040143622,
      0.2194632976613183,
      -0.0053924021998947805,
      0.05382014354092757,
      0.044236324615138725,
      -0.009787657698532928,
      -0.02168516122703705,
      -0.012499180411651836,
      -0.039759608058092116,
      -0.040195558670707,
      -0.03160919052561334,
      -0.003376696764757207,
      -0.010716743817814801,
      -0.013163759942504504,
      -0.0005204818369200719,
      0.011698614120426594,
      -0.006946177433456059,
      -0.0158118545528649,
      -0.017456695224097894,
      0.004332895434927109,
      -0.0004549266582335691,
      0.0006026220987802387,
      7.038528037829641e-05,
      0.003536751944647328,
      0.0031861899512074365,
      0.003554008385902223,
      -0.013980482207041123,
      -0.005106454176572967,
      -0.03507690297080702,
      -0.010039711493171158
    ],
    "complete_weight_vector": [
      0.014049843128527341,
      0.0035629198546839966,
      0.010873570387126875,
      -0.02517545842136129,
      -0.00300765490177899,
      -0.007998377382123632,
      -0.003754951275747785,
      0.0844567927128234,
      -0.0029244394936689864,
      -0.2690623711005733,
      -0.010612358092371743,
      -0.005633349228138441,
      0.010071046997569433,
      0.08985291183660442,
      -0.009399701369192383,
      0.00361622124777448,
      0.00918009886108673,
      0.016210305271017886,
      -0.09425381282764864,
      0.08301043962584631,
      0.014881093492767694,
      0.06417923916186216,
      0.005649288701988323,
      0.00011403475452568711,
      -0.003177359242552848,
      -9.134775359734576e-05,
      0.009140301796388098,
      0.025857808315983437,
      0.02812809523373864,
      -0.004183104414020742,
      -0.007811011621233393,
      -0.00021766817860637764,
      0.06473959040143622,
      0.2194632976613183,
      -0.0053924021998947805,
      0.05382014354092757,
      0.044236324615138725,
      -0.009787657698532928,
      -0.02168516122703705,
      -0.012499180411651836,
      -0.039759608058092116,
      -0.040195558670707,
      -0.03160919052561334,
      -0.003376696764757207,
      -0.010716743817814801,
      -0.013163759942504504,
      -0.0005204818369200719,
      0.011698614120426594,
      -0.006946177433456059,
      -0.0158118545528649,
      -0.017456695224097894,
      0.004332895434927109,
      -0.0004549266582335691,
      0.0006026220987802387,
      7.038528037829641e-05,
      0.003536751944647328,
      0.0031861899512074365,
      0.003554008385902223,
      -0.013980482207041123,
      -0.005106454176572967,
      -0.03507690297080702,
      -0.010039711493171158,
      10.11757237533581
    ],
    "weights_stats": {
      "min": -0.2690623711005733,
      "max": 0.2194632976613183,
      "mean": 0.002277293929726108,
      "std": 0.05322097961527865
    },
    "velocity_analysis": {
      "final_velocity": [
        -2.295077821050819e-05,
        2.3022841491225975e-05,
        -9.491726097385028e-05,
        -3.73068938090266e-05,
        1.1678174214979615e-05,
        1.701632163582474e-05,
        1.5675789359940572e-05,
        9.117277136961052e-05,
        -0.0011410482713634638,
        0.0037914290112200364,
        1.2333128362213052e-05,
        -1.5996962584097692e-06,
        1.1645558034295765e-05,
        0.001466463865143603,
        7.910943042208345e-05,
        7.910943042208345e-05,
        7.91094304220822e-05,
        -0.0002079834108724751,
        -0.001466463865143603,
        0.0012635435761502787,
        0.00015155927322078113,
        -0.0015031275270469188,
        -1.949907709217515e-05,
        -4.939308229140454e-06,
        0.00011174194621573872,
        2.3022841491225975e-05,
        8.66241242785146e-06,
        -2.171761723037941e-06,
        9.447570044860834e-05,
        2.1498558800899985e-05,
        9.249504406607923e-06,
        1.4020475524300852e-05,
        -0.0015031275270469186,
        -9.175982266033195e-05,
        3.668872039495341e-05,
        0.0002780028628769154,
        -0.00030909490488915806,
        0.0005654840382288504,
        0.0007197240885380596,
        0.0006964915019145884,
        0.001506634402295656,
        0.0017645238601216877,
        0.0020961195420497515,
        0.0004658806422969009,
        0.0005065877368591277,
        4.699236153366243e-05,
        2.0624174603985046e-06,
        -3.0164614399835968e-05,
        2.1498558800899985e-05,
        -5.1015576288058566e-05,
        -8.948898478976599e-05,
        9.249504406607923e-06,
        -3.6526707921579087e-06,
        -2.6418816302006313e-06,
        -0.00013522156662307882,
        1.4197877237746064e-05,
        1.0295736487610924e-05,
        4.954934182605959e-05,
        6.626943266481327e-06,
        1.578548145875989e-05,
        2.439792134068649e-05,
        0.00010653868980126955,
        4.3837113115385465e-08
      ],
      "velocity_stats": {
        "min": -0.0015031275270469188,
        "max": 0.0037914290112200364,
        "mean": 0.0001548499495183682,
        "std": 0.0007676888394631795
      }
    }
  },
  "convergence_analysis": {
    "iterations_to_converge": 1000,
    "final_cost_change": -3.798691100270063e-07,
    "convergence_rate": "superlinear",
    "loss_reduction_ratio": 1657.1079394493004,
    "velocity_contribution": "accelerated_convergence"
  },
  "algorithm_specific": {
    "gradient_descent_type": "momentum",
    "momentum_coefficient": 0.9,
    "step_size_constant": true,
    "acceleration_used": true,
    "momentum_description": "Nesterov-style momentum with velocity accumulation"
  }
}