{
  "algorithm": "Stochastic Gradient Descent - OLS",
  "loss_function": "OLS",
  "parameters": {
    "learning_rate": 0.1,
    "learning_rate_schedule": "sqrt_decay",
    "epochs": 100,
    "batch_size": 1000,
    "random_state": 42,
    "tolerance": 1e-06
  },
  "training_results": {
    "training_time": 53.296143770217896,
    "converged": false,
    "final_epoch": 100,
    "total_epochs": 100,
    "final_cost": 1.1765270961640038e+177,
    "final_gradient_norm": 2.5029569318217877e+88
  },
  "weights_analysis": {
    "n_features": 62,
    "n_weights_total": 63,
    "bias_value": -2.7387066484693006e+85,
    "weights_without_bias": [
      8.735946097501982e+84,
      7.852350035146369e+84,
      -4.867357563545702e+84,
      4.637236530575339e+84,
      7.087823969323861e+84,
      -2.9009089678688594e+85,
      2.0057168643909225e+85,
      3.870492390840096e+85,
      -6.695248218588301e+84,
      -2.0927626632339047e+85,
      9.981890080245837e+83,
      5.0207857663927736e+85,
      -1.3622218776635571e+85,
      2.1023643846202214e+85,
      -5.90576891795992e+84,
      -5.90576891795992e+84,
      -5.90576891795992e+84,
      -3.898390714545785e+84,
      -2.1023643846202214e+85,
      -9.190315644057143e+84,
      3.1405037696659894e+85,
      1.160156546330742e+85,
      6.865301736360338e+84,
      1.4224165770577439e+85,
      2.7095602084465963e+85,
      7.852350035146369e+84,
      1.5867842065448342e+85,
      9.566806344951904e+84,
      3.302968734177568e+85,
      -2.576848362075237e+84,
      1.3592744805300371e+85,
      1.326172490232516e+85,
      1.160156546330742e+85,
      9.826333613589269e+84,
      2.1233814228110838e+84,
      -1.3624981877331771e+85,
      -1.3755847753611042e+85,
      1.5971830434754008e+85,
      2.272535874299814e+84,
      -3.2294375071730014e+84,
      -2.1498787019801364e+85,
      -1.499670406992636e+84,
      1.338452202966382e+84,
      2.373077302635325e+85,
      3.747459919216302e+84,
      -1.9657121592225954e+85,
      2.0745770533974235e+84,
      1.7658100406451586e+85,
      -2.576848362075237e+84,
      3.443103301348079e+85,
      4.5086852837827883e+85,
      1.3592744805300371e+85,
      -2.0540678380755636e+88,
      -1.4115757723833646e+85,
      2.873133243054175e+85,
      -5.674511335234341e+84,
      6.691578090249678e+83,
      1.0405945350822013e+85,
      9.7174512108216e+84,
      -4.257463365029693e+84,
      -5.687263079997639e+84,
      -5.183249364592556e+85
    ],
    "complete_weight_vector": [
      8.735946097501982e+84,
      7.852350035146369e+84,
      -4.867357563545702e+84,
      4.637236530575339e+84,
      7.087823969323861e+84,
      -2.9009089678688594e+85,
      2.0057168643909225e+85,
      3.870492390840096e+85,
      -6.695248218588301e+84,
      -2.0927626632339047e+85,
      9.981890080245837e+83,
      5.0207857663927736e+85,
      -1.3622218776635571e+85,
      2.1023643846202214e+85,
      -5.90576891795992e+84,
      -5.90576891795992e+84,
      -5.90576891795992e+84,
      -3.898390714545785e+84,
      -2.1023643846202214e+85,
      -9.190315644057143e+84,
      3.1405037696659894e+85,
      1.160156546330742e+85,
      6.865301736360338e+84,
      1.4224165770577439e+85,
      2.7095602084465963e+85,
      7.852350035146369e+84,
      1.5867842065448342e+85,
      9.566806344951904e+84,
      3.302968734177568e+85,
      -2.576848362075237e+84,
      1.3592744805300371e+85,
      1.326172490232516e+85,
      1.160156546330742e+85,
      9.826333613589269e+84,
      2.1233814228110838e+84,
      -1.3624981877331771e+85,
      -1.3755847753611042e+85,
      1.5971830434754008e+85,
      2.272535874299814e+84,
      -3.2294375071730014e+84,
      -2.1498787019801364e+85,
      -1.499670406992636e+84,
      1.338452202966382e+84,
      2.373077302635325e+85,
      3.747459919216302e+84,
      -1.9657121592225954e+85,
      2.0745770533974235e+84,
      1.7658100406451586e+85,
      -2.576848362075237e+84,
      3.443103301348079e+85,
      4.5086852837827883e+85,
      1.3592744805300371e+85,
      -2.0540678380755636e+88,
      -1.4115757723833646e+85,
      2.873133243054175e+85,
      -5.674511335234341e+84,
      6.691578090249678e+83,
      1.0405945350822013e+85,
      9.7174512108216e+84,
      -4.257463365029693e+84,
      -5.687263079997639e+84,
      -5.183249364592556e+85,
      -2.7387066484693006e+85
    ],
    "weights_stats": {
      "min": -2.0540678380755636e+88,
      "max": 5.0207857663927736e+85,
      "mean": -3.2662853412566335e+86,
      "std": 2.588205816238202e+87
    }
  },
  "convergence_analysis": {
    "epochs_to_converge": 100,
    "final_cost_change": 1.1765270961639626e+177,
    "convergence_rate": "sublinear",
    "cost_reduction_ratio": 8.857489075967903e-153
  },
  "algorithm_specific": {
    "method_type": "stochastic_gradient_descent",
    "batch_processing": true,
    "batch_size": 1000,
    "epoch_based_training": true,
    "data_shuffling": true,
    "noisy_gradients": "inherent_in_SGD",
    "convergence_type": "probabilistic",
    "learning_rate_schedule": "sqrt_decay",
    "adaptive_learning_rate": true
  }
}