{
  "algorithm": "Damped Newton Method - OLS",
  "loss_function": "OLS",
  "parameters": {
    "regularization": 0.01,
    "numerical_regularization": 1e-08,
    "max_iterations": 10000,
    "tolerance": 1e-08,
    "armijo_c1": 0.0001,
    "backtrack_rho": 0.8,
    "max_line_search_iter": 50
  },
  "training_results": {
    "training_time": 156.28333353996277,
    "converged": true,
    "final_iteration": 2070,
    "total_iterations": 10000,
    "final_loss": 0.011924579971346749,
    "final_gradient_norm": 9.555696259462969e-09
  },
  "weights_analysis": {
    "n_features": 62,
    "n_weights_total": 63,
    "bias_value": 10.117576822316039,
    "weights_without_bias": [
      0.0014365003939357426,
      0.0031250560777585272,
      0.011518869180419907,
      -0.05157627268519299,
      -0.009004933764805764,
      -0.031014781231058854,
      -0.03378793183918429,
      0.0836357209297771,
      0.0038971932941443367,
      -0.28611260641478886,
      -0.010691466950053482,
      -0.005723591482632063,
      0.010001406175913836,
      0.0790634431761378,
      -0.004139303859745095,
      0.0014957047609278097,
      0.004302304715840963,
      0.016223023501568824,
      -0.0921115276375444,
      0.07748822909362774,
      0.01409586016437792,
      0.06804202754273839,
      0.005724328345839195,
      0.04336400954448772,
      -0.00038639316432315655,
      0.0001461963860307068,
      0.009109178000155422,
      0.02587062315695679,
      0.027790538691353773,
      -0.016794462761204346,
      0.0031994763192994915,
      -0.03800231646204983,
      0.07456670417125877,
      0.21975651965097068,
      -0.005504525871851292,
      0.01158011106660124,
      0.08663003680299143,
      -0.01469654704998358,
      -0.027960233967346558,
      -0.01867642427937039,
      -0.05315015068108194,
      -0.05570464502196253,
      -0.05010661814123147,
      -0.007504543372598997,
      -0.015117194711976287,
      -0.013437150784139346,
      -0.0005254693836166127,
      0.011860057230844441,
      0.005500067940932333,
      -0.01554264981992886,
      -0.017039618073533228,
      -0.006824949026183867,
      -0.00043589772204388,
      0.0006238835973895597,
      0.0010815785333673693,
      0.0034482424759611726,
      0.003145742413275971,
      0.003232812594344492,
      -0.014044449416080802,
      -0.0052065698611416305,
      -0.035269567451807406,
      -0.010969755832873363
    ],
    "complete_weight_vector": [
      0.0014365003939357426,
      0.0031250560777585272,
      0.011518869180419907,
      -0.05157627268519299,
      -0.009004933764805764,
      -0.031014781231058854,
      -0.03378793183918429,
      0.0836357209297771,
      0.0038971932941443367,
      -0.28611260641478886,
      -0.010691466950053482,
      -0.005723591482632063,
      0.010001406175913836,
      0.0790634431761378,
      -0.004139303859745095,
      0.0014957047609278097,
      0.004302304715840963,
      0.016223023501568824,
      -0.0921115276375444,
      0.07748822909362774,
      0.01409586016437792,
      0.06804202754273839,
      0.005724328345839195,
      0.04336400954448772,
      -0.00038639316432315655,
      0.0001461963860307068,
      0.009109178000155422,
      0.02587062315695679,
      0.027790538691353773,
      -0.016794462761204346,
      0.0031994763192994915,
      -0.03800231646204983,
      0.07456670417125877,
      0.21975651965097068,
      -0.005504525871851292,
      0.01158011106660124,
      0.08663003680299143,
      -0.01469654704998358,
      -0.027960233967346558,
      -0.01867642427937039,
      -0.05315015068108194,
      -0.05570464502196253,
      -0.05010661814123147,
      -0.007504543372598997,
      -0.015117194711976287,
      -0.013437150784139346,
      -0.0005254693836166127,
      0.011860057230844441,
      0.005500067940932333,
      -0.01554264981992886,
      -0.017039618073533228,
      -0.006824949026183867,
      -0.00043589772204388,
      0.0006238835973895597,
      0.0010815785333673693,
      0.0034482424759611726,
      0.003145742413275971,
      0.003232812594344492,
      -0.014044449416080802,
      -0.0052065698611416305,
      -0.035269567451807406,
      -0.010969755832873363,
      10.117576822316039
    ],
    "weights_stats": {
      "min": -0.28611260641478886,
      "max": 0.21975651965097068,
      "mean": -0.0005823726256791246,
      "std": 0.056693139091350264
    }
  },
  "convergence_analysis": {
    "iterations_to_converge": 2070,
    "final_cost_change": -1.9508700210835173e-14,
    "convergence_rate": "superlinear",
    "loss_reduction_ratio": 3589.7789182522392,
    "convergence_quality": "damped_superlinear"
  },
  "numerical_analysis": {
    "hessian_condition_number": 954610051.7705601,
    "average_step_size": 0.01,
    "max_step_size": 0.01,
    "min_step_size": 0.01,
    "step_size_stability": "line_search_controlled",
    "regularization_effect": "Applied for numerical stability"
  },
  "line_search_analysis": {
    "average_backtracks": 0.0,
    "max_backtracks": 0,
    "min_backtracks": 0,
    "total_line_search_calls": 2069,
    "line_search_success_rate": "N/A (fixed step)"
  },
  "algorithm_specific": {
    "method_type": "damped_newton",
    "second_order_method": true,
    "hessian_computation": "exact",
    "line_search_used": false,
    "line_search_type": "fixed_step",
    "damping_applied": "fixed_step_based",
    "fast_convergence": false,
    "globalization_strategy": "fixed_step_size",
    "step_size_strategy": "fixed",
    "fixed_learning_rate": 0.01
  }
}