{
  "algorithm": "Stochastic Gradient Descent - OLS",
  "loss_function": "OLS",
  "parameters": {
    "learning_rate": 0.01,
    "max_epochs": 100,
    "batch_size": 1024,
    "tolerance": 1e-05,
    "learning_rate_schedule": "constant",
    "momentum": 0.0,
    "random_state": 42,
    "shuffle_each_epoch": false,
    "randomize_each_epoch": false
  },
  "training_results": {
    "training_time": 42.77870750427246,
    "converged": false,
    "final_epoch": 100,
    "total_epochs": 100,
    "final_loss": 0.21443289113089709,
    "final_gradient_norm": 0.6794357239163474,
    "best_epoch": 90,
    "best_loss": 0.21443289113089709,
    "best_gradient_norm": 0.6794357239163474,
    "improvement_from_final": {
      "loss_improvement": 0.0,
      "gradient_improvement": 0.0,
      "epochs_earlier": 10
    }
  },
  "weights_analysis": {
    "n_features": 62,
    "n_weights_total": 63,
    "bias_value": 9.48627367651047,
    "weights_without_bias": [
      0.008220068421259146,
      -0.0029087792678573255,
      0.013902481523984952,
      0.01309717748096235,
      -0.004949695195336841,
      -0.00419096898654558,
      0.02334895962979291,
      0.07719616783759466,
      0.0016559546345993833,
      -0.09735305512422206,
      -0.01736042381131419,
      -0.04995600234347242,
      0.01700106975248923,
      0.055621590643121895,
      -0.01485355327648495,
      -0.0032272502437643525,
      -0.007732686154698816,
      0.015194508790605844,
      -0.08383463384491187,
      0.002001042407993573,
      0.028003771574271613,
      -0.03827461416365497,
      0.0064378635952344505,
      -0.00890906513373538,
      0.00488185700069174,
      -0.0004169103590468673,
      0.004765154561749939,
      0.01781509931728201,
      0.05005926900782934,
      -0.008080452087827246,
      -0.0035502730063302623,
      0.0215582337336452,
      -0.03615182340616891,
      0.15417271287688425,
      0.017613994210397246,
      0.0539597799217239,
      0.0673357042257963,
      0.0023116627415852376,
      -0.0160611003629414,
      -0.001994984479287679,
      0.005294999916315016,
      -0.016659668859490433,
      0.001517064916318309,
      0.003935100832124725,
      -0.006721257046015586,
      -0.015103269538972985,
      -0.0011097624111795661,
      0.00847567298007372,
      -0.0017273316942098584,
      -0.01591009298663146,
      -0.018176162879407196,
      -0.0013840296881995355,
      -5.614262401566883e-05,
      0.007496049812156165,
      0.007510459502204399,
      0.011747974904423983,
      0.0015833723117312387,
      0.017999416801591273,
      -0.022766154117598955,
      0.012227012563668111,
      -0.020744864984103124,
      -0.0081770667109437
    ],
    "complete_weight_vector": [
      0.008220068421259146,
      -0.0029087792678573255,
      0.013902481523984952,
      0.01309717748096235,
      -0.004949695195336841,
      -0.00419096898654558,
      0.02334895962979291,
      0.07719616783759466,
      0.0016559546345993833,
      -0.09735305512422206,
      -0.01736042381131419,
      -0.04995600234347242,
      0.01700106975248923,
      0.055621590643121895,
      -0.01485355327648495,
      -0.0032272502437643525,
      -0.007732686154698816,
      0.015194508790605844,
      -0.08383463384491187,
      0.002001042407993573,
      0.028003771574271613,
      -0.03827461416365497,
      0.0064378635952344505,
      -0.00890906513373538,
      0.00488185700069174,
      -0.0004169103590468673,
      0.004765154561749939,
      0.01781509931728201,
      0.05005926900782934,
      -0.008080452087827246,
      -0.0035502730063302623,
      0.0215582337336452,
      -0.03615182340616891,
      0.15417271287688425,
      0.017613994210397246,
      0.0539597799217239,
      0.0673357042257963,
      0.0023116627415852376,
      -0.0160611003629414,
      -0.001994984479287679,
      0.005294999916315016,
      -0.016659668859490433,
      0.001517064916318309,
      0.003935100832124725,
      -0.006721257046015586,
      -0.015103269538972985,
      -0.0011097624111795661,
      0.00847567298007372,
      -0.0017273316942098584,
      -0.01591009298663146,
      -0.018176162879407196,
      -0.0013840296881995355,
      -5.614262401566883e-05,
      0.007496049812156165,
      0.007510459502204399,
      0.011747974904423983,
      0.0015833723117312387,
      0.017999416801591273,
      -0.022766154117598955,
      0.012227012563668111,
      -0.020744864984103124,
      -0.0081770667109437,
      9.48627367651047
    ],
    "weights_stats": {
      "min": -0.09735305512422206,
      "max": 0.15417271287688425,
      "mean": 0.003316115703898918,
      "std": 0.03393589886582501
    }
  },
  "convergence_analysis": {
    "epochs_to_converge": 100,
    "best_epoch_found": 90,
    "final_cost_change": -1.0478321408159026,
    "convergence_rate": "sublinear",
    "loss_reduction_ratio": 196.99003170513868
  },
  "algorithm_specific": {
    "sgd_type": "mini_batch",
    "batch_size": 1024,
    "learning_rate_schedule": "constant",
    "momentum_used": false,
    "momentum_value": null,
    "shuffling_strategy": {
      "shuffle_each_epoch": false,
      "randomize_each_epoch": false
    },
    "returns_best_result": true,
    "stochastic_variance": true
  },
  "computational_complexity": {
    "basic_metrics": {
      "function_evaluations": 10,
      "gradient_evaluations": 10000000,
      "matrix_vector_multiplications": 0,
      "vector_operations": 10029410,
      "memory_allocations": 9801,
      "peak_memory_size": 63,
      "total_operations": 1956470860
    },
    "iterations": {
      "total_iterations": 100,
      "final_iteration": 100,
      "converged": false,
      "convergence_iteration": null
    },
    "per_iteration_averages": {
      "function_evaluations_per_iter": 0.1,
      "gradient_evaluations_per_iter": 100000.0,
      "operations_per_iter": 19564708.6,
      "matrix_operations_per_iter": 0.0
    },
    "scalability_metrics": {
      "problem_size": {
        "n_samples": 100000,
        "n_features": 62
      },
      "problem_complexity_factor": 6200000,
      "operations_per_problem_unit": 315.55981612903224,
      "memory_efficiency": 0.0006296096420219464,
      "theoretical_complexity": "O(100000*62*100)"
    },
    "operation_distribution": {
      "function_eval_percentage": 5.111244028444155e-07,
      "gradient_eval_percentage": 0.5111244028444155,
      "matrix_ops_percentage": 0.0,
      "vector_ops_percentage": 0.5126276197131809
    }
  }
}