{
  "algorithm": "Stochastic Gradient Descent - OLS",
  "loss_function": "OLS",
  "parameters": {
    "learning_rate": 0.001,
    "learning_rate_schedule": "sqrt_decay",
    "epochs": 100,
    "batch_size": 25000,
    "random_state": 42,
    "tolerance": 1e-06
  },
  "training_results": {
    "training_time": 83.79684019088745,
    "converged": false,
    "final_epoch": 100,
    "total_epochs": 100,
    "final_cost": 44.27959534793445,
    "final_gradient_norm": 9.445594070621324
  },
  "weights_analysis": {
    "n_features": 62,
    "n_weights_total": 63,
    "bias_value": 0.7148674719949687,
    "weights_without_bias": [
      0.0010478272872747356,
      -0.0006414065553614976,
      0.01673688578327191,
      0.008478250224465213,
      -0.006679014845517809,
      -0.013091467397690385,
      0.010555444610813937,
      0.027466200765127288,
      0.011739799632343732,
      -0.020229748177600707,
      -0.0028094800007482904,
      -0.022987627146312414,
      0.006507879091583462,
      0.0031426375116166546,
      -0.0019306226655603949,
      0.0096956803671602,
      0.005190244456225709,
      0.01983238773656246,
      -0.03135568071340677,
      -0.026778210455507392,
      0.010401686685888051,
      -0.024310602647973318,
      -0.0030509704119136088,
      -0.01884466977359103,
      -0.007535047448128377,
      0.0018504623534490085,
      -0.012125538411870087,
      0.008536024596816566,
      0.012425533974007667,
      -0.0021269391905973647,
      -0.00795608254412332,
      0.030488556123222738,
      -0.022187811890487307,
      0.02117623270377501,
      0.02045820176948807,
      0.009368108490057855,
      0.023593779249608444,
      -0.016358296183684777,
      -0.0177603394668099,
      0.0005900914189381809,
      0.018543636559827843,
      -0.006637661868970982,
      -0.0007024994343385675,
      -0.0031800956798808916,
      -0.016893419358777417,
      0.0006786187359726472,
      -0.0043922353995451005,
      0.011566843610557258,
      0.004226181203020018,
      -0.015683705935692443,
      -0.00023909137381916083,
      -0.005789839225992517,
      -0.0015581734235570795,
      0.00904792646622634,
      0.01437312445600522,
      0.006414036814260325,
      -0.009241763411123724,
      -0.00036608360224510693,
      0.0035600285833819563,
      0.011896490611150235,
      -0.015175678446985804,
      -0.0017370766443890857
    ],
    "complete_weight_vector": [
      0.0010478272872747356,
      -0.0006414065553614976,
      0.01673688578327191,
      0.008478250224465213,
      -0.006679014845517809,
      -0.013091467397690385,
      0.010555444610813937,
      0.027466200765127288,
      0.011739799632343732,
      -0.020229748177600707,
      -0.0028094800007482904,
      -0.022987627146312414,
      0.006507879091583462,
      0.0031426375116166546,
      -0.0019306226655603949,
      0.0096956803671602,
      0.005190244456225709,
      0.01983238773656246,
      -0.03135568071340677,
      -0.026778210455507392,
      0.010401686685888051,
      -0.024310602647973318,
      -0.0030509704119136088,
      -0.01884466977359103,
      -0.007535047448128377,
      0.0018504623534490085,
      -0.012125538411870087,
      0.008536024596816566,
      0.012425533974007667,
      -0.0021269391905973647,
      -0.00795608254412332,
      0.030488556123222738,
      -0.022187811890487307,
      0.02117623270377501,
      0.02045820176948807,
      0.009368108490057855,
      0.023593779249608444,
      -0.016358296183684777,
      -0.0177603394668099,
      0.0005900914189381809,
      0.018543636559827843,
      -0.006637661868970982,
      -0.0007024994343385675,
      -0.0031800956798808916,
      -0.016893419358777417,
      0.0006786187359726472,
      -0.0043922353995451005,
      0.011566843610557258,
      0.004226181203020018,
      -0.015683705935692443,
      -0.00023909137381916083,
      -0.005789839225992517,
      -0.0015581734235570795,
      0.00904792646622634,
      0.01437312445600522,
      0.006414036814260325,
      -0.009241763411123724,
      -0.00036608360224510693,
      0.0035600285833819563,
      0.011896490611150235,
      -0.015175678446985804,
      -0.0017370766443890857,
      0.7148674719949687
    ],
    "weights_stats": {
      "min": -0.03135568071340677,
      "max": 0.030488556123222738,
      "mean": -1.2388352582320825e-05,
      "std": 0.013802583791170572
    }
  },
  "convergence_analysis": {
    "epochs_to_converge": 100,
    "final_cost_change": -0.36673382909314967,
    "convergence_rate": "sublinear",
    "cost_reduction_ratio": 1.1160169250631735
  },
  "algorithm_specific": {
    "method_type": "stochastic_gradient_descent",
    "batch_processing": true,
    "batch_size": 25000,
    "epoch_based_training": true,
    "data_shuffling": true,
    "noisy_gradients": "inherent_in_SGD",
    "convergence_type": "probabilistic",
    "learning_rate_schedule": "sqrt_decay",
    "adaptive_learning_rate": true
  }
}