{
  "algorithm": "Gradient Descent - OLS",
  "loss_function": "OLS",
  "parameters": {
    "learning_rate": 0.1,
    "max_iterations": 100000,
    "tolerance": 1e-05,
    "step_size_method": "constant"
  },
  "training_results": {
    "training_time": 112.65634298324585,
    "converged": true,
    "final_iteration": 20100,
    "total_iterations": 100000,
    "final_loss": 0.011924649665376586,
    "final_gradient_norm": 9.92979825276e-06
  },
  "weights_analysis": {
    "n_features": 62,
    "n_weights_total": 63,
    "bias_value": 10.117575515093524,
    "weights_without_bias": [
      0.013088206141666479,
      -0.0006820047869075405,
      0.011517285869772048,
      -0.014378147149516895,
      -0.0006433452840291653,
      0.0011812818391355488,
      -0.005891573806929587,
      0.08364872242086041,
      0.0038858920172919536,
      -0.2860842622741939,
      -0.010693073056275338,
      -0.005720632057967472,
      0.01000175954189353,
      0.08498523419320789,
      0.007995331193204462,
      -0.0065355793213572695,
      0.00020020805309142566,
      0.01622584038925411,
      -0.08623399090346456,
      0.07750376515775681,
      0.01409974115049484,
      0.0747153074602512,
      0.005719387344533142,
      0.003157105109255272,
      -0.003677239616384646,
      0.003953412262958221,
      0.009109696518043109,
      0.025873209932942436,
      0.027789063060660216,
      -0.0005922284116045947,
      -0.001960837092359242,
      0.014945448761366803,
      0.06788234972482274,
      0.21975758223917305,
      -0.005510157693363813,
      0.021505051380400774,
      0.07670298190150535,
      -0.01469900190741947,
      -0.027965199826132228,
      -0.018681228746521207,
      -0.053167436863561006,
      -0.05572113441679365,
      -0.050123579969381736,
      -0.007508662575812662,
      -0.015120121936489246,
      -0.013441948442088613,
      -0.000525079595582104,
      0.011862019895595504,
      -0.010701360380742595,
      -0.015538628812389179,
      -0.017037467378524258,
      -0.0016608654793876044,
      -0.0004357158318717306,
      0.0006235203174965747,
      0.0010769344677297758,
      0.0034474517405615377,
      0.0031455415947810746,
      0.0032334396547761737,
      -0.014041751551079597,
      -0.005210728292928723,
      -0.03527442880088317,
      -0.01098310475969039
    ],
    "complete_weight_vector": [
      0.013088206141666479,
      -0.0006820047869075405,
      0.011517285869772048,
      -0.014378147149516895,
      -0.0006433452840291653,
      0.0011812818391355488,
      -0.005891573806929587,
      0.08364872242086041,
      0.0038858920172919536,
      -0.2860842622741939,
      -0.010693073056275338,
      -0.005720632057967472,
      0.01000175954189353,
      0.08498523419320789,
      0.007995331193204462,
      -0.0065355793213572695,
      0.00020020805309142566,
      0.01622584038925411,
      -0.08623399090346456,
      0.07750376515775681,
      0.01409974115049484,
      0.0747153074602512,
      0.005719387344533142,
      0.003157105109255272,
      -0.003677239616384646,
      0.003953412262958221,
      0.009109696518043109,
      0.025873209932942436,
      0.027789063060660216,
      -0.0005922284116045947,
      -0.001960837092359242,
      0.014945448761366803,
      0.06788234972482274,
      0.21975758223917305,
      -0.005510157693363813,
      0.021505051380400774,
      0.07670298190150535,
      -0.01469900190741947,
      -0.027965199826132228,
      -0.018681228746521207,
      -0.053167436863561006,
      -0.05572113441679365,
      -0.050123579969381736,
      -0.007508662575812662,
      -0.015120121936489246,
      -0.013441948442088613,
      -0.000525079595582104,
      0.011862019895595504,
      -0.010701360380742595,
      -0.015538628812389179,
      -0.017037467378524258,
      -0.0016608654793876044,
      -0.0004357158318717306,
      0.0006235203174965747,
      0.0010769344677297758,
      0.0034474517405615377,
      0.0031455415947810746,
      0.0032334396547761737,
      -0.014041751551079597,
      -0.005210728292928723,
      -0.03527442880088317,
      -0.01098310475969039,
      10.117575515093524
    ],
    "weights_stats": {
      "min": -0.2860842622741939,
      "max": 0.21975758223917305,
      "mean": 0.001651487972787891,
      "std": 0.05536833221400511
    }
  },
  "convergence_analysis": {
    "iterations_to_converge": 20100,
    "final_cost_change": -9.929110745404701e-10,
    "convergence_rate": "linear",
    "loss_reduction_ratio": 1.0533860135249369
  },
  "algorithm_specific": {
    "gradient_descent_type": "standard",
    "step_size_method": "constant",
    "step_size_constant": true,
    "momentum_used": false,
    "backtracking_parameters": null,
    "adaptive_parameters": null
  }
}