{
  "algorithm": "Gradient Descent - OLS",
  "loss_function": "OLS",
  "parameters": {
    "learning_rate": 0.1,
    "max_iterations": 10000,
    "tolerance": 1e-05,
    "step_size_method": "constant"
  },
  "training_results": {
    "training_time": 75.66802096366882,
    "converged": false,
    "final_iteration": 10000,
    "total_iterations": 10000,
    "final_loss": 0.01192502871020492,
    "final_gradient_norm": 2.519702547872223e-05
  },
  "weights_analysis": {
    "n_features": 62,
    "n_weights_total": 63,
    "bias_value": 10.117573491919412,
    "weights_without_bias": [
      0.0011301771823692415,
      -0.004388324790124441,
      0.011514834337492492,
      -0.022038738380547315,
      -0.0023667320676150627,
      -0.005444284325249419,
      0.0004969219211850229,
      0.0836687403837706,
      0.0038685794170512495,
      -0.2860408724689246,
      -0.010695539608295921,
      -0.00571607333506844,
      0.010002304779307853,
      0.09235086303591371,
      -0.0017056675383417665,
      0.008595949156735574,
      -0.0052283991282106946,
      0.016230154669951855,
      -0.07893620997170246,
      0.07752757416352192,
      0.014105714727932806,
      0.06484376657105272,
      0.005711795551667155,
      0.007517575410062695,
      -0.006826623273912441,
      0.0076599675167144336,
      0.009110492171343064,
      0.025877186782045,
      0.027786791234084337,
      -0.005067426890016586,
      -0.007739854106289029,
      0.0040478849191836995,
      0.07773698686068596,
      0.21975924054696025,
      -0.005518821377091872,
      0.03676480509701155,
      0.06143997809988448,
      -0.014702442695390231,
      -0.02797240533228561,
      -0.018688184312122564,
      -0.05319307371181137,
      -0.05574541292379262,
      -0.0501483734993626,
      -0.0075147091386275145,
      -0.015124323180260054,
      -0.013449314296431517,
      -0.000524480302380321,
      0.011865041826982796,
      -0.006224924741229473,
      -0.01553243605717108,
      -0.01703413770002958,
      0.0041239657102753735,
      -0.00043543644374465315,
      0.0006229603282348113,
      0.0010697407615353684,
      0.003446239459629337,
      0.0031452321317409393,
      0.003234416517655272,
      -0.014037601725658815,
      -0.005217114641885347,
      -0.03528188802599142,
      -0.011003556566698136
    ],
    "complete_weight_vector": [
      0.0011301771823692415,
      -0.004388324790124441,
      0.011514834337492492,
      -0.022038738380547315,
      -0.0023667320676150627,
      -0.005444284325249419,
      0.0004969219211850229,
      0.0836687403837706,
      0.0038685794170512495,
      -0.2860408724689246,
      -0.010695539608295921,
      -0.00571607333506844,
      0.010002304779307853,
      0.09235086303591371,
      -0.0017056675383417665,
      0.008595949156735574,
      -0.0052283991282106946,
      0.016230154669951855,
      -0.07893620997170246,
      0.07752757416352192,
      0.014105714727932806,
      0.06484376657105272,
      0.005711795551667155,
      0.007517575410062695,
      -0.006826623273912441,
      0.0076599675167144336,
      0.009110492171343064,
      0.025877186782045,
      0.027786791234084337,
      -0.005067426890016586,
      -0.007739854106289029,
      0.0040478849191836995,
      0.07773698686068596,
      0.21975924054696025,
      -0.005518821377091872,
      0.03676480509701155,
      0.06143997809988448,
      -0.014702442695390231,
      -0.02797240533228561,
      -0.018688184312122564,
      -0.05319307371181137,
      -0.05574541292379262,
      -0.0501483734993626,
      -0.0075147091386275145,
      -0.015124323180260054,
      -0.013449314296431517,
      -0.000524480302380321,
      0.011865041826982796,
      -0.006224924741229473,
      -0.01553243605717108,
      -0.01703413770002958,
      0.0041239657102753735,
      -0.00043543644374465315,
      0.0006229603282348113,
      0.0010697407615353684,
      0.003446239459629337,
      0.0031452321317409393,
      0.003234416517655272,
      -0.014037601725658815,
      -0.005217114641885347,
      -0.03528188802599142,
      -0.011003556566698136,
      10.117573491919412
    ],
    "weights_stats": {
      "min": -0.2860408724689246,
      "max": 0.21975924054696025,
      "mean": 0.001382459656705139,
      "std": 0.05522864550954285
    }
  },
  "convergence_analysis": {
    "iterations_to_converge": 10000,
    "final_cost_change": -6.393344190863681e-09,
    "convergence_rate": "linear",
    "loss_reduction_ratio": 1.0554976996688372
  },
  "algorithm_specific": {
    "gradient_descent_type": "standard",
    "step_size_method": "constant",
    "step_size_constant": true,
    "momentum_used": false,
    "backtracking_parameters": null,
    "adaptive_parameters": null
  }
}