{
  "algorithm": "Momentum Gradient Descent - OLS",
  "loss_function": "OLS",
  "parameters": {
    "learning_rate": 0.1,
    "momentum": 0.5,
    "max_iterations": 10000,
    "tolerance": 1e-05
  },
  "training_results": {
    "training_time": 169.43843412399292,
    "converged": true,
    "final_iteration": 8500,
    "total_iterations": 10000,
    "final_loss": 0.011924648752973221,
    "final_gradient_norm": 9.865333957092323e-06,
    "final_velocity_norm": 1.973346028130583e-05
  },
  "weights_analysis": {
    "n_features": 62,
    "n_weights_total": 63,
    "bias_value": 10.117575524036749,
    "weights_without_bias": [
      -0.008861637725877147,
      0.0021414381093415977,
      0.011517296252691366,
      -0.03189023688288333,
      -0.004580175448200345,
      -0.013974634979453357,
      0.00577789345016011,
      0.0836486372520462,
      0.0038859663292627688,
      -0.28608444856108683,
      -0.010693062523211372,
      -0.005720651515517542,
      0.010001757221792123,
      0.0881886759438711,
      -0.0021727064289374974,
      -0.004886583379407866,
      0.00871924147913529,
      0.016225821769301877,
      -0.08303025839632262,
      0.07750366307824105,
      0.014099715682184155,
      0.0692475225360122,
      0.005719419767825642,
      0.011211074191759398,
      -0.009466604021797416,
      0.0011299683265124983,
      0.00910969309881029,
      0.025873192957318485,
      0.027789072762410424,
      -0.003374402369928527,
      0.006451773646692882,
      -0.009979498821566537,
      0.0733502075240257,
      0.21975757529236037,
      -0.005510120803590984,
      0.021439920950864416,
      0.07676812623934982,
      -0.014698985292501804,
      -0.027965166637187205,
      -0.018681196572542406,
      -0.053167322015619675,
      -0.05572102458702008,
      -0.050123466694472964,
      -0.007508635076899512,
      -0.01512010222688398,
      -0.013441916928082658,
      -0.0005250821500591973,
      0.011862007035892777,
      -0.007919191661556822,
      -0.015538655191147697,
      -0.01703748141719016,
      -0.010073500975744847,
      -0.0004357170251396705,
      0.0006235227058212657,
      0.0010769648800381705,
      0.003447456922746999,
      0.003145542888510227,
      0.0032334355498271393,
      -0.014041769282177296,
      -0.0052107010022574615,
      -0.035274396895114496,
      -0.010983017058027752
    ],
    "complete_weight_vector": [
      -0.008861637725877147,
      0.0021414381093415977,
      0.011517296252691366,
      -0.03189023688288333,
      -0.004580175448200345,
      -0.013974634979453357,
      0.00577789345016011,
      0.0836486372520462,
      0.0038859663292627688,
      -0.28608444856108683,
      -0.010693062523211372,
      -0.005720651515517542,
      0.010001757221792123,
      0.0881886759438711,
      -0.0021727064289374974,
      -0.004886583379407866,
      0.00871924147913529,
      0.016225821769301877,
      -0.08303025839632262,
      0.07750366307824105,
      0.014099715682184155,
      0.0692475225360122,
      0.005719419767825642,
      0.011211074191759398,
      -0.009466604021797416,
      0.0011299683265124983,
      0.00910969309881029,
      0.025873192957318485,
      0.027789072762410424,
      -0.003374402369928527,
      0.006451773646692882,
      -0.009979498821566537,
      0.0733502075240257,
      0.21975757529236037,
      -0.005510120803590984,
      0.021439920950864416,
      0.07676812623934982,
      -0.014698985292501804,
      -0.027965166637187205,
      -0.018681196572542406,
      -0.053167322015619675,
      -0.05572102458702008,
      -0.050123466694472964,
      -0.007508635076899512,
      -0.01512010222688398,
      -0.013441916928082658,
      -0.0005250821500591973,
      0.011862007035892777,
      -0.007919191661556822,
      -0.015538655191147697,
      -0.01703748141719016,
      -0.010073500975744847,
      -0.0004357170251396705,
      0.0006235227058212657,
      0.0010769648800381705,
      0.003447456922746999,
      0.003145542888510227,
      0.0032334355498271393,
      -0.014041769282177296,
      -0.0052107010022574615,
      -0.035274396895114496,
      -0.010983017058027752,
      10.117575524036749
    ],
    "weights_stats": {
      "min": -0.28608444856108683,
      "max": 0.21975757529236037,
      "mean": 0.0006331327951193434,
      "std": 0.05554735935534481
    },
    "velocity_analysis": {
      "final_velocity": [
        -1.8082451656324686e-11,
        1.0888598885855858e-10,
        -2.2263821571923914e-09,
        -2.7588701001949715e-09,
        -1.7449934811852704e-09,
        1.5724116625656362e-09,
        3.3500172173662094e-09,
        1.8277654649316358e-08,
        -1.588479170424266e-08,
        3.983940369812938e-08,
        -2.2576729339767913e-09,
        4.160398999293677e-09,
        4.967795144556581e-10,
        3.110225151498644e-08,
        5.876617109211117e-10,
        5.876617109211117e-10,
        5.876617109211117e-10,
        3.959031709489918e-09,
        -3.110225151498644e-08,
        2.1837437504879748e-08,
        5.455869599759976e-09,
        -7.782178367817981e-09,
        -6.945734769478191e-09,
        1.520254591804798e-09,
        8.845066325220585e-09,
        1.0888598885855858e-10,
        7.288248036564411e-10,
        3.6363433986726714e-09,
        -2.0745057675537e-09,
        5.663689454635373e-10,
        2.6502274274415847e-09,
        1.3388197508519334e-09,
        -7.782178367817981e-09,
        1.4941119424577346e-09,
        -7.917042087464418e-09,
        1.395204326275113e-05,
        -1.3955016043333482e-05,
        -3.440261830984779e-09,
        -6.96703623376618e-09,
        -6.740238360871797e-09,
        -2.427015480030382e-08,
        -2.3145747743765837e-08,
        -2.3803310451483223e-08,
        -5.78135054323528e-09,
        -4.105405472166499e-09,
        -6.743918919264318e-09,
        5.479454232677018e-10,
        2.759133296398568e-09,
        5.663689454635373e-10,
        5.652837168551741e-09,
        3.0241020427805965e-09,
        2.6502274274415847e-09,
        2.5571543429408707e-10,
        -5.107246635818636e-10,
        -6.5300483046462405e-09,
        -1.1114747827109884e-09,
        -2.823036791425073e-10,
        8.819015674603158e-10,
        3.79262292682332e-09,
        -5.845513567244405e-09,
        -6.833308253685533e-09,
        -1.876294977015991e-08,
        -1.8499906112826889e-09
      ],
      "velocity_stats": {
        "min": -1.3955016043333482e-05,
        "max": 1.395204326275113e-05,
        "mean": -1.0225536623251343e-09,
        "std": 2.5061517422560812e-06
      }
    }
  },
  "convergence_analysis": {
    "iterations_to_converge": 8500,
    "final_cost_change": -1.974160087139798e-09,
    "convergence_rate": "superlinear",
    "loss_reduction_ratio": 1.0208963356774727,
    "velocity_contribution": "accelerated_convergence"
  },
  "algorithm_specific": {
    "gradient_descent_type": "momentum",
    "momentum_coefficient": 0.5,
    "step_size_constant": true,
    "acceleration_used": true,
    "momentum_description": "Nesterov-style momentum with velocity accumulation"
  }
}