{
  "algorithm": "Momentum Gradient Descent - OLS",
  "loss_function": "OLS",
  "parameters": {
    "learning_rate": 0.1,
    "momentum": 0.5,
    "max_iterations": 10000,
    "tolerance": 1e-05
  },
  "training_results": {
    "training_time": 176.6877498626709,
    "converged": true,
    "final_iteration": 9000,
    "total_iterations": 10000,
    "final_loss": 0.011924649595997445,
    "final_gradient_norm": 9.925527982645518e-06,
    "final_velocity_norm": 1.9853865370235273e-05
  },
  "weights_analysis": {
    "n_features": 62,
    "n_weights_total": 63,
    "bias_value": 10.117575515765644,
    "weights_without_bias": [
      -0.014486544340599,
      0.005428853712053238,
      0.011517286660984153,
      -0.013905032262359666,
      -0.000536985477968925,
      0.001590739333304142,
      0.009689797007883938,
      0.08364871607341236,
      0.0038858977912981803,
      -0.2860842765823051,
      -0.01069307226878012,
      -0.005720633539833106,
      0.010001759366412467,
      0.10034629015173388,
      0.013350500369901914,
      -0.0075866657183674005,
      -0.004103875367517594,
      0.016225838956941813,
      -0.0708729125773685,
      0.07750375729712453,
      0.014099739200850257,
      0.07707348951375798,
      0.005719389821511683,
      0.012303712062672922,
      -0.011122343904456431,
      -0.002157446322458182,
      0.009109696257808506,
      0.02587320863056123,
      0.02778906381933961,
      -0.015316366602837432,
      -0.0012586804326118984,
      0.015618830369941106,
      0.06552417330531585,
      0.2197575817213579,
      -0.005510154948573191,
      0.02150008123514635,
      0.07670795314504412,
      -0.014699000539824645,
      -0.027965197215906738,
      -0.018681226170257262,
      -0.053167427811596515,
      -0.0557211257129238,
      -0.05012357090516213,
      -0.007508660351933883,
      -0.015120120287038954,
      -0.01344194600898242,
      -0.0005250797869035928,
      0.011862018929830142,
      0.0040227774648535376,
      -0.015538630822892655,
      -0.017037468398599577,
      -0.0023630240815065238,
      -0.00043571592353408394,
      0.0006235205009384531,
      0.0010769367934712459,
      0.003447452125451538,
      0.003145541668114567,
      0.003233439335315818,
      -0.014041752935978358,
      -0.005210726213188472,
      -0.03527442637378861,
      -0.010983098049139675
    ],
    "complete_weight_vector": [
      -0.014486544340599,
      0.005428853712053238,
      0.011517286660984153,
      -0.013905032262359666,
      -0.000536985477968925,
      0.001590739333304142,
      0.009689797007883938,
      0.08364871607341236,
      0.0038858977912981803,
      -0.2860842765823051,
      -0.01069307226878012,
      -0.005720633539833106,
      0.010001759366412467,
      0.10034629015173388,
      0.013350500369901914,
      -0.0075866657183674005,
      -0.004103875367517594,
      0.016225838956941813,
      -0.0708729125773685,
      0.07750375729712453,
      0.014099739200850257,
      0.07707348951375798,
      0.005719389821511683,
      0.012303712062672922,
      -0.011122343904456431,
      -0.002157446322458182,
      0.009109696257808506,
      0.02587320863056123,
      0.02778906381933961,
      -0.015316366602837432,
      -0.0012586804326118984,
      0.015618830369941106,
      0.06552417330531585,
      0.2197575817213579,
      -0.005510154948573191,
      0.02150008123514635,
      0.07670795314504412,
      -0.014699000539824645,
      -0.027965197215906738,
      -0.018681226170257262,
      -0.053167427811596515,
      -0.0557211257129238,
      -0.05012357090516213,
      -0.007508660351933883,
      -0.015120120287038954,
      -0.01344194600898242,
      -0.0005250797869035928,
      0.011862018929830142,
      0.0040227774648535376,
      -0.015538630822892655,
      -0.017037468398599577,
      -0.0023630240815065238,
      -0.00043571592353408394,
      0.0006235205009384531,
      0.0010769367934712459,
      0.003447452125451538,
      0.003145541668114567,
      0.003233439335315818,
      -0.014041752935978358,
      -0.005210726213188472,
      -0.03527442637378861,
      -0.010983098049139675,
      10.117575515765644
    ],
    "weights_stats": {
      "min": -0.2860842765823051,
      "max": 0.2197575817213579,
      "mean": 0.0020078202368893384,
      "std": 0.055521727247073396
    },
    "velocity_analysis": {
      "final_velocity": [
        -1.819977964405626e-11,
        1.0958430406015247e-10,
        -2.2395847375526363e-09,
        -2.776116857366856e-09,
        -1.7556359451365528e-09,
        1.5819353998614948e-09,
        3.3698944853831975e-09,
        1.8388548853740272e-08,
        -1.5983136273999527e-08,
        4.008675332117287e-08,
        -2.2715116755935603e-09,
        4.1855893449070366e-09,
        4.997666855085569e-10,
        3.129419360847007e-08,
        5.912918749400797e-10,
        5.912918749400797e-10,
        5.912918749400797e-10,
        3.983556768293239e-09,
        -3.129419360847007e-08,
        2.1972426290325304e-08,
        5.489012243471068e-09,
        -7.831049407422517e-09,
        -6.988229669042613e-09,
        1.5296199975183555e-09,
        8.898605861809984e-09,
        1.0958430406015247e-10,
        7.333060346247323e-10,
        3.6585382616862107e-09,
        -2.0870963146699713e-09,
        5.698452830713701e-10,
        2.6662015904852246e-09,
        1.3468273786520363e-09,
        -7.831049407422517e-09,
        1.502668046225612e-09,
        -7.96524276603597e-09,
        1.40371725310498e-05,
        -1.4040163480775024e-05,
        -3.468715170100869e-09,
        -7.019155951451691e-09,
        -6.791017513982686e-09,
        -2.4439291594432917e-08,
        -2.3311003530405656e-08,
        -2.3977310935152283e-08,
        -5.823038677377309e-09,
        -4.1371524048024236e-09,
        -6.7853027053237904e-09,
        5.512890218052131e-10,
        2.7758712836204117e-09,
        5.698452830713701e-10,
        5.687094225574984e-09,
        3.042040869092535e-09,
        2.6662015904852246e-09,
        2.572825575419932e-10,
        -5.138084637710507e-10,
        -6.568695462951859e-09,
        -1.1183348135899768e-09,
        -2.840102319461639e-10,
        8.869973267782952e-10,
        3.815723559775054e-09,
        -5.881344042545297e-09,
        -6.8753398763480446e-09,
        -1.8879050587678347e-08,
        -1.8612795576597465e-09
      ],
      "velocity_stats": {
        "min": -1.4040163480775024e-05,
        "max": 1.40371725310498e-05,
        "mean": -1.0306756245734098e-09,
        "std": 2.521443201732622e-06
      }
    }
  },
  "convergence_analysis": {
    "iterations_to_converge": 9000,
    "final_cost_change": -1.998324530155804e-09,
    "convergence_rate": "superlinear",
    "loss_reduction_ratio": 1.0224964306391437,
    "velocity_contribution": "accelerated_convergence"
  },
  "algorithm_specific": {
    "gradient_descent_type": "momentum",
    "momentum_coefficient": 0.5,
    "step_size_constant": true,
    "acceleration_used": true,
    "momentum_description": "Nesterov-style momentum with velocity accumulation"
  }
}