{
  "algorithm": "Stochastic Gradient Descent - OLS",
  "loss_function": "OLS",
  "parameters": {
    "learning_rate": 0.001,
    "learning_rate_schedule": "linear_decay",
    "epochs": 100,
    "batch_size": 25000,
    "random_state": 42,
    "tolerance": 1e-06
  },
  "training_results": {
    "training_time": 82.86126828193665,
    "converged": false,
    "final_epoch": 100,
    "total_epochs": 100,
    "final_cost": 49.35025049759616,
    "final_gradient_norm": 10.01713234639944
  },
  "weights_analysis": {
    "n_features": 62,
    "n_weights_total": 63,
    "bias_value": 0.19697076748984002,
    "weights_without_bias": [
      0.003521878104222804,
      -0.0009627914813147482,
      0.010029088170145034,
      0.012686861783453997,
      -0.003791111988634243,
      -0.006120841070126108,
      0.013809576795157983,
      0.014280246569966492,
      0.001413306124245282,
      -0.0032859533469799043,
      -0.003841421580705579,
      -0.010854787570739603,
      0.0036508957486016025,
      -0.011482565069709563,
      -0.011492115486456496,
      0.0001341875462640928,
      -0.0043712483646704235,
      0.009314643183538538,
      -0.01673047813208052,
      -0.01860161729895653,
      0.013141820971724248,
      -0.009967043424869964,
      -0.0005520165332659362,
      -0.015967143663560127,
      -0.006352771694950444,
      0.0015290774274957597,
      -0.01187282241896956,
      0.005306551506610118,
      0.00018782497614069552,
      -0.002714522548637079,
      -0.0066499918680023905,
      0.022836896815401957,
      -0.007844252667383951,
      7.465113173837828e-05,
      0.012368001123826076,
      -0.004896925542879346,
      0.00938029880959806,
      -0.01868923016634515,
      -0.014844424989972323,
      0.001493879333180207,
      0.011269297577057401,
      -0.001301579974161718,
      -0.0008070574315507173,
      -0.0030263870736584935,
      -0.01559406446836852,
      -0.004394254827148284,
      -0.004544542462124639,
      0.010986794083454562,
      0.003638597844980303,
      -0.017014472920209106,
      0.0021332698015981673,
      -0.004483748549871588,
      -0.005079487846406808,
      0.007060015795647672,
      0.011808242663249716,
      0.008275660470709361,
      -0.008696680757184019,
      -0.002488785051664098,
      0.003657127369114072,
      0.010480214213838521,
      -0.008413735172311079,
      -0.0018488057046629673
    ],
    "complete_weight_vector": [
      0.003521878104222804,
      -0.0009627914813147482,
      0.010029088170145034,
      0.012686861783453997,
      -0.003791111988634243,
      -0.006120841070126108,
      0.013809576795157983,
      0.014280246569966492,
      0.001413306124245282,
      -0.0032859533469799043,
      -0.003841421580705579,
      -0.010854787570739603,
      0.0036508957486016025,
      -0.011482565069709563,
      -0.011492115486456496,
      0.0001341875462640928,
      -0.0043712483646704235,
      0.009314643183538538,
      -0.01673047813208052,
      -0.01860161729895653,
      0.013141820971724248,
      -0.009967043424869964,
      -0.0005520165332659362,
      -0.015967143663560127,
      -0.006352771694950444,
      0.0015290774274957597,
      -0.01187282241896956,
      0.005306551506610118,
      0.00018782497614069552,
      -0.002714522548637079,
      -0.0066499918680023905,
      0.022836896815401957,
      -0.007844252667383951,
      7.465113173837828e-05,
      0.012368001123826076,
      -0.004896925542879346,
      0.00938029880959806,
      -0.01868923016634515,
      -0.014844424989972323,
      0.001493879333180207,
      0.011269297577057401,
      -0.001301579974161718,
      -0.0008070574315507173,
      -0.0030263870736584935,
      -0.01559406446836852,
      -0.004394254827148284,
      -0.004544542462124639,
      0.010986794083454562,
      0.003638597844980303,
      -0.017014472920209106,
      0.0021332698015981673,
      -0.004483748549871588,
      -0.005079487846406808,
      0.007060015795647672,
      0.011808242663249716,
      0.008275660470709361,
      -0.008696680757184019,
      -0.002488785051664098,
      0.003657127369114072,
      0.010480214213838521,
      -0.008413735172311079,
      -0.0018488057046629673,
      0.19697076748984002
    ],
    "weights_stats": {
      "min": -0.01868923016634515,
      "max": 0.022836896815401957,
      "mean": -0.0010501737614124344,
      "std": 0.009376163739244103
    }
  },
  "convergence_analysis": {
    "epochs_to_converge": 100,
    "final_cost_change": -0.042084650450298966,
    "convergence_rate": "sublinear",
    "cost_reduction_ratio": 1.0185606057746996
  },
  "algorithm_specific": {
    "method_type": "stochastic_gradient_descent",
    "batch_processing": true,
    "batch_size": 25000,
    "epoch_based_training": true,
    "data_shuffling": true,
    "noisy_gradients": "inherent_in_SGD",
    "convergence_type": "probabilistic",
    "learning_rate_schedule": "linear_decay",
    "adaptive_learning_rate": true
  }
}