{
  "algorithm": "Gradient Descent - OLS",
  "loss_function": "OLS",
  "parameters": {
    "learning_rate": 0.1,
    "max_iterations": 10000,
    "tolerance": 1e-05,
    "step_size_method": "exponential_schedule"
  },
  "training_results": {
    "training_time": 208.36759066581726,
    "converged": false,
    "final_iteration": 10000,
    "total_iterations": 10000,
    "final_loss": 0.011925051655339877,
    "final_gradient_norm": 2.5833614746984754e-05,
    "best_iteration": 9900,
    "best_loss": 0.011925051655339877,
    "best_gradient_norm": 2.5833614746984754e-05,
    "improvement_from_final": {
      "loss_improvement": 0.0,
      "gradient_improvement": 0.0,
      "iterations_earlier": 100
    }
  },
  "weights_analysis": {
    "n_features": 62,
    "n_weights_total": 63,
    "bias_value": 10.117573408208745,
    "weights_without_bias": [
      0.007543075662311916,
      -0.009910118447679746,
      0.01151454687373676,
      -0.0055150523911956535,
      0.0013478049434954523,
      0.008856237758153066,
      -0.003853388705870326,
      0.08366987878695022,
      0.003868531203131453,
      -0.2860411127582397,
      -0.010695611633846658,
      -0.0057157890828237615,
      0.010002348808148506,
      0.08242614158797487,
      0.014314477985787942,
      -0.006245889596585977,
      -0.006406685759671554,
      0.016230161856277802,
      -0.0888616710305895,
      0.07752772605064573,
      0.01410603520184909,
      0.07354147986631204,
      0.005711534866219056,
      0.006156831806250564,
      -0.00495867702372731,
      0.013181738332795383,
      0.009110508783658332,
      0.02587734877229948,
      0.02778666435207137,
      -0.011912315625794097,
      -0.0008848715050955516,
      0.027566047645455786,
      0.06903989885796645,
      0.2197595803148037,
      -0.005519233276358315,
      0.037400601684086376,
      0.06080406074370605,
      -0.01469897396913634,
      -0.027968054004321806,
      -0.01868380175951552,
      -0.05318395267884369,
      -0.055734792986852154,
      -0.05013548440361663,
      -0.007511857037858919,
      -0.015121256368877317,
      -0.0134495071348042,
      -0.0005244554859550231,
      0.011865214428716657,
      0.000619995691703463,
      -0.015532065245107573,
      -0.017033751552052587,
      -0.002730584718661451,
      -0.0004354281311974739,
      0.0006229213158850716,
      0.0010688618128250425,
      0.003446226866435835,
      0.00314521156411752,
      0.0032345953827744725,
      -0.014037409247315428,
      -0.0052173014517958045,
      -0.03528203527975333,
      -0.011003625800516071
    ],
    "complete_weight_vector": [
      0.007543075662311916,
      -0.009910118447679746,
      0.01151454687373676,
      -0.0055150523911956535,
      0.0013478049434954523,
      0.008856237758153066,
      -0.003853388705870326,
      0.08366987878695022,
      0.003868531203131453,
      -0.2860411127582397,
      -0.010695611633846658,
      -0.0057157890828237615,
      0.010002348808148506,
      0.08242614158797487,
      0.014314477985787942,
      -0.006245889596585977,
      -0.006406685759671554,
      0.016230161856277802,
      -0.0888616710305895,
      0.07752772605064573,
      0.01410603520184909,
      0.07354147986631204,
      0.005711534866219056,
      0.006156831806250564,
      -0.00495867702372731,
      0.013181738332795383,
      0.009110508783658332,
      0.02587734877229948,
      0.02778666435207137,
      -0.011912315625794097,
      -0.0008848715050955516,
      0.027566047645455786,
      0.06903989885796645,
      0.2197595803148037,
      -0.005519233276358315,
      0.037400601684086376,
      0.06080406074370605,
      -0.01469897396913634,
      -0.027968054004321806,
      -0.01868380175951552,
      -0.05318395267884369,
      -0.055734792986852154,
      -0.05013548440361663,
      -0.007511857037858919,
      -0.015121256368877317,
      -0.0134495071348042,
      -0.0005244554859550231,
      0.011865214428716657,
      0.000619995691703463,
      -0.015532065245107573,
      -0.017033751552052587,
      -0.002730584718661451,
      -0.0004354281311974739,
      0.0006229213158850716,
      0.0010688618128250425,
      0.003446226866435835,
      0.00314521156411752,
      0.0032345953827744725,
      -0.014037409247315428,
      -0.0052173014517958045,
      -0.03528203527975333,
      -0.011003625800516071,
      10.117573408208745
    ],
    "weights_stats": {
      "min": -0.2860411127582397,
      "max": 0.2197595803148037,
      "mean": 0.002040992511498163,
      "std": 0.05529152644396336
    }
  },
  "convergence_analysis": {
    "iterations_to_converge": 10000,
    "best_iteration_found": 9900,
    "final_cost_change": -4.224679233180706e-09,
    "convergence_rate": "linear",
    "loss_reduction_ratio": 1.0608101195636745
  },
  "algorithm_specific": {
    "gradient_descent_type": "standard",
    "step_size_method": "exponential_schedule",
    "step_size_constant": false,
    "momentum_used": false,
    "returns_best_result": true,
    "backtracking_parameters": null,
    "adaptive_parameters": null
  },
  "computational_complexity": {
    "basic_metrics": {
      "function_evaluations": 100,
      "gradient_evaluations": 10000,
      "matrix_vector_multiplications": 0,
      "vector_operations": 10100,
      "memory_allocations": 10000,
      "peak_memory_size": 63,
      "total_operations": 126640642600
    },
    "iterations": {
      "total_iterations": 10000,
      "final_iteration": 10000,
      "converged": false,
      "convergence_iteration": null
    },
    "per_iteration_averages": {
      "function_evaluations_per_iter": 0.01,
      "gradient_evaluations_per_iter": 1.0,
      "operations_per_iter": 12664064.26,
      "matrix_operations_per_iter": 0.0
    },
    "scalability_metrics": {
      "problem_size": {
        "n_samples": 100000,
        "n_features": 62
      },
      "problem_complexity_factor": 6200000,
      "operations_per_problem_unit": 20425.910096774194,
      "memory_efficiency": 0.0006296096420219464,
      "theoretical_complexity": "O(100000*62*10000)"
    },
    "operation_distribution": {
      "function_eval_percentage": 7.89635917403344e-08,
      "gradient_eval_percentage": 7.89635917403344e-06,
      "matrix_ops_percentage": 0.0,
      "vector_ops_percentage": 7.975322765773773e-06
    }
  }
}