{
  "algorithm": "Gradient Descent - OLS",
  "loss_function": "OLS",
  "parameters": {
    "learning_rate": 0.1,
    "max_iterations": 10000,
    "tolerance": 1e-05,
    "step_size_method": "exponential_schedule"
  },
  "training_results": {
    "training_time": 240.5330309867859,
    "converged": false,
    "final_iteration": 10000,
    "total_iterations": 10000,
    "final_loss": 0.011925103339449298,
    "final_gradient_norm": 2.7238111625146242e-05,
    "best_iteration": 9900,
    "best_loss": 0.011925103339449298,
    "best_gradient_norm": 2.7238111625146242e-05,
    "improvement_from_final": {
      "loss_improvement": 0.0,
      "gradient_improvement": 0.0,
      "iterations_earlier": 100
    }
  },
  "weights_analysis": {
    "n_features": 62,
    "n_weights_total": 63,
    "bias_value": 10.11757322971557,
    "weights_without_bias": [
      0.0030159727302129513,
      -0.009595321068074286,
      0.011513489248195927,
      -0.007814677994256624,
      0.0008305137012375121,
      0.006865794624124132,
      0.00483940972765974,
      0.08367305022321896,
      0.0038696929720101977,
      -0.2860460152822541,
      -0.010695695879190998,
      -0.005714955841774351,
      0.010002493638774273,
      0.07470239909434732,
      0.008693808116469477,
      0.0020737785159492756,
      -0.009105693958003844,
      0.016229883462612255,
      -0.09658246518674728,
      0.07752622150890316,
      0.01410690459594907,
      0.08392605372252143,
      0.00571109702042217,
      0.0011934845073737624,
      -0.0073253125345946555,
      0.012866820206750885,
      0.00911050718589731,
      0.025877689388658063,
      0.02778632132059558,
      -0.0033686111782428906,
      0.006037956972630509,
      0.024292598655569084,
      0.05865947574771368,
      0.21976092776855927,
      -0.005520238680611972,
      0.03877667225628603,
      0.05942775991412667,
      -0.01468315625891317,
      -0.027947935766635616,
      -0.018663569930613997,
      -0.0531407761690913,
      -0.05568505252753235,
      -0.05007556493729066,
      -0.0074985436047292344,
      -0.01510716049511574,
      -0.01344965954293198,
      -0.0005244024168102878,
      0.01186569031607562,
      -0.007923683317915754,
      -0.015531013019556714,
      -0.017032362355191146,
      -0.009652044481840398,
      -0.00043541804126983664,
      0.0006228010849375661,
      0.0010656241194194052,
      0.0034462871617178116,
      0.003145149999216651,
      0.0032353023200207194,
      -0.01403694660075431,
      -0.005217522890619849,
      -0.03528197710581125,
      -0.011001975605411513
    ],
    "complete_weight_vector": [
      0.0030159727302129513,
      -0.009595321068074286,
      0.011513489248195927,
      -0.007814677994256624,
      0.0008305137012375121,
      0.006865794624124132,
      0.00483940972765974,
      0.08367305022321896,
      0.0038696929720101977,
      -0.2860460152822541,
      -0.010695695879190998,
      -0.005714955841774351,
      0.010002493638774273,
      0.07470239909434732,
      0.008693808116469477,
      0.0020737785159492756,
      -0.009105693958003844,
      0.016229883462612255,
      -0.09658246518674728,
      0.07752622150890316,
      0.01410690459594907,
      0.08392605372252143,
      0.00571109702042217,
      0.0011934845073737624,
      -0.0073253125345946555,
      0.012866820206750885,
      0.00911050718589731,
      0.025877689388658063,
      0.02778632132059558,
      -0.0033686111782428906,
      0.006037956972630509,
      0.024292598655569084,
      0.05865947574771368,
      0.21976092776855927,
      -0.005520238680611972,
      0.03877667225628603,
      0.05942775991412667,
      -0.01468315625891317,
      -0.027947935766635616,
      -0.018663569930613997,
      -0.0531407761690913,
      -0.05568505252753235,
      -0.05007556493729066,
      -0.0074985436047292344,
      -0.01510716049511574,
      -0.01344965954293198,
      -0.0005244024168102878,
      0.01186569031607562,
      -0.007923683317915754,
      -0.015531013019556714,
      -0.017032362355191146,
      -0.009652044481840398,
      -0.00043541804126983664,
      0.0006228010849375661,
      0.0010656241194194052,
      0.0034462871617178116,
      0.003145149999216651,
      0.0032353023200207194,
      -0.01403694660075431,
      -0.005217522890619849,
      -0.03528197710581125,
      -0.011001975605411513,
      10.11757322971557
    ],
    "weights_stats": {
      "min": -0.2860460152822541,
      "max": 0.21976092776855927,
      "mean": 0.0016144174057479092,
      "std": 0.05532752057217654
    }
  },
  "convergence_analysis": {
    "iterations_to_converge": 10000,
    "best_iteration_found": 9900,
    "final_cost_change": -2.8072325696654188e-09,
    "convergence_rate": "linear",
    "loss_reduction_ratio": 1.0572109674094705
  },
  "algorithm_specific": {
    "gradient_descent_type": "standard",
    "step_size_method": "exponential_schedule",
    "step_size_constant": false,
    "momentum_used": false,
    "returns_best_result": true,
    "backtracking_parameters": null,
    "adaptive_parameters": null
  },
  "computational_complexity": {
    "basic_metrics": {
      "function_evaluations": 100,
      "gradient_evaluations": 10000,
      "matrix_vector_multiplications": 0,
      "vector_operations": 10100,
      "memory_allocations": 10000,
      "peak_memory_size": 63,
      "total_operations": 126640642600
    },
    "iterations": {
      "total_iterations": 10000,
      "final_iteration": 10000,
      "converged": false,
      "convergence_iteration": null
    },
    "per_iteration_averages": {
      "function_evaluations_per_iter": 0.01,
      "gradient_evaluations_per_iter": 1.0,
      "operations_per_iter": 12664064.26,
      "matrix_operations_per_iter": 0.0
    },
    "scalability_metrics": {
      "problem_size": {
        "n_samples": 100000,
        "n_features": 62
      },
      "problem_complexity_factor": 6200000,
      "operations_per_problem_unit": 20425.910096774194,
      "memory_efficiency": 0.0006296096420219464,
      "theoretical_complexity": "O(100000*62*10000)"
    },
    "operation_distribution": {
      "function_eval_percentage": 7.89635917403344e-08,
      "gradient_eval_percentage": 7.89635917403344e-06,
      "matrix_ops_percentage": 0.0,
      "vector_ops_percentage": 7.975322765773773e-06
    }
  }
}