{
  "algorithm": "Gradient Descent - OLS",
  "loss_function": "OLS",
  "parameters": {
    "learning_rate": 0.1,
    "max_iterations": 10000,
    "tolerance": 1e-05
  },
  "training_results": {
    "training_time": 80.54003691673279,
    "converged": false,
    "final_iteration": 10000,
    "total_iterations": 10000,
    "final_loss": 0.011924905862174432,
    "final_gradient_norm": 2.1471260971500755e-05
  },
  "weights_analysis": {
    "n_features": 62,
    "n_weights_total": 63,
    "bias_value": 10.117573985622807,
    "weights_without_bias": [
      0.010806356935724685,
      0.0033190877727701526,
      0.011515417039540512,
      -0.014396999221226382,
      -0.000648520502166056,
      0.001168219461750148,
      -0.010572359141536963,
      0.08366388076075888,
      0.003872862151710872,
      -0.28605163481294893,
      -0.010694935087835075,
      -0.0057171778959810215,
      0.010002173513193244,
      0.08756788402074274,
      0.0020849202466719065,
      0.013910657021773845,
      -0.014334169368007745,
      0.01622908688452557,
      -0.08370245498715485,
      0.07752169281759377,
      0.014104262924122368,
      0.06992219489950767,
      0.0057136529232681135,
      0.010211341511015522,
      -0.0031697829009746242,
      -4.750521097034716e-05,
      0.009110296613722906,
      0.025876215974273187,
      0.027787342901216375,
      0.0020634067018790517,
      0.0027255829456862904,
      0.014922938967752984,
      0.07266279657041101,
      0.21975885865629863,
      -0.005516711375756809,
      0.03304084633016241,
      0.06516473123666297,
      -0.014701299262975647,
      -0.027970255724973605,
      -0.01868609397701962,
      -0.05318596047868188,
      -0.055738509893791276,
      -0.050141152177386884,
      -0.007512972517329943,
      -0.015123025316094413,
      -0.013447507163748115,
      -0.0005246265650445882,
      0.011864308302042674,
      -0.013356061985621583,
      -0.015533937803483977,
      -0.017034929413036474,
      -0.0063428742234238784,
      -0.0004355049038830364,
      0.0006230956642321919,
      0.0010714476071691007,
      0.0034465384951761486,
      0.0031453070154702813,
      0.003234189740801333,
      -0.014038612787279404,
      -0.005215549463564834,
      -0.03528005393293364,
      -0.010998499697072207
    ],
    "complete_weight_vector": [
      0.010806356935724685,
      0.0033190877727701526,
      0.011515417039540512,
      -0.014396999221226382,
      -0.000648520502166056,
      0.001168219461750148,
      -0.010572359141536963,
      0.08366388076075888,
      0.003872862151710872,
      -0.28605163481294893,
      -0.010694935087835075,
      -0.0057171778959810215,
      0.010002173513193244,
      0.08756788402074274,
      0.0020849202466719065,
      0.013910657021773845,
      -0.014334169368007745,
      0.01622908688452557,
      -0.08370245498715485,
      0.07752169281759377,
      0.014104262924122368,
      0.06992219489950767,
      0.0057136529232681135,
      0.010211341511015522,
      -0.0031697829009746242,
      -4.750521097034716e-05,
      0.009110296613722906,
      0.025876215974273187,
      0.027787342901216375,
      0.0020634067018790517,
      0.0027255829456862904,
      0.014922938967752984,
      0.07266279657041101,
      0.21975885865629863,
      -0.005516711375756809,
      0.03304084633016241,
      0.06516473123666297,
      -0.014701299262975647,
      -0.027970255724973605,
      -0.01868609397701962,
      -0.05318596047868188,
      -0.055738509893791276,
      -0.050141152177386884,
      -0.007512972517329943,
      -0.015123025316094413,
      -0.013447507163748115,
      -0.0005246265650445882,
      0.011864308302042674,
      -0.013356061985621583,
      -0.015533937803483977,
      -0.017034929413036474,
      -0.0063428742234238784,
      -0.0004355049038830364,
      0.0006230956642321919,
      0.0010714476071691007,
      0.0034465384951761486,
      0.0031453070154702813,
      0.003234189740801333,
      -0.014038612787279404,
      -0.005215549463564834,
      -0.03528005393293364,
      -0.010998499697072207,
      10.117573985622807
    ],
    "weights_stats": {
      "min": -0.28605163481294893,
      "max": 0.21975885865629863,
      "mean": 0.001741805109931028,
      "std": 0.05529186669382915
    }
  },
  "convergence_analysis": {
    "iterations_to_converge": 10000,
    "final_cost_change": -4.610639474378342e-11,
    "convergence_rate": "linear",
    "loss_reduction_ratio": 4308.479880465404
  },
  "algorithm_specific": {
    "gradient_descent_type": "standard",
    "step_size_constant": true,
    "momentum_used": false
  }
}