{
  "algorithm": "Gradient Descent - OLS",
  "loss_function": "OLS",
  "parameters": {
    "learning_rate": 0.1,
    "max_iterations": 10000,
    "tolerance": 1e-05
  },
  "training_results": {
    "training_time": 52.29621076583862,
    "converged": false,
    "final_iteration": 10000,
    "total_iterations": 10000,
    "final_loss": 0.01192487441207934,
    "final_gradient_norm": 2.0410359739292374e-05
  },
  "weights_analysis": {
    "n_features": 62,
    "n_weights_total": 63,
    "bias_value": 10.117574126207922,
    "weights_without_bias": [
      -0.0024305349001676026,
      -0.011217873804866711,
      0.011515590416509786,
      -0.013949470017963102,
      -0.0005478263792867659,
      0.0015552373144172825,
      -0.0033868519019383857,
      0.08366248484941208,
      0.0038740539558935,
      -0.286054616138593,
      -0.010694764201706404,
      -0.0057174962171723815,
      0.010002135277890161,
      0.09230707995772865,
      -0.006045231715093736,
      0.006741632614661399,
      0.0009648744578164723,
      0.016228790003854514,
      -0.07895857869490626,
      0.07752005216728308,
      0.01410384666433653,
      0.07324112531956664,
      0.005714179554442023,
      0.01491169493177934,
      -0.006689466116018443,
      0.014489440552836685,
      0.0091102415959798,
      0.025875939684918373,
      0.02778750130921372,
      -0.02689811006160937,
      -0.017927878295945023,
      0.0155595108781027,
      0.06934501881165109,
      0.21975873898925147,
      -0.005516108550588925,
      0.03198046982019407,
      0.06622533336730059,
      -0.014701119229153842,
      -0.027969831110855683,
      -0.018685687050998975,
      -0.053184345620012584,
      -0.05573701300793011,
      -0.05013965694212021,
      -0.00751260308377716,
      -0.015122786356051129,
      -0.013446997170977382,
      -0.0005246682048031379,
      0.011864097552200803,
      0.015605369163176511,
      -0.015534369982484418,
      -0.01703516482322204,
      0.014310179860302736,
      -0.00043552426413522445,
      0.0006231348346625779,
      0.0010719569669589229,
      0.00344662210879271,
      0.0031453286322468466,
      0.0032341195973916484,
      -0.014038901488605919,
      -0.00521510698479774,
      -0.035279538282846926,
      -0.01099709133631067
    ],
    "complete_weight_vector": [
      -0.0024305349001676026,
      -0.011217873804866711,
      0.011515590416509786,
      -0.013949470017963102,
      -0.0005478263792867659,
      0.0015552373144172825,
      -0.0033868519019383857,
      0.08366248484941208,
      0.0038740539558935,
      -0.286054616138593,
      -0.010694764201706404,
      -0.0057174962171723815,
      0.010002135277890161,
      0.09230707995772865,
      -0.006045231715093736,
      0.006741632614661399,
      0.0009648744578164723,
      0.016228790003854514,
      -0.07895857869490626,
      0.07752005216728308,
      0.01410384666433653,
      0.07324112531956664,
      0.005714179554442023,
      0.01491169493177934,
      -0.006689466116018443,
      0.014489440552836685,
      0.0091102415959798,
      0.025875939684918373,
      0.02778750130921372,
      -0.02689811006160937,
      -0.017927878295945023,
      0.0155595108781027,
      0.06934501881165109,
      0.21975873898925147,
      -0.005516108550588925,
      0.03198046982019407,
      0.06622533336730059,
      -0.014701119229153842,
      -0.027969831110855683,
      -0.018685687050998975,
      -0.053184345620012584,
      -0.05573701300793011,
      -0.05013965694212021,
      -0.00751260308377716,
      -0.015122786356051129,
      -0.013446997170977382,
      -0.0005246682048031379,
      0.011864097552200803,
      0.015605369163176511,
      -0.015534369982484418,
      -0.01703516482322204,
      0.014310179860302736,
      -0.00043552426413522445,
      0.0006231348346625779,
      0.0010719569669589229,
      0.00344662210879271,
      0.0031453286322468466,
      0.0032341195973916484,
      -0.014038901488605919,
      -0.00521510698479774,
      -0.035279538282846926,
      -0.01099709133631067,
      10.117574126207922
    ],
    "weights_stats": {
      "min": -0.286054616138593,
      "max": 0.21975873898925147,
      "mean": 0.0018416220850940872,
      "std": 0.05548844141490583
    }
  },
  "convergence_analysis": {
    "iterations_to_converge": 10000,
    "final_cost_change": -4.474441398123752e-08,
    "convergence_rate": "linear",
    "loss_reduction_ratio": 1.0008757941618267
  },
  "algorithm_specific": {
    "gradient_descent_type": "standard",
    "step_size_constant": true,
    "momentum_used": false
  }
}