{
  "algorithm": "Damped Newton Method - OLS",
  "loss_function": "OLS",
  "parameters": {
    "regularization": 0.01,
    "numerical_regularization": 1e-08,
    "max_iterations": 10000,
    "tolerance": 1e-08,
    "armijo_c1": 0.001,
    "backtrack_rho": 0.8,
    "max_line_search_iter": 50
  },
  "training_results": {
    "training_time": 1.0516493320465088,
    "converged": true,
    "final_iteration": 10,
    "total_iterations": 10000,
    "final_loss": 0.011924579972801198,
    "final_gradient_norm": 4.415906947173311e-11
  },
  "weights_analysis": {
    "n_features": 62,
    "n_weights_total": 63,
    "bias_value": 10.117576831541557,
    "weights_without_bias": [
      0.011405671879505972,
      -0.022441275166179244,
      0.011518869232491541,
      -0.0405493881723835,
      -0.0065260160450287775,
      -0.021471526090306736,
      -0.019235910447665226,
      0.08363572100117232,
      0.003897193264858894,
      -0.2861126067230242,
      -0.010691466959304329,
      -0.005723591471595499,
      0.010001406192991153,
      0.09589935620460652,
      0.003048894662377681,
      0.005244497796263715,
      -0.006634686814266619,
      0.016223023577266984,
      -0.07527561473526581,
      0.07748822914300667,
      0.014095860198017847,
      0.06354544230953925,
      0.005724328371916495,
      0.018780032112645385,
      -0.0014668618809627826,
      0.025712527643356485,
      0.009109178007773666,
      0.02587062317799096,
      0.027790538713702805,
      -0.00010409587735285895,
      0.009375399930433442,
      -0.022307773367166814,
      0.07906328952656957,
      0.21975651990760928,
      -0.00550452590137735,
      0.01158011109204557,
      0.08663003692127938,
      -0.014696547090135818,
      -0.02796023401117378,
      -0.018676424269412045,
      -0.053150150743200994,
      -0.055704645113997454,
      -0.05010661816456699,
      -0.007504543434134689,
      -0.015117194739177692,
      -0.013437150831290323,
      -0.0005254693818607654,
      0.01186005724857499,
      -0.01119029883435221,
      -0.015542649809690619,
      -0.0170396180949738,
      -0.01300087263889045,
      -0.0004358977423653441,
      0.0006238835989136373,
      0.0010815785054749069,
      0.003448242481309792,
      0.003145742405056364,
      0.0032328125947735627,
      -0.014044449431827529,
      -0.005206569863644833,
      -0.03526956750937259,
      -0.010969755871577154
    ],
    "complete_weight_vector": [
      0.011405671879505972,
      -0.022441275166179244,
      0.011518869232491541,
      -0.0405493881723835,
      -0.0065260160450287775,
      -0.021471526090306736,
      -0.019235910447665226,
      0.08363572100117232,
      0.003897193264858894,
      -0.2861126067230242,
      -0.010691466959304329,
      -0.005723591471595499,
      0.010001406192991153,
      0.09589935620460652,
      0.003048894662377681,
      0.005244497796263715,
      -0.006634686814266619,
      0.016223023577266984,
      -0.07527561473526581,
      0.07748822914300667,
      0.014095860198017847,
      0.06354544230953925,
      0.005724328371916495,
      0.018780032112645385,
      -0.0014668618809627826,
      0.025712527643356485,
      0.009109178007773666,
      0.02587062317799096,
      0.027790538713702805,
      -0.00010409587735285895,
      0.009375399930433442,
      -0.022307773367166814,
      0.07906328952656957,
      0.21975651990760928,
      -0.00550452590137735,
      0.01158011109204557,
      0.08663003692127938,
      -0.014696547090135818,
      -0.02796023401117378,
      -0.018676424269412045,
      -0.053150150743200994,
      -0.055704645113997454,
      -0.05010661816456699,
      -0.007504543434134689,
      -0.015117194739177692,
      -0.013437150831290323,
      -0.0005254693818607654,
      0.01186005724857499,
      -0.01119029883435221,
      -0.015542649809690619,
      -0.0170396180949738,
      -0.01300087263889045,
      -0.0004358977423653441,
      0.0006238835989136373,
      0.0010815785054749069,
      0.003448242481309792,
      0.003145742405056364,
      0.0032328125947735627,
      -0.014044449431827529,
      -0.005206569863644833,
      -0.03526956750937259,
      -0.010969755871577154,
      10.117576831541557
    ],
    "weights_stats": {
      "min": -0.2861126067230242,
      "max": 0.21975651990760928,
      "mean": 0.000567178556032259,
      "std": 0.0562314492907364
    }
  },
  "convergence_analysis": {
    "iterations_to_converge": 10,
    "final_cost_change": 0.0,
    "convergence_rate": "superlinear",
    "loss_reduction_ratio": 1.0,
    "convergence_quality": "damped_superlinear"
  },
  "numerical_analysis": {
    "hessian_condition_number": 954610051.7705601,
    "average_step_size": 1.0,
    "max_step_size": 1.0,
    "min_step_size": 1.0,
    "step_size_stability": "line_search_controlled",
    "regularization_effect": "Applied for numerical stability"
  },
  "line_search_analysis": {
    "average_backtracks": 0.0,
    "max_backtracks": 0,
    "min_backtracks": 0,
    "total_line_search_calls": 9,
    "line_search_success_rate": "100%"
  },
  "algorithm_specific": {
    "method_type": "damped_newton",
    "second_order_method": true,
    "hessian_computation": "exact",
    "line_search_used": true,
    "line_search_type": "backtracking_armijo",
    "damping_applied": "line_search_based",
    "fast_convergence": true,
    "globalization_strategy": "armijo_line_search",
    "step_size_strategy": "adaptive",
    "fixed_learning_rate": null
  }
}