{
  "algorithm": "Stochastic Gradient Descent - OLS",
  "loss_function": "OLS",
  "parameters": {
    "learning_rate": 0.001,
    "learning_rate_schedule": "exponential_decay",
    "epochs": 100,
    "batch_size": 25000,
    "random_state": 42,
    "tolerance": 1e-06
  },
  "training_results": {
    "training_time": 82.60997152328491,
    "converged": false,
    "final_epoch": 100,
    "total_epochs": 100,
    "final_cost": 43.82033051917262,
    "final_gradient_norm": 9.39147622316395
  },
  "weights_analysis": {
    "n_features": 62,
    "n_weights_total": 63,
    "bias_value": 0.7634295898517832,
    "weights_without_bias": [
      0.0008814626938234865,
      -0.0006499254854624556,
      0.017239845596600523,
      0.008203314403630825,
      -0.006907993842706708,
      -0.013605595544778203,
      0.010347720141006362,
      0.02851144528127266,
      0.012434046243037863,
      -0.021549169141634288,
      -0.002766454482369074,
      -0.02393676634965181,
      0.006762440260775803,
      0.004261890386332026,
      -0.0013018292486291672,
      0.010324473784091428,
      0.00581903787315692,
      0.020546318910507944,
      -0.03247493358812213,
      -0.02737316432258052,
      0.01020569230083298,
      -0.0253809658597839,
      -0.003252814944927698,
      -0.019032902431450685,
      -0.007584860755684484,
      0.0018419434233480525,
      -0.012113817808748128,
      0.008800958980708033,
      0.013386423342007523,
      -0.0020684200588755703,
      -0.00806160314837322,
      0.031030513258496702,
      -0.023258175102297884,
      0.022844576010433396,
      0.021085928379469245,
      0.01047711995376845,
      0.024697829579812893,
      -0.016137163774266782,
      -0.017977310329368803,
      0.0005210398008192122,
      0.019085596855323423,
      -0.007014099436030202,
      -0.0007337474300678575,
      -0.00320078428210916,
      -0.016974601877686794,
      0.0010413324586161054,
      -0.004377658988228463,
      0.011594991199574578,
      0.004284700334741806,
      -0.015572532333538763,
      -0.0004382440418344163,
      -0.005895359830242414,
      -0.0012616175680650913,
      0.009213072922798944,
      0.014546364416280277,
      0.006282906263028961,
      -0.00927993265555711,
      -0.00013338110665098727,
      0.0034960452969484065,
      0.012007280040377195,
      -0.015678118244802933,
      -0.0017231714982246808
    ],
    "complete_weight_vector": [
      0.0008814626938234865,
      -0.0006499254854624556,
      0.017239845596600523,
      0.008203314403630825,
      -0.006907993842706708,
      -0.013605595544778203,
      0.010347720141006362,
      0.02851144528127266,
      0.012434046243037863,
      -0.021549169141634288,
      -0.002766454482369074,
      -0.02393676634965181,
      0.006762440260775803,
      0.004261890386332026,
      -0.0013018292486291672,
      0.010324473784091428,
      0.00581903787315692,
      0.020546318910507944,
      -0.03247493358812213,
      -0.02737316432258052,
      0.01020569230083298,
      -0.0253809658597839,
      -0.003252814944927698,
      -0.019032902431450685,
      -0.007584860755684484,
      0.0018419434233480525,
      -0.012113817808748128,
      0.008800958980708033,
      0.013386423342007523,
      -0.0020684200588755703,
      -0.00806160314837322,
      0.031030513258496702,
      -0.023258175102297884,
      0.022844576010433396,
      0.021085928379469245,
      0.01047711995376845,
      0.024697829579812893,
      -0.016137163774266782,
      -0.017977310329368803,
      0.0005210398008192122,
      0.019085596855323423,
      -0.007014099436030202,
      -0.0007337474300678575,
      -0.00320078428210916,
      -0.016974601877686794,
      0.0010413324586161054,
      -0.004377658988228463,
      0.011594991199574578,
      0.004284700334741806,
      -0.015572532333538763,
      -0.0004382440418344163,
      -0.005895359830242414,
      -0.0012616175680650913,
      0.009213072922798944,
      0.014546364416280277,
      0.006282906263028961,
      -0.00927993265555711,
      -0.00013338110665098727,
      0.0034960452969484065,
      0.012007280040377195,
      -0.015678118244802933,
      -0.0017231714982246808,
      0.7634295898517832
    ],
    "weights_stats": {
      "min": -0.03247493358812213,
      "max": 0.031030513258496702,
      "mean": 6.547088514309111e-05,
      "std": 0.014238970907452608
    }
  },
  "convergence_analysis": {
    "epochs_to_converge": 100,
    "final_cost_change": -0.02800559146206183,
    "convergence_rate": "sublinear",
    "cost_reduction_ratio": 1.1005120645044109
  },
  "algorithm_specific": {
    "method_type": "stochastic_gradient_descent",
    "batch_processing": true,
    "batch_size": 25000,
    "epoch_based_training": true,
    "data_shuffling": true,
    "noisy_gradients": "inherent_in_SGD",
    "convergence_type": "probabilistic",
    "learning_rate_schedule": "exponential_decay",
    "adaptive_learning_rate": true
  }
}