{
  "algorithm": "Stochastic Gradient Descent - OLS",
  "loss_function": "OLS",
  "parameters": {
    "learning_rate": 0.001,
    "learning_rate_schedule": "constant",
    "epochs": 100,
    "batch_size": 25000,
    "random_state": 42,
    "tolerance": 1e-06
  },
  "training_results": {
    "training_time": 86.60153603553772,
    "converged": false,
    "final_epoch": 100,
    "total_epochs": 100,
    "final_cost": 23.061498513979345,
    "final_gradient_norm": 6.806618419773896
  },
  "weights_analysis": {
    "n_features": 62,
    "n_weights_total": 63,
    "bias_value": 3.32940196573672,
    "weights_without_bias": [
      0.000762016525030956,
      -0.004164281197263804,
      0.0258735742608636,
      0.007761298134066905,
      -0.013073476179428264,
      -0.022729703865691894,
      0.011868236393229656,
      0.05702522682785732,
      0.017096999715698065,
      -0.057649111141510126,
      -0.007083894944488256,
      -0.0496017539366252,
      0.01733259210521152,
      0.03180544311048614,
      0.0008831267501930135,
      0.01250942978291361,
      0.00800399387197912,
      0.02644153100061274,
      -0.06001848631227624,
      -0.03620043464514527,
      0.008308867163225719,
      -0.0479200766074076,
      -0.008840261007723026,
      -0.018376066203942384,
      -0.0031533573968622673,
      -0.0016724122884532934,
      -0.00812221634218946,
      0.016533667328315287,
      0.03821598134660847,
      0.0002540502975224928,
      -0.010481039121314767,
      0.037862945264102145,
      -0.045797285849921585,
      0.07141981602940115,
      0.03536433069518973,
      0.038326376495636354,
      0.05227247913639479,
      -0.005493146210964383,
      -0.021872703129355853,
      -0.0011216282515029016,
      0.02830509858615112,
      -0.011862654093857856,
      -0.0056094890133830165,
      -0.0045870021321508725,
      -0.01624078782140668,
      0.0041262358917080995,
      -0.0035941981452143924,
      0.009895527877378324,
      0.006607170691139886,
      -0.012292601307543507,
      -0.0075122442868561885,
      -0.008314795803183955,
      0.005617552158942174,
      0.014639961494202125,
      0.015205385870933152,
      0.0059183964943161915,
      -0.009204803903387812,
      0.014722173679402551,
      -0.006651673278587206,
      0.015115807727062747,
      -0.02437553544917945,
      -0.0018282365912237204
    ],
    "complete_weight_vector": [
      0.000762016525030956,
      -0.004164281197263804,
      0.0258735742608636,
      0.007761298134066905,
      -0.013073476179428264,
      -0.022729703865691894,
      0.011868236393229656,
      0.05702522682785732,
      0.017096999715698065,
      -0.057649111141510126,
      -0.007083894944488256,
      -0.0496017539366252,
      0.01733259210521152,
      0.03180544311048614,
      0.0008831267501930135,
      0.01250942978291361,
      0.00800399387197912,
      0.02644153100061274,
      -0.06001848631227624,
      -0.03620043464514527,
      0.008308867163225719,
      -0.0479200766074076,
      -0.008840261007723026,
      -0.018376066203942384,
      -0.0031533573968622673,
      -0.0016724122884532934,
      -0.00812221634218946,
      0.016533667328315287,
      0.03821598134660847,
      0.0002540502975224928,
      -0.010481039121314767,
      0.037862945264102145,
      -0.045797285849921585,
      0.07141981602940115,
      0.03536433069518973,
      0.038326376495636354,
      0.05227247913639479,
      -0.005493146210964383,
      -0.021872703129355853,
      -0.0011216282515029016,
      0.02830509858615112,
      -0.011862654093857856,
      -0.0056094890133830165,
      -0.0045870021321508725,
      -0.01624078782140668,
      0.0041262358917080995,
      -0.0035941981452143924,
      0.009895527877378324,
      0.006607170691139886,
      -0.012292601307543507,
      -0.0075122442868561885,
      -0.008314795803183955,
      0.005617552158942174,
      0.014639961494202125,
      0.015205385870933152,
      0.0059183964943161915,
      -0.009204803903387812,
      0.014722173679402551,
      -0.006651673278587206,
      0.015115807727062747,
      -0.02437553544917945,
      -0.0018282365912237204,
      3.32940196573672
    ],
    "weights_stats": {
      "min": -0.06001848631227624,
      "max": 0.07141981602940115,
      "mean": 0.0016230634878666766,
      "std": 0.025597197190743628
    }
  },
  "convergence_analysis": {
    "epochs_to_converge": 100,
    "final_cost_change": -1.9207860518151385,
    "convergence_rate": "sublinear",
    "cost_reduction_ratio": 2.0579115648796207
  },
  "algorithm_specific": {
    "method_type": "stochastic_gradient_descent",
    "batch_processing": true,
    "batch_size": 25000,
    "epoch_based_training": true,
    "data_shuffling": true,
    "noisy_gradients": "inherent_in_SGD",
    "convergence_type": "probabilistic",
    "learning_rate_schedule": "constant",
    "adaptive_learning_rate": false
  }
}