{
  "algorithm": "Gradient Descent - OLS",
  "loss_function": "OLS",
  "parameters": {
    "learning_rate": 0.1,
    "max_iterations": 10000,
    "tolerance": 1e-05,
    "step_size_method": "decreasing_linear"
  },
  "training_results": {
    "training_time": 83.17873978614807,
    "converged": false,
    "final_iteration": 10000,
    "total_iterations": 10000,
    "final_loss": 7.141140711570102,
    "final_gradient_norm": 3.7747249838710837
  },
  "weights_analysis": {
    "n_features": 62,
    "n_weights_total": 63,
    "bias_value": 6.342732972858121,
    "weights_without_bias": [
      -0.004689468990804807,
      -0.004406698946767619,
      0.006656956619251211,
      -0.004426572170569834,
      -0.011885936163860699,
      -0.02139993061309654,
      0.010357375109550775,
      0.03917305399638364,
      0.003948263790024616,
      -0.08078521305534518,
      -0.015881915036674746,
      -0.05902834840851646,
      0.01709500118132657,
      0.05732906622675916,
      0.0037987611778853387,
      -0.0019049170061309186,
      -0.004188523140057488,
      0.013189621118970292,
      -0.05986338926399994,
      -0.014947254570453802,
      0.0038043470066202387,
      -0.041144216646232974,
      -0.011262597741020963,
      0.00920833364698701,
      0.0023937504206661218,
      0.0017806222429104326,
      0.004422842559022594,
      0.020064887983148445,
      0.06969008480144209,
      -0.00011843505257538365,
      -0.008451757984926618,
      0.01779580903018377,
      -0.04587434838116875,
      0.11851741782839362,
      0.025946962683277657,
      0.06565217078564155,
      0.05565528251737372,
      0.003272727417252786,
      -0.017453445227560763,
      -0.006121928116320174,
      0.014378195636762342,
      -0.018596270440843794,
      -0.01167707596562095,
      -0.006889637046024732,
      -0.000835692765144324,
      0.00890672044393034,
      -0.0030871339330073677,
      -4.5360292619866874e-05,
      -0.005949985963678586,
      -0.0041728712836143,
      -0.01551094150718774,
      -0.010562404267991793,
      0.003777292026921659,
      0.012631629097889181,
      0.005477762706349714,
      0.0038593277659734137,
      0.0004443653333595131,
      0.03047577319597403,
      -0.02808217856894353,
      0.008260267601556218,
      -0.021557980592356318,
      -0.0035578900839606112
    ],
    "complete_weight_vector": [
      -0.004689468990804807,
      -0.004406698946767619,
      0.006656956619251211,
      -0.004426572170569834,
      -0.011885936163860699,
      -0.02139993061309654,
      0.010357375109550775,
      0.03917305399638364,
      0.003948263790024616,
      -0.08078521305534518,
      -0.015881915036674746,
      -0.05902834840851646,
      0.01709500118132657,
      0.05732906622675916,
      0.0037987611778853387,
      -0.0019049170061309186,
      -0.004188523140057488,
      0.013189621118970292,
      -0.05986338926399994,
      -0.014947254570453802,
      0.0038043470066202387,
      -0.041144216646232974,
      -0.011262597741020963,
      0.00920833364698701,
      0.0023937504206661218,
      0.0017806222429104326,
      0.004422842559022594,
      0.020064887983148445,
      0.06969008480144209,
      -0.00011843505257538365,
      -0.008451757984926618,
      0.01779580903018377,
      -0.04587434838116875,
      0.11851741782839362,
      0.025946962683277657,
      0.06565217078564155,
      0.05565528251737372,
      0.003272727417252786,
      -0.017453445227560763,
      -0.006121928116320174,
      0.014378195636762342,
      -0.018596270440843794,
      -0.01167707596562095,
      -0.006889637046024732,
      -0.000835692765144324,
      0.00890672044393034,
      -0.0030871339330073677,
      -4.5360292619866874e-05,
      -0.005949985963678586,
      -0.0041728712836143,
      -0.01551094150718774,
      -0.010562404267991793,
      0.003777292026921659,
      0.012631629097889181,
      0.005477762706349714,
      0.0038593277659734137,
      0.0004443653333595131,
      0.03047577319597403,
      -0.02808217856894353,
      0.008260267601556218,
      -0.021557980592356318,
      -0.0035578900839606112,
      6.342732972858121
    ],
    "weights_stats": {
      "min": -0.08078521305534518,
      "max": 0.11851741782839362,
      "mean": 0.0015097476245921038,
      "std": 0.03004600085781129
    }
  },
  "convergence_analysis": {
    "iterations_to_converge": 10000,
    "final_cost_change": -0.014333736225185412,
    "convergence_rate": "linear",
    "loss_reduction_ratio": 2.5061510336453394
  },
  "algorithm_specific": {
    "gradient_descent_type": "standard",
    "step_size_method": "decreasing_linear",
    "step_size_constant": false,
    "momentum_used": false,
    "backtracking_parameters": null,
    "adaptive_parameters": null
  }
}