{
  "algorithm": "Gradient Descent - RIDGE",
  "loss_function": "RIDGE",
  "parameters": {
    "learning_rate": 0.1,
    "max_iterations": 10000,
    "tolerance": 1e-05,
    "step_size_method": "constant",
    "regularization": 0.01
  },
  "training_results": {
    "training_time": 74.42571139335632,
    "converged": true,
    "final_iteration": 3700,
    "total_iterations": 10000,
    "final_loss": 0.012756610008323042,
    "final_gradient_norm": 9.490529751362532e-06,
    "best_iteration": 3600,
    "best_loss": 0.012756610008323042,
    "best_gradient_norm": 9.490529751362532e-06,
    "improvement_from_final": {
      "loss_improvement": 0.0,
      "gradient_improvement": 0.0,
      "iterations_earlier": 100
    }
  },
  "weights_analysis": {
    "n_features": 62,
    "n_weights_total": 63,
    "bias_value": 10.117570372241088,
    "weights_without_bias": [
      0.0039765639455689155,
      0.0020298972601566086,
      0.010478108262108063,
      -0.014949374555025517,
      -0.0010905855709342897,
      -0.0013646748316573794,
      0.0027407795214796833,
      0.08032794448699325,
      -0.003822339413531672,
      -0.23393264069330846,
      -0.01040718012757469,
      -0.009553561230401712,
      0.010064746537676956,
      0.09519416245037292,
      0.0002073436645007938,
      0.00030408038737291746,
      0.0002805794856351241,
      0.013331620737751996,
      -0.09560544866958147,
      0.07898843712140075,
      0.017468621356125532,
      0.04777722361119297,
      0.006130953033250629,
      0.0034234341694478225,
      -0.004791789150846537,
      0.0010998330978883755,
      0.009131235880463344,
      0.02537548705393972,
      0.032598873128428296,
      -0.00560550811524193,
      -0.001504773810840728,
      0.011551383455317489,
      0.04835735016442266,
      0.21553925241206276,
      -0.003982965430342629,
      0.047223979725572185,
      0.052459294589239286,
      -0.006948929831379041,
      -0.018589281231086715,
      -0.009578348431436583,
      -0.03214264268491092,
      -0.03251292294819148,
      -0.022121136256967967,
      -0.0012271974674771678,
      -0.008554488252897273,
      -0.012107100360072325,
      -0.0004970470455088208,
      0.011494553802180476,
      -0.005041021221468773,
      -0.015323294117765294,
      -0.01662189898456862,
      -0.0012442124140838512,
      -0.0005128048384695774,
      0.0005861358406834136,
      -0.0001038809710280068,
      0.003685671030427802,
      0.0033179482588539602,
      0.003901261969172113,
      -0.013880666503878451,
      -0.00393030595476955,
      -0.03387667747907539,
      -0.009235315385468052
    ],
    "complete_weight_vector": [
      0.0039765639455689155,
      0.0020298972601566086,
      0.010478108262108063,
      -0.014949374555025517,
      -0.0010905855709342897,
      -0.0013646748316573794,
      0.0027407795214796833,
      0.08032794448699325,
      -0.003822339413531672,
      -0.23393264069330846,
      -0.01040718012757469,
      -0.009553561230401712,
      0.010064746537676956,
      0.09519416245037292,
      0.0002073436645007938,
      0.00030408038737291746,
      0.0002805794856351241,
      0.013331620737751996,
      -0.09560544866958147,
      0.07898843712140075,
      0.017468621356125532,
      0.04777722361119297,
      0.006130953033250629,
      0.0034234341694478225,
      -0.004791789150846537,
      0.0010998330978883755,
      0.009131235880463344,
      0.02537548705393972,
      0.032598873128428296,
      -0.00560550811524193,
      -0.001504773810840728,
      0.011551383455317489,
      0.04835735016442266,
      0.21553925241206276,
      -0.003982965430342629,
      0.047223979725572185,
      0.052459294589239286,
      -0.006948929831379041,
      -0.018589281231086715,
      -0.009578348431436583,
      -0.03214264268491092,
      -0.03251292294819148,
      -0.022121136256967967,
      -0.0012271974674771678,
      -0.008554488252897273,
      -0.012107100360072325,
      -0.0004970470455088208,
      0.011494553802180476,
      -0.005041021221468773,
      -0.015323294117765294,
      -0.01662189898456862,
      -0.0012442124140838512,
      -0.0005128048384695774,
      0.0005861358406834136,
      -0.0001038809710280068,
      0.003685671030427802,
      0.0033179482588539602,
      0.003901261969172113,
      -0.013880666503878451,
      -0.00393030595476955,
      -0.03387667747907539,
      -0.009235315385468052,
      10.117570372241088
    ],
    "weights_stats": {
      "min": -0.23393264069330846,
      "max": 0.21553925241206276,
      "mean": 0.0033610764912886445,
      "std": 0.04912552228161573
    }
  },
  "convergence_analysis": {
    "iterations_to_converge": 3700,
    "best_iteration_found": 3600,
    "final_cost_change": -9.962041816469203e-10,
    "convergence_rate": "linear",
    "loss_reduction_ratio": 1.036009358833844
  },
  "algorithm_specific": {
    "gradient_descent_type": "standard",
    "step_size_method": "constant",
    "step_size_constant": true,
    "momentum_used": false,
    "returns_best_result": true,
    "backtracking_parameters": null,
    "adaptive_parameters": null
  },
  "computational_complexity": {
    "basic_metrics": {
      "function_evaluations": 37,
      "gradient_evaluations": 3700,
      "matrix_vector_multiplications": 0,
      "vector_operations": 3737,
      "memory_allocations": 3700,
      "peak_memory_size": 63,
      "total_operations": 46857037762
    },
    "iterations": {
      "total_iterations": 3699,
      "final_iteration": 3700,
      "converged": true,
      "convergence_iteration": 3700
    },
    "per_iteration_averages": {
      "function_evaluations_per_iter": 0.010002703433360368,
      "gradient_evaluations_per_iter": 1.0002703433360367,
      "operations_per_iter": 12667487.905379832,
      "matrix_operations_per_iter": 0.0
    },
    "efficiency_metrics": {
      "operations_to_convergence": 46838037573,
      "convergence_efficiency": 1.0,
      "operations_per_convergence_iter": 12664064.26
    },
    "scalability_metrics": {
      "problem_size": {
        "n_samples": 100000,
        "n_features": 62
      },
      "problem_complexity_factor": 6200000,
      "operations_per_problem_unit": 7557.5867358064515,
      "memory_efficiency": 0.0006296096420219464,
      "theoretical_complexity": "O(100000*62*3699)"
    },
    "operation_distribution": {
      "function_eval_percentage": 7.89635917403344e-08,
      "gradient_eval_percentage": 7.89635917403344e-06,
      "matrix_ops_percentage": 0.0,
      "vector_ops_percentage": 7.975322765773773e-06
    }
  }
}