{
  "algorithm": "Damped Newton Method - OLS",
  "loss_function": "OLS",
  "parameters": {
    "regularization": 0.01,
    "numerical_regularization": 1e-08,
    "max_iterations": 10000,
    "tolerance": 1e-08,
    "armijo_c1": 0.001,
    "backtrack_rho": 0.5,
    "max_line_search_iter": 50
  },
  "training_results": {
    "training_time": 1.1289196014404297,
    "converged": true,
    "final_iteration": 10,
    "total_iterations": 10000,
    "final_loss": 0.011924579973549463,
    "final_gradient_norm": 4.415907274601993e-11
  },
  "weights_analysis": {
    "n_features": 62,
    "n_weights_total": 63,
    "bias_value": 10.117576831346886,
    "weights_without_bias": [
      0.028094581694009253,
      0.0014917853642735222,
      0.01151886923748845,
      -0.02957827819268664,
      -0.004059636824422589,
      -0.011976541213283358,
      -0.021416149304075885,
      0.0836357209348861,
      0.0038971932195557917,
      -0.28611260673485567,
      -0.010691466954824771,
      -0.0057235914422060176,
      0.010001406193972079,
      0.07874240672101067,
      0.008834713789004488,
      -0.01430725432236767,
      0.007131246196493919,
      0.016223023644389975,
      -0.09243256424721318,
      0.07748822914584143,
      0.014095860206702998,
      0.07109162688275908,
      0.00572432837782088,
      0.005602084158720145,
      0.001684250658292062,
      0.0017794671237622555,
      0.009109178015221743,
      0.02587062317965807,
      0.027790538703220066,
      0.006880931595462619,
      -0.003975146935951299,
      -0.006692614053528607,
      0.0715171049482194,
      0.21975651992681008,
      -0.00550452587148146,
      0.011580111084255685,
      0.08663003691676546,
      -0.01469654708810396,
      -0.027960233985765713,
      -0.018676424246067348,
      -0.05315015073377725,
      -0.05570464511397098,
      -0.05010661815891017,
      -0.007504543470413713,
      -0.015117194769746121,
      -0.013437150852885897,
      -0.0005254693845782647,
      0.011860057242627123,
      -0.018175326292952345,
      -0.015542649796468584,
      -0.01703961811822666,
      0.0003496742620834526,
      -0.0004358977432073635,
      0.0006238835959427392,
      0.0010815784790779786,
      0.0034482424874011596,
      0.00314574241695504,
      0.0032328125999397314,
      -0.014044449413607446,
      -0.0052065698572784196,
      -0.03526956750263771,
      -0.01096975587947115
    ],
    "complete_weight_vector": [
      0.028094581694009253,
      0.0014917853642735222,
      0.01151886923748845,
      -0.02957827819268664,
      -0.004059636824422589,
      -0.011976541213283358,
      -0.021416149304075885,
      0.0836357209348861,
      0.0038971932195557917,
      -0.28611260673485567,
      -0.010691466954824771,
      -0.0057235914422060176,
      0.010001406193972079,
      0.07874240672101067,
      0.008834713789004488,
      -0.01430725432236767,
      0.007131246196493919,
      0.016223023644389975,
      -0.09243256424721318,
      0.07748822914584143,
      0.014095860206702998,
      0.07109162688275908,
      0.00572432837782088,
      0.005602084158720145,
      0.001684250658292062,
      0.0017794671237622555,
      0.009109178015221743,
      0.02587062317965807,
      0.027790538703220066,
      0.006880931595462619,
      -0.003975146935951299,
      -0.006692614053528607,
      0.0715171049482194,
      0.21975651992681008,
      -0.00550452587148146,
      0.011580111084255685,
      0.08663003691676546,
      -0.01469654708810396,
      -0.027960233985765713,
      -0.018676424246067348,
      -0.05315015073377725,
      -0.05570464511397098,
      -0.05010661815891017,
      -0.007504543470413713,
      -0.015117194769746121,
      -0.013437150852885897,
      -0.0005254693845782647,
      0.011860057242627123,
      -0.018175326292952345,
      -0.015542649796468584,
      -0.01703961811822666,
      0.0003496742620834526,
      -0.0004358977432073635,
      0.0006238835959427392,
      0.0010815784790779786,
      0.0034482424874011596,
      0.00314574241695504,
      0.0032328125999397314,
      -0.014044449413607446,
      -0.0052065698572784196,
      -0.03526956750263771,
      -0.01096975587947115,
      10.117576831346886
    ],
    "weights_stats": {
      "min": -0.28611260673485567,
      "max": 0.21975651992681008,
      "mean": 0.0007077522660912463,
      "std": 0.05590289955749141
    }
  },
  "convergence_analysis": {
    "iterations_to_converge": 10,
    "final_cost_change": 0.0,
    "convergence_rate": "superlinear",
    "loss_reduction_ratio": 1.0,
    "convergence_quality": "damped_superlinear"
  },
  "numerical_analysis": {
    "hessian_condition_number": 954610051.7705601,
    "average_step_size": 1.0,
    "max_step_size": 1.0,
    "min_step_size": 1.0,
    "step_size_stability": "line_search_controlled",
    "regularization_effect": "Applied for numerical stability"
  },
  "line_search_analysis": {
    "average_backtracks": 0.0,
    "max_backtracks": 0,
    "min_backtracks": 0,
    "total_line_search_calls": 9,
    "line_search_success_rate": "100%"
  },
  "algorithm_specific": {
    "method_type": "damped_newton",
    "second_order_method": true,
    "hessian_computation": "exact",
    "line_search_used": true,
    "line_search_type": "backtracking_armijo",
    "damping_applied": "line_search_based",
    "fast_convergence": true,
    "globalization_strategy": "armijo_line_search",
    "step_size_strategy": "adaptive",
    "fixed_learning_rate": null
  }
}