{
  "algorithm": "Gradient Descent - OLS",
  "loss_function": "OLS",
  "parameters": {
    "learning_rate": 0.001,
    "max_iterations": 10000,
    "tolerance": 1e-05,
    "step_size_method": "constant"
  },
  "training_results": {
    "training_time": 52.53182530403137,
    "converged": false,
    "final_iteration": 10000,
    "total_iterations": 10000,
    "final_loss": 0.012575252785105094,
    "final_gradient_norm": 0.009454996315383518
  },
  "weights_analysis": {
    "n_features": 62,
    "n_weights_total": 63,
    "bias_value": 10.11704813231264,
    "weights_without_bias": [
      0.00284629824197983,
      -0.0071093704601965955,
      0.009442063864488717,
      -0.00843771590672676,
      -0.0007732049829461618,
      -0.00169644465478176,
      0.01763369384681583,
      0.0742081244793832,
      -0.004391561897896949,
      -0.148414147861203,
      -0.011561761427410645,
      -0.020201530546120335,
      0.01007909383185598,
      0.08661296854617719,
      0.007467596435455232,
      -0.013551483179884468,
      -0.004166819668011122,
      0.0060209708524665085,
      -0.10897087921291705,
      0.06078119235847678,
      0.02663687321433835,
      0.011143342094026487,
      0.008698154529962815,
      -0.0008938316282212056,
      -0.002713502037660698,
      0.009580751911889299,
      0.009299352118230794,
      0.02409542368416963,
      0.04903805450605961,
      -0.007387962337048858,
      -0.008708150991064225,
      0.012100942213303257,
      0.001989327100830272,
      0.21450051753878613,
      -0.0040344887582362985,
      0.05873850472465872,
      0.046031160605313134,
      0.0004034492468586505,
      -0.009838819333247354,
      9.630168964238e-06,
      -0.012581072820148788,
      -0.011047447094840717,
      0.006487501322951037,
      0.006615494668837472,
      -0.0023687601056696377,
      -0.016899591455356147,
      -0.00042559346539033574,
      0.010636447958465753,
      -0.007844928701778643,
      -0.013992716753178714,
      -0.016548822032239032,
      0.006221693108518248,
      -0.0006102626889543142,
      0.000548873063694519,
      -0.0017991352151953282,
      0.004239954298411045,
      0.003743021834245475,
      0.004941368420898176,
      -0.014444724257081501,
      -0.003421647908941796,
      -0.032788268721885665,
      -0.00946689180019659
    ],
    "complete_weight_vector": [
      0.00284629824197983,
      -0.0071093704601965955,
      0.009442063864488717,
      -0.00843771590672676,
      -0.0007732049829461618,
      -0.00169644465478176,
      0.01763369384681583,
      0.0742081244793832,
      -0.004391561897896949,
      -0.148414147861203,
      -0.011561761427410645,
      -0.020201530546120335,
      0.01007909383185598,
      0.08661296854617719,
      0.007467596435455232,
      -0.013551483179884468,
      -0.004166819668011122,
      0.0060209708524665085,
      -0.10897087921291705,
      0.06078119235847678,
      0.02663687321433835,
      0.011143342094026487,
      0.008698154529962815,
      -0.0008938316282212056,
      -0.002713502037660698,
      0.009580751911889299,
      0.009299352118230794,
      0.02409542368416963,
      0.04903805450605961,
      -0.007387962337048858,
      -0.008708150991064225,
      0.012100942213303257,
      0.001989327100830272,
      0.21450051753878613,
      -0.0040344887582362985,
      0.05873850472465872,
      0.046031160605313134,
      0.0004034492468586505,
      -0.009838819333247354,
      9.630168964238e-06,
      -0.012581072820148788,
      -0.011047447094840717,
      0.006487501322951037,
      0.006615494668837472,
      -0.0023687601056696377,
      -0.016899591455356147,
      -0.00042559346539033574,
      0.010636447958465753,
      -0.007844928701778643,
      -0.013992716753178714,
      -0.016548822032239032,
      0.006221693108518248,
      -0.0006102626889543142,
      0.000548873063694519,
      -0.0017991352151953282,
      0.004239954298411045,
      0.003743021834245475,
      0.004941368420898176,
      -0.014444724257081501,
      -0.003421647908941796,
      -0.032788268721885665,
      -0.00946689180019659,
      10.11704813231264
    ],
    "weights_stats": {
      "min": -0.148414147861203,
      "max": 0.21450051753878613,
      "mean": 0.004575811336872284,
      "std": 0.04205143383522766
    }
  },
  "convergence_analysis": {
    "iterations_to_converge": 10000,
    "final_cost_change": -9.04116302071628e-06,
    "convergence_rate": "linear",
    "loss_reduction_ratio": 3331.8673934979315
  },
  "algorithm_specific": {
    "gradient_descent_type": "standard",
    "step_size_method": "constant",
    "step_size_constant": true,
    "momentum_used": false,
    "backtracking_parameters": null,
    "adaptive_parameters": null
  }
}