{
  "algorithm": "Gradient Descent - OLS",
  "loss_function": "OLS",
  "parameters": {
    "learning_rate": 0.001,
    "max_iterations": 100000,
    "tolerance": 1e-05,
    "step_size_method": "constant"
  },
  "training_results": {
    "training_time": 546.6649971008301,
    "converged": false,
    "final_iteration": 100000,
    "total_iterations": 100000,
    "final_loss": 0.011935185085680323,
    "final_gradient_norm": 0.0005793476180165201
  },
  "weights_analysis": {
    "n_features": 62,
    "n_weights_total": 63,
    "bias_value": 10.11757392263868,
    "weights_without_bias": [
      -0.0003933895074762619,
      -0.002906792808675288,
      0.010897929901123255,
      -0.01899961906402919,
      -0.0016224419894633722,
      -0.0026708405860783086,
      -0.011995417036973743,
      0.08432369525520526,
      -0.0020952383450345397,
      -0.26991380984562274,
      -0.010609681020691878,
      -0.005647917186263881,
      0.010068505196977058,
      0.09040103386900519,
      0.012728064277818535,
      -0.009058237497594384,
      -0.0005357520021478779,
      0.015895070505394304,
      -0.09302428212460653,
      0.08274345394977912,
      0.01484394302047489,
      0.06568049930022869,
      0.005657549486623581,
      0.02218631392096234,
      -0.004052586507727534,
      0.00636792308187588,
      0.009138264452391597,
      0.025860884390543477,
      0.02819082137977562,
      -0.011980836595505032,
      -0.010686276965160403,
      0.008551755851494178,
      0.06390467422317743,
      0.21947895340217313,
      -0.005387420342867786,
      0.03999177723714739,
      0.05807580162278324,
      -0.009912322662021163,
      -0.02184577517217031,
      -0.012656402404869281,
      -0.040098764499892234,
      -0.04058289831693902,
      -0.03207906606150126,
      -0.0034836529648550442,
      -0.0108316613519452,
      -0.013158342243866725,
      -0.000523958644634059,
      0.011642970668456327,
      0.0008093138034408424,
      -0.015916295902224036,
      -0.0175880850138334,
      0.007119817327701066,
      -0.0004551694191035018,
      0.0006025326529650459,
      0.0001083439442599444,
      0.003535109127259314,
      0.0031863150712695587,
      0.003543700183660876,
      -0.013984777136320764,
      -0.005101432506973376,
      -0.03507421807855103,
      -0.010041217603412308
    ],
    "complete_weight_vector": [
      -0.0003933895074762619,
      -0.002906792808675288,
      0.010897929901123255,
      -0.01899961906402919,
      -0.0016224419894633722,
      -0.0026708405860783086,
      -0.011995417036973743,
      0.08432369525520526,
      -0.0020952383450345397,
      -0.26991380984562274,
      -0.010609681020691878,
      -0.005647917186263881,
      0.010068505196977058,
      0.09040103386900519,
      0.012728064277818535,
      -0.009058237497594384,
      -0.0005357520021478779,
      0.015895070505394304,
      -0.09302428212460653,
      0.08274345394977912,
      0.01484394302047489,
      0.06568049930022869,
      0.005657549486623581,
      0.02218631392096234,
      -0.004052586507727534,
      0.00636792308187588,
      0.009138264452391597,
      0.025860884390543477,
      0.02819082137977562,
      -0.011980836595505032,
      -0.010686276965160403,
      0.008551755851494178,
      0.06390467422317743,
      0.21947895340217313,
      -0.005387420342867786,
      0.03999177723714739,
      0.05807580162278324,
      -0.009912322662021163,
      -0.02184577517217031,
      -0.012656402404869281,
      -0.040098764499892234,
      -0.04058289831693902,
      -0.03207906606150126,
      -0.0034836529648550442,
      -0.0108316613519452,
      -0.013158342243866725,
      -0.000523958644634059,
      0.011642970668456327,
      0.0008093138034408424,
      -0.015916295902224036,
      -0.0175880850138334,
      0.007119817327701066,
      -0.0004551694191035018,
      0.0006025326529650459,
      0.0001083439442599444,
      0.003535109127259314,
      0.0031863150712695587,
      0.003543700183660876,
      -0.013984777136320764,
      -0.005101432506973376,
      -0.03507421807855103,
      -0.010041217603412308,
      10.11757392263868
    ],
    "weights_stats": {
      "min": -0.26991380984562274,
      "max": 0.21947895340217313,
      "mean": 0.002590652220886059,
      "std": 0.05335808172816286
    }
  },
  "convergence_analysis": {
    "iterations_to_converge": 100000,
    "final_cost_change": -3.362452219955736e-08,
    "convergence_rate": "linear",
    "loss_reduction_ratio": 3515.1080056530695
  },
  "algorithm_specific": {
    "gradient_descent_type": "standard",
    "step_size_method": "constant",
    "step_size_constant": true,
    "momentum_used": false,
    "backtracking_parameters": null,
    "adaptive_parameters": null
  }
}