{
  "algorithm": "Nesterov Accelerated Gradient Descent - OLS",
  "loss_function": "OLS",
  "parameters": {
    "learning_rate": 0.01,
    "momentum": 0.9,
    "max_iterations": 10000,
    "tolerance": 1e-05
  },
  "training_results": {
    "training_time": 36.08161163330078,
    "converged": true,
    "final_iteration": 500,
    "total_iterations": 10000,
    "final_loss": 10000000000.0,
    "final_gradient_norm": 0.0,
    "final_velocity_norm": 10000000000.0
  },
  "weights_analysis": {
    "n_features": 62,
    "n_weights_total": 63,
    "bias_value": 4.864199267427677e+303,
    "weights_without_bias": [
      2.1631621486624116e+306,
      3.5995009789638394e+306,
      -3.2195584173343737e+305,
      -7.560004667416038e+306,
      -2.1833981269169994e+306,
      -8.439581025866392e+306,
      8.684896557796045e+305,
      2.8132836316273715e+306,
      1.8655183104125255e+307,
      -1.7632722668395227e+307,
      2.1648890824060996e+306,
      -1.1841088780784284e+307,
      -3.108086088823656e+305,
      1.619875813687592e+307,
      1.841357614392546e+307,
      1.841357614392546e+307,
      1.8413576143925458e+307,
      1.8422377688336373e+307,
      -1.619875813687592e+307,
      -1.0516899735996376e+307,
      -3.4736062270292394e+306,
      -1.8125190809483988e+307,
      -2.0607044005549272e+306,
      1.5782969556017462e+306,
      -4.255191764364661e+306,
      3.5995009789638394e+306,
      -3.272645315788727e+306,
      4.017512456699902e+304,
      2.7168103678945064e+306,
      1.2854213137869136e+306,
      1.2919785105101995e+306,
      1.0788261596722348e+307,
      -1.8125190809483988e+307,
      1.4321473926889347e+307,
      2.42843107688932e+306,
      6.40189854663023e+306,
      6.412548496161198e+306,
      -1.3919720539045837e+306,
      -9.042418453636334e+305,
      -1.399722906090963e+306,
      2.788641529361314e+306,
      -4.125730484304885e+306,
      3.299397249523586e+306,
      1.4178387310752928e+305,
      -1.506912205351013e+306,
      -8.235242134390457e+305,
      -3.6128499937540093e+304,
      4.41051177206261e+305,
      1.2854213137869136e+306,
      -1.9266734783811497e+306,
      -1.7918024923724972e+304,
      1.2919785105101995e+306,
      -7.743977749302002e+305,
      8.11262152923066e+305,
      1.1967646395241989e+306,
      1.548337498549346e+306,
      -5.9604561611595e+303,
      -2.4691526584545886e+306,
      1.0699665451192827e+306,
      1.1777404246079665e+306,
      -2.175572812681214e+306,
      -2.1455217376498197e+306
    ],
    "complete_weight_vector": [
      2.1631621486624116e+306,
      3.5995009789638394e+306,
      -3.2195584173343737e+305,
      -7.560004667416038e+306,
      -2.1833981269169994e+306,
      -8.439581025866392e+306,
      8.684896557796045e+305,
      2.8132836316273715e+306,
      1.8655183104125255e+307,
      -1.7632722668395227e+307,
      2.1648890824060996e+306,
      -1.1841088780784284e+307,
      -3.108086088823656e+305,
      1.619875813687592e+307,
      1.841357614392546e+307,
      1.841357614392546e+307,
      1.8413576143925458e+307,
      1.8422377688336373e+307,
      -1.619875813687592e+307,
      -1.0516899735996376e+307,
      -3.4736062270292394e+306,
      -1.8125190809483988e+307,
      -2.0607044005549272e+306,
      1.5782969556017462e+306,
      -4.255191764364661e+306,
      3.5995009789638394e+306,
      -3.272645315788727e+306,
      4.017512456699902e+304,
      2.7168103678945064e+306,
      1.2854213137869136e+306,
      1.2919785105101995e+306,
      1.0788261596722348e+307,
      -1.8125190809483988e+307,
      1.4321473926889347e+307,
      2.42843107688932e+306,
      6.40189854663023e+306,
      6.412548496161198e+306,
      -1.3919720539045837e+306,
      -9.042418453636334e+305,
      -1.399722906090963e+306,
      2.788641529361314e+306,
      -4.125730484304885e+306,
      3.299397249523586e+306,
      1.4178387310752928e+305,
      -1.506912205351013e+306,
      -8.235242134390457e+305,
      -3.6128499937540093e+304,
      4.41051177206261e+305,
      1.2854213137869136e+306,
      -1.9266734783811497e+306,
      -1.7918024923724972e+304,
      1.2919785105101995e+306,
      -7.743977749302002e+305,
      8.11262152923066e+305,
      1.1967646395241989e+306,
      1.548337498549346e+306,
      -5.9604561611595e+303,
      -2.4691526584545886e+306,
      1.0699665451192827e+306,
      1.1777404246079665e+306,
      -2.175572812681214e+306,
      -2.1455217376498197e+306,
      4.864199267427677e+303
    ],
    "weights_stats": {
      "min": -1.8125190809483988e+307,
      "max": 1.8655183104125255e+307,
      "mean": 6.777796547781204e+305,
      "std": Infinity
    },
    "velocity_analysis": {
      "final_velocity": [
        -1.568851811200386e+303,
        -2.610568994738845e+303,
        2.3350111250900537e+302,
        5.482958317812365e+303,
        1.583528245855208e+303,
        6.120878620661789e+303,
        -6.298794548502261e+302,
        -2.0403582520300028e+303,
        -1.3529831754351896e+304,
        1.2788283535271777e+304,
        -1.5701044202521375e+303,
        8.587851323822093e+303,
        2.2541660098522682e+302,
        -1.1748288445486356e+304,
        -1.3354604229887194e+304,
        -1.3354604229887194e+304,
        -1.3354604229887187e+304,
        -1.3360987629145384e+304,
        1.1748288445486356e+304,
        7.627471845890978e+303,
        2.5192627433146906e+303,
        1.3145450285912617e+304,
        1.4945435576091373e+303,
        -1.1446732997589759e+303,
        3.086114361614585e+303,
        -2.610568994738845e+303,
        2.3735141137912055e+303,
        -2.9137381720763055e+301,
        -1.9703901876431123e+303,
        -9.322628027917463e+302,
        -9.3701847400666e+302,
        -7.824279379904505e+303,
        1.3145450285912617e+304,
        -1.0386772041728654e+304,
        -1.7612405745236934e+303,
        -4.643032021080558e+303,
        -4.6507559883949844e+303,
        1.0095396745878642e+303,
        6.55809209219718e+302,
        1.0151610502335721e+303,
        -2.022486308355441e+303,
        2.992221533605492e+303,
        -2.3929161948177595e+303,
        -1.0282997891770147e+302,
        1.0929010397926567e+303,
        5.972678857248845e+302,
        2.620250391494672e+301,
        -3.1987617436454258e+302,
        -9.322628027917463e+302,
        1.3973364457465987e+303,
        1.2995217472697734e+301,
        -9.3701847400666e+302,
        5.616386334925225e+302,
        -5.883748488620796e+302,
        -8.679638856894312e+302,
        -1.1229450023281188e+303,
        4.322883191627447e+300,
        1.7907741747395477e+303,
        -7.76002466743694e+302,
        -8.541663622298317e+302,
        1.577852961231031e+303,
        1.5560580431858815e+303,
        -3.527802209298798e+300
      ],
      "velocity_stats": {
        "min": -1.3529831754351896e+304,
        "max": 1.3145450285912617e+304,
        "mean": -4.915655232988327e+302,
        "std": Infinity
      }
    }
  },
  "convergence_analysis": {
    "iterations_to_converge": 500,
    "final_cost_change": 0.0,
    "convergence_rate": "superlinear",
    "loss_reduction_ratio": 4.5318687807137274e+179,
    "velocity_contribution": "accelerated_convergence_with_lookahead"
  },
  "algorithm_specific": {
    "gradient_descent_type": "nesterov_accelerated",
    "momentum_coefficient": 0.9,
    "step_size_constant": true,
    "acceleration_used": true,
    "nesterov_lookahead": true,
    "momentum_description": "Nesterov acceleration with look-ahead gradient computation"
  }
}