{
  "algorithm": "Stochastic Gradient Descent - OLS",
  "loss_function": "OLS",
  "parameters": {
    "learning_rate": 0.01,
    "max_epochs": 100,
    "batch_size": 64,
    "tolerance": 1e-05,
    "learning_rate_schedule": "constant",
    "momentum": 0.0,
    "random_state": 42,
    "shuffle_each_epoch": true,
    "randomize_each_epoch": false
  },
  "training_results": {
    "training_time": 52.1496524810791,
    "converged": false,
    "final_epoch": 100,
    "total_epochs": 100,
    "final_loss": 0.012057356358088845,
    "final_gradient_norm": 0.007642635415580427,
    "best_epoch": 10,
    "best_loss": 0.012010804831991325,
    "best_gradient_norm": 0.007552799198683786,
    "improvement_from_final": {
      "loss_improvement": 4.655152609752029e-05,
      "gradient_improvement": 8.983621689664066e-05,
      "epochs_earlier": 90
    }
  },
  "weights_analysis": {
    "n_features": 62,
    "n_weights_total": 63,
    "bias_value": 10.117958100963026,
    "weights_without_bias": [
      0.005894171543735893,
      0.0003322876410110616,
      0.007557112544052081,
      -0.006038166986965465,
      0.0006432783982789814,
      0.007869892544609796,
      0.01566157009954255,
      0.08385259503541509,
      0.0014307319369654434,
      -0.2648803510619004,
      -0.009072628106083997,
      -0.002248830238074163,
      0.011458911409327643,
      0.08561957251883226,
      -0.005372040035342702,
      0.006254262997377919,
      0.0017488270864434506,
      0.009691786305671343,
      -0.1138326157206224,
      0.09638414461051185,
      0.016031868851434126,
      0.05891302703065845,
      0.0036436094949445015,
      -0.01380957182161001,
      -0.008612519909402972,
      0.0028241565498216183,
      0.00964740606921446,
      0.02496093430343854,
      0.02867643777973448,
      -0.009179776718835539,
      -0.004651543137581642,
      0.02678545713990047,
      0.061035817788144334,
      0.21371138607541426,
      -0.005321592035620259,
      0.04127175778474259,
      0.05863896827687684,
      -0.009987583121243144,
      -0.019343317726659686,
      -0.012375420148548203,
      -0.04109467352959622,
      -0.03992433459858805,
      -0.032227923446894007,
      -0.002727061059134607,
      -0.013444089155033059,
      -0.011453993277327346,
      -0.00036538005020349387,
      0.00879406331645631,
      -0.002826656325218157,
      -0.015403066013293686,
      -0.018777966347245774,
      -0.002485299819450925,
      -0.00035210431428247185,
      0.0008378449570768634,
      -0.0008315816048495019,
      0.0036464693723392305,
      0.0031969833230101885,
      0.004873803196763298,
      -0.01407264757235854,
      -0.006701535815097677,
      -0.034609783526399915,
      -0.012207527502561948
    ],
    "complete_weight_vector": [
      0.005894171543735893,
      0.0003322876410110616,
      0.007557112544052081,
      -0.006038166986965465,
      0.0006432783982789814,
      0.007869892544609796,
      0.01566157009954255,
      0.08385259503541509,
      0.0014307319369654434,
      -0.2648803510619004,
      -0.009072628106083997,
      -0.002248830238074163,
      0.011458911409327643,
      0.08561957251883226,
      -0.005372040035342702,
      0.006254262997377919,
      0.0017488270864434506,
      0.009691786305671343,
      -0.1138326157206224,
      0.09638414461051185,
      0.016031868851434126,
      0.05891302703065845,
      0.0036436094949445015,
      -0.01380957182161001,
      -0.008612519909402972,
      0.0028241565498216183,
      0.00964740606921446,
      0.02496093430343854,
      0.02867643777973448,
      -0.009179776718835539,
      -0.004651543137581642,
      0.02678545713990047,
      0.061035817788144334,
      0.21371138607541426,
      -0.005321592035620259,
      0.04127175778474259,
      0.05863896827687684,
      -0.009987583121243144,
      -0.019343317726659686,
      -0.012375420148548203,
      -0.04109467352959622,
      -0.03992433459858805,
      -0.032227923446894007,
      -0.002727061059134607,
      -0.013444089155033059,
      -0.011453993277327346,
      -0.00036538005020349387,
      0.00879406331645631,
      -0.002826656325218157,
      -0.015403066013293686,
      -0.018777966347245774,
      -0.002485299819450925,
      -0.00035210431428247185,
      0.0008378449570768634,
      -0.0008315816048495019,
      0.0036464693723392305,
      0.0031969833230101885,
      0.004873803196763298,
      -0.01407264757235854,
      -0.006701535815097677,
      -0.034609783526399915,
      -0.012207527502561948,
      10.117958100963026
    ],
    "weights_stats": {
      "min": -0.2648803510619004,
      "max": 0.21371138607541426,
      "mean": 0.0027041541170277415,
      "std": 0.053229792362408816
    }
  },
  "convergence_analysis": {
    "epochs_to_converge": 100,
    "best_epoch_found": 10,
    "final_cost_change": 7.188508075961844e-05,
    "convergence_rate": "sublinear",
    "loss_reduction_ratio": 1.220311763931117
  },
  "algorithm_specific": {
    "sgd_type": "mini_batch",
    "batch_size": 64,
    "learning_rate_schedule": "constant",
    "momentum_used": false,
    "momentum_value": null,
    "shuffling_strategy": {
      "shuffle_each_epoch": true,
      "randomize_each_epoch": false
    },
    "returns_best_result": true,
    "stochastic_variance": true
  },
  "computational_complexity": {
    "basic_metrics": {
      "function_evaluations": 10,
      "gradient_evaluations": 10000000,
      "matrix_vector_multiplications": 0,
      "vector_operations": 10468910,
      "memory_allocations": 156301,
      "peak_memory_size": 63,
      "total_operations": 1993388860
    },
    "iterations": {
      "total_iterations": 100,
      "final_iteration": 100,
      "converged": false,
      "convergence_iteration": null
    },
    "per_iteration_averages": {
      "function_evaluations_per_iter": 0.1,
      "gradient_evaluations_per_iter": 100000.0,
      "operations_per_iter": 19933888.6,
      "matrix_operations_per_iter": 0.0
    },
    "scalability_metrics": {
      "problem_size": {
        "n_samples": 100000,
        "n_features": 62
      },
      "problem_complexity_factor": 6200000,
      "operations_per_problem_unit": 321.51433225806454,
      "memory_efficiency": 0.0006296096420219464,
      "theoretical_complexity": "O(100000*62*100)"
    },
    "operation_distribution": {
      "function_eval_percentage": 5.016582665160474e-07,
      "gradient_eval_percentage": 0.5016582665160475,
      "matrix_ops_percentage": 0.0,
      "vector_ops_percentage": 0.5251815242912514
    }
  }
}