{
  "algorithm": "Gradient Descent - RIDGE",
  "loss_function": "RIDGE",
  "parameters": {
    "learning_rate": 0.5,
    "max_iterations": 500,
    "tolerance": 1e-05,
    "regularization": 0.01
  },
  "training_results": {
    "training_time": 3.148651123046875,
    "converged": false,
    "final_iteration": 500,
    "total_iterations": 500,
    "final_loss": Infinity,
    "final_gradient_norm": Infinity
  },
  "weights_analysis": {
    "n_features": 62,
    "n_weights_total": 63,
    "bias_value": -4.274629547362855e+283,
    "weights_without_bias": [
      -1.9031985002007034e+286,
      -3.1669215458387235e+286,
      2.8326397153467295e+285,
      6.651461355846995e+286,
      1.9210025509002773e+286,
      7.425332327070975e+286,
      -7.64116656359247e+285,
      -2.47518990558634e+286,
      -1.6413247741653748e+287,
      1.551366415926036e+287,
      -1.9047178805641277e+286,
      1.041805500297229e+287,
      2.7345637577216666e+285,
      -1.4252030062170461e+287,
      -1.6200676529586674e+287,
      -1.6200676529586674e+287,
      -1.6200676529586674e+287,
      -1.6208420324665226e+287,
      1.4252030062170461e+287,
      9.253003837564796e+286,
      3.0561565239107173e+286,
      1.5946948654780035e+287,
      1.8130538647395872e+286,
      -1.3886210098077044e+286,
      3.7438129828480776e+286,
      -3.1669215458387235e+286,
      2.8793466158586763e+286,
      -3.534697261219919e+284,
      -2.3903105686855403e+286,
      -1.13094245514762e+286,
      -1.1367116247586598e+286,
      -9.491754074214732e+286,
      1.5946948654780035e+287,
      -1.2600353375993679e+287,
      -2.136588019646688e+286,
      -5.6325336523848466e+286,
      -5.64190371648099e+286,
      1.2246881783901234e+286,
      7.955722137932069e+285,
      1.2315075508805469e+286,
      -2.4535092366879564e+286,
      3.6299100395527064e+286,
      -2.9028835683921347e+286,
      -1.2474462564578882e+285,
      1.3258150917737035e+286,
      7.245550525048371e+285,
      3.1786663163263734e+284,
      -3.880466983324974e+285,
      -1.13094245514762e+286,
      1.695130466255145e+286,
      1.576467753132464e+284,
      -1.1367116247586598e+286,
      6.813325074193667e+285,
      -7.137666018539949e+285,
      -1.0529403178777233e+286,
      -1.3622620020716137e+286,
      5.244140491014887e+283,
      2.1724157908845882e+286,
      -9.413805176149928e+285,
      -1.0362023928845776e+286,
      1.914117657443449e+286,
      1.8876780597521207e+286
    ],
    "complete_weight_vector": [
      -1.9031985002007034e+286,
      -3.1669215458387235e+286,
      2.8326397153467295e+285,
      6.651461355846995e+286,
      1.9210025509002773e+286,
      7.425332327070975e+286,
      -7.64116656359247e+285,
      -2.47518990558634e+286,
      -1.6413247741653748e+287,
      1.551366415926036e+287,
      -1.9047178805641277e+286,
      1.041805500297229e+287,
      2.7345637577216666e+285,
      -1.4252030062170461e+287,
      -1.6200676529586674e+287,
      -1.6200676529586674e+287,
      -1.6200676529586674e+287,
      -1.6208420324665226e+287,
      1.4252030062170461e+287,
      9.253003837564796e+286,
      3.0561565239107173e+286,
      1.5946948654780035e+287,
      1.8130538647395872e+286,
      -1.3886210098077044e+286,
      3.7438129828480776e+286,
      -3.1669215458387235e+286,
      2.8793466158586763e+286,
      -3.534697261219919e+284,
      -2.3903105686855403e+286,
      -1.13094245514762e+286,
      -1.1367116247586598e+286,
      -9.491754074214732e+286,
      1.5946948654780035e+287,
      -1.2600353375993679e+287,
      -2.136588019646688e+286,
      -5.6325336523848466e+286,
      -5.64190371648099e+286,
      1.2246881783901234e+286,
      7.955722137932069e+285,
      1.2315075508805469e+286,
      -2.4535092366879564e+286,
      3.6299100395527064e+286,
      -2.9028835683921347e+286,
      -1.2474462564578882e+285,
      1.3258150917737035e+286,
      7.245550525048371e+285,
      3.1786663163263734e+284,
      -3.880466983324974e+285,
      -1.13094245514762e+286,
      1.695130466255145e+286,
      1.576467753132464e+284,
      -1.1367116247586598e+286,
      6.813325074193667e+285,
      -7.137666018539949e+285,
      -1.0529403178777233e+286,
      -1.3622620020716137e+286,
      5.244140491014887e+283,
      2.1724157908845882e+286,
      -9.413805176149928e+285,
      -1.0362023928845776e+286,
      1.914117657443449e+286,
      1.8876780597521207e+286,
      -4.274629547362855e+283
    ],
    "weights_stats": {
      "min": -1.6413247741653748e+287,
      "max": 1.5946948654780035e+287,
      "mean": -5.963257134321297e+285,
      "std": Infinity
    }
  },
  "convergence_analysis": {
    "iterations_to_converge": 500,
    "final_cost_change": NaN,
    "convergence_rate": "linear",
    "loss_reduction_ratio": 0.0
  },
  "algorithm_specific": {
    "gradient_descent_type": "standard",
    "step_size_constant": true,
    "momentum_used": false
  }
}