{
  "algorithm": "Stochastic Gradient Descent - OLS",
  "loss_function": "OLS",
  "parameters": {
    "learning_rate": 0.1,
    "learning_rate_schedule": "linear_decay",
    "epochs": 100,
    "batch_size": 1000,
    "random_state": 42,
    "tolerance": 1e-06
  },
  "training_results": {
    "training_time": 53.682305335998535,
    "converged": false,
    "final_epoch": 100,
    "total_epochs": 100,
    "final_cost": 2.829368091547092e+18,
    "final_gradient_norm": 721792956.5837203
  },
  "weights_analysis": {
    "n_features": 62,
    "n_weights_total": 63,
    "bias_value": -1323637.9691298944,
    "weights_without_bias": [
      -58198156.634750366,
      -107892582.29446456,
      19307793.558180373,
      588209763.2094744,
      -25760623.70150867,
      -254124331.30911404,
      -5650043.190131355,
      -961622539.1387812,
      19094764.006018758,
      -470516205.312704,
      19424312.482373334,
      -1139294924.6120899,
      -57802363.751409166,
      -3916216068.0726156,
      -57737231.031587765,
      -57737231.01993005,
      -57737231.02444665,
      1081784557.6479778,
      3916216068.0444174,
      -5984271518.731632,
      705476613.5786178,
      -426470121.56385934,
      237716421.957053,
      -34059195.833381236,
      161882018.3107716,
      -107892582.29197738,
      -56922952.05415858,
      -358846152.46501106,
      294734305.2145366,
      -15642379.143499937,
      -186725579.84398723,
      -254679998.11365566,
      -426470121.5617231,
      1384119813.5563436,
      108470443.55857831,
      141186094.15825996,
      -19925555.646940235,
      -202215352.7096447,
      -292457612.32496417,
      -269699875.6329461,
      -491311214.48717153,
      -650205406.1366779,
      -727782615.9907633,
      -181640268.74456882,
      -232765605.41337225,
      -157408147.59859362,
      -30435909.020345688,
      -506038148.98916256,
      -15642379.137144651,
      -557641804.8168175,
      -819763191.1308738,
      -186725579.84182048,
      -10766420.206945943,
      -5029085.05680393,
      70336614.49857481,
      71894063.35044816,
      14329049.118062481,
      -46105911.47536209,
      153108309.75611314,
      313282442.61590767,
      530338052.03471273,
      78846024.94866234
    ],
    "complete_weight_vector": [
      -58198156.634750366,
      -107892582.29446456,
      19307793.558180373,
      588209763.2094744,
      -25760623.70150867,
      -254124331.30911404,
      -5650043.190131355,
      -961622539.1387812,
      19094764.006018758,
      -470516205.312704,
      19424312.482373334,
      -1139294924.6120899,
      -57802363.751409166,
      -3916216068.0726156,
      -57737231.031587765,
      -57737231.01993005,
      -57737231.02444665,
      1081784557.6479778,
      3916216068.0444174,
      -5984271518.731632,
      705476613.5786178,
      -426470121.56385934,
      237716421.957053,
      -34059195.833381236,
      161882018.3107716,
      -107892582.29197738,
      -56922952.05415858,
      -358846152.46501106,
      294734305.2145366,
      -15642379.143499937,
      -186725579.84398723,
      -254679998.11365566,
      -426470121.5617231,
      1384119813.5563436,
      108470443.55857831,
      141186094.15825996,
      -19925555.646940235,
      -202215352.7096447,
      -292457612.32496417,
      -269699875.6329461,
      -491311214.48717153,
      -650205406.1366779,
      -727782615.9907633,
      -181640268.74456882,
      -232765605.41337225,
      -157408147.59859362,
      -30435909.020345688,
      -506038148.98916256,
      -15642379.137144651,
      -557641804.8168175,
      -819763191.1308738,
      -186725579.84182048,
      -10766420.206945943,
      -5029085.05680393,
      70336614.49857481,
      71894063.35044816,
      14329049.118062481,
      -46105911.47536209,
      153108309.75611314,
      313282442.61590767,
      530338052.03471273,
      78846024.94866234,
      -1323637.9691298944
    ],
    "weights_stats": {
      "min": -5984271518.731632,
      "max": 3916216068.0444174,
      "mean": -169614075.66858473,
      "std": 1101185627.317942
    }
  },
  "convergence_analysis": {
    "epochs_to_converge": 100,
    "final_cost_change": -6.035223461647089e+17,
    "convergence_rate": "sublinear",
    "cost_reduction_ratio": 0.28083641433832207
  },
  "algorithm_specific": {
    "method_type": "stochastic_gradient_descent",
    "batch_processing": true,
    "batch_size": 1000,
    "epoch_based_training": true,
    "data_shuffling": true,
    "noisy_gradients": "inherent_in_SGD",
    "convergence_type": "probabilistic",
    "learning_rate_schedule": "linear_decay",
    "adaptive_learning_rate": true
  }
}