{
  "algorithm": "Stochastic Gradient Descent - OLS",
  "loss_function": "OLS",
  "parameters": {
    "learning_rate": 0.0001,
    "learning_rate_schedule": "constant",
    "epochs": 100,
    "batch_size": 30000,
    "random_state": 42,
    "tolerance": 1e-06
  },
  "training_results": {
    "training_time": 83.50070977210999,
    "converged": false,
    "final_epoch": 100,
    "total_epochs": 100,
    "final_cost": 47.460468989742154,
    "final_gradient_norm": 9.811468221634081
  },
  "weights_analysis": {
    "n_features": 62,
    "n_weights_total": 63,
    "bias_value": 0.3861100082396996,
    "weights_without_bias": [
      0.0024605188735348925,
      -0.0007807234614926273,
      0.012814748484980518,
      0.010818128703158658,
      -0.005028813383293278,
      -0.009048131372556464,
      0.012379659656609419,
      0.01961078579349417,
      0.005896491016029217,
      -0.010180223713371692,
      -0.003258125790272749,
      -0.015739030004197598,
      0.0047490408871326785,
      -0.005504697472317992,
      -0.007298443552293639,
      0.004327859480426988,
      -0.0001775764305075215,
      0.013844409719076724,
      -0.022708345729472074,
      -0.021949188458852572,
      0.012055250841454177,
      -0.015902497810011722,
      -0.0015305280100722414,
      -0.017217675186136927,
      -0.006950680879659387,
      0.0017111454473178816,
      -0.01194110455526293,
      0.006506233794942004,
      0.005132454464200878,
      -0.0024629786896636506,
      -0.007215782434693798,
      0.026125324669801057,
      -0.013779707052525717,
      0.00861506013379911,
      0.01562643520783431,
      0.0008811904822401344,
      0.015141809184814737,
      -0.01780523673586282,
      -0.016072463006708018,
      0.001160820877825316,
      0.014304771382364264,
      -0.0036350523908227354,
      -0.0006469637932885059,
      -0.003129489245078866,
      -0.016150968593444715,
      -0.0023024344505834567,
      -0.004602584181863934,
      0.011339287066915093,
      0.0038901417039537314,
      -0.01647698898043398,
      0.0011743261498793791,
      -0.005049539116562997,
      -0.003906615138980707,
      0.007856594563199348,
      0.012890989187768386,
      0.007475080985651478,
      -0.008844905629963927,
      -0.0018515276064967365,
      0.003771167871642216,
      0.011081836401860324,
      -0.011260179440819558,
      -0.0017936744108811005
    ],
    "complete_weight_vector": [
      0.0024605188735348925,
      -0.0007807234614926273,
      0.012814748484980518,
      0.010818128703158658,
      -0.005028813383293278,
      -0.009048131372556464,
      0.012379659656609419,
      0.01961078579349417,
      0.005896491016029217,
      -0.010180223713371692,
      -0.003258125790272749,
      -0.015739030004197598,
      0.0047490408871326785,
      -0.005504697472317992,
      -0.007298443552293639,
      0.004327859480426988,
      -0.0001775764305075215,
      0.013844409719076724,
      -0.022708345729472074,
      -0.021949188458852572,
      0.012055250841454177,
      -0.015902497810011722,
      -0.0015305280100722414,
      -0.017217675186136927,
      -0.006950680879659387,
      0.0017111454473178816,
      -0.01194110455526293,
      0.006506233794942004,
      0.005132454464200878,
      -0.0024629786896636506,
      -0.007215782434693798,
      0.026125324669801057,
      -0.013779707052525717,
      0.00861506013379911,
      0.01562643520783431,
      0.0008811904822401344,
      0.015141809184814737,
      -0.01780523673586282,
      -0.016072463006708018,
      0.001160820877825316,
      0.014304771382364264,
      -0.0036350523908227354,
      -0.0006469637932885059,
      -0.003129489245078866,
      -0.016150968593444715,
      -0.0023024344505834567,
      -0.004602584181863934,
      0.011339287066915093,
      0.0038901417039537314,
      -0.01647698898043398,
      0.0011743261498793791,
      -0.005049539116562997,
      -0.003906615138980707,
      0.007856594563199348,
      0.012890989187768386,
      0.007475080985651478,
      -0.008844905629963927,
      -0.0018515276064967365,
      0.003771167871642216,
      0.011081836401860324,
      -0.011260179440819558,
      -0.0017936744108811005,
      0.3861100082396996
    ],
    "weights_stats": {
      "min": -0.022708345729472074,
      "max": 0.026125324669801057,
      "mean": -0.0006219566722022507,
      "std": 0.010806268541713489
    }
  },
  "convergence_analysis": {
    "epochs_to_converge": 100,
    "final_cost_change": -0.38602883242823793,
    "convergence_rate": "sublinear",
    "cost_reduction_ratio": 1.0759375552558372
  },
  "algorithm_specific": {
    "method_type": "stochastic_gradient_descent",
    "batch_processing": true,
    "batch_size": 30000,
    "epoch_based_training": true,
    "data_shuffling": true,
    "noisy_gradients": "inherent_in_SGD",
    "convergence_type": "probabilistic",
    "learning_rate_schedule": "constant",
    "adaptive_learning_rate": false
  }
}