{
  "algorithm": "Gradient Descent - OLS",
  "loss_function": "OLS",
  "parameters": {
    "learning_rate": 0.001,
    "max_iterations": 10000,
    "tolerance": 1e-05,
    "step_size_method": "constant"
  },
  "training_results": {
    "training_time": 187.16496801376343,
    "converged": false,
    "final_iteration": 10000,
    "total_iterations": 10000,
    "final_loss": 0.012591481906749106,
    "final_gradient_norm": 0.0091126372795972,
    "best_iteration": 9900,
    "best_loss": 0.012591481906749106,
    "best_gradient_norm": 0.0091126372795972,
    "improvement_from_final": {
      "loss_improvement": 0.0,
      "gradient_improvement": 0.0,
      "iterations_earlier": 100
    }
  },
  "weights_analysis": {
    "n_features": 62,
    "n_weights_total": 63,
    "bias_value": 10.117045891974266,
    "weights_without_bias": [
      0.018755211795730753,
      -0.0014193400463683612,
      0.01096046636125025,
      -0.0046338552164613845,
      0.0002767503811396955,
      0.0024201792082985656,
      0.005183318016313208,
      0.07447084439578837,
      -0.01868076091330864,
      -0.13606795950501252,
      -0.011838152801388308,
      -0.019013363211022635,
      0.010141654044210318,
      0.11781507587363002,
      -0.010001924558148585,
      -0.0021585422296171706,
      0.008296799819340011,
      0.00913652668858718,
      -0.0934818175180513,
      0.06990222369522762,
      0.025835296846505804,
      0.01166855691600367,
      0.008491729728487784,
      6.132583305646268e-06,
      0.0023610909648281333,
      0.004262457243481313,
      0.009344812804692843,
      0.023712126045235534,
      0.04722832060524811,
      -0.008027212310294038,
      -0.023631783641445046,
      0.018647763998424396,
      -0.007516056423794494,
      0.21418613369935977,
      -0.0027291004626497648,
      0.05530061262901149,
      0.048814939205935146,
      0.000709624492538459,
      -0.009825007727928554,
      0.00022706082671887395,
      -0.010488984671697092,
      -0.010681058119557928,
      0.007760184857385223,
      0.00718059162538052,
      -0.002082051564816276,
      -0.016125573881039315,
      -0.00045271622975877253,
      0.010225818549713607,
      -0.009080641868237581,
      -0.014402929781157642,
      -0.017014925332802317,
      0.020359082607179602,
      -0.0006218664776080997,
      0.00048618185273831217,
      -0.0010709860900762352,
      0.003891904400070753,
      0.0037517031881359126,
      0.005191409136840918,
      -0.014310406880474458,
      -0.002003974639335387,
      -0.031530227637131036,
      -0.00823212631126465
    ],
    "complete_weight_vector": [
      0.018755211795730753,
      -0.0014193400463683612,
      0.01096046636125025,
      -0.0046338552164613845,
      0.0002767503811396955,
      0.0024201792082985656,
      0.005183318016313208,
      0.07447084439578837,
      -0.01868076091330864,
      -0.13606795950501252,
      -0.011838152801388308,
      -0.019013363211022635,
      0.010141654044210318,
      0.11781507587363002,
      -0.010001924558148585,
      -0.0021585422296171706,
      0.008296799819340011,
      0.00913652668858718,
      -0.0934818175180513,
      0.06990222369522762,
      0.025835296846505804,
      0.01166855691600367,
      0.008491729728487784,
      6.132583305646268e-06,
      0.0023610909648281333,
      0.004262457243481313,
      0.009344812804692843,
      0.023712126045235534,
      0.04722832060524811,
      -0.008027212310294038,
      -0.023631783641445046,
      0.018647763998424396,
      -0.007516056423794494,
      0.21418613369935977,
      -0.0027291004626497648,
      0.05530061262901149,
      0.048814939205935146,
      0.000709624492538459,
      -0.009825007727928554,
      0.00022706082671887395,
      -0.010488984671697092,
      -0.010681058119557928,
      0.007760184857385223,
      0.00718059162538052,
      -0.002082051564816276,
      -0.016125573881039315,
      -0.00045271622975877253,
      0.010225818549713607,
      -0.009080641868237581,
      -0.014402929781157642,
      -0.017014925332802317,
      0.020359082607179602,
      -0.0006218664776080997,
      0.00048618185273831217,
      -0.0010709860900762352,
      0.003891904400070753,
      0.0037517031881359126,
      0.005191409136840918,
      -0.014310406880474458,
      -0.002003974639335387,
      -0.031530227637131036,
      -0.00823212631126465,
      10.117045891974266
    ],
    "weights_stats": {
      "min": -0.13606795950501252,
      "max": 0.21418613369935977,
      "mean": 0.005965794178004681,
      "std": 0.04218882088369461
    }
  },
  "convergence_analysis": {
    "iterations_to_converge": 10000,
    "best_iteration_found": 9900,
    "final_cost_change": -8.39890812242075e-06,
    "convergence_rate": "linear",
    "loss_reduction_ratio": 3345.731772978771
  },
  "algorithm_specific": {
    "gradient_descent_type": "standard",
    "step_size_method": "constant",
    "step_size_constant": true,
    "momentum_used": false,
    "returns_best_result": true,
    "backtracking_parameters": null,
    "adaptive_parameters": null
  },
  "computational_complexity": {
    "basic_metrics": {
      "function_evaluations": 100,
      "gradient_evaluations": 10000,
      "matrix_vector_multiplications": 0,
      "vector_operations": 10100,
      "memory_allocations": 10000,
      "peak_memory_size": 63,
      "total_operations": 126640642600
    },
    "iterations": {
      "total_iterations": 10000,
      "final_iteration": 10000,
      "converged": false,
      "convergence_iteration": null
    },
    "per_iteration_averages": {
      "function_evaluations_per_iter": 0.01,
      "gradient_evaluations_per_iter": 1.0,
      "operations_per_iter": 12664064.26,
      "matrix_operations_per_iter": 0.0
    },
    "scalability_metrics": {
      "problem_size": {
        "n_samples": 100000,
        "n_features": 62
      },
      "problem_complexity_factor": 6200000,
      "operations_per_problem_unit": 20425.910096774194,
      "memory_efficiency": 0.0006296096420219464,
      "theoretical_complexity": "O(100000*62*10000)"
    },
    "operation_distribution": {
      "function_eval_percentage": 7.89635917403344e-08,
      "gradient_eval_percentage": 7.89635917403344e-06,
      "matrix_ops_percentage": 0.0,
      "vector_ops_percentage": 7.975322765773773e-06
    }
  }
}