{
  "algorithm": "Newton Method - OLS",
  "loss_function": "OLS",
  "parameters": {
    "regularization": 0.01,
    "numerical_regularization": 1e-08,
    "max_iterations": 10000,
    "tolerance": 1e-10
  },
  "training_results": {
    "training_time": 0.45780110359191895,
    "converged": true,
    "final_iteration": 3,
    "total_iterations": 10000,
    "final_loss": 0.011924579974987295,
    "final_gradient_norm": 4.415909348387473e-11,
    "best_iteration": 2,
    "best_loss": 0.011924579974987295,
    "best_gradient_norm": 4.415909348387473e-11,
    "improvement_from_final": {
      "loss_improvement": 0.0,
      "gradient_improvement": 0.0,
      "iterations_earlier": 1
    }
  },
  "weights_analysis": {
    "n_features": 62,
    "n_weights_total": 63,
    "bias_value": 10.117576831239623,
    "weights_without_bias": [
      -0.003725556003673643,
      -0.006731011530742473,
      0.011518869266998749,
      -0.021664197919273476,
      -0.0022804984127501736,
      -0.005127273208175227,
      0.008196146070536528,
      0.08363572114298845,
      0.00389719332172927,
      -0.2861126068002878,
      -0.010691466984125158,
      -0.0057235914315985435,
      0.010001406193851122,
      0.08922721968083852,
      0.00437807755657786,
      -0.004438845462645333,
      0.0017194735744536307,
      0.016223023661334136,
      -0.08194775110009696,
      0.07748822906805346,
      0.01409586019964149,
      0.07605576492595838,
      0.0057243283825025824,
      0.0038955957324173594,
      -0.009080831725428866,
      0.010002264012611556,
      0.009109178018589428,
      0.02587062317108006,
      0.02779053873497588,
      -0.0038852799593456404,
      -0.010852283771675872,
      0.004571480876281358,
      0.06655296695978444,
      0.2197565199553714,
      -0.005504525981677952,
      0.011580111078730223,
      0.08663003698406019,
      -0.014696547097343738,
      -0.027960234081520454,
      -0.01867642424327075,
      -0.05315015075450301,
      -0.05570464515671027,
      -0.05010661812568738,
      -0.007504543450397504,
      -0.015117194703879004,
      -0.013437150836456711,
      -0.0005254693804921796,
      0.011860057266235279,
      -0.007409114584180173,
      -0.015542649781839777,
      -0.017039618053702067,
      0.007226811025229776,
      -0.00043589774471194535,
      0.0006238835987616322,
      0.001081578485470538,
      0.003448242468887025,
      0.0031457423776151245,
      0.003232812584369637,
      -0.014044449459426183,
      -0.005206569862371095,
      -0.03526956752616625,
      -0.010969755906922084
    ],
    "complete_weight_vector": [
      -0.003725556003673643,
      -0.006731011530742473,
      0.011518869266998749,
      -0.021664197919273476,
      -0.0022804984127501736,
      -0.005127273208175227,
      0.008196146070536528,
      0.08363572114298845,
      0.00389719332172927,
      -0.2861126068002878,
      -0.010691466984125158,
      -0.0057235914315985435,
      0.010001406193851122,
      0.08922721968083852,
      0.00437807755657786,
      -0.004438845462645333,
      0.0017194735744536307,
      0.016223023661334136,
      -0.08194775110009696,
      0.07748822906805346,
      0.01409586019964149,
      0.07605576492595838,
      0.0057243283825025824,
      0.0038955957324173594,
      -0.009080831725428866,
      0.010002264012611556,
      0.009109178018589428,
      0.02587062317108006,
      0.02779053873497588,
      -0.0038852799593456404,
      -0.010852283771675872,
      0.004571480876281358,
      0.06655296695978444,
      0.2197565199553714,
      -0.005504525981677952,
      0.011580111078730223,
      0.08663003698406019,
      -0.014696547097343738,
      -0.027960234081520454,
      -0.01867642424327075,
      -0.05315015075450301,
      -0.05570464515671027,
      -0.05010661812568738,
      -0.007504543450397504,
      -0.015117194703879004,
      -0.013437150836456711,
      -0.0005254693804921796,
      0.011860057266235279,
      -0.007409114584180173,
      -0.015542649781839777,
      -0.017039618053702067,
      0.007226811025229776,
      -0.00043589774471194535,
      0.0006238835987616322,
      0.001081578485470538,
      0.003448242468887025,
      0.0031457423776151245,
      0.003232812584369637,
      -0.014044449459426183,
      -0.005206569862371095,
      -0.03526956752616625,
      -0.010969755906922084,
      10.117576831239623
    ],
    "weights_stats": {
      "min": -0.2861126068002878,
      "max": 0.2197565199553714,
      "mean": 0.0012577005699170544,
      "std": 0.055605518208623556
    }
  },
  "convergence_analysis": {
    "iterations_to_converge": 3,
    "best_iteration_found": 2,
    "final_cost_change": -2.0044729764912006e-13,
    "convergence_rate": "quadratic",
    "loss_reduction_ratio": 4311.303386541987,
    "convergence_quality": "superlinear_to_quadratic"
  },
  "numerical_analysis": {
    "hessian_condition_number": 954610051.7705601,
    "average_step_size": 5.069303014128364,
    "max_step_size": 10.134190118727833,
    "min_step_size": 0.004415909528894518,
    "step_size_stability": "Newton_steps",
    "regularization_effect": "Applied for numerical stability"
  },
  "algorithm_specific": {
    "method_type": "pure_newton",
    "second_order_method": true,
    "hessian_computation": "exact",
    "line_search_used": false,
    "damping_applied": "numerical_regularization_only",
    "fast_convergence": true,
    "returns_best_result": true
  }
}