{
  "algorithm": "Gradient Descent - OLS",
  "loss_function": "OLS",
  "parameters": {
    "learning_rate": 0.2,
    "max_iterations": 10000,
    "tolerance": 1e-05,
    "step_size_method": "constant"
  },
  "training_results": {
    "training_time": 235.21150517463684,
    "converged": false,
    "final_iteration": 10000,
    "total_iterations": 10000,
    "final_loss": 0.01192466447453171,
    "final_gradient_norm": 1.0934814924702119e-05,
    "best_iteration": 9900,
    "best_loss": 0.01192466447453171,
    "best_gradient_norm": 1.0934814924702119e-05,
    "improvement_from_final": {
      "loss_improvement": 0.0,
      "gradient_improvement": 0.0,
      "iterations_earlier": 100
    }
  },
  "weights_analysis": {
    "n_features": 62,
    "n_weights_total": 63,
    "bias_value": 10.11757538199223,
    "weights_without_bias": [
      0.008818068180465094,
      -0.00223133075656506,
      0.01151712574056742,
      -0.013745014315344611,
      -0.0005010936795192154,
      0.0017295137590113332,
      -0.0019015090788190552,
      0.08365003733369081,
      0.0038847490855710228,
      -0.2860813956797021,
      -0.010693235490394892,
      -0.005720332766005796,
      0.010001795277068301,
      0.0842032736342126,
      -0.0012403355212207798,
      0.0065538863427297535,
      -0.00365346404787215,
      0.016226125251454695,
      -0.08702042706065452,
      0.07750533637730567,
      0.01410013364611521,
      0.06364694755496672,
      0.005718887636164245,
      0.0029113756699978423,
      -0.005124219363347563,
      0.005502753905589662,
      0.009109748955486547,
      0.025873471542150722,
      0.027788913825788967,
      -0.006961986881531778,
      -0.008825678088011463,
      0.015846964342797608,
      0.078949589606818,
      0.2197576896762793,
      -0.005510727273247926,
      0.022508803250986996,
      0.07569901616532511,
      -0.014699250174271483,
      -0.027965702051074372,
      -0.018681714645906768,
      -0.05316918508658268,
      -0.05572280205387149,
      -0.05012529538710263,
      -0.007509079156466328,
      -0.015120417967510227,
      -0.013442433641906745,
      -0.0005250401741589133,
      0.011862218389218441,
      -0.004331520392996259,
      -0.015538222152405332,
      -0.01703724985922886,
      0.0052043567971567775,
      -0.0004356974344072966,
      0.0006234835782474126,
      0.0010764647995533845,
      0.0034473717671744237,
      0.00314552128129539,
      0.0032335030701475674,
      -0.01404147870873649,
      -0.005211148854253637,
      -0.03527492044748812,
      -0.010984454791810793
    ],
    "complete_weight_vector": [
      0.008818068180465094,
      -0.00223133075656506,
      0.01151712574056742,
      -0.013745014315344611,
      -0.0005010936795192154,
      0.0017295137590113332,
      -0.0019015090788190552,
      0.08365003733369081,
      0.0038847490855710228,
      -0.2860813956797021,
      -0.010693235490394892,
      -0.005720332766005796,
      0.010001795277068301,
      0.0842032736342126,
      -0.0012403355212207798,
      0.0065538863427297535,
      -0.00365346404787215,
      0.016226125251454695,
      -0.08702042706065452,
      0.07750533637730567,
      0.01410013364611521,
      0.06364694755496672,
      0.005718887636164245,
      0.0029113756699978423,
      -0.005124219363347563,
      0.005502753905589662,
      0.009109748955486547,
      0.025873471542150722,
      0.027788913825788967,
      -0.006961986881531778,
      -0.008825678088011463,
      0.015846964342797608,
      0.078949589606818,
      0.2197576896762793,
      -0.005510727273247926,
      0.022508803250986996,
      0.07569901616532511,
      -0.014699250174271483,
      -0.027965702051074372,
      -0.018681714645906768,
      -0.05316918508658268,
      -0.05572280205387149,
      -0.05012529538710263,
      -0.007509079156466328,
      -0.015120417967510227,
      -0.013442433641906745,
      -0.0005250401741589133,
      0.011862218389218441,
      -0.004331520392996259,
      -0.015538222152405332,
      -0.01703724985922886,
      0.0052043567971567775,
      -0.0004356974344072966,
      0.0006234835782474126,
      0.0010764647995533845,
      0.0034473717671744237,
      0.00314552128129539,
      0.0032335030701475674,
      -0.01404147870873649,
      -0.005211148854253637,
      -0.03527492044748812,
      -0.010984454791810793,
      10.11757538199223
    ],
    "weights_stats": {
      "min": -0.2860813956797021,
      "max": 0.2197576896762793,
      "mean": 0.001630173604208415,
      "std": 0.05535546317426444
    }
  },
  "convergence_analysis": {
    "iterations_to_converge": 10000,
    "best_iteration_found": 9900,
    "final_cost_change": -2.425042409937017e-09,
    "convergence_rate": "linear",
    "loss_reduction_ratio": 1.0207855808486042
  },
  "algorithm_specific": {
    "gradient_descent_type": "standard",
    "step_size_method": "constant",
    "step_size_constant": true,
    "momentum_used": false,
    "returns_best_result": true,
    "backtracking_parameters": null,
    "adaptive_parameters": null
  },
  "computational_complexity": {
    "basic_metrics": {
      "function_evaluations": 100,
      "gradient_evaluations": 10000,
      "matrix_vector_multiplications": 0,
      "vector_operations": 10100,
      "memory_allocations": 10000,
      "peak_memory_size": 63,
      "total_operations": 126640642600
    },
    "iterations": {
      "total_iterations": 10000,
      "final_iteration": 10000,
      "converged": false,
      "convergence_iteration": null
    },
    "per_iteration_averages": {
      "function_evaluations_per_iter": 0.01,
      "gradient_evaluations_per_iter": 1.0,
      "operations_per_iter": 12664064.26,
      "matrix_operations_per_iter": 0.0
    },
    "scalability_metrics": {
      "problem_size": {
        "n_samples": 100000,
        "n_features": 62
      },
      "problem_complexity_factor": 6200000,
      "operations_per_problem_unit": 20425.910096774194,
      "memory_efficiency": 0.0006296096420219464,
      "theoretical_complexity": "O(100000*62*10000)"
    },
    "operation_distribution": {
      "function_eval_percentage": 7.89635917403344e-08,
      "gradient_eval_percentage": 7.89635917403344e-06,
      "matrix_ops_percentage": 0.0,
      "vector_ops_percentage": 7.975322765773773e-06
    }
  }
}