{
  "algorithm": "Gradient Descent - RIDGE",
  "loss_function": "RIDGE",
  "parameters": {
    "learning_rate": 0.1,
    "max_iterations": 1000,
    "tolerance": 1e-05,
    "step_size_method": "backtracking",
    "regularization": 0.01
  },
  "training_results": {
    "training_time": 62.9762909412384,
    "converged": false,
    "final_iteration": 1000,
    "total_iterations": 1000,
    "final_loss": 0.012759169952951788,
    "final_gradient_norm": 0.00031779447932440004
  },
  "weights_analysis": {
    "n_features": 62,
    "n_weights_total": 63,
    "bias_value": 10.117570548322362,
    "weights_without_bias": [
      0.008596216763618356,
      0.004733024853331656,
      0.010293449622334928,
      -0.01632240325884471,
      -0.001382199427088656,
      -0.0025142081761289478,
      -0.002784796770594084,
      0.08050293975462143,
      -0.00547944011523825,
      -0.22919774883721722,
      -0.01038062959981185,
      -0.009532152366159,
      0.010085065911581263,
      0.10302084347316771,
      0.00026353472087187353,
      0.0019809811611278642,
      -0.0010511043045198652,
      0.013165337293540162,
      -0.09133298214717371,
      0.08052232469395394,
      0.017689258580036553,
      0.05017082550858985,
      0.0061159527891634455,
      0.004995000130255609,
      -0.002789459902729499,
      -0.001547800219669823,
      0.009139056919144909,
      0.02537149474381279,
      0.032738470416403556,
      -0.007161385104843018,
      -0.001807085435299718,
      0.009645083574842577,
      0.04214133467692593,
      0.21546325726856852,
      -0.0039433084469421625,
      0.04778896634728387,
      0.05185498886714059,
      -0.005431914445956967,
      -0.01664934710438858,
      -0.0076663797441673355,
      -0.027991628167145725,
      -0.02770831132583318,
      -0.016395478363745785,
      4.910577686739905e-05,
      -0.007196020131634456,
      -0.01201535794602356,
      -0.0004972426549689722,
      0.011421039139387447,
      -0.0034537023480775454,
      -0.01545032923288614,
      -0.01680103003264418,
      -0.0009336359767586837,
      -0.0005188868193583371,
      0.0005794500420163455,
      -0.00040428671958429223,
      0.0037128112848886213,
      0.0033304031078298145,
      0.0039970457817799536,
      -0.013864525007676409,
      -0.0038923031732331047,
      -0.03380920086918329,
      -0.008927110357005188
    ],
    "complete_weight_vector": [
      0.008596216763618356,
      0.004733024853331656,
      0.010293449622334928,
      -0.01632240325884471,
      -0.001382199427088656,
      -0.0025142081761289478,
      -0.002784796770594084,
      0.08050293975462143,
      -0.00547944011523825,
      -0.22919774883721722,
      -0.01038062959981185,
      -0.009532152366159,
      0.010085065911581263,
      0.10302084347316771,
      0.00026353472087187353,
      0.0019809811611278642,
      -0.0010511043045198652,
      0.013165337293540162,
      -0.09133298214717371,
      0.08052232469395394,
      0.017689258580036553,
      0.05017082550858985,
      0.0061159527891634455,
      0.004995000130255609,
      -0.002789459902729499,
      -0.001547800219669823,
      0.009139056919144909,
      0.02537149474381279,
      0.032738470416403556,
      -0.007161385104843018,
      -0.001807085435299718,
      0.009645083574842577,
      0.04214133467692593,
      0.21546325726856852,
      -0.0039433084469421625,
      0.04778896634728387,
      0.05185498886714059,
      -0.005431914445956967,
      -0.01664934710438858,
      -0.0076663797441673355,
      -0.027991628167145725,
      -0.02770831132583318,
      -0.016395478363745785,
      4.910577686739905e-05,
      -0.007196020131634456,
      -0.01201535794602356,
      -0.0004972426549689722,
      0.011421039139387447,
      -0.0034537023480775454,
      -0.01545032923288614,
      -0.01680103003264418,
      -0.0009336359767586837,
      -0.0005188868193583371,
      0.0005794500420163455,
      -0.00040428671958429223,
      0.0037128112848886213,
      0.0033304031078298145,
      0.0039970457817799536,
      -0.013864525007676409,
      -0.0038923031732331047,
      -0.03380920086918329,
      -0.008927110357005188,
      10.117570548322362
    ],
    "weights_stats": {
      "min": -0.22919774883721722,
      "max": 0.21546325726856852,
      "mean": 0.00391183659146056,
      "std": 0.04870112559800097
    }
  },
  "convergence_analysis": {
    "iterations_to_converge": 1000,
    "final_cost_change": -1.030396967367786e-07,
    "convergence_rate": "linear",
    "loss_reduction_ratio": 490.72810860342986
  },
  "algorithm_specific": {
    "gradient_descent_type": "standard",
    "step_size_method": "backtracking",
    "step_size_constant": false,
    "momentum_used": false,
    "backtracking_parameters": {
      "c1": 0.001,
      "rho": 0.8
    },
    "adaptive_parameters": null
  }
}