{
  "algorithm": "Gradient Descent - RIDGE",
  "loss_function": "RIDGE",
  "parameters": {
    "learning_rate": 0.01,
    "max_iterations": 500,
    "tolerance": 1e-05,
    "regularization": 0.01
  },
  "training_results": {
    "training_time": 3.013399839401245,
    "converged": false,
    "final_iteration": 500,
    "total_iterations": 500,
    "final_loss": 0.016202570781181327,
    "final_gradient_norm": 0.0697247302575009
  },
  "weights_analysis": {
    "n_features": 62,
    "n_weights_total": 63,
    "bias_value": 10.050725313579637,
    "weights_without_bias": [
      0.015886607365374762,
      -0.009037616371404253,
      0.01192469858882775,
      -0.01075577751422133,
      -0.004116765834224132,
      -0.01232258130954024,
      0.0017796067650907295,
      0.06524114720005804,
      0.0032720079051154084,
      -0.1153946248457569,
      -0.013121772870755178,
      -0.0340023993606263,
      0.011441943664554187,
      0.09880178810293062,
      -0.01200494631765819,
      -0.0075880001599981615,
      0.0036997537957633507,
      0.0018697263950598654,
      -0.07332831438587137,
      0.03587019050247114,
      0.027499866639261007,
      -0.018313897165049,
      0.01038369477802902,
      0.0014026628437352195,
      0.012172437640113899,
      0.00948231239634457,
      0.008539907012532924,
      0.01859604893123744,
      0.057214311292332884,
      0.0074179205175996625,
      0.006321000016969377,
      -0.0020592064233234796,
      -0.017323617114289747,
      0.18921791850686764,
      0.004548041241471884,
      0.06269165272096322,
      0.05606407554158592,
      0.00046715324679041947,
      -0.01066036127435603,
      -0.0001933408795906308,
      -0.005824166104431588,
      -0.014143776317351645,
      0.007112093830389418,
      0.006089404262011412,
      -0.0028816916608546523,
      -0.016159424849056404,
      -0.0003866517580181101,
      0.010572551061656388,
      -0.013871653949133795,
      -0.01197345267617372,
      -0.01249416364429901,
      -0.0020236822139249144,
      -0.0006638686185728508,
      0.0017290168416962389,
      -0.0008285202141053358,
      0.007082098532774544,
      0.0038272410165340444,
      0.007891420317249048,
      -0.01655187076643507,
      0.005080858932726569,
      -0.024474312201530107,
      -0.007293928392471683
    ],
    "complete_weight_vector": [
      0.015886607365374762,
      -0.009037616371404253,
      0.01192469858882775,
      -0.01075577751422133,
      -0.004116765834224132,
      -0.01232258130954024,
      0.0017796067650907295,
      0.06524114720005804,
      0.0032720079051154084,
      -0.1153946248457569,
      -0.013121772870755178,
      -0.0340023993606263,
      0.011441943664554187,
      0.09880178810293062,
      -0.01200494631765819,
      -0.0075880001599981615,
      0.0036997537957633507,
      0.0018697263950598654,
      -0.07332831438587137,
      0.03587019050247114,
      0.027499866639261007,
      -0.018313897165049,
      0.01038369477802902,
      0.0014026628437352195,
      0.012172437640113899,
      0.00948231239634457,
      0.008539907012532924,
      0.01859604893123744,
      0.057214311292332884,
      0.0074179205175996625,
      0.006321000016969377,
      -0.0020592064233234796,
      -0.017323617114289747,
      0.18921791850686764,
      0.004548041241471884,
      0.06269165272096322,
      0.05606407554158592,
      0.00046715324679041947,
      -0.01066036127435603,
      -0.0001933408795906308,
      -0.005824166104431588,
      -0.014143776317351645,
      0.007112093830389418,
      0.006089404262011412,
      -0.0028816916608546523,
      -0.016159424849056404,
      -0.0003866517580181101,
      0.010572551061656388,
      -0.013871653949133795,
      -0.01197345267617372,
      -0.01249416364429901,
      -0.0020236822139249144,
      -0.0006638686185728508,
      0.0017290168416962389,
      -0.0008285202141053358,
      0.007082098532774544,
      0.0038272410165340444,
      0.007891420317249048,
      -0.01655187076643507,
      0.005080858932726569,
      -0.024474312201530107,
      -0.007293928392471683,
      10.050725313579637
    ],
    "weights_stats": {
      "min": -0.1153946248457569,
      "max": 0.18921791850686764,
      "mean": 0.004861238277630562,
      "std": 0.0372025973303017
    }
  },
  "convergence_analysis": {
    "iterations_to_converge": 500,
    "final_cost_change": -0.0005279608746697854,
    "convergence_rate": "linear",
    "loss_reduction_ratio": 2594.470590845372
  },
  "algorithm_specific": {
    "gradient_descent_type": "standard",
    "step_size_constant": true,
    "momentum_used": false
  }
}