{
  "algorithm": "BFGS Quasi-Newton - OLS",
  "loss_function": "OLS",
  "parameters": {
    "max_iterations": 10000,
    "tolerance": 1e-05,
    "armijo_c1": 0.0001,
    "wolfe_c2": 0.9,
    "backtrack_rho": 0.8,
    "damping": 1e-08
  },
  "training_results": {
    "training_time": 15.73167109489441,
    "converged": true,
    "final_iteration": 290,
    "total_iterations": 10000,
    "final_loss": 0.01194601339543971,
    "final_gradient_norm": 9.88755412554869e-06
  },
  "weights_analysis": {
    "n_features": 62,
    "n_weights_total": 63,
    "bias_value": 10.118642872674704,
    "weights_without_bias": [
      0.010688873960303243,
      0.004723557172413048,
      0.017688760069911907,
      -0.029341793006877094,
      -0.008453001685571102,
      -0.004356993791515601,
      -0.0011159317899727302,
      0.08511817903340088,
      0.013119410769421082,
      -0.2714276867392738,
      -0.018126732937280978,
      0.005106723865121982,
      0.009443048146049534,
      0.10982273767204215,
      -0.00898609562582723,
      -0.006141059076662598,
      0.0033479050696090607,
      0.011606412735360547,
      -0.094439485631271,
      0.08837223962492254,
      0.00547216706071354,
      0.05874268204964518,
      0.0048525076544068445,
      0.02712113586818353,
      -0.014853573501275216,
      -0.002089988317388751,
      0.007913842238282143,
      0.031562186664714664,
      0.043218654819547495,
      -0.00849746785784938,
      -0.00633613538988083,
      0.0008835520346976655,
      0.06994171922132757,
      0.20951621903034404,
      -0.00965931456749504,
      0.04884951116243172,
      0.05243899264453131,
      -0.016614778552003027,
      -0.021994561870326793,
      -0.011862766359732246,
      -0.04096276881599413,
      -0.039853988672794265,
      -0.027913494504708612,
      -0.0026771795276244,
      -0.011022681724931933,
      -0.012779283511090858,
      -0.06083855517614968,
      0.017582376841887928,
      -0.027956759328087534,
      -0.02156732723362489,
      -0.018735119026946093,
      -0.013823075213778596,
      -0.024939395294327597,
      0.0022257589901933258,
      -0.004719870356834618,
      -0.0005732916325771473,
      0.002044450297051375,
      0.0021178731964942893,
      -0.016870739611782246,
      -0.0005986835771770953,
      -0.031735678711923176,
      -0.007457980313995715
    ],
    "complete_weight_vector": [
      0.010688873960303243,
      0.004723557172413048,
      0.017688760069911907,
      -0.029341793006877094,
      -0.008453001685571102,
      -0.004356993791515601,
      -0.0011159317899727302,
      0.08511817903340088,
      0.013119410769421082,
      -0.2714276867392738,
      -0.018126732937280978,
      0.005106723865121982,
      0.009443048146049534,
      0.10982273767204215,
      -0.00898609562582723,
      -0.006141059076662598,
      0.0033479050696090607,
      0.011606412735360547,
      -0.094439485631271,
      0.08837223962492254,
      0.00547216706071354,
      0.05874268204964518,
      0.0048525076544068445,
      0.02712113586818353,
      -0.014853573501275216,
      -0.002089988317388751,
      0.007913842238282143,
      0.031562186664714664,
      0.043218654819547495,
      -0.00849746785784938,
      -0.00633613538988083,
      0.0008835520346976655,
      0.06994171922132757,
      0.20951621903034404,
      -0.00965931456749504,
      0.04884951116243172,
      0.05243899264453131,
      -0.016614778552003027,
      -0.021994561870326793,
      -0.011862766359732246,
      -0.04096276881599413,
      -0.039853988672794265,
      -0.027913494504708612,
      -0.0026771795276244,
      -0.011022681724931933,
      -0.012779283511090858,
      -0.06083855517614968,
      0.017582376841887928,
      -0.027956759328087534,
      -0.02156732723362489,
      -0.018735119026946093,
      -0.013823075213778596,
      -0.024939395294327597,
      0.0022257589901933258,
      -0.004719870356834618,
      -0.0005732916325771473,
      0.002044450297051375,
      0.0021178731964942893,
      -0.016870739611782246,
      -0.0005986835771770953,
      -0.031735678711923176,
      -0.007457980313995715,
      10.118642872674704
    ],
    "weights_stats": {
      "min": -0.2714276867392738,
      "max": 0.20951621903034404,
      "mean": 0.0007128748219105899,
      "std": 0.054849433879195976
    }
  },
  "convergence_analysis": {
    "iterations_to_converge": 290,
    "final_cost_change": -1.6876777406138466e-10,
    "convergence_rate": "superlinear",
    "loss_reduction_ratio": 1.7836527500300512
  },
  "numerical_analysis": {
    "average_step_size": 0.9856509330972701,
    "average_line_search_iterations": 1.1314878892733564,
    "final_condition_number": 415.1305571335971,
    "max_condition_number": 2548.409184277584,
    "min_condition_number": 10.595082873740884,
    "hessian_approximation_quality": "BFGS_secant_approximation",
    "line_search_efficiency": "Wolfe_conditions_satisfied"
  },
  "algorithm_specific": {
    "method_type": "quasi_newton_bfgs",
    "second_order_approximation": true,
    "line_search_used": true,
    "line_search_type": "wolfe_conditions",
    "hessian_computation": "bfgs_secant_approximation",
    "superlinear_convergence": "BFGS provides superlinear convergence rate",
    "memory_efficient": "inverse_hessian_approximation",
    "positive_definite": "guaranteed_by_bfgs_updates"
  }
}