{
  "algorithm": "Gradient Descent - OLS",
  "loss_function": "OLS",
  "parameters": {
    "learning_rate": 0.1,
    "max_iterations": 10000,
    "tolerance": 1e-05,
    "step_size_method": "linear_schedule"
  },
  "training_results": {
    "training_time": 196.68244242668152,
    "converged": false,
    "final_iteration": 10000,
    "total_iterations": 10000,
    "final_loss": 0.011925251814343516,
    "final_gradient_norm": 3.134746525787293e-05,
    "best_iteration": 9900,
    "best_loss": 0.011925251814343516,
    "best_gradient_norm": 3.134746525787293e-05,
    "improvement_from_final": {
      "loss_improvement": 0.0,
      "gradient_improvement": 0.0,
      "iterations_earlier": 100
    }
  },
  "weights_analysis": {
    "n_features": 62,
    "n_weights_total": 63,
    "bias_value": 10.117572773195654,
    "weights_without_bias": [
      0.00495505268872033,
      0.0017203194152101444,
      0.01150900783784843,
      -0.013756661882202524,
      -0.000506494220046537,
      0.0017215899166120397,
      0.0022762547807393344,
      0.0836840365873549,
      0.0038747594804318785,
      -0.28607155218339103,
      -0.01069563639970524,
      -0.0057119614184040724,
      0.010003062583837274,
      0.08116480891701643,
      -0.005528470905277283,
      0.0003695177074230126,
      0.006821405612056602,
      0.016228926457988655,
      -0.0900981512178247,
      0.07751656543777344,
      0.014109949841344092,
      0.0765267361377532,
      0.005710412474256522,
      0.002103354606020528,
      -0.0065197626629641585,
      0.0015506416530657707,
      0.009110369429118687,
      0.02587852518671456,
      0.027785234212648988,
      -0.008982165827276739,
      0.005627307299972042,
      0.015832681524297534,
      0.06607719287132559,
      0.2197666096553041,
      -0.005523244522067961,
      0.042357441321720875,
      0.05584647850221763,
      -0.014610829934021602,
      -0.027855464449922467,
      -0.01857065336178161,
      -0.05294060460344413,
      -0.05545533035807364,
      -0.049799624109309375,
      -0.007437131157170909,
      -0.0150425120516511,
      -0.013449034932788997,
      -0.0005242691240285985,
      0.011867257293994153,
      -0.0023101979681495843,
      -0.015527443657766133,
      -0.01702684353440811,
      -0.009236245433335512,
      -0.00043542421351989855,
      0.0006223561070316167,
      0.0010521588759271653,
      0.003446777403292519,
      0.0031449338030905285,
      0.0032383636881249435,
      -0.014035559562976219,
      -0.00521740887248715,
      -0.035280407298053346,
      -0.010990943721402458
    ],
    "complete_weight_vector": [
      0.00495505268872033,
      0.0017203194152101444,
      0.01150900783784843,
      -0.013756661882202524,
      -0.000506494220046537,
      0.0017215899166120397,
      0.0022762547807393344,
      0.0836840365873549,
      0.0038747594804318785,
      -0.28607155218339103,
      -0.01069563639970524,
      -0.0057119614184040724,
      0.010003062583837274,
      0.08116480891701643,
      -0.005528470905277283,
      0.0003695177074230126,
      0.006821405612056602,
      0.016228926457988655,
      -0.0900981512178247,
      0.07751656543777344,
      0.014109949841344092,
      0.0765267361377532,
      0.005710412474256522,
      0.002103354606020528,
      -0.0065197626629641585,
      0.0015506416530657707,
      0.009110369429118687,
      0.02587852518671456,
      0.027785234212648988,
      -0.008982165827276739,
      0.005627307299972042,
      0.015832681524297534,
      0.06607719287132559,
      0.2197666096553041,
      -0.005523244522067961,
      0.042357441321720875,
      0.05584647850221763,
      -0.014610829934021602,
      -0.027855464449922467,
      -0.01857065336178161,
      -0.05294060460344413,
      -0.05545533035807364,
      -0.049799624109309375,
      -0.007437131157170909,
      -0.0150425120516511,
      -0.013449034932788997,
      -0.0005242691240285985,
      0.011867257293994153,
      -0.0023101979681495843,
      -0.015527443657766133,
      -0.01702684353440811,
      -0.009236245433335512,
      -0.00043542421351989855,
      0.0006223561070316167,
      0.0010521588759271653,
      0.003446777403292519,
      0.0031449338030905285,
      0.0032383636881249435,
      -0.014035559562976219,
      -0.00521740887248715,
      -0.035280407298053346,
      -0.010990943721402458,
      10.117572773195654
    ],
    "weights_stats": {
      "min": -0.28607155218339103,
      "max": 0.2197666096553041,
      "mean": 0.001521936447206169,
      "std": 0.055145587629645665
    }
  },
  "convergence_analysis": {
    "iterations_to_converge": 10000,
    "best_iteration_found": 9900,
    "final_cost_change": -9.82763904977535e-11,
    "convergence_rate": "linear",
    "loss_reduction_ratio": 1.0589891634055721
  },
  "algorithm_specific": {
    "gradient_descent_type": "standard",
    "step_size_method": "linear_schedule",
    "step_size_constant": false,
    "momentum_used": false,
    "returns_best_result": true,
    "backtracking_parameters": null,
    "adaptive_parameters": null
  },
  "computational_complexity": {
    "basic_metrics": {
      "function_evaluations": 100,
      "gradient_evaluations": 10000,
      "matrix_vector_multiplications": 0,
      "vector_operations": 10100,
      "memory_allocations": 10000,
      "peak_memory_size": 63,
      "total_operations": 126640642600
    },
    "iterations": {
      "total_iterations": 10000,
      "final_iteration": 10000,
      "converged": false,
      "convergence_iteration": null
    },
    "per_iteration_averages": {
      "function_evaluations_per_iter": 0.01,
      "gradient_evaluations_per_iter": 1.0,
      "operations_per_iter": 12664064.26,
      "matrix_operations_per_iter": 0.0
    },
    "scalability_metrics": {
      "problem_size": {
        "n_samples": 100000,
        "n_features": 62
      },
      "problem_complexity_factor": 6200000,
      "operations_per_problem_unit": 20425.910096774194,
      "memory_efficiency": 0.0006296096420219464,
      "theoretical_complexity": "O(100000*62*10000)"
    },
    "operation_distribution": {
      "function_eval_percentage": 7.89635917403344e-08,
      "gradient_eval_percentage": 7.89635917403344e-06,
      "matrix_ops_percentage": 0.0,
      "vector_ops_percentage": 7.975322765773773e-06
    }
  }
}