{
  "algorithm": "Gradient Descent - OLS",
  "loss_function": "OLS",
  "parameters": {
    "learning_rate": 0.1,
    "max_iterations": 10000,
    "tolerance": 1e-05,
    "step_size_method": "linear_schedule"
  },
  "training_results": {
    "training_time": 227.75329160690308,
    "converged": false,
    "final_iteration": 10000,
    "total_iterations": 10000,
    "final_loss": 0.01192523825677588,
    "final_gradient_norm": 3.0742586719444437e-05,
    "best_iteration": 9900,
    "best_loss": 0.01192523825677588,
    "best_gradient_norm": 3.0742586719444437e-05,
    "improvement_from_final": {
      "loss_improvement": 0.0,
      "gradient_improvement": 0.0,
      "iterations_earlier": 100
    }
  },
  "weights_analysis": {
    "n_features": 62,
    "n_weights_total": 63,
    "bias_value": 10.117572803875797,
    "weights_without_bias": [
      0.008947872624381651,
      0.009126385834691728,
      0.011510706983395316,
      -0.010844748389885509,
      0.0001485651859197708,
      0.004242862775296571,
      -0.0009777175914118825,
      0.08368094894064618,
      0.003869401314015921,
      -0.28605434638957317,
      -0.010695863048142809,
      -0.005712888168479115,
      0.010002862832166254,
      0.07230606247987839,
      0.0034170793144456865,
      -0.003862638135964556,
      0.0021084124806088605,
      0.016230227500144155,
      -0.0989740302807321,
      0.07752353673954504,
      0.014109195115404462,
      0.06291790552690614,
      0.005710063152177489,
      0.0018284021230693258,
      -0.005257745894929031,
      -0.005855140821466511,
      0.009110501340936694,
      0.02587848426126759,
      0.027785560609036378,
      -0.0008509354516884147,
      -0.009639521310287665,
      0.019978922815019215,
      0.07967466570825142,
      0.21976417837123768,
      -0.005522628754693825,
      0.04206697068420055,
      0.05613688188044801,
      -0.014642846877425123,
      -0.027896640966230846,
      -0.01861201884388559,
      -0.053030613886875744,
      -0.055558175739820206,
      -0.04992280376466037,
      -0.0074645860181320215,
      -0.015071225878231375,
      -0.013449909328290767,
      -0.0005242787181324814,
      0.011866788195800214,
      -0.010441276492050388,
      -0.015528557148283067,
      -0.0170290952840997,
      0.006028788089928594,
      -0.0004353998709326773,
      0.000622505640757956,
      0.00105744117961877,
      0.003446463974516199,
      0.003145007818908163,
      0.0032371172097552642,
      -0.01403581346979225,
      -0.0052179921381885165,
      -0.03528171908865325,
      -0.01099750775137968
    ],
    "complete_weight_vector": [
      0.008947872624381651,
      0.009126385834691728,
      0.011510706983395316,
      -0.010844748389885509,
      0.0001485651859197708,
      0.004242862775296571,
      -0.0009777175914118825,
      0.08368094894064618,
      0.003869401314015921,
      -0.28605434638957317,
      -0.010695863048142809,
      -0.005712888168479115,
      0.010002862832166254,
      0.07230606247987839,
      0.0034170793144456865,
      -0.003862638135964556,
      0.0021084124806088605,
      0.016230227500144155,
      -0.0989740302807321,
      0.07752353673954504,
      0.014109195115404462,
      0.06291790552690614,
      0.005710063152177489,
      0.0018284021230693258,
      -0.005257745894929031,
      -0.005855140821466511,
      0.009110501340936694,
      0.02587848426126759,
      0.027785560609036378,
      -0.0008509354516884147,
      -0.009639521310287665,
      0.019978922815019215,
      0.07967466570825142,
      0.21976417837123768,
      -0.005522628754693825,
      0.04206697068420055,
      0.05613688188044801,
      -0.014642846877425123,
      -0.027896640966230846,
      -0.01861201884388559,
      -0.053030613886875744,
      -0.055558175739820206,
      -0.04992280376466037,
      -0.0074645860181320215,
      -0.015071225878231375,
      -0.013449909328290767,
      -0.0005242787181324814,
      0.011866788195800214,
      -0.010441276492050388,
      -0.015528557148283067,
      -0.0170290952840997,
      0.006028788089928594,
      -0.0004353998709326773,
      0.000622505640757956,
      0.00105744117961877,
      0.003446463974516199,
      0.003145007818908163,
      0.0032371172097552642,
      -0.01403581346979225,
      -0.0052179921381885165,
      -0.03528171908865325,
      -0.01099750775137968,
      10.117572803875797
    ],
    "weights_stats": {
      "min": -0.28605434638957317,
      "max": 0.21976417837123768,
      "mean": 0.001420840374194468,
      "std": 0.05524605436096362
    }
  },
  "convergence_analysis": {
    "iterations_to_converge": 10000,
    "best_iteration_found": 9900,
    "final_cost_change": -9.45186203610282e-11,
    "convergence_rate": "linear",
    "loss_reduction_ratio": 1.0587740690020937
  },
  "algorithm_specific": {
    "gradient_descent_type": "standard",
    "step_size_method": "linear_schedule",
    "step_size_constant": false,
    "momentum_used": false,
    "returns_best_result": true,
    "backtracking_parameters": null,
    "adaptive_parameters": null
  },
  "computational_complexity": {
    "basic_metrics": {
      "function_evaluations": 100,
      "gradient_evaluations": 10000,
      "matrix_vector_multiplications": 0,
      "vector_operations": 10100,
      "memory_allocations": 10000,
      "peak_memory_size": 63,
      "total_operations": 126640642600
    },
    "iterations": {
      "total_iterations": 10000,
      "final_iteration": 10000,
      "converged": false,
      "convergence_iteration": null
    },
    "per_iteration_averages": {
      "function_evaluations_per_iter": 0.01,
      "gradient_evaluations_per_iter": 1.0,
      "operations_per_iter": 12664064.26,
      "matrix_operations_per_iter": 0.0
    },
    "scalability_metrics": {
      "problem_size": {
        "n_samples": 100000,
        "n_features": 62
      },
      "problem_complexity_factor": 6200000,
      "operations_per_problem_unit": 20425.910096774194,
      "memory_efficiency": 0.0006296096420219464,
      "theoretical_complexity": "O(100000*62*10000)"
    },
    "operation_distribution": {
      "function_eval_percentage": 7.89635917403344e-08,
      "gradient_eval_percentage": 7.89635917403344e-06,
      "matrix_ops_percentage": 0.0,
      "vector_ops_percentage": 7.975322765773773e-06
    }
  }
}