{
  "algorithm": "Momentum Gradient Descent - OLS",
  "loss_function": "OLS",
  "parameters": {
    "learning_rate": 0.1,
    "momentum": 0.5,
    "max_iterations": 100000,
    "tolerance": 1e-05
  },
  "training_results": {
    "training_time": 64.48033308982849,
    "converged": true,
    "final_iteration": 8600,
    "total_iterations": 100000,
    "final_loss": 0.011924650616160904,
    "final_gradient_norm": 9.99806717136828e-06,
    "final_velocity_norm": 1.999896427978306e-05
  },
  "weights_analysis": {
    "n_features": 62,
    "n_weights_total": 63,
    "bias_value": 10.11757550632914,
    "weights_without_bias": [
      0.0008753277303941497,
      0.003741623976293656,
      0.011517275076576709,
      -0.02524735883477748,
      -0.0030868225311774153,
      -0.008225495651659923,
      -0.005686288396334682,
      0.08364881094963839,
      0.0038858152128318367,
      -0.2860840695764763,
      -0.010693083983316358,
      -0.005720611943528653,
      0.010001761946624653,
      0.07990614545846741,
      0.003032787061297247,
      -0.0058471533353382935,
      0.004474334711112271,
      0.016225859474725,
      -0.09131338055533153,
      0.07750387079742968,
      0.014099767554919467,
      0.07233566038621858,
      0.005719353724882984,
      0.014266112382839018,
      -0.005723370466796959,
      -0.00047021545812196605,
      0.009109700036995572,
      0.025873227532205206,
      0.02778905302522236,
      -0.014079839673971039,
      0.011836086250925684,
      -0.0005246534390873394,
      0.07026192155948759,
      0.21975758947072663,
      -0.005510196034913905,
      0.02157257982516529,
      0.07663543907621627,
      -0.014699018310496699,
      -0.02796523324258084,
      -0.01868126106697925,
      -0.05316755363749108,
      -0.055721245639178685,
      -0.05012369422545934,
      -0.00750869031456845,
      -0.015120141561299441,
      -0.013441981058415122,
      -0.000525076941441513,
      0.011862033256932322,
      0.002786256343214087,
      -0.015538601456891956,
      -0.017037452708491607,
      -0.015457763179673296,
      -0.00043571459355075994,
      0.0006235178471740456,
      0.0010769028437383908,
      0.003447446359334435,
      0.003145540219943882,
      0.0032334439291991147,
      -0.014041733206187098,
      -0.005210756585361205,
      -0.035274461868017463,
      -0.010983195511385963
    ],
    "complete_weight_vector": [
      0.0008753277303941497,
      0.003741623976293656,
      0.011517275076576709,
      -0.02524735883477748,
      -0.0030868225311774153,
      -0.008225495651659923,
      -0.005686288396334682,
      0.08364881094963839,
      0.0038858152128318367,
      -0.2860840695764763,
      -0.010693083983316358,
      -0.005720611943528653,
      0.010001761946624653,
      0.07990614545846741,
      0.003032787061297247,
      -0.0058471533353382935,
      0.004474334711112271,
      0.016225859474725,
      -0.09131338055533153,
      0.07750387079742968,
      0.014099767554919467,
      0.07233566038621858,
      0.005719353724882984,
      0.014266112382839018,
      -0.005723370466796959,
      -0.00047021545812196605,
      0.009109700036995572,
      0.025873227532205206,
      0.02778905302522236,
      -0.014079839673971039,
      0.011836086250925684,
      -0.0005246534390873394,
      0.07026192155948759,
      0.21975758947072663,
      -0.005510196034913905,
      0.02157257982516529,
      0.07663543907621627,
      -0.014699018310496699,
      -0.02796523324258084,
      -0.01868126106697925,
      -0.05316755363749108,
      -0.055721245639178685,
      -0.05012369422545934,
      -0.00750869031456845,
      -0.015120141561299441,
      -0.013441981058415122,
      -0.000525076941441513,
      0.011862033256932322,
      0.002786256343214087,
      -0.015538601456891956,
      -0.017037452708491607,
      -0.015457763179673296,
      -0.00043571459355075994,
      0.0006235178471740456,
      0.0010769028437383908,
      0.003447446359334435,
      0.003145540219943882,
      0.0032334439291991147,
      -0.014041733206187098,
      -0.005210756585361205,
      -0.035274461868017463,
      -0.010983195511385963,
      10.11757550632914
    ],
    "weights_stats": {
      "min": -0.2860840695764763,
      "max": 0.21975758947072663,
      "mean": 0.000824179500523069,
      "std": 0.05549983384109762
    },
    "velocity_analysis": {
      "final_velocity": [
        -1.8226198869598454e-11,
        1.1037092273889642e-10,
        -2.2561128279289395e-09,
        -2.796529259921379e-09,
        -1.7685355483955775e-09,
        1.59326907707635e-09,
        3.3942785350920546e-09,
        1.8523202712075087e-08,
        -1.6099348876691957e-08,
        4.037792834743395e-08,
        -2.2880860409216114e-09,
        4.2162608757640985e-09,
        5.034376168454145e-10,
        3.152199072248923e-08,
        5.955945328927661e-10,
        5.955945328927661e-10,
        5.955945328927661e-10,
        4.012515030119949e-09,
        -3.152199072248923e-08,
        2.2132274690341792e-08,
        5.529189521968567e-09,
        -7.887698387697858e-09,
        -7.039253731358041e-09,
        1.541172187650121e-09,
        8.963927219860554e-09,
        1.1037092273889642e-10,
        7.386508975935927e-10,
        3.685272991057788e-09,
        -2.1023777600830166e-09,
        5.740012489603745e-10,
        2.6857696444029165e-09,
        1.3563151095315135e-09,
        -7.887698387697858e-09,
        1.5138854977158556e-09,
        -8.02349992212819e-09,
        1.4139761081181035e-05,
        -1.4142773876956313e-05,
        -3.4909301043120277e-09,
        -7.066416345664596e-09,
        -6.8365924361623985e-09,
        -2.4609056934588265e-08,
        -2.3471270952057025e-08,
        -2.4140459377540985e-08,
        -5.8629008180079196e-09,
        -4.164573875568138e-09,
        -6.834793162047643e-09,
        5.553179212972723e-10,
        2.7961990872185065e-09,
        5.740012489603745e-10,
        5.728755851683624e-09,
        3.0644886826011992e-09,
        2.6857696444029165e-09,
        2.591599720721745e-10,
        -5.17577177399729e-10,
        -6.617204476930901e-09,
        -1.1264751032406642e-09,
        -2.8609256968746983e-10,
        8.935996466807455e-10,
        3.8436271407546e-09,
        -5.924258175166316e-09,
        -6.92544533741329e-09,
        -1.901634560605632e-08,
        -1.8748782507264676e-09
      ],
      "velocity_stats": {
        "min": -1.4142773876956313e-05,
        "max": 1.4139761081181035e-05,
        "mean": -1.0374316020241491e-09,
        "std": 2.5398707803696464e-06
      }
    }
  },
  "convergence_analysis": {
    "iterations_to_converge": 8600,
    "final_cost_change": -2.0019168267548793e-10,
    "convergence_rate": "superlinear",
    "loss_reduction_ratio": 20.476161764672586,
    "velocity_contribution": "accelerated_convergence"
  },
  "algorithm_specific": {
    "gradient_descent_type": "momentum",
    "momentum_coefficient": 0.5,
    "step_size_constant": true,
    "acceleration_used": true,
    "momentum_description": "Nesterov-style momentum with velocity accumulation"
  }
}