{
  "algorithm": "Stochastic Gradient Descent - OLS",
  "loss_function": "OLS",
  "parameters": {
    "learning_rate": 0.01,
    "max_epochs": 100,
    "batch_size": 64,
    "tolerance": 1e-05,
    "learning_rate_schedule": "constant",
    "momentum": 0.5,
    "random_state": 42,
    "shuffle_each_epoch": false,
    "randomize_each_epoch": false
  },
  "training_results": {
    "training_time": 59.11818766593933,
    "converged": false,
    "final_epoch": 100,
    "total_epochs": 100,
    "final_loss": 0.012195133666896918,
    "final_gradient_norm": 0.02582960983612174,
    "best_epoch": 10,
    "best_loss": 0.01217824865572939,
    "best_gradient_norm": 0.021682557041637802,
    "improvement_from_final": {
      "loss_improvement": 1.6885011167528177e-05,
      "gradient_improvement": 0.004147052794483939,
      "epochs_earlier": 90
    }
  },
  "weights_analysis": {
    "n_features": 62,
    "n_weights_total": 63,
    "bias_value": 10.114144502558469,
    "weights_without_bias": [
      0.007353382498307979,
      0.001742749939797389,
      0.009760540776434193,
      -0.006214421657757961,
      0.0004515803228980407,
      0.006994520033913168,
      0.01742293852026149,
      0.08416736783449842,
      0.004998628079920751,
      -0.2763769311996723,
      -0.007568695540160282,
      -0.002312763224947394,
      0.010777335852884285,
      0.08762844339944574,
      -0.005760353897419562,
      0.005865949135301023,
      0.0013605132243664046,
      0.009808060081529695,
      -0.11584148660123601,
      0.09245849483743919,
      0.007765197064802681,
      0.070342904585209,
      0.003612334993479593,
      -0.01218730322103417,
      -0.008337781739866611,
      0.004234618848607893,
      0.008950888214145115,
      0.027638773588836603,
      0.02731448824240146,
      -0.008155884062102403,
      -0.005119723336876429,
      0.027471847308793408,
      0.07246569534269498,
      0.2143973140460682,
      -0.0038429665991536214,
      0.03808958434317403,
      0.058966510247636036,
      -0.015274117049438256,
      -0.02492222813942989,
      -0.015706745570534003,
      -0.04766911329578523,
      -0.04770693581038461,
      -0.045183361089204975,
      -0.005919026326835868,
      -0.012297880998605317,
      -0.012793655336985033,
      0.0001968134776734027,
      0.011734226608152994,
      -0.0018027636684850798,
      -0.017532383578600652,
      -0.016178434926678222,
      -0.0029534800187455685,
      -0.005983789723160525,
      0.0022765953439397657,
      -0.00048012071415592613,
      0.004171493460168758,
      0.003800733942236567,
      0.002834206673980441,
      -0.015065831591797963,
      -0.004567276537669342,
      -0.03643751968969339,
      -0.010748421689913178
    ],
    "complete_weight_vector": [
      0.007353382498307979,
      0.001742749939797389,
      0.009760540776434193,
      -0.006214421657757961,
      0.0004515803228980407,
      0.006994520033913168,
      0.01742293852026149,
      0.08416736783449842,
      0.004998628079920751,
      -0.2763769311996723,
      -0.007568695540160282,
      -0.002312763224947394,
      0.010777335852884285,
      0.08762844339944574,
      -0.005760353897419562,
      0.005865949135301023,
      0.0013605132243664046,
      0.009808060081529695,
      -0.11584148660123601,
      0.09245849483743919,
      0.007765197064802681,
      0.070342904585209,
      0.003612334993479593,
      -0.01218730322103417,
      -0.008337781739866611,
      0.004234618848607893,
      0.008950888214145115,
      0.027638773588836603,
      0.02731448824240146,
      -0.008155884062102403,
      -0.005119723336876429,
      0.027471847308793408,
      0.07246569534269498,
      0.2143973140460682,
      -0.0038429665991536214,
      0.03808958434317403,
      0.058966510247636036,
      -0.015274117049438256,
      -0.02492222813942989,
      -0.015706745570534003,
      -0.04766911329578523,
      -0.04770693581038461,
      -0.045183361089204975,
      -0.005919026326835868,
      -0.012297880998605317,
      -0.012793655336985033,
      0.0001968134776734027,
      0.011734226608152994,
      -0.0018027636684850798,
      -0.017532383578600652,
      -0.016178434926678222,
      -0.0029534800187455685,
      -0.005983789723160525,
      0.0022765953439397657,
      -0.00048012071415592613,
      0.004171493460168758,
      0.003800733942236567,
      0.002834206673980441,
      -0.015065831591797963,
      -0.004567276537669342,
      -0.03643751968969339,
      -0.010748421689913178,
      10.114144502558469
    ],
    "weights_stats": {
      "min": -0.2763769311996723,
      "max": 0.2143973140460682,
      "mean": 0.0021953763553656264,
      "std": 0.05508295666155019
    }
  },
  "convergence_analysis": {
    "epochs_to_converge": 100,
    "best_epoch_found": 10,
    "final_cost_change": 0.00012418822869486937,
    "convergence_rate": "sublinear",
    "loss_reduction_ratio": 1.0003183585936202
  },
  "algorithm_specific": {
    "sgd_type": "mini_batch",
    "batch_size": 64,
    "learning_rate_schedule": "constant",
    "momentum_used": true,
    "momentum_value": 0.5,
    "shuffling_strategy": {
      "shuffle_each_epoch": false,
      "randomize_each_epoch": false
    },
    "returns_best_result": true,
    "stochastic_variance": true
  },
  "computational_complexity": {
    "basic_metrics": {
      "function_evaluations": 10,
      "gradient_evaluations": 10000000,
      "matrix_vector_multiplications": 0,
      "vector_operations": 10625210,
      "memory_allocations": 156302,
      "peak_memory_size": 63,
      "total_operations": 2003235760
    },
    "iterations": {
      "total_iterations": 100,
      "final_iteration": 100,
      "converged": false,
      "convergence_iteration": null
    },
    "per_iteration_averages": {
      "function_evaluations_per_iter": 0.1,
      "gradient_evaluations_per_iter": 100000.0,
      "operations_per_iter": 20032357.6,
      "matrix_operations_per_iter": 0.0
    },
    "scalability_metrics": {
      "problem_size": {
        "n_samples": 100000,
        "n_features": 62
      },
      "problem_complexity_factor": 6200000,
      "operations_per_problem_unit": 323.1025419354839,
      "memory_efficiency": 0.0006296096420219464,
      "theoretical_complexity": "O(100000*62*100)"
    },
    "operation_distribution": {
      "function_eval_percentage": 4.99192366653838e-07,
      "gradient_eval_percentage": 0.4991923666538381,
      "matrix_ops_percentage": 0.0,
      "vector_ops_percentage": 0.5304023726094027
    }
  }
}