{
  "algorithm": "Gradient Descent - OLS",
  "loss_function": "OLS",
  "parameters": {
    "learning_rate": 0.01,
    "max_iterations": 10000,
    "tolerance": 1e-05,
    "step_size_method": "constant"
  },
  "training_results": {
    "training_time": 54.99193787574768,
    "converged": false,
    "final_iteration": 10000,
    "total_iterations": 10000,
    "final_loss": 0.011936350423039725,
    "final_gradient_norm": 0.0005999112861633241
  },
  "weights_analysis": {
    "n_features": 62,
    "n_weights_total": 63,
    "bias_value": 10.1175722839095,
    "weights_without_bias": [
      0.00877641408125453,
      0.0028632285650368496,
      0.010903647094662957,
      -0.02163774538794947,
      -0.0022096416148912213,
      -0.00493297288618204,
      -0.01422145409086347,
      0.08436320095336175,
      -0.0022544351536996246,
      -0.26897954947095865,
      -0.01061485184015111,
      -0.005649274733643883,
      0.010070479975169803,
      0.09446398795489634,
      0.005246624289036224,
      0.008708317512932731,
      -0.010809201695651506,
      0.015775119345366552,
      -0.08974425883248022,
      0.08308088744312538,
      0.014878045980947356,
      0.05978255980334464,
      0.005644901557337359,
      0.016028335827949748,
      -0.002100582232821603,
      0.0006100503081684714,
      0.009141813948773626,
      0.0258630792841702,
      0.02818672286269109,
      -0.0015562675033073219,
      0.0004641624231715263,
      0.004827013984955053,
      0.06909590130965793,
      0.2194575888826706,
      -0.005384942137268682,
      0.05306298168048315,
      0.04499520810397889,
      -0.009945302059540697,
      -0.0218902758174332,
      -0.01270578846644706,
      -0.04021416990756427,
      -0.040708654800066295,
      -0.032225503263510896,
      -0.00351876218628747,
      -0.010860480056201658,
      -0.013164471603575386,
      -0.0005194919563713124,
      0.011691346485820125,
      -0.009573650183693709,
      -0.01582306249037172,
      -0.017475588233584565,
      -0.0039569212958575845,
      -0.0004550012884075809,
      0.0006021788699459697,
      9.358141459276485e-05,
      0.003534998260025694,
      0.003188275107710414,
      0.0035494397881881946,
      -0.013983911083357791,
      -0.005106268643833092,
      -0.03508150100501666,
      -0.01006987031421228
    ],
    "complete_weight_vector": [
      0.00877641408125453,
      0.0028632285650368496,
      0.010903647094662957,
      -0.02163774538794947,
      -0.0022096416148912213,
      -0.00493297288618204,
      -0.01422145409086347,
      0.08436320095336175,
      -0.0022544351536996246,
      -0.26897954947095865,
      -0.01061485184015111,
      -0.005649274733643883,
      0.010070479975169803,
      0.09446398795489634,
      0.005246624289036224,
      0.008708317512932731,
      -0.010809201695651506,
      0.015775119345366552,
      -0.08974425883248022,
      0.08308088744312538,
      0.014878045980947356,
      0.05978255980334464,
      0.005644901557337359,
      0.016028335827949748,
      -0.002100582232821603,
      0.0006100503081684714,
      0.009141813948773626,
      0.0258630792841702,
      0.02818672286269109,
      -0.0015562675033073219,
      0.0004641624231715263,
      0.004827013984955053,
      0.06909590130965793,
      0.2194575888826706,
      -0.005384942137268682,
      0.05306298168048315,
      0.04499520810397889,
      -0.009945302059540697,
      -0.0218902758174332,
      -0.01270578846644706,
      -0.04021416990756427,
      -0.040708654800066295,
      -0.032225503263510896,
      -0.00351876218628747,
      -0.010860480056201658,
      -0.013164471603575386,
      -0.0005194919563713124,
      0.011691346485820125,
      -0.009573650183693709,
      -0.01582306249037172,
      -0.017475588233584565,
      -0.0039569212958575845,
      -0.0004550012884075809,
      0.0006021788699459697,
      9.358141459276485e-05,
      0.003534998260025694,
      0.003188275107710414,
      0.0035494397881881946,
      -0.013983911083357791,
      -0.005106268643833092,
      -0.03508150100501666,
      -0.01006987031421228,
      10.1175722839095
    ],
    "weights_stats": {
      "min": -0.26897954947095865,
      "max": 0.2194575888826706,
      "mean": 0.00260606840103587,
      "std": 0.05324356962055017
    }
  },
  "convergence_analysis": {
    "iterations_to_converge": 10000,
    "final_cost_change": -3.664842557569298e-07,
    "convergence_rate": "linear",
    "loss_reduction_ratio": 574.8021755247361
  },
  "algorithm_specific": {
    "gradient_descent_type": "standard",
    "step_size_method": "constant",
    "step_size_constant": true,
    "momentum_used": false,
    "backtracking_parameters": null,
    "adaptive_parameters": null
  }
}