{
  "algorithm": "Gradient Descent - OLS",
  "loss_function": "OLS",
  "parameters": {
    "learning_rate": 0.01,
    "max_iterations": 100000,
    "tolerance": 1e-05,
    "step_size_method": "constant"
  },
  "training_results": {
    "training_time": 544.3209359645844,
    "converged": false,
    "final_iteration": 100000,
    "total_iterations": 100000,
    "final_loss": 0.011924845279866708,
    "final_gradient_norm": 1.937310767555844e-05
  },
  "weights_analysis": {
    "n_features": 62,
    "n_weights_total": 63,
    "bias_value": 10.117574263576065,
    "weights_without_bias": [
      0.012351476808439475,
      0.00329989276441525,
      0.011515750983482478,
      -0.01703003117580882,
      -0.0012402749461978056,
      -0.0011111424080488188,
      0.004937280298322044,
      0.08366113599718865,
      0.0038752503809813908,
      -0.2860576256572821,
      -0.01069459585414547,
      -0.0057178026115613486,
      0.010002098944610434,
      0.0834883875534548,
      -0.003145497332979336,
      0.0017188482981123985,
      0.003087791937727682,
      0.016228491613588535,
      -0.08777260076445363,
      0.07751840985538459,
      0.014103443550019752,
      0.06374730954322809,
      0.005714696486805382,
      -0.007570935607413254,
      -0.005815554879323033,
      -2.8343018991242714e-05,
      0.009110187073331003,
      0.025875669709514736,
      0.027787654455107436,
      -0.003835978268131676,
      -0.005451606390984819,
      0.011174558138060309,
      0.07884002399145686,
      0.21975863503597778,
      -0.005515522250993522,
      0.03094494828148214,
      0.06726107592586172,
      -0.014700771735531496,
      -0.02796919534497644,
      -0.018685067538459464,
      -0.053182284337625015,
      -0.05573499839007384,
      -0.050137535038953095,
      -0.007512094849276168,
      -0.015122398964884789,
      -0.013446493768689246,
      -0.0005247088792391546,
      0.01186389396823533,
      -0.007456847110250268,
      -0.01553478662768759,
      -0.017035382949007433,
      0.0018335194410796188,
      -0.00043554332819862923,
      0.0006231723435594123,
      0.0010724268100637984,
      0.003446705568563148,
      0.003145349389084558,
      0.0032340576662644592,
      -0.014039182471021202,
      -0.00521467110660962,
      -0.03527902695270665,
      -0.010995678804966621
    ],
    "complete_weight_vector": [
      0.012351476808439475,
      0.00329989276441525,
      0.011515750983482478,
      -0.01703003117580882,
      -0.0012402749461978056,
      -0.0011111424080488188,
      0.004937280298322044,
      0.08366113599718865,
      0.0038752503809813908,
      -0.2860576256572821,
      -0.01069459585414547,
      -0.0057178026115613486,
      0.010002098944610434,
      0.0834883875534548,
      -0.003145497332979336,
      0.0017188482981123985,
      0.003087791937727682,
      0.016228491613588535,
      -0.08777260076445363,
      0.07751840985538459,
      0.014103443550019752,
      0.06374730954322809,
      0.005714696486805382,
      -0.007570935607413254,
      -0.005815554879323033,
      -2.8343018991242714e-05,
      0.009110187073331003,
      0.025875669709514736,
      0.027787654455107436,
      -0.003835978268131676,
      -0.005451606390984819,
      0.011174558138060309,
      0.07884002399145686,
      0.21975863503597778,
      -0.005515522250993522,
      0.03094494828148214,
      0.06726107592586172,
      -0.014700771735531496,
      -0.02796919534497644,
      -0.018685067538459464,
      -0.053182284337625015,
      -0.05573499839007384,
      -0.050137535038953095,
      -0.007512094849276168,
      -0.015122398964884789,
      -0.013446493768689246,
      -0.0005247088792391546,
      0.01186389396823533,
      -0.007456847110250268,
      -0.01553478662768759,
      -0.017035382949007433,
      0.0018335194410796188,
      -0.00043554332819862923,
      0.0006231723435594123,
      0.0010724268100637984,
      0.003446705568563148,
      0.003145349389084558,
      0.0032340576662644592,
      -0.014039182471021202,
      -0.00521467110660962,
      -0.03527902695270665,
      -0.010995678804966621,
      10.117574263576065
    ],
    "weights_stats": {
      "min": -0.2860576256572821,
      "max": 0.21975863503597778,
      "mean": 0.0014069026362730902,
      "std": 0.05525152739354785
    }
  },
  "convergence_analysis": {
    "iterations_to_converge": 100000,
    "final_cost_change": -3.755789221293604e-10,
    "convergence_rate": "linear",
    "loss_reduction_ratio": 576.8891100273273
  },
  "algorithm_specific": {
    "gradient_descent_type": "standard",
    "step_size_method": "constant",
    "step_size_constant": true,
    "momentum_used": false,
    "backtracking_parameters": null,
    "adaptive_parameters": null
  }
}