{
  "algorithm": "Stochastic Gradient Descent - OLS",
  "loss_function": "OLS",
  "parameters": {
    "learning_rate": 0.01,
    "max_epochs": 100,
    "batch_size": 256,
    "tolerance": 1e-05,
    "learning_rate_schedule": "constant",
    "momentum": 0.0,
    "random_state": 42,
    "shuffle_each_epoch": false,
    "randomize_each_epoch": false
  },
  "training_results": {
    "training_time": 43.71451497077942,
    "converged": false,
    "final_epoch": 100,
    "total_epochs": 100,
    "final_loss": 0.012697668199272415,
    "final_gradient_norm": 0.011340297089907471,
    "best_epoch": 50,
    "best_loss": 0.012453198546555435,
    "best_gradient_norm": 0.008014021700955429,
    "improvement_from_final": {
      "loss_improvement": 0.00024446965271698005,
      "gradient_improvement": 0.0033262753889520425,
      "epochs_earlier": 50
    }
  },
  "weights_analysis": {
    "n_features": 62,
    "n_weights_total": 63,
    "bias_value": 10.114736746832373,
    "weights_without_bias": [
      0.005065479107002585,
      4.0477675472668276e-05,
      0.014363363847700638,
      -0.008127502998598086,
      0.0008950907837331518,
      0.006363486707087364,
      0.013282413385395323,
      0.08281038351239253,
      0.005714242274979702,
      -0.2832598219770513,
      -0.01173017002181802,
      0.0019338647511055423,
      0.010627173489069759,
      0.08163349683145193,
      -0.004961503854968426,
      0.0066647991777521376,
      0.0021593632668176384,
      0.012937046149899087,
      -0.10984654003324174,
      0.10460579626547117,
      0.015456787035554658,
      0.0675465461194329,
      0.00653231102273166,
      -0.015384848235924165,
      -0.012457611890901608,
      0.002532346584283165,
      0.009530337272767399,
      0.025103647247245637,
      0.029893069408805508,
      -0.00877219813969329,
      -0.006291580751899765,
      0.029129537375639163,
      0.06966933687691881,
      0.21277196716654206,
      -0.0018793182161267038,
      0.01772367362674626,
      0.07865227648111202,
      -0.014491476997883113,
      -0.02633558686589843,
      -0.02125140675330097,
      -0.04945184173872015,
      -0.05728815720754381,
      -0.05438826135096819,
      -0.009230284018560856,
      -0.019237128308780216,
      -0.01049754053617465,
      0.0037443872224986103,
      0.011960411078654346,
      -0.0024190777460759262,
      -0.015981434008419688,
      -0.017935561982001032,
      -0.004125337433768994,
      -0.009205406386042878,
      0.00197318846567979,
      -0.0033265827471880543,
      0.0023183852049707713,
      0.0015263973862629648,
      0.0034346290161498174,
      -0.011482176091996083,
      -0.004290195119750202,
      -0.03331769968133396,
      -0.010798253068860246
    ],
    "complete_weight_vector": [
      0.005065479107002585,
      4.0477675472668276e-05,
      0.014363363847700638,
      -0.008127502998598086,
      0.0008950907837331518,
      0.006363486707087364,
      0.013282413385395323,
      0.08281038351239253,
      0.005714242274979702,
      -0.2832598219770513,
      -0.01173017002181802,
      0.0019338647511055423,
      0.010627173489069759,
      0.08163349683145193,
      -0.004961503854968426,
      0.0066647991777521376,
      0.0021593632668176384,
      0.012937046149899087,
      -0.10984654003324174,
      0.10460579626547117,
      0.015456787035554658,
      0.0675465461194329,
      0.00653231102273166,
      -0.015384848235924165,
      -0.012457611890901608,
      0.002532346584283165,
      0.009530337272767399,
      0.025103647247245637,
      0.029893069408805508,
      -0.00877219813969329,
      -0.006291580751899765,
      0.029129537375639163,
      0.06966933687691881,
      0.21277196716654206,
      -0.0018793182161267038,
      0.01772367362674626,
      0.07865227648111202,
      -0.014491476997883113,
      -0.02633558686589843,
      -0.02125140675330097,
      -0.04945184173872015,
      -0.05728815720754381,
      -0.05438826135096819,
      -0.009230284018560856,
      -0.019237128308780216,
      -0.01049754053617465,
      0.0037443872224986103,
      0.011960411078654346,
      -0.0024190777460759262,
      -0.015981434008419688,
      -0.017935561982001032,
      -0.004125337433768994,
      -0.009205406386042878,
      0.00197318846567979,
      -0.0033265827471880543,
      0.0023183852049707713,
      0.0015263973862629648,
      0.0034346290161498174,
      -0.011482176091996083,
      -0.004290195119750202,
      -0.03331769968133396,
      -0.010798253068860246,
      10.114736746832373
    ],
    "weights_stats": {
      "min": -0.2832598219770513,
      "max": 0.21277196716654206,
      "mean": 0.0016263098008683253,
      "std": 0.05607556387677189
    }
  },
  "convergence_analysis": {
    "epochs_to_converge": 100,
    "best_epoch_found": 50,
    "final_cost_change": 0.00034963966257406214,
    "convergence_rate": "sublinear",
    "loss_reduction_ratio": 1.0010941859760882
  },
  "algorithm_specific": {
    "sgd_type": "mini_batch",
    "batch_size": 256,
    "learning_rate_schedule": "constant",
    "momentum_used": false,
    "momentum_value": null,
    "shuffling_strategy": {
      "shuffle_each_epoch": false,
      "randomize_each_epoch": false
    },
    "returns_best_result": true,
    "stochastic_variance": true
  },
  "computational_complexity": {
    "basic_metrics": {
      "function_evaluations": 10,
      "gradient_evaluations": 10000000,
      "matrix_vector_multiplications": 0,
      "vector_operations": 10117310,
      "memory_allocations": 39101,
      "peak_memory_size": 63,
      "total_operations": 1963854460
    },
    "iterations": {
      "total_iterations": 100,
      "final_iteration": 100,
      "converged": false,
      "convergence_iteration": null
    },
    "per_iteration_averages": {
      "function_evaluations_per_iter": 0.1,
      "gradient_evaluations_per_iter": 100000.0,
      "operations_per_iter": 19638544.6,
      "matrix_operations_per_iter": 0.0
    },
    "scalability_metrics": {
      "problem_size": {
        "n_samples": 100000,
        "n_features": 62
      },
      "problem_complexity_factor": 6200000,
      "operations_per_problem_unit": 316.75071935483874,
      "memory_efficiency": 0.0006296096420219464,
      "theoretical_complexity": "O(100000*62*100)"
    },
    "operation_distribution": {
      "function_eval_percentage": 5.092027033408576e-07,
      "gradient_eval_percentage": 0.5092027033408576,
      "matrix_ops_percentage": 0.0,
      "vector_ops_percentage": 0.5151761602537491
    }
  }
}