{
  "algorithm": "LBFGS Quasi-Newton - OLS",
  "loss_function": "OLS",
  "parameters": {
    "max_iterations": 10000,
    "tolerance": 1e-05,
    "armijo_c1": 0.0001,
    "wolfe_c2": 0.9,
    "backtrack_rho": 0.8,
    "damping": 1e-08,
    "memory_size": 5
  },
  "training_results": {
    "training_time": 1.246288537979126,
    "converged": true,
    "final_iteration": 300,
    "total_iterations": 10000,
    "final_loss": 0.011945538981725609,
    "final_gradient_norm": 8.11925402015876e-06
  },
  "weights_analysis": {
    "n_features": 62,
    "n_weights_total": 63,
    "bias_value": 10.118428961271974,
    "weights_without_bias": [
      0.018971410785935693,
      0.0019888723872797625,
      0.01752162004866272,
      -0.018062431199981525,
      -0.00589516059737716,
      0.0053844487589625725,
      0.006112208716099763,
      0.08489665225790281,
      0.01301243587688022,
      -0.27105507324614203,
      -0.01812383010661176,
      0.004986687333339105,
      0.009447350994067969,
      0.10494364196921699,
      0.00013925611807930825,
      -0.022400343000991012,
      0.010542770522205713,
      0.011520513697306488,
      -0.10018755792790641,
      0.08926324731899561,
      0.005480691568517383,
      0.06340143513080648,
      0.004831756917768939,
      0.011834243287994753,
      -0.01483791401957168,
      0.0006691403323098011,
      0.007940204368218481,
      0.03159949947953848,
      0.04340410898377238,
      -0.017365324169505484,
      0.0027168656510292194,
      0.01696548605970988,
      0.06515041958297615,
      0.2094969214992299,
      -0.009604290389444122,
      0.1751111921439416,
      -0.07391770656765909,
      -0.016346580708053657,
      -0.021750476793950747,
      -0.011653272211810214,
      -0.040452123458066425,
      -0.039244164347728566,
      -0.027237544032062355,
      -0.0024598980746211533,
      -0.010854225904274505,
      -0.012628989357307078,
      -0.09405825032361047,
      0.017603025433259697,
      -0.019098633297538994,
      -0.02162636882318481,
      -0.01880129918652379,
      -0.02292179104404281,
      -0.009100412930096275,
      0.002226121138032273,
      -0.004672861539080619,
      -0.000587930839821922,
      0.0020405289876706365,
      0.0020466016636090773,
      -0.016844126389268462,
      -0.0006131087021574136,
      -0.03176324338161368,
      -0.007481772807499221
    ],
    "complete_weight_vector": [
      0.018971410785935693,
      0.0019888723872797625,
      0.01752162004866272,
      -0.018062431199981525,
      -0.00589516059737716,
      0.0053844487589625725,
      0.006112208716099763,
      0.08489665225790281,
      0.01301243587688022,
      -0.27105507324614203,
      -0.01812383010661176,
      0.004986687333339105,
      0.009447350994067969,
      0.10494364196921699,
      0.00013925611807930825,
      -0.022400343000991012,
      0.010542770522205713,
      0.011520513697306488,
      -0.10018755792790641,
      0.08926324731899561,
      0.005480691568517383,
      0.06340143513080648,
      0.004831756917768939,
      0.011834243287994753,
      -0.01483791401957168,
      0.0006691403323098011,
      0.007940204368218481,
      0.03159949947953848,
      0.04340410898377238,
      -0.017365324169505484,
      0.0027168656510292194,
      0.01696548605970988,
      0.06515041958297615,
      0.2094969214992299,
      -0.009604290389444122,
      0.1751111921439416,
      -0.07391770656765909,
      -0.016346580708053657,
      -0.021750476793950747,
      -0.011653272211810214,
      -0.040452123458066425,
      -0.039244164347728566,
      -0.027237544032062355,
      -0.0024598980746211533,
      -0.010854225904274505,
      -0.012628989357307078,
      -0.09405825032361047,
      0.017603025433259697,
      -0.019098633297538994,
      -0.02162636882318481,
      -0.01880129918652379,
      -0.02292179104404281,
      -0.009100412930096275,
      0.002226121138032273,
      -0.004672861539080619,
      -0.000587930839821922,
      0.0020405289876706365,
      0.0020466016636090773,
      -0.016844126389268462,
      -0.0006131087021574136,
      -0.03176324338161368,
      -0.007481772807499221,
      10.118428961271974
    ],
    "weights_stats": {
      "min": -0.27105507324614203,
      "max": 0.2094969214992299,
      "mean": 0.0009613331231583289,
      "std": 0.05981669699602105
    }
  },
  "convergence_analysis": {
    "iterations_to_converge": 300,
    "final_cost_change": -2.3706631952641333e-09,
    "convergence_rate": "superlinear",
    "loss_reduction_ratio": 1.3972349693220953
  },
  "numerical_analysis": {
    "average_step_size": 0.9779428602006689,
    "average_line_search_iterations": 1.1337792642140467,
    "final_condition_number": NaN,
    "max_condition_number": NaN,
    "min_condition_number": NaN,
    "hessian_approximation_quality": "BFGS_secant_approximation",
    "line_search_efficiency": "Wolfe_conditions_satisfied"
  },
  "algorithm_specific": {
    "method_type": "quasi_newton_lbfgs",
    "second_order_approximation": true,
    "line_search_used": true,
    "line_search_type": "wolfe_conditions",
    "hessian_computation": "lbfgs_limited_memory",
    "superlinear_convergence": "L-BFGS provides superlinear convergence rate",
    "memory_efficient": "limited_memory_size_5",
    "two_loop_recursion": "efficient_matrix_free_computation",
    "memory_usage": 5
  }
}