{
  "algorithm": "Stochastic Gradient Descent - OLS",
  "loss_function": "OLS",
  "parameters": {
    "learning_rate": 0.01,
    "max_epochs": 100,
    "batch_size": 256,
    "tolerance": 1e-05,
    "learning_rate_schedule": "constant",
    "momentum": 0.0,
    "random_state": 42,
    "shuffle_each_epoch": false,
    "randomize_each_epoch": false
  },
  "training_results": {
    "training_time": 49.75499367713928,
    "converged": false,
    "final_epoch": 100,
    "total_epochs": 100,
    "final_loss": 0.013821429248497481,
    "final_gradient_norm": 0.015231152491736987,
    "best_epoch": 0,
    "best_loss": 0.013628962289896069,
    "best_gradient_norm": 0.008293606759036048,
    "improvement_from_final": {
      "loss_improvement": 0.0001924669586014123,
      "gradient_improvement": 0.00693754573270094,
      "epochs_earlier": 100
    }
  },
  "weights_analysis": {
    "n_features": 62,
    "n_weights_total": 63,
    "bias_value": 10.118087631857295,
    "weights_without_bias": [
      0.005273652339054962,
      0.000546725427855635,
      0.013679785228289025,
      -0.0016815686570493607,
      0.0036979289594588514,
      0.005339011651104881,
      0.01400393716044231,
      0.0831976533032182,
      0.002446880878319282,
      -0.27695502599168476,
      -0.010044377060285424,
      -0.006948265552122527,
      0.009453277503140192,
      0.07981606921827016,
      -0.005925097624075492,
      0.0057012054086451195,
      0.001195769497710628,
      0.008275001521852676,
      -0.1080291124200604,
      0.09527374064795206,
      -0.008328776152653029,
      0.0706786451100908,
      0.01348368429457659,
      -0.014930411162868563,
      -0.011160396417627373,
      0.003038594336666147,
      0.0105023544590111,
      0.027220823318666154,
      0.02572369452507857,
      -0.012007441416263205,
      -0.003010412034774141,
      0.02478097948097814,
      0.07280143586757688,
      0.21928198786402175,
      -0.009518790366629401,
      0.0282033499035146,
      0.06489036004338572,
      -0.006182270805833043,
      -0.024289752312370846,
      -0.017372308108084794,
      -0.058393553417448,
      -0.05810341498169158,
      -0.051357208645681,
      -0.007010916105825932,
      -0.021313196296736125,
      -0.012885008324700844,
      -0.010884139024953766,
      0.0069250643290002184,
      -0.005654321022645778,
      -0.015679598745923926,
      -0.01422682009301391,
      -0.0008441687166433223,
      0.01848819097847022,
      -0.003637108303091249,
      0.0044583804320307025,
      0.002402573330668039,
      0.003776792661141924,
      0.011465537725248148,
      -0.01881182019885931,
      -0.006836802079575769,
      -0.03074358798262039,
      -0.013705174650401365
    ],
    "complete_weight_vector": [
      0.005273652339054962,
      0.000546725427855635,
      0.013679785228289025,
      -0.0016815686570493607,
      0.0036979289594588514,
      0.005339011651104881,
      0.01400393716044231,
      0.0831976533032182,
      0.002446880878319282,
      -0.27695502599168476,
      -0.010044377060285424,
      -0.006948265552122527,
      0.009453277503140192,
      0.07981606921827016,
      -0.005925097624075492,
      0.0057012054086451195,
      0.001195769497710628,
      0.008275001521852676,
      -0.1080291124200604,
      0.09527374064795206,
      -0.008328776152653029,
      0.0706786451100908,
      0.01348368429457659,
      -0.014930411162868563,
      -0.011160396417627373,
      0.003038594336666147,
      0.0105023544590111,
      0.027220823318666154,
      0.02572369452507857,
      -0.012007441416263205,
      -0.003010412034774141,
      0.02478097948097814,
      0.07280143586757688,
      0.21928198786402175,
      -0.009518790366629401,
      0.0282033499035146,
      0.06489036004338572,
      -0.006182270805833043,
      -0.024289752312370846,
      -0.017372308108084794,
      -0.058393553417448,
      -0.05810341498169158,
      -0.051357208645681,
      -0.007010916105825932,
      -0.021313196296736125,
      -0.012885008324700844,
      -0.010884139024953766,
      0.0069250643290002184,
      -0.005654321022645778,
      -0.015679598745923926,
      -0.01422682009301391,
      -0.0008441687166433223,
      0.01848819097847022,
      -0.003637108303091249,
      0.0044583804320307025,
      0.002402573330668039,
      0.003776792661141924,
      0.011465537725248148,
      -0.01881182019885931,
      -0.006836802079575769,
      -0.03074358798262039,
      -0.013705174650401365,
      10.118087631857295
    ],
    "weights_stats": {
      "min": -0.27695502599168476,
      "max": 0.21928198786402175,
      "mean": 0.001444391011826532,
      "std": 0.055583167503996
    }
  },
  "convergence_analysis": {
    "epochs_to_converge": 100,
    "best_epoch_found": 0,
    "final_cost_change": 0.0005815007404288784,
    "convergence_rate": "sublinear",
    "loss_reduction_ratio": 1.0
  },
  "algorithm_specific": {
    "sgd_type": "mini_batch",
    "batch_size": 256,
    "learning_rate_schedule": "constant",
    "momentum_used": false,
    "momentum_value": null,
    "shuffling_strategy": {
      "shuffle_each_epoch": false,
      "randomize_each_epoch": false
    },
    "returns_best_result": true,
    "stochastic_variance": true
  },
  "computational_complexity": {
    "basic_metrics": {
      "function_evaluations": 10,
      "gradient_evaluations": 10000000,
      "matrix_vector_multiplications": 0,
      "vector_operations": 10117310,
      "memory_allocations": 39101,
      "peak_memory_size": 63,
      "total_operations": 1963854460
    },
    "iterations": {
      "total_iterations": 100,
      "final_iteration": 100,
      "converged": false,
      "convergence_iteration": null
    },
    "per_iteration_averages": {
      "function_evaluations_per_iter": 0.1,
      "gradient_evaluations_per_iter": 100000.0,
      "operations_per_iter": 19638544.6,
      "matrix_operations_per_iter": 0.0
    },
    "scalability_metrics": {
      "problem_size": {
        "n_samples": 100000,
        "n_features": 62
      },
      "problem_complexity_factor": 6200000,
      "operations_per_problem_unit": 316.75071935483874,
      "memory_efficiency": 0.0006296096420219464,
      "theoretical_complexity": "O(100000*62*100)"
    },
    "operation_distribution": {
      "function_eval_percentage": 5.092027033408576e-07,
      "gradient_eval_percentage": 0.5092027033408576,
      "matrix_ops_percentage": 0.0,
      "vector_ops_percentage": 0.5151761602537491
    }
  }
}