{
  "algorithm": "Stochastic Gradient Descent - OLS",
  "loss_function": "OLS",
  "parameters": {
    "learning_rate": 0.01,
    "max_epochs": 100,
    "batch_size": 256,
    "tolerance": 1e-05,
    "learning_rate_schedule": "constant",
    "momentum": 0.0,
    "random_state": 42,
    "shuffle_each_epoch": false,
    "randomize_each_epoch": false
  },
  "training_results": {
    "training_time": 52.75376009941101,
    "converged": false,
    "final_epoch": 100,
    "total_epochs": 100,
    "final_loss": 0.011996400566156985,
    "final_gradient_norm": 0.00660804071572824,
    "best_epoch": 80,
    "best_loss": 0.011982285960279922,
    "best_gradient_norm": 0.0055790459319884494,
    "improvement_from_final": {
      "loss_improvement": 1.4114605877062897e-05,
      "gradient_improvement": 0.0010289947837397902,
      "epochs_earlier": 20
    }
  },
  "weights_analysis": {
    "n_features": 62,
    "n_weights_total": 63,
    "bias_value": 10.116862146134238,
    "weights_without_bias": [
      0.006459814072560385,
      0.0013633298613391677,
      0.010392375506086456,
      -0.0076454176617020584,
      0.0012774536765656139,
      0.009086676083579099,
      0.016317878219707083,
      0.08471282942771419,
      0.006045986806469463,
      -0.278927608571831,
      -0.010591152058315057,
      -0.004053495886921758,
      0.009492879785932083,
      0.08451286397347837,
      -0.00539832272281882,
      0.006227980309901806,
      0.0017225443989672146,
      0.010298162482938989,
      -0.11272590717526917,
      0.10145296850862959,
      0.010346196997289272,
      0.06721504266794179,
      0.003669221942295215,
      -0.013193270958017998,
      -0.008576809326823373,
      0.003855198770149679,
      0.008759885658195847,
      0.026076682495946198,
      0.028166876181947867,
      -0.008238449885875217,
      -0.003072031013267518,
      0.027074647327737164,
      0.06933783342542768,
      0.21600588426742207,
      -0.005418438646567838,
      0.038300046030250286,
      0.061797181496479954,
      -0.01308919008269965,
      -0.026542635133149205,
      -0.016887201404603737,
      -0.05158061296026461,
      -0.05243013762082145,
      -0.046529933348087894,
      -0.006386063838701678,
      -0.014809243492427113,
      -0.012114702815003275,
      -0.0004535555668621082,
      0.012216223673088639,
      -0.001885329492257931,
      -0.01586319465100093,
      -0.018389559763675813,
      -0.0009057876951367091,
      1.2857858441806959e-05,
      0.000705598479885206,
      0.0011089658744299217,
      0.004319362805024786,
      0.0035111142594597034,
      0.0023948167895431255,
      -0.014481536550316304,
      -0.004533187470553009,
      -0.03584689074304344,
      -0.010241457948606092
    ],
    "complete_weight_vector": [
      0.006459814072560385,
      0.0013633298613391677,
      0.010392375506086456,
      -0.0076454176617020584,
      0.0012774536765656139,
      0.009086676083579099,
      0.016317878219707083,
      0.08471282942771419,
      0.006045986806469463,
      -0.278927608571831,
      -0.010591152058315057,
      -0.004053495886921758,
      0.009492879785932083,
      0.08451286397347837,
      -0.00539832272281882,
      0.006227980309901806,
      0.0017225443989672146,
      0.010298162482938989,
      -0.11272590717526917,
      0.10145296850862959,
      0.010346196997289272,
      0.06721504266794179,
      0.003669221942295215,
      -0.013193270958017998,
      -0.008576809326823373,
      0.003855198770149679,
      0.008759885658195847,
      0.026076682495946198,
      0.028166876181947867,
      -0.008238449885875217,
      -0.003072031013267518,
      0.027074647327737164,
      0.06933783342542768,
      0.21600588426742207,
      -0.005418438646567838,
      0.038300046030250286,
      0.061797181496479954,
      -0.01308919008269965,
      -0.026542635133149205,
      -0.016887201404603737,
      -0.05158061296026461,
      -0.05243013762082145,
      -0.046529933348087894,
      -0.006386063838701678,
      -0.014809243492427113,
      -0.012114702815003275,
      -0.0004535555668621082,
      0.012216223673088639,
      -0.001885329492257931,
      -0.01586319465100093,
      -0.018389559763675813,
      -0.0009057876951367091,
      1.2857858441806959e-05,
      0.000705598479885206,
      0.0011089658744299217,
      0.004319362805024786,
      0.0035111142594597034,
      0.0023948167895431255,
      -0.014481536550316304,
      -0.004533187470553009,
      -0.03584689074304344,
      -0.010241457948606092,
      10.116862146134238
    ],
    "weights_stats": {
      "min": -0.278927608571831,
      "max": 0.21600588426742207,
      "mean": 0.002152036381132338,
      "std": 0.055563401774173106
    }
  },
  "convergence_analysis": {
    "epochs_to_converge": 100,
    "best_epoch_found": 80,
    "final_cost_change": 1.4114605877062897e-05,
    "convergence_rate": "sublinear",
    "loss_reduction_ratio": 1833.0502176710772
  },
  "algorithm_specific": {
    "sgd_type": "mini_batch",
    "batch_size": 256,
    "learning_rate_schedule": "constant",
    "momentum_used": false,
    "momentum_value": null,
    "shuffling_strategy": {
      "shuffle_each_epoch": false,
      "randomize_each_epoch": false
    },
    "returns_best_result": true,
    "stochastic_variance": true
  },
  "computational_complexity": {
    "basic_metrics": {
      "function_evaluations": 10,
      "gradient_evaluations": 10000000,
      "matrix_vector_multiplications": 0,
      "vector_operations": 10117310,
      "memory_allocations": 39101,
      "peak_memory_size": 63,
      "total_operations": 1963854460
    },
    "iterations": {
      "total_iterations": 100,
      "final_iteration": 100,
      "converged": false,
      "convergence_iteration": null
    },
    "per_iteration_averages": {
      "function_evaluations_per_iter": 0.1,
      "gradient_evaluations_per_iter": 100000.0,
      "operations_per_iter": 19638544.6,
      "matrix_operations_per_iter": 0.0
    },
    "scalability_metrics": {
      "problem_size": {
        "n_samples": 100000,
        "n_features": 62
      },
      "problem_complexity_factor": 6200000,
      "operations_per_problem_unit": 316.75071935483874,
      "memory_efficiency": 0.0006296096420219464,
      "theoretical_complexity": "O(100000*62*100)"
    },
    "operation_distribution": {
      "function_eval_percentage": 5.092027033408576e-07,
      "gradient_eval_percentage": 0.5092027033408576,
      "matrix_ops_percentage": 0.0,
      "vector_ops_percentage": 0.5151761602537491
    }
  }
}