{
  "algorithm": "Gradient Descent - OLS",
  "loss_function": "OLS",
  "parameters": {
    "learning_rate": 0.01,
    "max_iterations": 500,
    "tolerance": 1e-05
  },
  "training_results": {
    "training_time": 3.4278810024261475,
    "converged": false,
    "final_iteration": 500,
    "total_iterations": 500,
    "final_loss": 0.015752223964873753,
    "final_gradient_norm": 0.0698215438705174
  },
  "weights_analysis": {
    "n_features": 62,
    "n_weights_total": 63,
    "bias_value": 10.050887935025642,
    "weights_without_bias": [
      0.006759432346542977,
      0.0101008922567605,
      0.005233662670193096,
      -0.007916774942200371,
      -0.0036829394737459575,
      -0.011113556375928032,
      0.01022933503850008,
      0.07775745754539475,
      0.015064464008974897,
      -0.12309070712076971,
      -0.013149763536397192,
      -0.03548036241782049,
      0.011445301813788031,
      0.07772321365968721,
      -0.025795664689494725,
      0.0034558967350214963,
      -0.006099470278193353,
      0.0058492147924106876,
      -0.08283672307718283,
      0.031334281720076726,
      0.02691911561096137,
      -0.016888680453886237,
      0.010289110604373028,
      0.016934208744657803,
      0.002143225374652266,
      -0.009898379981632947,
      0.008850030577151906,
      0.017803567963992937,
      0.04736791129139949,
      -0.01128454412356371,
      0.004787670391273815,
      -0.00023707370451685683,
      -0.01099972128831928,
      0.1934745971670175,
      0.003761766440134922,
      0.05649920019274139,
      0.0616586258233235,
      0.0002974267963868799,
      -0.012491776245041478,
      -0.0005093851043148621,
      -0.004565061863891776,
      -0.014030997275561913,
      0.006694544348057324,
      0.0070317167316913225,
      -0.003179226744404834,
      -0.007905476650241995,
      -0.0005437747397152952,
      0.008801416754826997,
      -0.011785056980495324,
      -0.016516086883350104,
      -0.017649855524889128,
      -0.011757987415432863,
      -0.0006920356491635519,
      0.001884039432676845,
      0.0007093597457045179,
      0.0059459365738768035,
      0.0036162445336365315,
      0.008382747681858453,
      -0.01682131569545972,
      0.007327981356897645,
      -0.023305402445683937,
      -0.0062021632216582995
    ],
    "complete_weight_vector": [
      0.006759432346542977,
      0.0101008922567605,
      0.005233662670193096,
      -0.007916774942200371,
      -0.0036829394737459575,
      -0.011113556375928032,
      0.01022933503850008,
      0.07775745754539475,
      0.015064464008974897,
      -0.12309070712076971,
      -0.013149763536397192,
      -0.03548036241782049,
      0.011445301813788031,
      0.07772321365968721,
      -0.025795664689494725,
      0.0034558967350214963,
      -0.006099470278193353,
      0.0058492147924106876,
      -0.08283672307718283,
      0.031334281720076726,
      0.02691911561096137,
      -0.016888680453886237,
      0.010289110604373028,
      0.016934208744657803,
      0.002143225374652266,
      -0.009898379981632947,
      0.008850030577151906,
      0.017803567963992937,
      0.04736791129139949,
      -0.01128454412356371,
      0.004787670391273815,
      -0.00023707370451685683,
      -0.01099972128831928,
      0.1934745971670175,
      0.003761766440134922,
      0.05649920019274139,
      0.0616586258233235,
      0.0002974267963868799,
      -0.012491776245041478,
      -0.0005093851043148621,
      -0.004565061863891776,
      -0.014030997275561913,
      0.006694544348057324,
      0.0070317167316913225,
      -0.003179226744404834,
      -0.007905476650241995,
      -0.0005437747397152952,
      0.008801416754826997,
      -0.011785056980495324,
      -0.016516086883350104,
      -0.017649855524889128,
      -0.011757987415432863,
      -0.0006920356491635519,
      0.001884039432676845,
      0.0007093597457045179,
      0.0059459365738768035,
      0.0036162445336365315,
      0.008382747681858453,
      -0.01682131569545972,
      0.007327981356897645,
      -0.023305402445683937,
      -0.0062021632216582995,
      10.050887935025642
    ],
    "weights_stats": {
      "min": -0.12309070712076971,
      "max": 0.1934745971670175,
      "mean": 0.004027477948736886,
      "std": 0.03777524332391089
    }
  },
  "convergence_analysis": {
    "iterations_to_converge": 500,
    "final_cost_change": -4.944597315293536e-05,
    "convergence_rate": "linear",
    "loss_reduction_ratio": 3250.9877821580735
  },
  "algorithm_specific": {
    "gradient_descent_type": "standard",
    "step_size_constant": true,
    "momentum_used": false
  }
}