{
  "algorithm": "Gradient Descent - OLS",
  "loss_function": "OLS",
  "parameters": {
    "learning_rate": 1.0,
    "max_iterations": 10000,
    "tolerance": 1e-05,
    "step_size_method": "backtracking"
  },
  "training_results": {
    "training_time": 226.34808444976807,
    "converged": true,
    "final_iteration": 8100,
    "total_iterations": 10000,
    "final_loss": 0.01192459300876082,
    "final_gradient_norm": 9.410463399122676e-06,
    "best_iteration": 8000,
    "best_loss": 0.01192459300876082,
    "best_gradient_norm": 9.410463399122676e-06,
    "improvement_from_final": {
      "loss_improvement": 0.0,
      "gradient_improvement": 0.0,
      "iterations_earlier": 100
    }
  },
  "weights_analysis": {
    "n_features": 62,
    "n_weights_total": 63,
    "bias_value": 10.11757626205081,
    "weights_without_bias": [
      0.015386648808457628,
      0.0001015140376347691,
      0.011518185352000925,
      -0.019605989108846172,
      -0.0018181439594898215,
      -0.003344765935200291,
      -0.00368637477541353,
      0.08364133626933061,
      0.003892256888255653,
      -0.2861003025020692,
      -0.010692167229816887,
      -0.005722280515334363,
      0.010001559819435311,
      0.09025415719055162,
      0.00477528740193628,
      -0.007394728490861196,
      0.004278544112180261,
      0.0162241934145339,
      -0.0809398669436912,
      0.07749497550150795,
      0.014097547695242534,
      0.07562347032778562,
      0.00572219697483172,
      -0.0013008514980604791,
      -0.0037152827628214747,
      0.0031697865703264904,
      0.00910941084422836,
      0.025871741749058434,
      0.027789893417070763,
      -0.004485775053284676,
      0.0035078153850424767,
      0.0075024889071292,
      0.06698056733518946,
      0.21975694174256477,
      -0.00550696783959379,
      0.015872268850816766,
      0.08233693097824782,
      -0.014697605063084184,
      -0.027962379196042254,
      -0.018678498341269906,
      -0.05315763370892963,
      -0.055711765345224096,
      -0.05011396220496035,
      -0.0075063252188164635,
      -0.015118456697860574,
      -0.013439223476227984,
      -0.0005253007195280528,
      0.011860904867519811,
      -0.006808277801293628,
      -0.015540905798359747,
      -0.017038687937777568,
      -0.007131664427741518,
      -0.00043581704013605926,
      0.0006237243619170843,
      0.0010795669639277028,
      0.0034478964463760023,
      0.0031456555727824255,
      0.0032330902579221724,
      -0.014043285508203971,
      -0.005208371322721802,
      -0.03527166413240343,
      -0.010975523165681598
    ],
    "complete_weight_vector": [
      0.015386648808457628,
      0.0001015140376347691,
      0.011518185352000925,
      -0.019605989108846172,
      -0.0018181439594898215,
      -0.003344765935200291,
      -0.00368637477541353,
      0.08364133626933061,
      0.003892256888255653,
      -0.2861003025020692,
      -0.010692167229816887,
      -0.005722280515334363,
      0.010001559819435311,
      0.09025415719055162,
      0.00477528740193628,
      -0.007394728490861196,
      0.004278544112180261,
      0.0162241934145339,
      -0.0809398669436912,
      0.07749497550150795,
      0.014097547695242534,
      0.07562347032778562,
      0.00572219697483172,
      -0.0013008514980604791,
      -0.0037152827628214747,
      0.0031697865703264904,
      0.00910941084422836,
      0.025871741749058434,
      0.027789893417070763,
      -0.004485775053284676,
      0.0035078153850424767,
      0.0075024889071292,
      0.06698056733518946,
      0.21975694174256477,
      -0.00550696783959379,
      0.015872268850816766,
      0.08233693097824782,
      -0.014697605063084184,
      -0.027962379196042254,
      -0.018678498341269906,
      -0.05315763370892963,
      -0.055711765345224096,
      -0.05011396220496035,
      -0.0075063252188164635,
      -0.015118456697860574,
      -0.013439223476227984,
      -0.0005253007195280528,
      0.011860904867519811,
      -0.006808277801293628,
      -0.015540905798359747,
      -0.017038687937777568,
      -0.007131664427741518,
      -0.00043581704013605926,
      0.0006237243619170843,
      0.0010795669639277028,
      0.0034478964463760023,
      0.0031456555727824255,
      0.0032330902579221724,
      -0.014043285508203971,
      -0.005208371322721802,
      -0.03527166413240343,
      -0.010975523165681598,
      10.11757626205081
    ],
    "weights_stats": {
      "min": -0.2861003025020692,
      "max": 0.21975694174256477,
      "mean": 0.0015261566826299789,
      "std": 0.055487154503089615
    }
  },
  "convergence_analysis": {
    "iterations_to_converge": 8100,
    "best_iteration_found": 8000,
    "final_cost_change": -7.664075051677655e-10,
    "convergence_rate": "linear",
    "loss_reduction_ratio": 1.0079967639330079
  },
  "algorithm_specific": {
    "gradient_descent_type": "standard",
    "step_size_method": "backtracking",
    "step_size_constant": false,
    "momentum_used": false,
    "returns_best_result": true,
    "backtracking_parameters": {
      "c1": 0.1,
      "rho": 0.5
    },
    "adaptive_parameters": null
  },
  "computational_complexity": {
    "basic_metrics": {
      "function_evaluations": 81,
      "gradient_evaluations": 8100,
      "matrix_vector_multiplications": 0,
      "vector_operations": 8181,
      "memory_allocations": 8100,
      "peak_memory_size": 63,
      "total_operations": 102578920506
    },
    "iterations": {
      "total_iterations": 8099,
      "final_iteration": 8100,
      "converged": true,
      "convergence_iteration": 8100
    },
    "per_iteration_averages": {
      "function_evaluations_per_iter": 0.010001234720335844,
      "gradient_evaluations_per_iter": 1.0001234720335843,
      "operations_per_iter": 12665627.917767625,
      "matrix_operations_per_iter": 0.0
    },
    "efficiency_metrics": {
      "operations_to_convergence": 102559920317,
      "convergence_efficiency": 1.0,
      "operations_per_convergence_iter": 12664064.26
    },
    "scalability_metrics": {
      "problem_size": {
        "n_samples": 100000,
        "n_features": 62
      },
      "problem_complexity_factor": 6200000,
      "operations_per_problem_unit": 16544.9871783871,
      "memory_efficiency": 0.0006296096420219464,
      "theoretical_complexity": "O(100000*62*8099)"
    },
    "operation_distribution": {
      "function_eval_percentage": 7.89635917403344e-08,
      "gradient_eval_percentage": 7.89635917403344e-06,
      "matrix_ops_percentage": 0.0,
      "vector_ops_percentage": 7.975322765773773e-06
    }
  }
}