{
  "algorithm": "Gradient Descent - OLS",
  "loss_function": "OLS",
  "parameters": {
    "learning_rate": 1.0,
    "max_iterations": 10000,
    "tolerance": 1e-05,
    "step_size_method": "backtracking"
  },
  "training_results": {
    "training_time": 718.5340514183044,
    "converged": true,
    "final_iteration": 7400,
    "total_iterations": 10000,
    "final_loss": 0.011924591881441066,
    "final_gradient_norm": 9.491246756200431e-06,
    "best_iteration": 7300,
    "best_loss": 0.011924591881441066,
    "best_gradient_norm": 9.491246756200431e-06,
    "improvement_from_final": {
      "loss_improvement": 0.0,
      "gradient_improvement": 0.0,
      "iterations_earlier": 100
    }
  },
  "weights_analysis": {
    "n_features": 62,
    "n_weights_total": 63,
    "bias_value": 10.117576287182684,
    "weights_without_bias": [
      0.002335552939123629,
      0.005415149632713991,
      0.011518215646769444,
      -0.01656692775388721,
      -0.0011349272201531231,
      -0.0007146536069453028,
      -0.0005310382278961936,
      0.08364108748009641,
      0.0038924720253091633,
      -0.28610084366982785,
      -0.010692136640289288,
      -0.0057223364290629715,
      0.010001553080790185,
      0.08680714341726352,
      0.005906030801501602,
      -0.001813946652856233,
      -0.0024330083209556227,
      0.01622413848322272,
      -0.08438603229509777,
      0.07749467891419409,
      0.014097473657200186,
      0.06680114807095124,
      0.005722291607516081,
      0.007475723275212057,
      -0.006450684073329567,
      -0.0021438524062084925,
      0.009109401119138496,
      0.02587169226264784,
      0.027789921491358827,
      -0.01377904305166833,
      0.0007120954031241416,
      0.011827906073953587,
      0.07580310354092984,
      0.21975692059243426,
      -0.005506860280359055,
      0.01568242490163501,
      0.08252681464959102,
      -0.014697558027648116,
      -0.02796228417511929,
      -0.01867840637373989,
      -0.05315730321483841,
      -0.055711449694328126,
      -0.05011363794166789,
      -0.007506246409368651,
      -0.01511840059372287,
      -0.013439131640940023,
      -0.0005253081713906658,
      0.011860867305303098,
      0.002484974627795306,
      -0.01554098260452342,
      -0.01703872905770703,
      -0.004336016740979727,
      -0.0004358204752025427,
      0.0006237312630722373,
      0.0010796557436246205,
      0.003447911478292856,
      0.0031456594049823544,
      0.0032330784025488835,
      -0.014043337188561426,
      -0.005208291850429879,
      -0.03527157102135516,
      -0.010975267698363034
    ],
    "complete_weight_vector": [
      0.002335552939123629,
      0.005415149632713991,
      0.011518215646769444,
      -0.01656692775388721,
      -0.0011349272201531231,
      -0.0007146536069453028,
      -0.0005310382278961936,
      0.08364108748009641,
      0.0038924720253091633,
      -0.28610084366982785,
      -0.010692136640289288,
      -0.0057223364290629715,
      0.010001553080790185,
      0.08680714341726352,
      0.005906030801501602,
      -0.001813946652856233,
      -0.0024330083209556227,
      0.01622413848322272,
      -0.08438603229509777,
      0.07749467891419409,
      0.014097473657200186,
      0.06680114807095124,
      0.005722291607516081,
      0.007475723275212057,
      -0.006450684073329567,
      -0.0021438524062084925,
      0.009109401119138496,
      0.02587169226264784,
      0.027789921491358827,
      -0.01377904305166833,
      0.0007120954031241416,
      0.011827906073953587,
      0.07580310354092984,
      0.21975692059243426,
      -0.005506860280359055,
      0.01568242490163501,
      0.08252681464959102,
      -0.014697558027648116,
      -0.02796228417511929,
      -0.01867840637373989,
      -0.05315730321483841,
      -0.055711449694328126,
      -0.05011363794166789,
      -0.007506246409368651,
      -0.01511840059372287,
      -0.013439131640940023,
      -0.0005253081713906658,
      0.011860867305303098,
      0.002484974627795306,
      -0.01554098260452342,
      -0.01703872905770703,
      -0.004336016740979727,
      -0.0004358204752025427,
      0.0006237312630722373,
      0.0010796557436246205,
      0.003447911478292856,
      0.0031456594049823544,
      0.0032330784025488835,
      -0.014043337188561426,
      -0.005208291850429879,
      -0.03527157102135516,
      -0.010975267698363034,
      10.117576287182684
    ],
    "weights_stats": {
      "min": -0.28610084366982785,
      "max": 0.21975692059243426,
      "mean": 0.0015250448997398954,
      "std": 0.05546454475967058
    }
  },
  "convergence_analysis": {
    "iterations_to_converge": 7400,
    "best_iteration_found": 7300,
    "final_cost_change": -7.001242155468823e-10,
    "convergence_rate": "linear",
    "loss_reduction_ratio": 1.0085166978597229
  },
  "algorithm_specific": {
    "gradient_descent_type": "standard",
    "step_size_method": "backtracking",
    "step_size_constant": false,
    "momentum_used": false,
    "returns_best_result": true,
    "backtracking_parameters": {
      "c1": 0.1,
      "rho": 0.5
    },
    "adaptive_parameters": null
  },
  "computational_complexity": {
    "basic_metrics": {
      "function_evaluations": 74,
      "gradient_evaluations": 7400,
      "matrix_vector_multiplications": 0,
      "vector_operations": 7474,
      "memory_allocations": 7400,
      "peak_memory_size": 63,
      "total_operations": 93714075524
    },
    "iterations": {
      "total_iterations": 7399,
      "final_iteration": 7400,
      "converged": true,
      "convergence_iteration": 7400
    },
    "per_iteration_averages": {
      "function_evaluations_per_iter": 0.010001351533991079,
      "gradient_evaluations_per_iter": 1.000135153399108,
      "operations_per_iter": 12665775.85133126,
      "matrix_operations_per_iter": 0.0
    },
    "efficiency_metrics": {
      "operations_to_convergence": 93695075335,
      "convergence_efficiency": 1.0,
      "operations_per_convergence_iter": 12664064.26
    },
    "scalability_metrics": {
      "problem_size": {
        "n_samples": 100000,
        "n_features": 62
      },
      "problem_complexity_factor": 6200000,
      "operations_per_problem_unit": 15115.173471612903,
      "memory_efficiency": 0.0006296096420219464,
      "theoretical_complexity": "O(100000*62*7399)"
    },
    "operation_distribution": {
      "function_eval_percentage": 7.89635917403344e-08,
      "gradient_eval_percentage": 7.89635917403344e-06,
      "matrix_ops_percentage": 0.0,
      "vector_ops_percentage": 7.975322765773773e-06
    }
  }
}