{
  "algorithm": "Gradient Descent - OLS",
  "loss_function": "OLS",
  "parameters": {
    "learning_rate": 0.2,
    "max_iterations": 10000,
    "tolerance": 1e-05,
    "step_size_method": "constant"
  },
  "training_results": {
    "training_time": 83.27211117744446,
    "converged": false,
    "final_iteration": 10000,
    "total_iterations": 10000,
    "final_loss": 0.01192465268695546,
    "final_gradient_norm": 1.0143520589068364e-05
  },
  "weights_analysis": {
    "n_features": 62,
    "n_weights_total": 63,
    "bias_value": 10.117575487022437,
    "weights_without_bias": [
      0.008648856578594351,
      0.012877640079784128,
      0.011517251920303428,
      -0.023753726082130003,
      -0.0027510555694812925,
      -0.006932784771658743,
      -0.0007932638190291977,
      0.0836490013394444,
      0.0038856495974533977,
      -0.2860836542462422,
      -0.010693107511422781,
      -0.005720568603788393,
      0.010001767118345686,
      0.08086751741190523,
      0.004642024504849502,
      -0.009247077793801935,
      0.006265040117895703,
      0.016225900753152524,
      -0.09035265698221284,
      0.07750409842730524,
      0.014099824398351644,
      0.07660791342746609,
      0.005719281349064213,
      0.0018998059184802598,
      -0.005359678692107235,
      -0.0096062292877247,
      0.00910970763191855,
      0.02587326542391802,
      0.02778903141538445,
      -0.01574081677610624,
      0.002556316428728925,
      0.0016012860115752073,
      0.06598950619330843,
      0.2197576050230002,
      -0.005510278520634894,
      0.02171795200237264,
      0.07649003592519021,
      -0.01469905456388734,
      -0.0279653063632891,
      -0.018681331801927818,
      -0.0531678076760346,
      -0.05572148813155815,
      -0.050123943806586364,
      -0.0075087509323144164,
      -0.01512018471574543,
      -0.013442051358910058,
      -0.0005250712334776049,
      0.011862062001098348,
      0.004447245304915744,
      -0.01553854255841043,
      -0.017037421231444295,
      -0.006177938133205599,
      -0.0004357119291458608,
      0.0006235125283567753,
      0.0010768348466249776,
      0.0034474347739225247,
      0.0031455372798607157,
      0.003233453103042507,
      -0.014041693686917947,
      -0.005210817499313224,
      -0.03527453308966318,
      -0.010983391115374273
    ],
    "complete_weight_vector": [
      0.008648856578594351,
      0.012877640079784128,
      0.011517251920303428,
      -0.023753726082130003,
      -0.0027510555694812925,
      -0.006932784771658743,
      -0.0007932638190291977,
      0.0836490013394444,
      0.0038856495974533977,
      -0.2860836542462422,
      -0.010693107511422781,
      -0.005720568603788393,
      0.010001767118345686,
      0.08086751741190523,
      0.004642024504849502,
      -0.009247077793801935,
      0.006265040117895703,
      0.016225900753152524,
      -0.09035265698221284,
      0.07750409842730524,
      0.014099824398351644,
      0.07660791342746609,
      0.005719281349064213,
      0.0018998059184802598,
      -0.005359678692107235,
      -0.0096062292877247,
      0.00910970763191855,
      0.02587326542391802,
      0.02778903141538445,
      -0.01574081677610624,
      0.002556316428728925,
      0.0016012860115752073,
      0.06598950619330843,
      0.2197576050230002,
      -0.005510278520634894,
      0.02171795200237264,
      0.07649003592519021,
      -0.01469905456388734,
      -0.0279653063632891,
      -0.018681331801927818,
      -0.0531678076760346,
      -0.05572148813155815,
      -0.050123943806586364,
      -0.0075087509323144164,
      -0.01512018471574543,
      -0.013442051358910058,
      -0.0005250712334776049,
      0.011862062001098348,
      0.004447245304915744,
      -0.01553854255841043,
      -0.017037421231444295,
      -0.006177938133205599,
      -0.0004357119291458608,
      0.0006235125283567753,
      0.0010768348466249776,
      0.0034474347739225247,
      0.0031455372798607157,
      0.003233453103042507,
      -0.014041693686917947,
      -0.005210817499313224,
      -0.03527453308966318,
      -0.010983391115374273,
      10.117575487022437
    ],
    "weights_stats": {
      "min": -0.2860836542462422,
      "max": 0.2197576050230002,
      "mean": 0.0009505229089043203,
      "std": 0.0554713804938742
    }
  },
  "convergence_analysis": {
    "iterations_to_converge": 10000,
    "final_cost_change": -2.086766686532071e-09,
    "convergence_rate": "linear",
    "loss_reduction_ratio": 1.020804574005401
  },
  "algorithm_specific": {
    "gradient_descent_type": "standard",
    "step_size_method": "constant",
    "step_size_constant": true,
    "momentum_used": false,
    "backtracking_parameters": null,
    "adaptive_parameters": null
  }
}