{
  "algorithm": "Gradient Descent - OLS",
  "loss_function": "OLS",
  "parameters": {
    "learning_rate": 0.2,
    "max_iterations": 100000,
    "tolerance": 1e-05,
    "step_size_method": "constant"
  },
  "training_results": {
    "training_time": 46.49733591079712,
    "converged": true,
    "final_iteration": 7900,
    "total_iterations": 100000,
    "final_loss": 0.011924650331620299,
    "final_gradient_norm": 9.977875254482258e-06
  },
  "weights_analysis": {
    "n_features": 62,
    "n_weights_total": 63,
    "bias_value": 10.11757550888192,
    "weights_without_bias": [
      0.021945882822208995,
      -0.0032287705124803114,
      0.01151727824166343,
      -0.0187770470318835,
      -0.0016322513654291012,
      -0.002625747821887671,
      -0.008790590660060087,
      0.08364878453379276,
      0.003885838374618564,
      -0.2860841279509331,
      -0.010693080699536549,
      -0.005720617909571126,
      0.010001761235057551,
      0.09139547873837978,
      0.005858123967857417,
      0.004399591101155653,
      -0.008597749184293282,
      0.016225853727371228,
      -0.07982395659489966,
      0.07750383892041524,
      0.014099759698887722,
      0.07462568715897223,
      0.005719363795024449,
      -0.002001022128335935,
      -0.0016792383788851674,
      0.0065001787122909,
      0.009109698980248514,
      0.02587322227558953,
      0.027789056003173628,
      -0.01020026946119661,
      -0.008196237707557515,
      0.00868452096463293,
      0.0679719177731583,
      0.21975758742536833,
      -0.005510184565120689,
      0.02155239943344109,
      0.07665562375665866,
      -0.014699012020278299,
      -0.027965221446538444,
      -0.01868124959256755,
      -0.053167514829044915,
      -0.0557212079400645,
      -0.050123654738644746,
      -0.007508680870992844,
      -0.015120134484928901,
      -0.01344197129228908,
      -0.0005250777373278569,
      0.01186202927602636,
      -0.0010933154955603038,
      -0.015538609578246414,
      -0.01703745702084235,
      0.004574553227327563,
      -0.00043571496514335415,
      0.000623518578455119,
      0.0010769120454459827,
      0.00344744798754605,
      0.0031455406399153434,
      0.0032334427099587615,
      -0.014041738662567398,
      -0.005210748095502743,
      -0.0352744519194574,
      -0.010983168099631289
    ],
    "complete_weight_vector": [
      0.021945882822208995,
      -0.0032287705124803114,
      0.01151727824166343,
      -0.0187770470318835,
      -0.0016322513654291012,
      -0.002625747821887671,
      -0.008790590660060087,
      0.08364878453379276,
      0.003885838374618564,
      -0.2860841279509331,
      -0.010693080699536549,
      -0.005720617909571126,
      0.010001761235057551,
      0.09139547873837978,
      0.005858123967857417,
      0.004399591101155653,
      -0.008597749184293282,
      0.016225853727371228,
      -0.07982395659489966,
      0.07750383892041524,
      0.014099759698887722,
      0.07462568715897223,
      0.005719363795024449,
      -0.002001022128335935,
      -0.0016792383788851674,
      0.0065001787122909,
      0.009109698980248514,
      0.02587322227558953,
      0.027789056003173628,
      -0.01020026946119661,
      -0.008196237707557515,
      0.00868452096463293,
      0.0679719177731583,
      0.21975758742536833,
      -0.005510184565120689,
      0.02155239943344109,
      0.07665562375665866,
      -0.014699012020278299,
      -0.027965221446538444,
      -0.01868124959256755,
      -0.053167514829044915,
      -0.0557212079400645,
      -0.050123654738644746,
      -0.007508680870992844,
      -0.015120134484928901,
      -0.01344197129228908,
      -0.0005250777373278569,
      0.01186202927602636,
      -0.0010933154955603038,
      -0.015538609578246414,
      -0.01703745702084235,
      0.004574553227327563,
      -0.00043571496514335415,
      0.000623518578455119,
      0.0010769120454459827,
      0.00344744798754605,
      0.0031455406399153434,
      0.0032334427099587615,
      -0.014041738662567398,
      -0.005210748095502743,
      -0.0352744519194574,
      -0.010983168099631289,
      10.11757550888192
    ],
    "weights_stats": {
      "min": -0.2860841279509331,
      "max": 0.21975758742536833,
      "mean": 0.0016541140539184421,
      "std": 0.055445539045194295
    }
  },
  "convergence_analysis": {
    "iterations_to_converge": 7900,
    "final_cost_change": -2.0191686881526616e-09,
    "convergence_rate": "linear",
    "loss_reduction_ratio": 1.0218194904592743
  },
  "algorithm_specific": {
    "gradient_descent_type": "standard",
    "step_size_method": "constant",
    "step_size_constant": true,
    "momentum_used": false,
    "backtracking_parameters": null,
    "adaptive_parameters": null
  }
}