{
  "algorithm": "Gradient Descent - RIDGE",
  "loss_function": "RIDGE",
  "parameters": {
    "learning_rate": 0.01,
    "max_iterations": 500,
    "tolerance": 1e-05,
    "step_size_method": "constant",
    "regularization": 0.01
  },
  "training_results": {
    "training_time": 24.988773822784424,
    "converged": false,
    "final_iteration": 500,
    "total_iterations": 500,
    "final_loss": 0.01615433581369249,
    "final_gradient_norm": 0.06965148573503467
  },
  "weights_analysis": {
    "n_features": 62,
    "n_weights_total": 63,
    "bias_value": 10.050874803296791,
    "weights_without_bias": [
      0.016281356491555984,
      -0.006608935977239874,
      0.004619878448707411,
      0.0004010376526757082,
      -0.001594176421343539,
      -0.0025334368877188286,
      0.009019246631052217,
      0.07303921142883996,
      -0.00933737576751664,
      -0.11808120156538807,
      -0.01371028410271262,
      -0.03300096229283443,
      0.01159999997931432,
      0.06986707520471853,
      0.0022669720024470143,
      -0.016389032828657717,
      0.006314149180152399,
      0.00606355197532344,
      -0.1060456494857704,
      0.039256529398746735,
      0.026823522191662518,
      -0.025414294119706003,
      0.010959707337130323,
      0.0034762945237716467,
      0.005255142356301703,
      0.007132975125008118,
      0.008748937832677597,
      0.02077833920956982,
      0.05617914523627782,
      -0.00744791353355844,
      0.0006683174833339811,
      0.014123044916630271,
      -0.010747341394740444,
      0.18154843430905654,
      0.00351085247065923,
      0.06034045163487007,
      0.05867251290868614,
      -0.0009624367313748428,
      -0.015607844851292622,
      -0.005265279860252736,
      -0.013347879100121739,
      -0.023591179655546548,
      -0.005625269376162815,
      0.005968929046515416,
      -0.005739485195699243,
      -0.010771842682815674,
      -0.00044914430450528986,
      0.01201763617035434,
      -0.009065775145586317,
      -0.01265228426968589,
      -0.012532835925232131,
      -0.0020848441754701408,
      -0.0006288500057843908,
      0.001992716026545609,
      0.003324336073092393,
      0.006440855252649111,
      0.0035701508256279846,
      0.00799217106307395,
      -0.018084899258383903,
      0.0029697278172667253,
      -0.02842935326909641,
      -0.010426269862592805
    ],
    "complete_weight_vector": [
      0.016281356491555984,
      -0.006608935977239874,
      0.004619878448707411,
      0.0004010376526757082,
      -0.001594176421343539,
      -0.0025334368877188286,
      0.009019246631052217,
      0.07303921142883996,
      -0.00933737576751664,
      -0.11808120156538807,
      -0.01371028410271262,
      -0.03300096229283443,
      0.01159999997931432,
      0.06986707520471853,
      0.0022669720024470143,
      -0.016389032828657717,
      0.006314149180152399,
      0.00606355197532344,
      -0.1060456494857704,
      0.039256529398746735,
      0.026823522191662518,
      -0.025414294119706003,
      0.010959707337130323,
      0.0034762945237716467,
      0.005255142356301703,
      0.007132975125008118,
      0.008748937832677597,
      0.02077833920956982,
      0.05617914523627782,
      -0.00744791353355844,
      0.0006683174833339811,
      0.014123044916630271,
      -0.010747341394740444,
      0.18154843430905654,
      0.00351085247065923,
      0.06034045163487007,
      0.05867251290868614,
      -0.0009624367313748428,
      -0.015607844851292622,
      -0.005265279860252736,
      -0.013347879100121739,
      -0.023591179655546548,
      -0.005625269376162815,
      0.005968929046515416,
      -0.005739485195699243,
      -0.010771842682815674,
      -0.00044914430450528986,
      0.01201763617035434,
      -0.009065775145586317,
      -0.01265228426968589,
      -0.012532835925232131,
      -0.0020848441754701408,
      -0.0006288500057843908,
      0.001992716026545609,
      0.003324336073092393,
      0.006440855252649111,
      0.0035701508256279846,
      0.00799217106307395,
      -0.018084899258383903,
      0.0029697278172667253,
      -0.02842935326909641,
      -0.010426269862592805,
      10.050874803296791
    ],
    "weights_stats": {
      "min": -0.11808120156538807,
      "max": 0.18154843430905654,
      "mean": 0.0034685020993145883,
      "std": 0.03752304676229747
    }
  },
  "convergence_analysis": {
    "iterations_to_converge": 500,
    "final_cost_change": -0.0005267973787655943,
    "convergence_rate": "linear",
    "loss_reduction_ratio": 2590.1799320359646
  },
  "algorithm_specific": {
    "gradient_descent_type": "standard",
    "step_size_method": "constant",
    "step_size_constant": true,
    "momentum_used": false,
    "backtracking_parameters": null,
    "adaptive_parameters": null
  }
}