{
  "algorithm": "Stochastic Gradient Descent - OLS",
  "loss_function": "OLS",
  "parameters": {
    "learning_rate": 0.01,
    "max_epochs": 100,
    "batch_size": 256,
    "tolerance": 1e-05,
    "learning_rate_schedule": "constant",
    "momentum": 0.0,
    "random_state": 42,
    "shuffle_each_epoch": false,
    "randomize_each_epoch": false
  },
  "training_results": {
    "training_time": 51.977856159210205,
    "converged": false,
    "final_epoch": 100,
    "total_epochs": 100,
    "final_loss": 0.012266561081611702,
    "final_gradient_norm": 0.022265680464440725,
    "best_epoch": 80,
    "best_loss": 0.012066833294877961,
    "best_gradient_norm": 0.021052385942893985,
    "improvement_from_final": {
      "loss_improvement": 0.0001997277867337409,
      "gradient_improvement": 0.00121329452154674,
      "epochs_earlier": 20
    }
  },
  "weights_analysis": {
    "n_features": 62,
    "n_weights_total": 63,
    "bias_value": 10.115609859595207,
    "weights_without_bias": [
      0.00729171434677349,
      0.002921682789879281,
      0.010086641877408228,
      -0.008532160901849448,
      0.00012754287544803182,
      0.006503147605703155,
      0.017811335325392974,
      0.08470078666889573,
      0.005235087217418878,
      -0.2801487342297402,
      -0.010338439443780038,
      -0.001392678740830719,
      0.008680057794661659,
      0.08515821162377284,
      -0.0062387020505896215,
      0.005387600982130959,
      0.0008821650711964437,
      0.010136913709922396,
      -0.11337125482556286,
      0.1013060617668271,
      0.00948859776781516,
      0.06704179568335673,
      0.0011187097588192493,
      -0.012036272690516978,
      -0.007110888252398892,
      0.005413551698689782,
      0.008661502667318077,
      0.024665353423996443,
      0.02974074692854783,
      -0.007472232370700209,
      -0.0024422576564634736,
      0.029450175873010118,
      0.06916458644084263,
      0.21518702185230493,
      -0.005573368240390928,
      0.021136819423243327,
      0.07874388129897392,
      -0.013440154427479731,
      -0.025977520809192366,
      -0.01577925510291189,
      -0.05443543660662368,
      -0.05556280240596958,
      -0.051471274320527095,
      -0.007640294667192314,
      -0.016704828016512987,
      -0.013548447568392187,
      -0.0002474348015483803,
      0.01082169373562507,
      -0.0011191119770827323,
      -0.014347811816845406,
      -0.018867726928307522,
      -0.00027601433833269215,
      -0.0016550209890776118,
      0.0014912323256073227,
      0.0026194350164080067,
      0.006931021292416168,
      0.004124861889488567,
      -0.0005352963070411076,
      -0.013919886559048116,
      -0.0038974598895937,
      -0.03716973359492967,
      -0.009927034646135743
    ],
    "complete_weight_vector": [
      0.00729171434677349,
      0.002921682789879281,
      0.010086641877408228,
      -0.008532160901849448,
      0.00012754287544803182,
      0.006503147605703155,
      0.017811335325392974,
      0.08470078666889573,
      0.005235087217418878,
      -0.2801487342297402,
      -0.010338439443780038,
      -0.001392678740830719,
      0.008680057794661659,
      0.08515821162377284,
      -0.0062387020505896215,
      0.005387600982130959,
      0.0008821650711964437,
      0.010136913709922396,
      -0.11337125482556286,
      0.1013060617668271,
      0.00948859776781516,
      0.06704179568335673,
      0.0011187097588192493,
      -0.012036272690516978,
      -0.007110888252398892,
      0.005413551698689782,
      0.008661502667318077,
      0.024665353423996443,
      0.02974074692854783,
      -0.007472232370700209,
      -0.0024422576564634736,
      0.029450175873010118,
      0.06916458644084263,
      0.21518702185230493,
      -0.005573368240390928,
      0.021136819423243327,
      0.07874388129897392,
      -0.013440154427479731,
      -0.025977520809192366,
      -0.01577925510291189,
      -0.05443543660662368,
      -0.05556280240596958,
      -0.051471274320527095,
      -0.007640294667192314,
      -0.016704828016512987,
      -0.013548447568392187,
      -0.0002474348015483803,
      0.01082169373562507,
      -0.0011191119770827323,
      -0.014347811816845406,
      -0.018867726928307522,
      -0.00027601433833269215,
      -0.0016550209890776118,
      0.0014912323256073227,
      0.0026194350164080067,
      0.006931021292416168,
      0.004124861889488567,
      -0.0005352963070411076,
      -0.013919886559048116,
      -0.0038974598895937,
      -0.03716973359492967,
      -0.009927034646135743,
      10.115609859595207
    ],
    "weights_stats": {
      "min": -0.2801487342297402,
      "max": 0.21518702185230493,
      "mean": 0.001949200025102043,
      "std": 0.05602645659991224
    }
  },
  "convergence_analysis": {
    "epochs_to_converge": 100,
    "best_epoch_found": 80,
    "final_cost_change": 0.0001997277867337409,
    "convergence_rate": "sublinear",
    "loss_reduction_ratio": 1.0023915203726277
  },
  "algorithm_specific": {
    "sgd_type": "mini_batch",
    "batch_size": 256,
    "learning_rate_schedule": "constant",
    "momentum_used": false,
    "momentum_value": null,
    "shuffling_strategy": {
      "shuffle_each_epoch": false,
      "randomize_each_epoch": false
    },
    "returns_best_result": true,
    "stochastic_variance": true
  },
  "computational_complexity": {
    "basic_metrics": {
      "function_evaluations": 10,
      "gradient_evaluations": 10000000,
      "matrix_vector_multiplications": 0,
      "vector_operations": 10117310,
      "memory_allocations": 39101,
      "peak_memory_size": 63,
      "total_operations": 1963854460
    },
    "iterations": {
      "total_iterations": 100,
      "final_iteration": 100,
      "converged": false,
      "convergence_iteration": null
    },
    "per_iteration_averages": {
      "function_evaluations_per_iter": 0.1,
      "gradient_evaluations_per_iter": 100000.0,
      "operations_per_iter": 19638544.6,
      "matrix_operations_per_iter": 0.0
    },
    "scalability_metrics": {
      "problem_size": {
        "n_samples": 100000,
        "n_features": 62
      },
      "problem_complexity_factor": 6200000,
      "operations_per_problem_unit": 316.75071935483874,
      "memory_efficiency": 0.0006296096420219464,
      "theoretical_complexity": "O(100000*62*100)"
    },
    "operation_distribution": {
      "function_eval_percentage": 5.092027033408576e-07,
      "gradient_eval_percentage": 0.5092027033408576,
      "matrix_ops_percentage": 0.0,
      "vector_ops_percentage": 0.5151761602537491
    }
  }
}