{
  "algorithm": "Stochastic Gradient Descent - OLS",
  "loss_function": "OLS",
  "parameters": {
    "learning_rate": 0.01,
    "max_epochs": 100,
    "batch_size": 512,
    "tolerance": 1e-05,
    "learning_rate_schedule": "constant",
    "momentum": 0.0,
    "random_state": 42,
    "shuffle_each_epoch": false,
    "randomize_each_epoch": false
  },
  "training_results": {
    "training_time": 41.23995804786682,
    "converged": false,
    "final_epoch": 100,
    "total_epochs": 100,
    "final_loss": 0.011992107171661102,
    "final_gradient_norm": 0.005994804732434692,
    "best_epoch": 60,
    "best_loss": 0.012033082270343469,
    "best_gradient_norm": 0.0043855472809828655,
    "improvement_from_final": {
      "loss_improvement": -4.0975098682366484e-05,
      "gradient_improvement": 0.0016092574514518267,
      "epochs_earlier": 40
    }
  },
  "weights_analysis": {
    "n_features": 62,
    "n_weights_total": 63,
    "bias_value": 10.117802812170714,
    "weights_without_bias": [
      0.006516841267784475,
      0.0011557080760057445,
      0.009607458436931487,
      -0.007542649653067139,
      0.0018975964912251626,
      0.009519509667803143,
      0.016815888017068917,
      0.08467829474405275,
      -0.008254470489466433,
      -0.23192797057891135,
      -0.009870087976220222,
      -0.004955294208513938,
      0.009618465442265477,
      0.0967046288320005,
      -0.005016184065465304,
      0.0066101189672552,
      0.0021046830563208195,
      0.010457640731217202,
      -0.12491767203379055,
      0.10847152122007556,
      0.012364928864696223,
      0.04913971409370551,
      0.0058987395110862905,
      -0.012926304499866573,
      -0.007417806294111749,
      0.003647576984816272,
      0.008449096151771925,
      0.02584653610231102,
      0.030802068372870695,
      -0.008102967679710464,
      -0.003098255972835002,
      0.026641313013343042,
      0.051262504851191555,
      0.21706591180437906,
      -0.004466621120240033,
      0.041098879885068856,
      0.056471480898522476,
      -0.00577147762240022,
      -0.016753625969148978,
      -0.007534865162490611,
      -0.028873055252403284,
      -0.027392805952532885,
      -0.016903888404369887,
      -0.0005721928364916796,
      -0.006898037297807959,
      -0.011632183016446373,
      -0.000120458696754807,
      0.011328202894387941,
      -0.001749847286093124,
      -0.016821070862169066,
      -0.020139374771611963,
      -0.0009320126547041841,
      -0.0011045878131574374,
      0.0003405298180937003,
      -0.0009966368194388301,
      0.004266553359702816,
      0.0035211187839326885,
      0.003793314690564515,
      -0.013748988542375553,
      -0.00521807155402866,
      -0.03525578988281938,
      -0.009430976501599325
    ],
    "complete_weight_vector": [
      0.006516841267784475,
      0.0011557080760057445,
      0.009607458436931487,
      -0.007542649653067139,
      0.0018975964912251626,
      0.009519509667803143,
      0.016815888017068917,
      0.08467829474405275,
      -0.008254470489466433,
      -0.23192797057891135,
      -0.009870087976220222,
      -0.004955294208513938,
      0.009618465442265477,
      0.0967046288320005,
      -0.005016184065465304,
      0.0066101189672552,
      0.0021046830563208195,
      0.010457640731217202,
      -0.12491767203379055,
      0.10847152122007556,
      0.012364928864696223,
      0.04913971409370551,
      0.0058987395110862905,
      -0.012926304499866573,
      -0.007417806294111749,
      0.003647576984816272,
      0.008449096151771925,
      0.02584653610231102,
      0.030802068372870695,
      -0.008102967679710464,
      -0.003098255972835002,
      0.026641313013343042,
      0.051262504851191555,
      0.21706591180437906,
      -0.004466621120240033,
      0.041098879885068856,
      0.056471480898522476,
      -0.00577147762240022,
      -0.016753625969148978,
      -0.007534865162490611,
      -0.028873055252403284,
      -0.027392805952532885,
      -0.016903888404369887,
      -0.0005721928364916796,
      -0.006898037297807959,
      -0.011632183016446373,
      -0.000120458696754807,
      0.011328202894387941,
      -0.001749847286093124,
      -0.016821070862169066,
      -0.020139374771611963,
      -0.0009320126547041841,
      -0.0011045878131574374,
      0.0003405298180937003,
      -0.0009966368194388301,
      0.004266553359702816,
      0.0035211187839326885,
      0.003793314690564515,
      -0.013748988542375553,
      -0.00521807155402866,
      -0.03525578988281938,
      -0.009430976501599325,
      10.117802812170714
    ],
    "weights_stats": {
      "min": -0.23192797057891135,
      "max": 0.21706591180437906,
      "mean": 0.004189525702571099,
      "std": 0.05118356543077901
    }
  },
  "convergence_analysis": {
    "epochs_to_converge": 100,
    "best_epoch_found": 60,
    "final_cost_change": -5.592099492504957e-06,
    "convergence_rate": "sublinear",
    "loss_reduction_ratio": 2856.657261828862
  },
  "algorithm_specific": {
    "sgd_type": "mini_batch",
    "batch_size": 512,
    "learning_rate_schedule": "constant",
    "momentum_used": false,
    "momentum_value": null,
    "shuffling_strategy": {
      "shuffle_each_epoch": false,
      "randomize_each_epoch": false
    },
    "returns_best_result": true,
    "stochastic_variance": true
  },
  "computational_complexity": {
    "basic_metrics": {
      "function_evaluations": 10,
      "gradient_evaluations": 10000000,
      "matrix_vector_multiplications": 0,
      "vector_operations": 10058810,
      "memory_allocations": 19601,
      "peak_memory_size": 63,
      "total_operations": 1958940460
    },
    "iterations": {
      "total_iterations": 100,
      "final_iteration": 100,
      "converged": false,
      "convergence_iteration": null
    },
    "per_iteration_averages": {
      "function_evaluations_per_iter": 0.1,
      "gradient_evaluations_per_iter": 100000.0,
      "operations_per_iter": 19589404.6,
      "matrix_operations_per_iter": 0.0
    },
    "scalability_metrics": {
      "problem_size": {
        "n_samples": 100000,
        "n_features": 62
      },
      "problem_complexity_factor": 6200000,
      "operations_per_problem_unit": 315.9581387096774,
      "memory_efficiency": 0.0006296096420219464,
      "theoretical_complexity": "O(100000*62*100)"
    },
    "operation_distribution": {
      "function_eval_percentage": 5.104800377649048e-07,
      "gradient_eval_percentage": 0.5104800377649048,
      "matrix_ops_percentage": 0.0,
      "vector_ops_percentage": 0.5134821708670002
    }
  }
}