{
  "algorithm": "Gradient Descent - OLS",
  "loss_function": "OLS",
  "parameters": {
    "learning_rate": 0.1,
    "max_iterations": 10000,
    "tolerance": 1e-05,
    "step_size_method": "constant"
  },
  "training_results": {
    "training_time": 197.22926831245422,
    "converged": false,
    "final_iteration": 10000,
    "total_iterations": 10000,
    "final_loss": 0.011924801638281756,
    "final_gradient_norm": 1.770930582871098e-05,
    "best_iteration": 9900,
    "best_loss": 0.011924801638281756,
    "best_gradient_norm": 1.770930582871098e-05,
    "improvement_from_final": {
      "loss_improvement": 0.0,
      "gradient_improvement": 0.0,
      "iterations_earlier": 100
    }
  },
  "weights_analysis": {
    "n_features": 62,
    "n_weights_total": 63,
    "bias_value": 10.117574484260537,
    "weights_without_bias": [
      -0.0009311529743690036,
      -0.015478333048775902,
      0.011516020877317987,
      -0.018590353613627673,
      -0.0015909106330908923,
      -0.002461997916341451,
      0.00032658208107961385,
      0.08365894869850665,
      0.0038771290358891046,
      -0.28606232917297136,
      -0.010694327280366914,
      -0.005718301088616586,
      0.010002039189729695,
      0.0888823274328137,
      0.004568724835043393,
      -0.0023407333511621044,
      -0.0005670573924237903,
      0.016228023543130972,
      -0.08237129045152107,
      0.07751582494019607,
      0.014102791086485702,
      0.07983654222356958,
      0.005715523669026939,
      0.009605974171688686,
      -0.007138747703510006,
      0.018749857589040308,
      0.009110100530145184,
      0.025875236043738065,
      0.02778790266892939,
      -0.004940950758554502,
      0.004243910255758373,
      0.008953131067734463,
      0.06275261627423136,
      0.21975845041240125,
      -0.005514576701903101,
      0.029280733521010408,
      0.06892564493619496,
      -0.014700446450377382,
      -0.02796847386674269,
      -0.018684373633091673,
      -0.053179629342058735,
      -0.05573251147552123,
      -0.050135023665083066,
      -0.007511478309058089,
      -0.015121985598499438,
      -0.013445692001419594,
      -0.0005247742333380311,
      0.011863563751319845,
      -0.006352009330053039,
      -0.015535463586180524,
      -0.017035749499806713,
      -0.007862633956908064,
      -0.00043557375168447126,
      0.0006232336318162517,
      0.0010732193933372977,
      0.0034468372528129033,
      0.0031453832405100497,
      0.0032339492181566983,
      -0.014039635328675975,
      -0.0052139757168898244,
      -0.0352782157149519,
      -0.010993459158615075
    ],
    "complete_weight_vector": [
      -0.0009311529743690036,
      -0.015478333048775902,
      0.011516020877317987,
      -0.018590353613627673,
      -0.0015909106330908923,
      -0.002461997916341451,
      0.00032658208107961385,
      0.08365894869850665,
      0.0038771290358891046,
      -0.28606232917297136,
      -0.010694327280366914,
      -0.005718301088616586,
      0.010002039189729695,
      0.0888823274328137,
      0.004568724835043393,
      -0.0023407333511621044,
      -0.0005670573924237903,
      0.016228023543130972,
      -0.08237129045152107,
      0.07751582494019607,
      0.014102791086485702,
      0.07983654222356958,
      0.005715523669026939,
      0.009605974171688686,
      -0.007138747703510006,
      0.018749857589040308,
      0.009110100530145184,
      0.025875236043738065,
      0.02778790266892939,
      -0.004940950758554502,
      0.004243910255758373,
      0.008953131067734463,
      0.06275261627423136,
      0.21975845041240125,
      -0.005514576701903101,
      0.029280733521010408,
      0.06892564493619496,
      -0.014700446450377382,
      -0.02796847386674269,
      -0.018684373633091673,
      -0.053179629342058735,
      -0.05573251147552123,
      -0.050135023665083066,
      -0.007511478309058089,
      -0.015121985598499438,
      -0.013445692001419594,
      -0.0005247742333380311,
      0.011863563751319845,
      -0.006352009330053039,
      -0.015535463586180524,
      -0.017035749499806713,
      -0.007862633956908064,
      -0.00043557375168447126,
      0.0006232336318162517,
      0.0010732193933372977,
      0.0034468372528129033,
      0.0031453832405100497,
      0.0032339492181566983,
      -0.014039635328675975,
      -0.0052139757168898244,
      -0.0352782157149519,
      -0.010993459158615075,
      10.117574484260537
    ],
    "weights_stats": {
      "min": -0.28606232917297136,
      "max": 0.21975845041240125,
      "mean": 0.0014598073365391126,
      "std": 0.05535061514976709
    }
  },
  "convergence_analysis": {
    "iterations_to_converge": 10000,
    "best_iteration_found": 9900,
    "final_cost_change": -3.1581496584554003e-09,
    "convergence_rate": "linear",
    "loss_reduction_ratio": 1.0514129689515643
  },
  "algorithm_specific": {
    "gradient_descent_type": "standard",
    "step_size_method": "constant",
    "step_size_constant": true,
    "momentum_used": false,
    "returns_best_result": true,
    "backtracking_parameters": null,
    "adaptive_parameters": null
  },
  "computational_complexity": {
    "basic_metrics": {
      "function_evaluations": 100,
      "gradient_evaluations": 10000,
      "matrix_vector_multiplications": 0,
      "vector_operations": 10100,
      "memory_allocations": 10000,
      "peak_memory_size": 63,
      "total_operations": 126640642600
    },
    "iterations": {
      "total_iterations": 10000,
      "final_iteration": 10000,
      "converged": false,
      "convergence_iteration": null
    },
    "per_iteration_averages": {
      "function_evaluations_per_iter": 0.01,
      "gradient_evaluations_per_iter": 1.0,
      "operations_per_iter": 12664064.26,
      "matrix_operations_per_iter": 0.0
    },
    "scalability_metrics": {
      "problem_size": {
        "n_samples": 100000,
        "n_features": 62
      },
      "problem_complexity_factor": 6200000,
      "operations_per_problem_unit": 20425.910096774194,
      "memory_efficiency": 0.0006296096420219464,
      "theoretical_complexity": "O(100000*62*10000)"
    },
    "operation_distribution": {
      "function_eval_percentage": 7.89635917403344e-08,
      "gradient_eval_percentage": 7.89635917403344e-06,
      "matrix_ops_percentage": 0.0,
      "vector_ops_percentage": 7.975322765773773e-06
    }
  }
}