{
  "algorithm": "Gradient Descent - RIDGE",
  "loss_function": "RIDGE",
  "parameters": {
    "learning_rate": 0.1,
    "max_iterations": 100000,
    "tolerance": 1e-05,
    "step_size_method": "backtracking",
    "regularization": 0.01
  },
  "training_results": {
    "training_time": 44.628801107406616,
    "converged": true,
    "final_iteration": 3200,
    "total_iterations": 100000,
    "final_loss": 0.012756610141778275,
    "final_gradient_norm": 9.696156434766818e-06
  },
  "weights_analysis": {
    "n_features": 62,
    "n_weights_total": 63,
    "bias_value": 10.117570330460117,
    "weights_without_bias": [
      0.0036873361039159052,
      0.001961915610623564,
      0.01047779491443312,
      -0.015148164949664122,
      -0.0011353175908395345,
      -0.0015366815219315106,
      0.0029693091391943065,
      0.08032872441925955,
      -0.0038244527023850307,
      -0.2339295403374494,
      -0.010407193749573239,
      -0.00955338128869887,
      0.010064784352043046,
      0.09533639912001608,
      0.00041506662000338057,
      0.00014260837575899896,
      0.00023496223487746296,
      0.013332107063812465,
      -0.09546590904392442,
      0.07898947690346352,
      0.017468946725567047,
      0.04808792834896778,
      0.006130820384848898,
      0.0034510352429470595,
      -0.004881523962223277,
      0.0011678391917696897,
      0.00913124679258667,
      0.025375557338712443,
      0.03259886514244423,
      -0.005152989325612369,
      -0.0011707738122937429,
      0.011268474130890495,
      0.048044310191517926,
      0.21553939345327813,
      -0.0039831513393912615,
      0.047543116257509795,
      0.05214006960169106,
      -0.006945776453009545,
      -0.01858528790282692,
      -0.009574356567855017,
      -0.032134161659938786,
      -0.032503099347236664,
      -0.02210930457158592,
      -0.001224565533634415,
      -0.008551682531590799,
      -0.01210712348061062,
      -0.0004970359824578034,
      0.01149460077787924,
      -0.005493500211520902,
      -0.015323174326297418,
      -0.01662179111804967,
      -0.001577960226175617,
      -0.0005128050802175987,
      0.0005861116197277529,
      -0.00010458640586080993,
      0.0036856864683322632,
      0.003317944325344116,
      0.0039014311655985595,
      -0.013880553463644025,
      -0.003930365926970374,
      -0.033876686244008386,
      -0.009235059674164764
    ],
    "complete_weight_vector": [
      0.0036873361039159052,
      0.001961915610623564,
      0.01047779491443312,
      -0.015148164949664122,
      -0.0011353175908395345,
      -0.0015366815219315106,
      0.0029693091391943065,
      0.08032872441925955,
      -0.0038244527023850307,
      -0.2339295403374494,
      -0.010407193749573239,
      -0.00955338128869887,
      0.010064784352043046,
      0.09533639912001608,
      0.00041506662000338057,
      0.00014260837575899896,
      0.00023496223487746296,
      0.013332107063812465,
      -0.09546590904392442,
      0.07898947690346352,
      0.017468946725567047,
      0.04808792834896778,
      0.006130820384848898,
      0.0034510352429470595,
      -0.004881523962223277,
      0.0011678391917696897,
      0.00913124679258667,
      0.025375557338712443,
      0.03259886514244423,
      -0.005152989325612369,
      -0.0011707738122937429,
      0.011268474130890495,
      0.048044310191517926,
      0.21553939345327813,
      -0.0039831513393912615,
      0.047543116257509795,
      0.05214006960169106,
      -0.006945776453009545,
      -0.01858528790282692,
      -0.009574356567855017,
      -0.032134161659938786,
      -0.032503099347236664,
      -0.02210930457158592,
      -0.001224565533634415,
      -0.008551682531590799,
      -0.01210712348061062,
      -0.0004970359824578034,
      0.01149460077787924,
      -0.005493500211520902,
      -0.015323174326297418,
      -0.01662179111804967,
      -0.001577960226175617,
      -0.0005128050802175987,
      0.0005861116197277529,
      -0.00010458640586080993,
      0.0036856864683322632,
      0.003317944325344116,
      0.0039014311655985595,
      -0.013880553463644025,
      -0.003930365926970374,
      -0.033876686244008386,
      -0.009235059674164764,
      10.117570330460117
    ],
    "weights_stats": {
      "min": -0.2339295403374494,
      "max": 0.21553939345327813,
      "mean": 0.003353159769118897,
      "std": 0.04912506643305884
    }
  },
  "convergence_analysis": {
    "iterations_to_converge": 3200,
    "final_cost_change": -1.0418268556883215e-09,
    "convergence_rate": "linear",
    "loss_reduction_ratio": 1.0319850263248986
  },
  "algorithm_specific": {
    "gradient_descent_type": "standard",
    "step_size_method": "backtracking",
    "step_size_constant": false,
    "momentum_used": false,
    "backtracking_parameters": {
      "c1": 0.001,
      "rho": 0.8
    },
    "adaptive_parameters": null
  }
}