{
  "algorithm": "Gradient Descent - RIDGE",
  "loss_function": "RIDGE",
  "parameters": {
    "learning_rate": 0.1,
    "max_iterations": 10000,
    "tolerance": 1e-05,
    "step_size_method": "backtracking",
    "regularization": 0.01
  },
  "training_results": {
    "training_time": 34.3886981010437,
    "converged": true,
    "final_iteration": 2800,
    "total_iterations": 10000,
    "final_loss": 0.012756610221908559,
    "final_gradient_norm": 9.94102994503388e-06
  },
  "weights_analysis": {
    "n_features": 62,
    "n_weights_total": 63,
    "bias_value": 10.117570344429186,
    "weights_without_bias": [
      0.004034337799657929,
      0.0017138054925720492,
      0.010476699589146238,
      -0.014963873414313465,
      -0.0010939672611956926,
      -0.0013774651575378459,
      0.00275039998966459,
      0.08033014590678987,
      -0.003832314577320099,
      -0.2339220533329095,
      -0.0104070223480877,
      -0.00955301890807234,
      0.010064891135591832,
      0.09555663104537761,
      0.00020681971222154282,
      0.0004300582363709416,
      0.00015852329847843724,
      0.01333448152687385,
      -0.09524942421924625,
      0.07899103469091574,
      0.017469721392916512,
      0.048520136626858175,
      0.006130984154412978,
      0.0033607228458969276,
      -0.004782341092157677,
      0.001416008973198647,
      0.009131211632664407,
      0.025375476502496257,
      0.032599016825381785,
      -0.0050857397183871915,
      -0.0016508892875829943,
      0.011530308042699514,
      0.04760499922592542,
      0.21553991061816313,
      -0.003983148561017982,
      0.04747203019770607,
      0.052211099222597354,
      -0.006931869767180059,
      -0.018567407412237898,
      -0.009556493781333414,
      -0.03209516775557946,
      -0.03245847387272746,
      -0.022055971396884422,
      -0.00121264814228585,
      -0.008539203073210945,
      -0.012106535322485625,
      -0.0004970474556634781,
      0.01149453637942399,
      -0.005560713638303915,
      -0.015323208131463423,
      -0.01662157524919125,
      -0.001097297495623283,
      -0.0005128311227464775,
      0.0005860617977239466,
      -0.00010692127633939382,
      0.0036858612548932414,
      0.0033179507640720123,
      0.0039020543465292353,
      -0.013880457836964304,
      -0.003930015942528361,
      -0.03387600840924658,
      -0.00923201125774225
    ],
    "complete_weight_vector": [
      0.004034337799657929,
      0.0017138054925720492,
      0.010476699589146238,
      -0.014963873414313465,
      -0.0010939672611956926,
      -0.0013774651575378459,
      0.00275039998966459,
      0.08033014590678987,
      -0.003832314577320099,
      -0.2339220533329095,
      -0.0104070223480877,
      -0.00955301890807234,
      0.010064891135591832,
      0.09555663104537761,
      0.00020681971222154282,
      0.0004300582363709416,
      0.00015852329847843724,
      0.01333448152687385,
      -0.09524942421924625,
      0.07899103469091574,
      0.017469721392916512,
      0.048520136626858175,
      0.006130984154412978,
      0.0033607228458969276,
      -0.004782341092157677,
      0.001416008973198647,
      0.009131211632664407,
      0.025375476502496257,
      0.032599016825381785,
      -0.0050857397183871915,
      -0.0016508892875829943,
      0.011530308042699514,
      0.04760499922592542,
      0.21553991061816313,
      -0.003983148561017982,
      0.04747203019770607,
      0.052211099222597354,
      -0.006931869767180059,
      -0.018567407412237898,
      -0.009556493781333414,
      -0.03209516775557946,
      -0.03245847387272746,
      -0.022055971396884422,
      -0.00121264814228585,
      -0.008539203073210945,
      -0.012106535322485625,
      -0.0004970474556634781,
      0.01149453637942399,
      -0.005560713638303915,
      -0.015323208131463423,
      -0.01662157524919125,
      -0.001097297495623283,
      -0.0005128311227464775,
      0.0005860617977239466,
      -0.00010692127633939382,
      0.0036858612548932414,
      0.0033179507640720123,
      0.0039020543465292353,
      -0.013880457836964304,
      -0.003930015942528361,
      -0.03387600840924658,
      -0.00923201125774225,
      10.117570344429186
    ],
    "weights_stats": {
      "min": -0.2339220533329095,
      "max": 0.21553991061816313,
      "mean": 0.00337633553241377,
      "std": 0.049121627095435966
    }
  },
  "convergence_analysis": {
    "iterations_to_converge": 2800,
    "final_cost_change": -1.1040030174769289e-09,
    "convergence_rate": "linear",
    "loss_reduction_ratio": 1.034455528373936
  },
  "algorithm_specific": {
    "gradient_descent_type": "standard",
    "step_size_method": "backtracking",
    "step_size_constant": false,
    "momentum_used": false,
    "backtracking_parameters": {
      "c1": 0.001,
      "rho": 0.8
    },
    "adaptive_parameters": null
  }
}