{
  "algorithm": "Gradient Descent - OLS",
  "loss_function": "OLS",
  "parameters": {
    "learning_rate": 0.1,
    "max_iterations": 1000,
    "tolerance": 1e-05,
    "step_size_method": "decreasing_linear"
  },
  "training_results": {
    "training_time": 49.028878688812256,
    "converged": false,
    "final_iteration": 1000,
    "total_iterations": 1000,
    "final_loss": 11.279668898333178,
    "final_gradient_norm": 4.746597121103444
  },
  "weights_analysis": {
    "n_features": 62,
    "n_weights_total": 63,
    "bias_value": 5.371692263257656,
    "weights_without_bias": [
      -0.0026352353226485573,
      -0.003464107896671,
      0.017559843744008246,
      0.009268902729723763,
      -0.01561245804489566,
      -0.010774386644894949,
      -0.0010293052710164975,
      0.03358957220981049,
      0.001488862670248242,
      -0.06268891994552604,
      -0.009214776419020205,
      -0.06905510327752559,
      0.02361657660082968,
      0.056149011639562096,
      0.0026209547540086827,
      -0.002198280890618779,
      0.00308066253212177,
      0.03150284579460572,
      -0.05272537726251272,
      -0.014370447079667392,
      0.0019265700456954577,
      -0.04747668462946646,
      -0.01002682988812089,
      -0.004522784178606788,
      0.01834296017603956,
      -0.015307137106336676,
      -0.006837754736162671,
      0.021541432669208087,
      0.04831273102828662,
      0.011293506819423598,
      -0.007841834632480673,
      0.027486023268152568,
      -0.049979852199097265,
      0.11667099548223481,
      0.040304798753212384,
      0.04560607512591191,
      0.056000933018473774,
      0.0029983729986820945,
      -0.01783516250520153,
      -0.009774281501113898,
      0.01644751908331557,
      -0.021118835582895772,
      -0.013576126169638068,
      -0.015422634333137505,
      -0.012832053409864087,
      0.009406863970237992,
      0.004063801431038234,
      0.006080666308416209,
      0.011588464266495528,
      -0.005710967912213881,
      -0.013811912387409949,
      -0.0042330569624714435,
      0.004810591456215412,
      0.015579157649164127,
      0.005776388135148303,
      0.0006956405232852937,
      -0.0021084473915561554,
      0.02054744540331347,
      -0.006528826380860517,
      0.0076373236503711785,
      -0.022045411917860504,
      -0.00568508859832008
    ],
    "complete_weight_vector": [
      -0.0026352353226485573,
      -0.003464107896671,
      0.017559843744008246,
      0.009268902729723763,
      -0.01561245804489566,
      -0.010774386644894949,
      -0.0010293052710164975,
      0.03358957220981049,
      0.001488862670248242,
      -0.06268891994552604,
      -0.009214776419020205,
      -0.06905510327752559,
      0.02361657660082968,
      0.056149011639562096,
      0.0026209547540086827,
      -0.002198280890618779,
      0.00308066253212177,
      0.03150284579460572,
      -0.05272537726251272,
      -0.014370447079667392,
      0.0019265700456954577,
      -0.04747668462946646,
      -0.01002682988812089,
      -0.004522784178606788,
      0.01834296017603956,
      -0.015307137106336676,
      -0.006837754736162671,
      0.021541432669208087,
      0.04831273102828662,
      0.011293506819423598,
      -0.007841834632480673,
      0.027486023268152568,
      -0.049979852199097265,
      0.11667099548223481,
      0.040304798753212384,
      0.04560607512591191,
      0.056000933018473774,
      0.0029983729986820945,
      -0.01783516250520153,
      -0.009774281501113898,
      0.01644751908331557,
      -0.021118835582895772,
      -0.013576126169638068,
      -0.015422634333137505,
      -0.012832053409864087,
      0.009406863970237992,
      0.004063801431038234,
      0.006080666308416209,
      0.011588464266495528,
      -0.005710967912213881,
      -0.013811912387409949,
      -0.0042330569624714435,
      0.004810591456215412,
      0.015579157649164127,
      0.005776388135148303,
      0.0006956405232852937,
      -0.0021084473915561554,
      0.02054744540331347,
      -0.006528826380860517,
      0.0076373236503711785,
      -0.022045411917860504,
      -0.00568508859832008,
      5.371692263257656
    ],
    "weights_stats": {
      "min": -0.06905510327752559,
      "max": 0.11667099548223481,
      "mean": 0.0021863131203133657,
      "std": 0.028787570854549253
    }
  },
  "convergence_analysis": {
    "iterations_to_converge": 1000,
    "final_cost_change": -0.02265157813140206,
    "convergence_rate": "linear",
    "loss_reduction_ratio": 2.4879440281798946
  },
  "algorithm_specific": {
    "gradient_descent_type": "standard",
    "step_size_method": "decreasing_linear",
    "step_size_constant": false,
    "momentum_used": false,
    "backtracking_parameters": null,
    "adaptive_parameters": null
  }
}