{
  "algorithm": "Momentum Gradient Descent - OLS",
  "loss_function": "OLS",
  "parameters": {
    "learning_rate": 0.1,
    "momentum": 0.5,
    "max_iterations": 1000,
    "tolerance": 1e-05
  },
  "training_results": {
    "training_time": 49.049537897109985,
    "converged": false,
    "final_iteration": 1000,
    "total_iterations": 1000,
    "final_loss": 0.011925743231934119,
    "final_gradient_norm": 0.0001113079967959653,
    "final_velocity_norm": 0.00022320719298222583
  },
  "weights_analysis": {
    "n_features": 62,
    "n_weights_total": 63,
    "bias_value": 10.117572979683704,
    "weights_without_bias": [
      -0.014154426533613653,
      -0.00682987403047587,
      0.011387511907616285,
      -0.014291000405490516,
      -0.0006271798108935703,
      0.0012546675791659224,
      0.009088022921752259,
      0.0838450211437339,
      0.0028717867404624816,
      -0.2842905893444903,
      -0.0106786824096547,
      -0.005681388833858779,
      0.010015325582492454,
      0.08559099479951404,
      -0.0022780096816953765,
      0.0021051742130524537,
      0.0021380873589305067,
      0.016365865166507308,
      -0.08690622145519342,
      0.07804145215520156,
      0.014220240306039187,
      0.057327794823804644,
      0.005713849663316762,
      0.012698375171845655,
      -0.010797496947135532,
      0.010119941139660305,
      0.009110673407168441,
      0.025873303551849417,
      0.027818086909621263,
      -0.013315985953602644,
      0.001057254729667929,
      0.015059042318143123,
      0.08377922038509619,
      0.2197764114199205,
      -0.005516291972576129,
      0.043438063466295,
      0.05474974181560126,
      -0.013347154829470789,
      -0.026233681342371997,
      -0.01695746890101351,
      -0.04942845368998978,
      -0.05142039927259815,
      -0.044979711284164496,
      -0.006360440767430704,
      -0.013908905436654321,
      -0.01339179763332816,
      -0.0005246922514476582,
      0.011848078554285402,
      0.002036755107435196,
      -0.015555533652138989,
      -0.017052966673978903,
      -0.004623585003520101,
      -0.00043852690303489215,
      0.0006174190736986572,
      0.0008247359984293287,
      0.0034647477428301965,
      0.0031483709322626422,
      0.003302843617900611,
      -0.014023827582912382,
      -0.005188901671899758,
      -0.035224224647192826,
      -0.010728435366930392
    ],
    "complete_weight_vector": [
      -0.014154426533613653,
      -0.00682987403047587,
      0.011387511907616285,
      -0.014291000405490516,
      -0.0006271798108935703,
      0.0012546675791659224,
      0.009088022921752259,
      0.0838450211437339,
      0.0028717867404624816,
      -0.2842905893444903,
      -0.0106786824096547,
      -0.005681388833858779,
      0.010015325582492454,
      0.08559099479951404,
      -0.0022780096816953765,
      0.0021051742130524537,
      0.0021380873589305067,
      0.016365865166507308,
      -0.08690622145519342,
      0.07804145215520156,
      0.014220240306039187,
      0.057327794823804644,
      0.005713849663316762,
      0.012698375171845655,
      -0.010797496947135532,
      0.010119941139660305,
      0.009110673407168441,
      0.025873303551849417,
      0.027818086909621263,
      -0.013315985953602644,
      0.001057254729667929,
      0.015059042318143123,
      0.08377922038509619,
      0.2197764114199205,
      -0.005516291972576129,
      0.043438063466295,
      0.05474974181560126,
      -0.013347154829470789,
      -0.026233681342371997,
      -0.01695746890101351,
      -0.04942845368998978,
      -0.05142039927259815,
      -0.044979711284164496,
      -0.006360440767430704,
      -0.013908905436654321,
      -0.01339179763332816,
      -0.0005246922514476582,
      0.011848078554285402,
      0.002036755107435196,
      -0.015555533652138989,
      -0.017052966673978903,
      -0.004623585003520101,
      -0.00043852690303489215,
      0.0006174190736986572,
      0.0008247359984293287,
      0.0034647477428301965,
      0.0031483709322626422,
      0.003302843617900611,
      -0.014023827582912382,
      -0.005188901671899758,
      -0.035224224647192826,
      -0.010728435366930392,
      10.117572979683704
    ],
    "weights_stats": {
      "min": -0.2842905893444903,
      "max": 0.2197764114199205,
      "mean": 0.0018376291195893965,
      "std": 0.05490044823179048
    },
    "velocity_analysis": {
      "final_velocity": [
        -4.548679239384284e-07,
        4.978046257768489e-07,
        -3.679305969204515e-06,
        -4.6695367470131366e-07,
        1.7820359140299535e-07,
        2.799915114404008e-07,
        8.79635460468255e-07,
        4.53006079479166e-06,
        -3.783967312359353e-05,
        8.558484506470995e-05,
        4.945396957508187e-07,
        5.589028847812935e-07,
        3.736230553838325e-07,
        3.1933814207123436e-05,
        3.389204491303814e-06,
        3.389204491303814e-06,
        3.3892044913031522e-06,
        1.8976076093507074e-06,
        -3.1933814207123436e-05,
        2.7230632983360793e-05,
        4.059980472538177e-06,
        -3.4661691034705694e-05,
        -2.381465176234742e-07,
        1.7192959039383797e-07,
        3.736766567560192e-06,
        4.978046257768489e-07,
        1.2992455150744882e-07,
        -1.3212296524763252e-07,
        1.6485055540878115e-06,
        3.343614283279764e-07,
        2.672158555890629e-07,
        1.2976062910569094e-07,
        -3.46616910347053e-05,
        -1.329171295815406e-06,
        6.10348836902178e-07,
        4.472200681797184e-05,
        -4.547593190849685e-05,
        2.8972085123772966e-05,
        3.709749821091033e-05,
        3.660814753562429e-05,
        7.953708062177216e-05,
        9.190605001881195e-05,
        0.00010960384091217582,
        2.448955194416221e-05,
        2.598606508073309e-05,
        1.6205600445340783e-06,
        -3.1548407470623153e-09,
        -1.0804077178424698e-06,
        3.343614283279764e-07,
        -1.8564205475097739e-06,
        -2.629638267424493e-06,
        2.672158555890629e-07,
        -1.0690796058067913e-07,
        -1.1462036718163502e-07,
        -5.684673118672785e-06,
        5.111763432807763e-07,
        1.9968441861804763e-07,
        1.7785331163136722e-06,
        3.2882507370842636e-07,
        6.539555477925624e-07,
        1.2321485953890852e-06,
        5.807511147194374e-06,
        8.997640398080704e-10
      ],
      "velocity_stats": {
        "min": -4.547593190849685e-05,
        "max": 0.00010960384091217582,
        "mean": 7.5080802972840205e-06,
        "std": 2.7334968822791865e-05
      }
    }
  },
  "convergence_analysis": {
    "iterations_to_converge": 1000,
    "final_cost_change": -2.5414314970204077e-08,
    "convergence_rate": "superlinear",
    "loss_reduction_ratio": 20.405796309813482,
    "velocity_contribution": "accelerated_convergence"
  },
  "algorithm_specific": {
    "gradient_descent_type": "momentum",
    "momentum_coefficient": 0.5,
    "step_size_constant": true,
    "acceleration_used": true,
    "momentum_description": "Nesterov-style momentum with velocity accumulation"
  }
}