{
  "algorithm": "Nesterov Accelerated Gradient Descent - RIDGE",
  "loss_function": "RIDGE",
  "parameters": {
    "learning_rate": 0.001,
    "momentum": 0.7,
    "max_iterations": 100000,
    "tolerance": 1e-06,
    "regularization": 0.01
  },
  "training_results": {
    "training_time": 5.718780755996704,
    "converged": true,
    "final_iteration": 710,
    "total_iterations": 100000,
    "final_loss": 10000000000.0,
    "final_gradient_norm": 0.0,
    "final_velocity_norm": 10000000000.0
  },
  "weights_analysis": {
    "n_features": 62,
    "n_weights_total": 63,
    "bias_value": 8.819432658270099e+302,
    "weights_without_bias": [
      4.860680729799998e+305,
      5.8548362098942315e+305,
      -2.0290203043600933e+305,
      -1.2139056295431076e+306,
      -3.492377118946618e+305,
      -1.3620412890661608e+306,
      2.9123602778568378e+305,
      2.9105482204713712e+305,
      3.02047075762783e+306,
      -2.8636534554364154e+306,
      3.249513819465198e+305,
      -1.9220167443696312e+306,
      -6.436183850762199e+304,
      2.629836742447451e+306,
      2.9833679771746127e+306,
      2.9833679771746127e+306,
      2.9833679771746127e+306,
      2.980521215824348e+306,
      -2.629836742447451e+306,
      -1.7091183989673796e+306,
      -5.667999888330012e+305,
      -2.940916724611173e+306,
      -3.4071316760140567e+305,
      4.002238440768262e+305,
      -6.990715670386742e+305,
      5.8548362098942315e+305,
      -5.376094867315816e+305,
      -2.6366319641131734e+304,
      2.770597876842043e+305,
      2.605999543453605e+305,
      2.5214778089554977e+305,
      1.736249084897204e+306,
      -2.940916724611173e+306,
      2.2170587500588055e+306,
      2.967601638322263e+305,
      8.918254008573697e+305,
      8.936011592956243e+305,
      -2.3914921017954644e+305,
      -9.23772629376479e+304,
      -2.3619513072691625e+305,
      3.4347627916097805e+305,
      -5.862304688442403e+305,
      5.2844261592572264e+305,
      1.4230143614503018e+304,
      -2.1812504151115445e+305,
      -2.790666488513743e+305,
      -6.958530253049002e+303,
      4.711050221748109e+304,
      2.605999543453605e+305,
      -3.601118276476201e+305,
      1.6166735962922066e+304,
      2.5214778089554977e+305,
      -1.3119491166610721e+305,
      1.2485847407429067e+305,
      1.3039641536044698e+305,
      3.2856895059335435e+305,
      1.2341260364476647e+304,
      -3.944731418991118e+305,
      1.2421356821209358e+305,
      1.8472147008660375e+305,
      -2.387450455859794e+305,
      -3.741675006561482e+305
    ],
    "complete_weight_vector": [
      4.860680729799998e+305,
      5.8548362098942315e+305,
      -2.0290203043600933e+305,
      -1.2139056295431076e+306,
      -3.492377118946618e+305,
      -1.3620412890661608e+306,
      2.9123602778568378e+305,
      2.9105482204713712e+305,
      3.02047075762783e+306,
      -2.8636534554364154e+306,
      3.249513819465198e+305,
      -1.9220167443696312e+306,
      -6.436183850762199e+304,
      2.629836742447451e+306,
      2.9833679771746127e+306,
      2.9833679771746127e+306,
      2.9833679771746127e+306,
      2.980521215824348e+306,
      -2.629836742447451e+306,
      -1.7091183989673796e+306,
      -5.667999888330012e+305,
      -2.940916724611173e+306,
      -3.4071316760140567e+305,
      4.002238440768262e+305,
      -6.990715670386742e+305,
      5.8548362098942315e+305,
      -5.376094867315816e+305,
      -2.6366319641131734e+304,
      2.770597876842043e+305,
      2.605999543453605e+305,
      2.5214778089554977e+305,
      1.736249084897204e+306,
      -2.940916724611173e+306,
      2.2170587500588055e+306,
      2.967601638322263e+305,
      8.918254008573697e+305,
      8.936011592956243e+305,
      -2.3914921017954644e+305,
      -9.23772629376479e+304,
      -2.3619513072691625e+305,
      3.4347627916097805e+305,
      -5.862304688442403e+305,
      5.2844261592572264e+305,
      1.4230143614503018e+304,
      -2.1812504151115445e+305,
      -2.790666488513743e+305,
      -6.958530253049002e+303,
      4.711050221748109e+304,
      2.605999543453605e+305,
      -3.601118276476201e+305,
      1.6166735962922066e+304,
      2.5214778089554977e+305,
      -1.3119491166610721e+305,
      1.2485847407429067e+305,
      1.3039641536044698e+305,
      3.2856895059335435e+305,
      1.2341260364476647e+304,
      -3.944731418991118e+305,
      1.2421356821209358e+305,
      1.8472147008660375e+305,
      -2.387450455859794e+305,
      -3.741675006561482e+305,
      8.819432658270099e+302
    ],
    "weights_stats": {
      "min": -2.940916724611173e+306,
      "max": 3.02047075762783e+306,
      "mean": 1.0018947952295377e+305,
      "std": Infinity
    },
    "velocity_analysis": {
      "final_velocity": [
        -5.1253273795137146e+306,
        4.40581203512845e+305,
        6.006060711015156e+306,
        -1.559125597557502e+306,
        -5.044769509759207e+305,
        -1.4633141546624784e+306,
        -5.916534697081096e+306,
        7.032839073130095e+306,
        2.842566698755389e+306,
        -2.3361786602894607e+306,
        1.3566487863628195e+306,
        -1.6107159931343997e+306,
        5.164362198321355e+305,
        2.1836525305387875e+306,
        2.7247917285095405e+306,
        2.7247917285095405e+306,
        2.7247917285095405e+306,
        2.8976903070698385e+306,
        -2.1836525305387875e+306,
        -1.3486305727015263e+306,
        -3.531234916560246e+305,
        -2.5105147535247023e+306,
        -3.032989931122267e+304,
        -5.5699284086336363e+306,
        -2.4231394870981956e+305,
        4.40581203512845e+305,
        -1.8807843003888152e+305,
        1.3262325277058881e+306,
        6.9528785167035e+306,
        -1.9116114316799784e+306,
        -1.5285337269954936e+306,
        2.0648982709477902e+306,
        -2.5105147535247023e+306,
        6.268076292359752e+306,
        4.242617883675164e+306,
        6.787048587942162e+306,
        6.786606351175563e+306,
        3.4107716734517608e+305,
        -2.3076011459385444e+306,
        1.7086075179059015e+305,
        4.763594367492185e+306,
        -3.912507697121668e+306,
        7.34249264872031e+305,
        3.720488045617405e+305,
        -1.2681550564963713e+306,
        5.727042893828396e+306,
        3.903045603491234e+304,
        1.0431117689418325e+306,
        -1.9116114316799784e+306,
        1.640665600763342e+306,
        -7.684996647117034e+305,
        -1.5285337269954936e+306,
        1.1540303666248282e+305,
        3.84392530147037e+305,
        2.727406011119741e+306,
        -2.89162355701575e+306,
        -5.3529316584766466e+305,
        -5.894334355057828e+305,
        2.131902361657543e+306,
        4.190979618910905e+305,
        -4.889812787328711e+306,
        7.487666565563521e+305,
        -3.086902909092325e+303
      ],
      "velocity_stats": {
        "min": -5.916534697081096e+306,
        "max": 7.032839073130095e+306,
        "mean": 4.868139182945449e+305,
        "std": Infinity
      }
    }
  },
  "convergence_analysis": {
    "iterations_to_converge": 710,
    "final_cost_change": 0.0,
    "convergence_rate": "superlinear",
    "loss_reduction_ratio": 8.181080882663096,
    "velocity_contribution": "accelerated_convergence_with_lookahead"
  },
  "algorithm_specific": {
    "gradient_descent_type": "nesterov_accelerated",
    "momentum_coefficient": 0.7,
    "step_size_constant": true,
    "acceleration_used": true,
    "nesterov_lookahead": true,
    "momentum_description": "Nesterov acceleration with look-ahead gradient computation"
  }
}