{
  "algorithm": "LBFGS Quasi-Newton - RIDGE",
  "loss_function": "RIDGE",
  "parameters": {
    "max_iterations": 10000,
    "tolerance": 1e-05,
    "armijo_c1": 0.0001,
    "wolfe_c2": 0.9,
    "backtrack_rho": 0.8,
    "damping": 1e-08,
    "regularization": 0.01,
    "memory_size": 5
  },
  "training_results": {
    "training_time": 0.4672722816467285,
    "converged": true,
    "final_iteration": 140,
    "total_iterations": 10000,
    "final_loss": 0.01275436321687164,
    "final_gradient_norm": 5.508954691767475e-06
  },
  "weights_analysis": {
    "n_features": 62,
    "n_weights_total": 63,
    "bias_value": 10.119240678831753,
    "weights_without_bias": [
      0.01307905856936626,
      0.0013487735806931567,
      0.016544101433320805,
      -0.018884798367022667,
      -0.006410930774773074,
      0.0022695991703400244,
      0.009702144439195228,
      0.08203029338123322,
      0.0041676020907529,
      -0.22152099899693964,
      -0.017244738745207478,
      0.0007472802610099179,
      0.009364370762930375,
      0.10863152852145895,
      -0.0035787241500552028,
      -0.0036014196984376708,
      -0.0036075013380466674,
      0.00983019473903502,
      -0.10860853720114057,
      0.08119317217328342,
      0.011491990527514914,
      0.042391852036151555,
      0.005233717447187091,
      0.01166554792141894,
      -0.013838797327989136,
      0.0013593362748573182,
      0.008046282524953118,
      0.03140309040216597,
      0.04660718325853421,
      -0.01654078933416517,
      -0.008784461764151014,
      0.01290324862870425,
      0.042392728562576844,
      0.20539328383088182,
      -0.008161664811509262,
      0.051479227249587395,
      0.05108184936203845,
      -0.01089703409803988,
      -0.015052477980045307,
      -0.004921150366710233,
      -0.025123445423326524,
      -0.022819949788786438,
      -0.007056322797232699,
      0.0019057697467518185,
      -0.005985384487461808,
      -0.011739855299209232,
      -8.260407282473718e-05,
      0.017108389145652308,
      -0.01655163206829422,
      -0.02011945414347128,
      -0.016820816029720628,
      -0.008778244834631141,
      -1.0910936285338535e-05,
      0.0019194518488405469,
      -0.005802004310056969,
      7.726271825850146e-05,
      0.002247801419138353,
      0.0027760889940901933,
      -0.016748254823537787,
      -7.100664688074335e-05,
      -0.0310852330291345,
      -0.006135085446274316
    ],
    "complete_weight_vector": [
      0.01307905856936626,
      0.0013487735806931567,
      0.016544101433320805,
      -0.018884798367022667,
      -0.006410930774773074,
      0.0022695991703400244,
      0.009702144439195228,
      0.08203029338123322,
      0.0041676020907529,
      -0.22152099899693964,
      -0.017244738745207478,
      0.0007472802610099179,
      0.009364370762930375,
      0.10863152852145895,
      -0.0035787241500552028,
      -0.0036014196984376708,
      -0.0036075013380466674,
      0.00983019473903502,
      -0.10860853720114057,
      0.08119317217328342,
      0.011491990527514914,
      0.042391852036151555,
      0.005233717447187091,
      0.01166554792141894,
      -0.013838797327989136,
      0.0013593362748573182,
      0.008046282524953118,
      0.03140309040216597,
      0.04660718325853421,
      -0.01654078933416517,
      -0.008784461764151014,
      0.01290324862870425,
      0.042392728562576844,
      0.20539328383088182,
      -0.008161664811509262,
      0.051479227249587395,
      0.05108184936203845,
      -0.01089703409803988,
      -0.015052477980045307,
      -0.004921150366710233,
      -0.025123445423326524,
      -0.022819949788786438,
      -0.007056322797232699,
      0.0019057697467518185,
      -0.005985384487461808,
      -0.011739855299209232,
      -8.260407282473718e-05,
      0.017108389145652308,
      -0.01655163206829422,
      -0.02011945414347128,
      -0.016820816029720628,
      -0.008778244834631141,
      -1.0910936285338535e-05,
      0.0019194518488405469,
      -0.005802004310056969,
      7.726271825850146e-05,
      0.002247801419138353,
      0.0027760889940901933,
      -0.016748254823537787,
      -7.100664688074335e-05,
      -0.0310852330291345,
      -0.006135085446274316,
      10.119240678831753
    ],
    "weights_stats": {
      "min": -0.22152099899693964,
      "max": 0.20539328383088182,
      "mean": 0.0037065805150090564,
      "std": 0.04858817042859899
    }
  },
  "convergence_analysis": {
    "iterations_to_converge": 140,
    "final_cost_change": -2.656862004707383e-10,
    "convergence_rate": "superlinear",
    "loss_reduction_ratio": 1.3520222812370348
  },
  "numerical_analysis": {
    "average_step_size": 0.9752057553956835,
    "average_line_search_iterations": 1.143884892086331,
    "final_condition_number": NaN,
    "max_condition_number": NaN,
    "min_condition_number": NaN,
    "hessian_approximation_quality": "BFGS_secant_approximation",
    "line_search_efficiency": "Wolfe_conditions_satisfied"
  },
  "algorithm_specific": {
    "method_type": "quasi_newton_lbfgs",
    "second_order_approximation": true,
    "line_search_used": true,
    "line_search_type": "wolfe_conditions",
    "hessian_computation": "lbfgs_limited_memory",
    "superlinear_convergence": "L-BFGS provides superlinear convergence rate",
    "memory_efficient": "limited_memory_size_5",
    "two_loop_recursion": "efficient_matrix_free_computation",
    "memory_usage": 5
  }
}