{
  "algorithm": "Gradient Descent - OLS",
  "loss_function": "OLS",
  "parameters": {
    "learning_rate": 0.01,
    "max_iterations": 1000,
    "tolerance": 1e-05
  },
  "training_results": {
    "training_time": 5.901244878768921,
    "converged": false,
    "final_iteration": 1000,
    "total_iterations": 1000,
    "final_loss": 0.012625480625834153,
    "final_gradient_norm": 0.009940189057179473
  },
  "weights_analysis": {
    "n_features": 62,
    "n_weights_total": 63,
    "bias_value": 10.117083495724321,
    "weights_without_bias": [
      -0.011529500405954832,
      0.00016899247095011785,
      0.010540048571466613,
      -0.010670006428470314,
      -0.0013592980591436536,
      -0.0041789497378204934,
      0.015721369035631875,
      0.06165584122016182,
      0.00832004997003459,
      -0.14679589431226409,
      -0.011485883279247705,
      -0.020982958103290882,
      0.010033749909064867,
      0.09503771804114798,
      -0.017872506604284244,
      0.0032047835140959625,
      -0.006561362070315655,
      0.004734738671561928,
      -0.09737031728288523,
      0.0583629341392194,
      0.02652957952101931,
      0.009038765463927196,
      0.008768638592653042,
      0.015347672030192449,
      -0.0030333636403854585,
      0.002133312474221337,
      0.009326341523829692,
      0.022957596489937396,
      0.052462939755936355,
      0.00042914572587738763,
      -0.0004182374931584347,
      0.008071634956273133,
      0.0036671250884180166,
      0.2186261826341876,
      -0.0020290718352941935,
      0.052526669109265095,
      0.05254800759644255,
      -0.0007507588480127158,
      -0.012018723039554945,
      -0.0021218712363558507,
      -0.013978695743828581,
      -0.01612181412524207,
      0.0015517211174705318,
      0.0049377442101914285,
      -0.003461007051272152,
      -0.010807237284815502,
      -0.000365140126342596,
      0.011255405104725929,
      -0.014109620587848086,
      -0.012384210012772356,
      -0.012983108555282981,
      -0.00013605928222852422,
      -0.0006346141271056647,
      0.0004887958309776385,
      -0.001647518157611678,
      0.004139604560712246,
      0.003883499540905561,
      0.005219646754736156,
      -0.014322585074977088,
      -0.0003810760421961259,
      -0.029572638287506718,
      -0.0075018037662501705
    ],
    "complete_weight_vector": [
      -0.011529500405954832,
      0.00016899247095011785,
      0.010540048571466613,
      -0.010670006428470314,
      -0.0013592980591436536,
      -0.0041789497378204934,
      0.015721369035631875,
      0.06165584122016182,
      0.00832004997003459,
      -0.14679589431226409,
      -0.011485883279247705,
      -0.020982958103290882,
      0.010033749909064867,
      0.09503771804114798,
      -0.017872506604284244,
      0.0032047835140959625,
      -0.006561362070315655,
      0.004734738671561928,
      -0.09737031728288523,
      0.0583629341392194,
      0.02652957952101931,
      0.009038765463927196,
      0.008768638592653042,
      0.015347672030192449,
      -0.0030333636403854585,
      0.002133312474221337,
      0.009326341523829692,
      0.022957596489937396,
      0.052462939755936355,
      0.00042914572587738763,
      -0.0004182374931584347,
      0.008071634956273133,
      0.0036671250884180166,
      0.2186261826341876,
      -0.0020290718352941935,
      0.052526669109265095,
      0.05254800759644255,
      -0.0007507588480127158,
      -0.012018723039554945,
      -0.0021218712363558507,
      -0.013978695743828581,
      -0.01612181412524207,
      0.0015517211174705318,
      0.0049377442101914285,
      -0.003461007051272152,
      -0.010807237284815502,
      -0.000365140126342596,
      0.011255405104725929,
      -0.014109620587848086,
      -0.012384210012772356,
      -0.012983108555282981,
      -0.00013605928222852422,
      -0.0006346141271056647,
      0.0004887958309776385,
      -0.001647518157611678,
      0.004139604560712246,
      0.003883499540905561,
      0.005219646754736156,
      -0.014322585074977088,
      -0.0003810760421961259,
      -0.029572638287506718,
      -0.0075018037662501705,
      10.117083495724321
    ],
    "weights_stats": {
      "min": -0.14679589431226409,
      "max": 0.2186261826341876,
      "mean": 0.004743619726185746,
      "std": 0.04176015924876618
    }
  },
  "convergence_analysis": {
    "iterations_to_converge": 1000,
    "final_cost_change": -9.97651422873086e-06,
    "convergence_rate": "linear",
    "loss_reduction_ratio": 3319.929051134866
  },
  "algorithm_specific": {
    "gradient_descent_type": "standard",
    "step_size_constant": true,
    "momentum_used": false
  }
}