{
  "algorithm": "Newton Method - OLS",
  "loss_function": "OLS",
  "parameters": {
    "regularization": 0.0,
    "numerical_regularization": 0.01,
    "max_iterations": 100,
    "tolerance": 1e-08
  },
  "training_results": {
    "training_time": 6.624418258666992,
    "converged": false,
    "final_iteration": 100,
    "total_iterations": 100,
    "final_loss": 0.011924579977231673,
    "final_gradient_norm": 5.6696311502767176e-08
  },
  "weights_analysis": {
    "n_features": 62,
    "n_weights_total": 63,
    "bias_value": 10.11757682416848,
    "weights_without_bias": [
      0.011987997706947293,
      0.0035891278537626453,
      0.011518860819650825,
      -0.019189051113473368,
      -0.0017240730518850182,
      -0.002985133866414512,
      0.00022212309082391684,
      0.08363579039597493,
      0.003897133005668599,
      -0.28611245562996446,
      -0.010691475539990773,
      -0.005723575640584354,
      0.010001408078401443,
      0.08883967908458956,
      -0.006776460991711358,
      0.0009811896160167957,
      0.007453983740694861,
      0.01622303870550345,
      -0.08233552776092452,
      0.07748831194187997,
      0.014095880902127848,
      0.058601812515026025,
      0.005724302033619821,
      -0.0022706376362249163,
      -0.005007317672582779,
      -0.0003178745393524102,
      0.009109180785649705,
      0.025870636969219752,
      0.027790530853259787,
      -0.0021049026342590637,
      0.009613342069453891,
      0.008094372447012776,
      0.08400686029399104,
      0.2197565256223523,
      -0.0055045559750920596,
      0.011633039874598855,
      0.08657709688984594,
      -0.014696560185699778,
      -0.0279602605294794,
      -0.01867644985458267,
      -0.05315024293224934,
      -0.05570473308382864,
      -0.05010670858805366,
      -0.007504565440256219,
      -0.015117210345126362,
      -0.013437176436657887,
      -0.0005254673040741817,
      0.01186006772446006,
      -0.00918948763990648,
      -0.015542628335571173,
      -0.017039606610565146,
      -0.01323879467560139,
      -0.00043589677457382393,
      0.0006238816596291371,
      0.001081553704706733,
      0.00344823825912455,
      0.0031457413216920637,
      0.003232815934557928,
      -0.014044435052281897,
      -0.005206592034887629,
      -0.03526959344269804,
      -0.010969827093145772
    ],
    "complete_weight_vector": [
      0.011987997706947293,
      0.0035891278537626453,
      0.011518860819650825,
      -0.019189051113473368,
      -0.0017240730518850182,
      -0.002985133866414512,
      0.00022212309082391684,
      0.08363579039597493,
      0.003897133005668599,
      -0.28611245562996446,
      -0.010691475539990773,
      -0.005723575640584354,
      0.010001408078401443,
      0.08883967908458956,
      -0.006776460991711358,
      0.0009811896160167957,
      0.007453983740694861,
      0.01622303870550345,
      -0.08233552776092452,
      0.07748831194187997,
      0.014095880902127848,
      0.058601812515026025,
      0.005724302033619821,
      -0.0022706376362249163,
      -0.005007317672582779,
      -0.0003178745393524102,
      0.009109180785649705,
      0.025870636969219752,
      0.027790530853259787,
      -0.0021049026342590637,
      0.009613342069453891,
      0.008094372447012776,
      0.08400686029399104,
      0.2197565256223523,
      -0.0055045559750920596,
      0.011633039874598855,
      0.08657709688984594,
      -0.014696560185699778,
      -0.0279602605294794,
      -0.01867644985458267,
      -0.05315024293224934,
      -0.05570473308382864,
      -0.05010670858805366,
      -0.007504565440256219,
      -0.015117210345126362,
      -0.013437176436657887,
      -0.0005254673040741817,
      0.01186006772446006,
      -0.00918948763990648,
      -0.015542628335571173,
      -0.017039606610565146,
      -0.01323879467560139,
      -0.00043589677457382393,
      0.0006238816596291371,
      0.001081553704706733,
      0.00344823825912455,
      0.0031457413216920637,
      0.003232815934557928,
      -0.014044435052281897,
      -0.005206592034887629,
      -0.03526959344269804,
      -0.010969827093145772,
      10.11757682416848
    ],
    "weights_stats": {
      "min": -0.28611245562996446,
      "max": 0.2197565256223523,
      "mean": 0.0014765362175571523,
      "std": 0.05563324049302996
    }
  },
  "convergence_analysis": {
    "iterations_to_converge": 100,
    "final_cost_change": -3.328153724835303e-13,
    "convergence_rate": "quadratic",
    "loss_reduction_ratio": 4309.564946687494,
    "convergence_quality": "superlinear_to_quadratic"
  },
  "numerical_analysis": {
    "hessian_condition_number": 955.6098788150899,
    "average_step_size": 0.1021926430701527,
    "max_step_size": 10.028599703668512,
    "min_step_size": 5.29509815149524e-06,
    "step_size_stability": "Newton_steps",
    "regularization_effect": "Applied for numerical stability"
  },
  "algorithm_specific": {
    "method_type": "pure_newton",
    "second_order_method": true,
    "hessian_computation": "exact",
    "line_search_used": false,
    "damping_applied": "numerical_regularization_only",
    "fast_convergence": false
  }
}