{
  "algorithm": "Stochastic Gradient Descent - OLS",
  "loss_function": "OLS",
  "parameters": {
    "learning_rate": 0.01,
    "learning_rate_schedule": "constant",
    "epochs": 100,
    "batch_size": 6400,
    "random_state": 42,
    "tolerance": 1e-06
  },
  "training_results": {
    "training_time": 53.130011320114136,
    "converged": false,
    "final_epoch": 100,
    "total_epochs": 100,
    "final_cost": 0.012286872376760568,
    "final_gradient_norm": 0.005955318269214799
  },
  "weights_analysis": {
    "n_features": 62,
    "n_weights_total": 63,
    "bias_value": 10.117487998796648,
    "weights_without_bias": [
      0.007712620988929827,
      0.0003457065386631774,
      0.0067899941384141176,
      -0.002981642070859189,
      0.0013074820254542446,
      0.006925242079441121,
      0.01936881668483231,
      0.08245590050914796,
      -0.008726453911265603,
      -0.16681079199548388,
      -0.010456838709116963,
      -0.014058524125483014,
      0.009993945137417803,
      0.0914720170134931,
      -0.009263647280377117,
      0.002362655752343466,
      -0.002142780158591029,
      0.011579133400244319,
      -0.11968506021528341,
      0.07823990542848609,
      0.023130607993025114,
      0.01828899742656884,
      0.006818790309290244,
      -0.011070608381559396,
      -0.004224179911051304,
      0.0028375754474736898,
      0.009238227432869566,
      0.0249212684846028,
      0.038705405794402035,
      -0.010523009833899404,
      -0.0034710782277183267,
      0.02510745134548085,
      0.020411788184054848,
      0.22174826426671315,
      -0.00511417634056473,
      0.042251878103360306,
      0.05625468419585174,
      -0.002090440029274988,
      -0.012440615808019669,
      -0.0030215174346168118,
      -0.0184079385799903,
      -0.017271167806478492,
      -0.0017628416202641077,
      0.004238466388431711,
      -0.003978409643146648,
      -0.014595712061470836,
      -0.0005015407118469509,
      0.009584114030028703,
      -0.004169889440282038,
      -0.01710735401001102,
      -0.020671889049202093,
      -0.0013048349095875385,
      -0.0005770728051586082,
      0.000544381596119824,
      -0.001692672130232949,
      0.004056959551208293,
      0.0035577902641797192,
      0.004533643320283229,
      -0.013626072856925572,
      -0.0038950181665301183,
      -0.033016623233726304,
      -0.008851148422031725
    ],
    "complete_weight_vector": [
      0.007712620988929827,
      0.0003457065386631774,
      0.0067899941384141176,
      -0.002981642070859189,
      0.0013074820254542446,
      0.006925242079441121,
      0.01936881668483231,
      0.08245590050914796,
      -0.008726453911265603,
      -0.16681079199548388,
      -0.010456838709116963,
      -0.014058524125483014,
      0.009993945137417803,
      0.0914720170134931,
      -0.009263647280377117,
      0.002362655752343466,
      -0.002142780158591029,
      0.011579133400244319,
      -0.11968506021528341,
      0.07823990542848609,
      0.023130607993025114,
      0.01828899742656884,
      0.006818790309290244,
      -0.011070608381559396,
      -0.004224179911051304,
      0.0028375754474736898,
      0.009238227432869566,
      0.0249212684846028,
      0.038705405794402035,
      -0.010523009833899404,
      -0.0034710782277183267,
      0.02510745134548085,
      0.020411788184054848,
      0.22174826426671315,
      -0.00511417634056473,
      0.042251878103360306,
      0.05625468419585174,
      -0.002090440029274988,
      -0.012440615808019669,
      -0.0030215174346168118,
      -0.0184079385799903,
      -0.017271167806478492,
      -0.0017628416202641077,
      0.004238466388431711,
      -0.003978409643146648,
      -0.014595712061470836,
      -0.0005015407118469509,
      0.009584114030028703,
      -0.004169889440282038,
      -0.01710735401001102,
      -0.020671889049202093,
      -0.0013048349095875385,
      -0.0005770728051586082,
      0.000544381596119824,
      -0.001692672130232949,
      0.004056959551208293,
      0.0035577902641797192,
      0.004533643320283229,
      -0.013626072856925572,
      -0.0038950181665301183,
      -0.033016623233726304,
      -0.008851148422031725,
      10.117487998796648
    ],
    "weights_stats": {
      "min": -0.16681079199548388,
      "max": 0.22174826426671315,
      "mean": 0.004633421999205841,
      "std": 0.04494717709681396
    }
  },
  "convergence_analysis": {
    "epochs_to_converge": 100,
    "final_cost_change": -6.165860894230026e-05,
    "convergence_rate": "sublinear",
    "cost_reduction_ratio": 168.85491088409665
  },
  "algorithm_specific": {
    "method_type": "stochastic_gradient_descent",
    "batch_processing": true,
    "batch_size": 6400,
    "epoch_based_training": true,
    "data_shuffling": true,
    "noisy_gradients": "inherent_in_SGD",
    "convergence_type": "probabilistic",
    "learning_rate_schedule": "constant",
    "adaptive_learning_rate": false
  }
}