{
  "algorithm": "Momentum Gradient Descent - RIDGE",
  "loss_function": "RIDGE",
  "parameters": {
    "learning_rate": 0.1,
    "momentum": 0.9,
    "max_iterations": 100000,
    "tolerance": 1e-05,
    "regularization": 0.01
  },
  "training_results": {
    "training_time": 2.787763833999634,
    "converged": true,
    "final_iteration": 330,
    "total_iterations": 100000,
    "final_loss": 0.012756609557697383,
    "final_gradient_norm": 9.082668631660778e-06,
    "final_velocity_norm": 0.00010104970780575503
  },
  "weights_analysis": {
    "n_features": 62,
    "n_weights_total": 63,
    "bias_value": 10.117570145904034,
    "weights_without_bias": [
      0.004218959060653937,
      0.0016324849814990834,
      0.01047830676575374,
      -0.014972461931458651,
      -0.0010957462962589255,
      -0.001384522655357248,
      0.002904010947568232,
      0.0803277092143542,
      -0.0038222626299074377,
      -0.23393174653452162,
      -0.010407229647806205,
      -0.009553625867031497,
      0.01006471191203588,
      0.09512603379478339,
      0.0007344058228880429,
      -0.00012587483374493292,
      0.00018331125596411651,
      0.01333159376868458,
      -0.09567490149173305,
      0.07898895252860984,
      0.017468532590560266,
      0.048067965991348556,
      0.006130858426965031,
      0.003026385785289004,
      -0.004782672421070725,
      0.0014972616530180404,
      0.009131252617130686,
      0.025375517403774254,
      0.03259887145924384,
      -0.0053244836410171,
      -0.0014332892381015894,
      0.011518723027997476,
      0.048066251574391,
      0.21553903758846607,
      -0.003982965293673503,
      0.047291473312206955,
      0.05239178266705928,
      -0.006952441597382259,
      -0.018593809965976454,
      -0.009582896448892389,
      -0.03215259842233786,
      -0.03252428563955389,
      -0.022134700166962312,
      -0.0012302247126724363,
      -0.008557639987600115,
      -0.012107252190373037,
      -0.0004970694463509139,
      0.011494542759357039,
      -0.005322034382661601,
      -0.015323337095454227,
      -0.016622066112296673,
      -0.0013158401132278268,
      -0.0005127990549560861,
      0.0005861172784275801,
      -0.00010334354240894167,
      0.0036856160006423417,
      0.0033179860982551425,
      0.0039010985528094943,
      -0.013880657745895473,
      -0.003930422238931334,
      -0.03387686543028199,
      -0.009236152380432716
    ],
    "complete_weight_vector": [
      0.004218959060653937,
      0.0016324849814990834,
      0.01047830676575374,
      -0.014972461931458651,
      -0.0010957462962589255,
      -0.001384522655357248,
      0.002904010947568232,
      0.0803277092143542,
      -0.0038222626299074377,
      -0.23393174653452162,
      -0.010407229647806205,
      -0.009553625867031497,
      0.01006471191203588,
      0.09512603379478339,
      0.0007344058228880429,
      -0.00012587483374493292,
      0.00018331125596411651,
      0.01333159376868458,
      -0.09567490149173305,
      0.07898895252860984,
      0.017468532590560266,
      0.048067965991348556,
      0.006130858426965031,
      0.003026385785289004,
      -0.004782672421070725,
      0.0014972616530180404,
      0.009131252617130686,
      0.025375517403774254,
      0.03259887145924384,
      -0.0053244836410171,
      -0.0014332892381015894,
      0.011518723027997476,
      0.048066251574391,
      0.21553903758846607,
      -0.003982965293673503,
      0.047291473312206955,
      0.05239178266705928,
      -0.006952441597382259,
      -0.018593809965976454,
      -0.009582896448892389,
      -0.03215259842233786,
      -0.03252428563955389,
      -0.022134700166962312,
      -0.0012302247126724363,
      -0.008557639987600115,
      -0.012107252190373037,
      -0.0004970694463509139,
      0.011494542759357039,
      -0.005322034382661601,
      -0.015323337095454227,
      -0.016622066112296673,
      -0.0013158401132278268,
      -0.0005127990549560861,
      0.0005861172784275801,
      -0.00010334354240894167,
      0.0036856160006423417,
      0.0033179860982551425,
      0.0039010985528094943,
      -0.013880657745895473,
      -0.003930422238931334,
      -0.03387686543028199,
      -0.009236152380432716,
      10.117570145904034
    ],
    "weights_stats": {
      "min": -0.23393174653452162,
      "max": 0.21553903758846607,
      "mean": 0.0033569602529581635,
      "std": 0.04912602734467418
    },
    "velocity_analysis": {
      "final_velocity": [
        2.743352645864125e-05,
        7.60370684162979e-06,
        -1.6239433441112425e-08,
        -6.606162631597301e-07,
        -1.640945324503813e-07,
        -5.685244086160911e-07,
        1.9784110720821135e-05,
        3.4994931341215316e-08,
        6.26215533397655e-08,
        -2.2170205349004688e-07,
        -2.584184236549996e-08,
        2.7437832328156707e-08,
        -1.213219586990268e-07,
        -3.1009815721388535e-05,
        5.2915757925770665e-05,
        -4.388288539304791e-05,
        -9.093315517068309e-06,
        -3.5224508157208125e-08,
        -3.074869066441517e-05,
        -8.725505958832554e-08,
        2.8211169689445546e-09,
        1.791262987739401e-07,
        -3.7920717266101176e-08,
        -4.6249086664746096e-05,
        8.564055396062488e-07,
        -7.61160067586134e-06,
        -2.619701224379305e-09,
        -1.368458353332274e-08,
        -5.766249948103714e-09,
        -1.2723522552645605e-07,
        -6.603922225899437e-06,
        -9.391196218023197e-07,
        -1.377962593208387e-08,
        1.2495819401226894e-08,
        -2.377953101906164e-08,
        2.713439933156467e-07,
        -2.8872842958765127e-07,
        4.0905930969841527e-07,
        5.041612324059344e-07,
        4.7263123977089274e-07,
        1.1251734586962377e-06,
        1.3306911617018606e-06,
        1.5942942642671507e-06,
        3.3506833145929433e-07,
        2.523946049450387e-07,
        2.630261368326222e-08,
        3.6646298897965024e-08,
        1.6378867817986008e-08,
        1.4835493696464764e-07,
        3.261915883595116e-08,
        9.699785839821474e-09,
        6.611434715007679e-06,
        -6.304178299815673e-10,
        -2.394844529934125e-08,
        -6.012958136750545e-08,
        5.1741331498790885e-11,
        9.700473498105828e-08,
        -4.8412507941445334e-08,
        1.3043573240235715e-08,
        1.9520443849968894e-08,
        -3.3882282250211037e-09,
        1.0971351070039931e-07,
        5.22960902583925e-07
      ],
      "velocity_stats": {
        "min": -4.6249086664746096e-05,
        "max": 5.2915757925770665e-05,
        "mean": -9.090433350461886e-07,
        "std": 1.2800917087139813e-05
      }
    }
  },
  "convergence_analysis": {
    "iterations_to_converge": 330,
    "final_cost_change": -1.0113557318003341e-09,
    "convergence_rate": "superlinear",
    "loss_reduction_ratio": 1390.1895589258236,
    "velocity_contribution": "accelerated_convergence"
  },
  "algorithm_specific": {
    "gradient_descent_type": "momentum",
    "momentum_coefficient": 0.9,
    "step_size_constant": true,
    "acceleration_used": true,
    "momentum_description": "Nesterov-style momentum with velocity accumulation"
  }
}