{
  "algorithm": "Newton Method - OLS",
  "loss_function": "OLS",
  "parameters": {
    "regularization": 0.0,
    "numerical_regularization": 1e-08,
    "max_iterations": 50,
    "tolerance": 1e-10
  },
  "training_results": {
    "training_time": 0.26558566093444824,
    "converged": true,
    "final_iteration": 3,
    "total_iterations": 50,
    "final_loss": 0.011924579974663242,
    "final_gradient_norm": 4.4159087794543157e-11
  },
  "weights_analysis": {
    "n_features": 62,
    "n_weights_total": 63,
    "bias_value": 10.117576831161609,
    "weights_without_bias": [
      0.004274341380874931,
      -0.0012996437382690109,
      0.011518869236384439,
      -0.01731701684552231,
      -0.001303222906332962,
      -0.0013649903901626246,
      -0.00617329863225324,
      0.0836357210775092,
      0.0038971933057077753,
      -0.28611260678780065,
      -0.0106914669734754,
      -0.005723591414220552,
      0.010001406197395002,
      0.08503199120973388,
      -0.014595030327427183,
      0.018359021314791654,
      -0.002105285327414649,
      0.01622302369657175,
      -0.08614297961755844,
      0.07748822908416399,
      0.014095860201327122,
      0.06943974447081419,
      0.005724328384533947,
      0.011623854857001494,
      -0.00508034257611406,
      0.004570896227775432,
      0.009109178024546572,
      0.02587062317030414,
      0.027790538718569402,
      0.0012336610028981635,
      -0.0018354996788244214,
      0.01075881517557753,
      0.07316898740300486,
      0.21975651994290635,
      -0.005504525936638542,
      0.011580111067726181,
      0.08663003697003727,
      -0.014696547092191488,
      -0.027960234036976787,
      -0.018676424254763395,
      -0.05315015072860889,
      -0.05570464512333119,
      -0.05010661813192086,
      -0.007504543439664757,
      -0.01511719472094548,
      -0.013437150828135899,
      -0.0005254693814914503,
      0.01186005725584503,
      -0.012528055642920057,
      -0.015542649791616939,
      -0.01703961807782863,
      -0.0017899730523041634,
      -0.0004358977445053518,
      0.0006238835948175225,
      0.0010815784964975429,
      0.003448242477429415,
      0.003145742393670598,
      0.0032328125906611774,
      -0.014044449443002295,
      -0.005206569859178395,
      -0.0352695675107346,
      -0.010969755883918119
    ],
    "complete_weight_vector": [
      0.004274341380874931,
      -0.0012996437382690109,
      0.011518869236384439,
      -0.01731701684552231,
      -0.001303222906332962,
      -0.0013649903901626246,
      -0.00617329863225324,
      0.0836357210775092,
      0.0038971933057077753,
      -0.28611260678780065,
      -0.0106914669734754,
      -0.005723591414220552,
      0.010001406197395002,
      0.08503199120973388,
      -0.014595030327427183,
      0.018359021314791654,
      -0.002105285327414649,
      0.01622302369657175,
      -0.08614297961755844,
      0.07748822908416399,
      0.014095860201327122,
      0.06943974447081419,
      0.005724328384533947,
      0.011623854857001494,
      -0.00508034257611406,
      0.004570896227775432,
      0.009109178024546572,
      0.02587062317030414,
      0.027790538718569402,
      0.0012336610028981635,
      -0.0018354996788244214,
      0.01075881517557753,
      0.07316898740300486,
      0.21975651994290635,
      -0.005504525936638542,
      0.011580111067726181,
      0.08663003697003727,
      -0.014696547092191488,
      -0.027960234036976787,
      -0.018676424254763395,
      -0.05315015072860889,
      -0.05570464512333119,
      -0.05010661813192086,
      -0.007504543439664757,
      -0.01511719472094548,
      -0.013437150828135899,
      -0.0005254693814914503,
      0.01186005725584503,
      -0.012528055642920057,
      -0.015542649791616939,
      -0.01703961807782863,
      -0.0017899730523041634,
      -0.0004358977445053518,
      0.0006238835948175225,
      0.0010815784964975429,
      0.003448242477429415,
      0.003145742393670598,
      0.0032328125906611774,
      -0.014044449443002295,
      -0.005206569859178395,
      -0.0352695675107346,
      -0.010969755883918119,
      10.117576831161609
    ],
    "weights_stats": {
      "min": -0.28611260678780065,
      "max": 0.21975651994290635,
      "mean": 0.0014551653715003832,
      "std": 0.05562781213082181
    }
  },
  "convergence_analysis": {
    "iterations_to_converge": 3,
    "final_cost_change": -2.0056525884548648e-13,
    "convergence_rate": "quadratic",
    "loss_reduction_ratio": 4315.658610317615,
    "convergence_quality": "superlinear_to_quadratic"
  },
  "numerical_analysis": {
    "hessian_condition_number": 954610051.7705601,
    "average_step_size": 5.070534623261661,
    "max_step_size": 10.136653337555561,
    "min_step_size": 0.004415908967761004,
    "step_size_stability": "Newton_steps",
    "regularization_effect": "Applied for numerical stability"
  },
  "algorithm_specific": {
    "method_type": "pure_newton",
    "second_order_method": true,
    "hessian_computation": "exact",
    "line_search_used": false,
    "damping_applied": "numerical_regularization_only",
    "fast_convergence": true
  }
}