{
  "algorithm": "Newton Method - OLS",
  "loss_function": "OLS",
  "parameters": {
    "regularization": 0.0,
    "numerical_regularization": 1e-08,
    "max_iterations": 50,
    "tolerance": 1e-10
  },
  "training_results": {
    "training_time": 0.030345916748046875,
    "converged": true,
    "final_iteration": 3,
    "total_iterations": 50,
    "final_loss": 0.011924579974752372,
    "final_gradient_norm": 4.415908834735294e-11
  },
  "weights_analysis": {
    "n_features": 62,
    "n_weights_total": 63,
    "bias_value": 10.11757683116456,
    "weights_without_bias": [
      0.0016154599618654676,
      -0.011320931100744811,
      0.011518869240042832,
      -0.017374471543928682,
      -0.0013161391081944254,
      -0.001414714756412909,
      -0.003479444891405609,
      0.08363572109498178,
      0.0038971933133903416,
      -0.28611260679212364,
      -0.010691466975940795,
      -0.005723591415365062,
      0.010001406197127726,
      0.08337767888328011,
      0.008072170983215967,
      -0.009823069911744213,
      0.003409604589021122,
      0.016223023693867366,
      -0.08779729192972627,
      0.0774882290786143,
      0.01409586020064741,
      0.08016437145954174,
      0.005724328384549397,
      0.011249929837699481,
      -0.006020881193379107,
      0.014592183589176291,
      0.00910917802418908,
      0.025870623169840505,
      0.027790538721678557,
      -0.008606804689040834,
      -0.0064278050019553916,
      0.010677040015772937,
      0.06244436041827776,
      0.2197565199450063,
      -0.005504525946499008,
      0.011580111065516478,
      0.08663003697767586,
      -0.014696547093104004,
      -0.027960234045905027,
      -0.018676424254265026,
      -0.05315015073172288,
      -0.05570464512802379,
      -0.050106618129729,
      -0.007504543438579281,
      -0.015117194715483577,
      -0.013437150827365,
      -0.0005254693811412312,
      0.011860057257998647,
      -0.0026875899359700283,
      -0.01554264979037655,
      -0.017039618072100218,
      0.0028023322650272604,
      -0.0004358977445885312,
      0.0006238835953021439,
      0.0010815784966085684,
      0.0034482424756864635,
      0.0031457423901283432,
      0.003232812589254554,
      -0.014044449447056238,
      -0.005206569859803122,
      -0.03526956751324219,
      -0.0109697558868847
    ],
    "complete_weight_vector": [
      0.0016154599618654676,
      -0.011320931100744811,
      0.011518869240042832,
      -0.017374471543928682,
      -0.0013161391081944254,
      -0.001414714756412909,
      -0.003479444891405609,
      0.08363572109498178,
      0.0038971933133903416,
      -0.28611260679212364,
      -0.010691466975940795,
      -0.005723591415365062,
      0.010001406197127726,
      0.08337767888328011,
      0.008072170983215967,
      -0.009823069911744213,
      0.003409604589021122,
      0.016223023693867366,
      -0.08779729192972627,
      0.0774882290786143,
      0.01409586020064741,
      0.08016437145954174,
      0.005724328384549397,
      0.011249929837699481,
      -0.006020881193379107,
      0.014592183589176291,
      0.00910917802418908,
      0.025870623169840505,
      0.027790538721678557,
      -0.008606804689040834,
      -0.0064278050019553916,
      0.010677040015772937,
      0.06244436041827776,
      0.2197565199450063,
      -0.005504525946499008,
      0.011580111065516478,
      0.08663003697767586,
      -0.014696547093104004,
      -0.027960234045905027,
      -0.018676424254265026,
      -0.05315015073172288,
      -0.05570464512802379,
      -0.050106618129729,
      -0.007504543438579281,
      -0.015117194715483577,
      -0.013437150827365,
      -0.0005254693811412312,
      0.011860057257998647,
      -0.0026875899359700283,
      -0.01554264979037655,
      -0.017039618072100218,
      0.0028023322650272604,
      -0.0004358977445885312,
      0.0006238835953021439,
      0.0010815784966085684,
      0.0034482424756864635,
      0.0031457423901283432,
      0.003232812589254554,
      -0.014044449447056238,
      -0.005206569859803122,
      -0.03526956751324219,
      -0.0109697558868847,
      10.11757683116456
    ],
    "weights_stats": {
      "min": -0.28611260679212364,
      "max": 0.2197565199450063,
      "mean": 0.0013779075268255429,
      "std": 0.05563304767645374
    }
  },
  "convergence_analysis": {
    "iterations_to_converge": 3,
    "final_cost_change": -2.0040566428569662e-13,
    "convergence_rate": "quadratic",
    "loss_reduction_ratio": 4301.463451738246,
    "convergence_quality": "superlinear_to_quadratic"
  },
  "numerical_analysis": {
    "hessian_condition_number": 954721433.0012628,
    "average_step_size": 5.061787030677988,
    "max_step_size": 10.11915797102347,
    "min_step_size": 0.0044160903325066135,
    "step_size_stability": "Newton_steps",
    "regularization_effect": "Applied for numerical stability"
  },
  "algorithm_specific": {
    "method_type": "pure_newton",
    "second_order_method": true,
    "hessian_computation": "exact",
    "line_search_used": false,
    "damping_applied": "numerical_regularization_only",
    "fast_convergence": true
  }
}