{
  "algorithm": "Nesterov Accelerated Gradient Descent - OLS",
  "loss_function": "OLS",
  "parameters": {
    "learning_rate": 0.01,
    "momentum": 0.9,
    "max_iterations": 100000,
    "tolerance": 1e-06
  },
  "training_results": {
    "training_time": 2.7022459506988525,
    "converged": true,
    "final_iteration": 330,
    "total_iterations": 100000,
    "final_loss": 10000000000.0,
    "final_gradient_norm": 0.0,
    "final_velocity_norm": 10000000000.0
  },
  "weights_analysis": {
    "n_features": 62,
    "n_weights_total": 63,
    "bias_value": 2.5460815695338045e+302,
    "weights_without_bias": [
      1.1322700825471244e+305,
      1.8840969658761114e+305,
      -1.6852226497313132e+304,
      -3.957154598831303e+305,
      -1.1428622492288509e+305,
      -4.417553737214987e+305,
      4.545960031610775e+304,
      1.4725649885217535e+305,
      9.764735191538748e+305,
      -9.229545837832507e+305,
      1.1331740064696503e+305,
      -6.19801455091552e+305,
      -1.626874290156588e+304,
      8.478961732167379e+305,
      9.638270177965229e+305,
      9.638270177965229e+305,
      9.638270177965229e+305,
      9.642877194958168e+305,
      -8.478961732167379e+305,
      -5.5048905385689806e+305,
      -1.81819952033203e+305,
      -9.487319827953384e+305,
      -1.0786403261343717e+305,
      8.261324428899604e+304,
      -2.227307046403864e+305,
      1.8840969658761114e+305,
      -1.7130099830694302e+305,
      2.102897692949023e+303,
      1.4220677156567216e+305,
      6.72831712697136e+304,
      6.762639641195956e+304,
      5.64693024287474e+305,
      -9.487319827953384e+305,
      7.496329548295692e+305,
      1.2711205327853618e+305,
      3.350963832230468e+305,
      3.3565383654018346e+305,
      -7.286038652246683e+304,
      -4.733098602177213e+304,
      -7.326609154222844e+304,
      1.4596665067770418e+305,
      -2.159542757237363e+305,
      1.727012822488782e+305,
      7.421433269395925e+303,
      -7.887673109652863e+304,
      -4.3105961435495743e+304,
      -1.8910842850250992e+303,
      2.3086066212929517e+304,
      6.72831712697136e+304,
      -1.0084841444325103e+305,
      -9.378881234200238e+302,
      6.762639641195956e+304,
      -4.053452151693176e+304,
      4.246412400553867e+304,
      6.264258921444304e+304,
      8.104506755612175e+304,
      -3.1198975912344377e+302,
      -1.2924355508412021e+305,
      5.600556082752527e+304,
      6.164679971058997e+304,
      -1.138766216201621e+305,
      -1.1230365056991279e+305
    ],
    "complete_weight_vector": [
      1.1322700825471244e+305,
      1.8840969658761114e+305,
      -1.6852226497313132e+304,
      -3.957154598831303e+305,
      -1.1428622492288509e+305,
      -4.417553737214987e+305,
      4.545960031610775e+304,
      1.4725649885217535e+305,
      9.764735191538748e+305,
      -9.229545837832507e+305,
      1.1331740064696503e+305,
      -6.19801455091552e+305,
      -1.626874290156588e+304,
      8.478961732167379e+305,
      9.638270177965229e+305,
      9.638270177965229e+305,
      9.638270177965229e+305,
      9.642877194958168e+305,
      -8.478961732167379e+305,
      -5.5048905385689806e+305,
      -1.81819952033203e+305,
      -9.487319827953384e+305,
      -1.0786403261343717e+305,
      8.261324428899604e+304,
      -2.227307046403864e+305,
      1.8840969658761114e+305,
      -1.7130099830694302e+305,
      2.102897692949023e+303,
      1.4220677156567216e+305,
      6.72831712697136e+304,
      6.762639641195956e+304,
      5.64693024287474e+305,
      -9.487319827953384e+305,
      7.496329548295692e+305,
      1.2711205327853618e+305,
      3.350963832230468e+305,
      3.3565383654018346e+305,
      -7.286038652246683e+304,
      -4.733098602177213e+304,
      -7.326609154222844e+304,
      1.4596665067770418e+305,
      -2.159542757237363e+305,
      1.727012822488782e+305,
      7.421433269395925e+303,
      -7.887673109652863e+304,
      -4.3105961435495743e+304,
      -1.8910842850250992e+303,
      2.3086066212929517e+304,
      6.72831712697136e+304,
      -1.0084841444325103e+305,
      -9.378881234200238e+302,
      6.762639641195956e+304,
      -4.053452151693176e+304,
      4.246412400553867e+304,
      6.264258921444304e+304,
      8.104506755612175e+304,
      -3.1198975912344377e+302,
      -1.2924355508412021e+305,
      5.600556082752527e+304,
      6.164679971058997e+304,
      -1.138766216201621e+305,
      -1.1230365056991279e+305,
      2.5460815695338045e+302
    ],
    "weights_stats": {
      "min": -9.487319827953384e+305,
      "max": 9.764735191538748e+305,
      "mean": 3.547721187887788e+304,
      "std": Infinity
    },
    "velocity_analysis": {
      "final_velocity": [
        -1.999479597991436e+306,
        -3.3271332537836106e+306,
        2.9759404210616734e+305,
        6.98795279361439e+306,
        2.018184341236964e+306,
        7.800973201307356e+306,
        -8.027726314239998e+305,
        -2.6004075323108232e+306,
        -1.7243579156793737e+307,
        1.629848645294822e+307,
        -2.0010758403271528e+306,
        1.0945095020731376e+307,
        2.8729028540145264e+305,
        -1.4973027422468522e+307,
        -1.702025415828179e+307,
        -1.702025415828179e+307,
        -1.702025415828179e+307,
        -1.702838970529214e+307,
        1.4973027422468522e+307,
        9.72110496488956e+306,
        3.210764730092921e+306,
        1.6753690420697752e+307,
        1.9047746283508675e+306,
        -1.45887009668345e+306,
        3.9332091047824187e+306,
        -3.3271332537836106e+306,
        3.02501016771361e+306,
        -3.7135142034805563e+304,
        -2.51123422604391e+306,
        -1.1881558147267994e+306,
        -1.1942168392121823e+306,
        -9.971933362850242e+306,
        1.6753690420697752e+307,
        -1.323779389977282e+307,
        -2.2446760813240474e+306,
        -5.917478452737588e+306,
        -5.927322539865104e+306,
        1.2866440489685848e+306,
        8.358194953845074e+305,
        1.293808407740577e+306,
        -2.577630059434741e+306,
        3.813543915575963e+306,
        -3.049737829571424e+306,
        -1.3105534305587766e+305,
        1.3928868828626123e+306,
        7.612096422100087e+305,
        3.3394721844843376e+304,
        -4.076776301179967e+305,
        -1.1881558147267994e+306,
        1.780885587963709e+306,
        1.6562198338387712e+304,
        -1.1942168392121823e+306,
        7.158004970433083e+305,
        -7.498754131580542e+305,
        -1.1062076180435009e+306,
        -1.431177610307996e+306,
        5.509437790198172e+303,
        2.2823163443588155e+306,
        -9.89004107542906e+305,
        -1.088622937254539e+306,
        2.0109511425532876e+306,
        1.9831739931638997e+306,
        -4.496134121684804e+303
      ],
      "velocity_stats": {
        "min": -1.7243579156793737e+307,
        "max": 1.6753690420697752e+307,
        "mean": -6.2649329377192496e+305,
        "std": Infinity
      }
    }
  },
  "convergence_analysis": {
    "iterations_to_converge": 330,
    "final_cost_change": 0.0,
    "convergence_rate": "superlinear",
    "loss_reduction_ratio": 44217.59707472975,
    "velocity_contribution": "accelerated_convergence_with_lookahead"
  },
  "algorithm_specific": {
    "gradient_descent_type": "nesterov_accelerated",
    "momentum_coefficient": 0.9,
    "step_size_constant": true,
    "acceleration_used": true,
    "nesterov_lookahead": true,
    "momentum_description": "Nesterov acceleration with look-ahead gradient computation"
  }
}