{
  "algorithm": "Gradient Descent - OLS",
  "loss_function": "OLS",
  "parameters": {
    "learning_rate": 0.1,
    "max_iterations": 100000,
    "tolerance": 1e-05,
    "step_size_method": "decreasing_linear"
  },
  "training_results": {
    "training_time": 719.8254923820496,
    "converged": false,
    "final_iteration": 100000,
    "total_iterations": 100000,
    "final_loss": 4.512737402203625,
    "final_gradient_norm": 2.9985579571156915
  },
  "weights_analysis": {
    "n_features": 62,
    "n_weights_total": 63,
    "bias_value": 7.118888071242682,
    "weights_without_bias": [
      0.008146858061222471,
      0.003242375362746068,
      0.012453423047979586,
      0.00653081451912525,
      -0.013094456850671834,
      -0.018357941088167382,
      -0.006441124123821044,
      0.053808631244558175,
      -0.01658194629015245,
      -0.08642165145633517,
      -0.009893486913524702,
      -0.05247022789092644,
      0.023837516286730483,
      0.0777375459770461,
      -0.008486811040965868,
      0.008215144061231293,
      0.007589033719303339,
      0.012338859990780769,
      -0.05938841665238855,
      -0.0066796168638144915,
      0.01329855166901939,
      -0.060157595431969246,
      -0.002956794488110588,
      0.007621125806920002,
      -0.003835816230654824,
      -0.010092436808212561,
      0.00026018114748804837,
      0.02112275039080934,
      0.0588840920168615,
      0.012997893047032201,
      -0.014430966571326427,
      0.020578270712936803,
      -0.03603744761087412,
      0.11139240708993577,
      0.022013091249718234,
      0.059538086374629796,
      0.06249126080840489,
      0.002076699264820396,
      -0.016136333677883623,
      -0.0032219854051351486,
      0.012189437217962612,
      -0.004715786943451252,
      -0.012924866162402654,
      -0.008605053163691537,
      -0.008859044030813758,
      0.0058790167134608745,
      0.0004883513017947809,
      0.007751585594219144,
      -0.01383396504164354,
      0.00012121440040683408,
      -0.004485724533617198,
      -9.077481333795042e-05,
      0.002892774283204243,
      0.01628977278793529,
      0.009032340905886928,
      0.006355515762775256,
      -0.001408549419134078,
      0.03521513216881247,
      -0.022610825113000506,
      0.019415027480693323,
      -0.02231087564461071,
      -0.003089431988719766
    ],
    "complete_weight_vector": [
      0.008146858061222471,
      0.003242375362746068,
      0.012453423047979586,
      0.00653081451912525,
      -0.013094456850671834,
      -0.018357941088167382,
      -0.006441124123821044,
      0.053808631244558175,
      -0.01658194629015245,
      -0.08642165145633517,
      -0.009893486913524702,
      -0.05247022789092644,
      0.023837516286730483,
      0.0777375459770461,
      -0.008486811040965868,
      0.008215144061231293,
      0.007589033719303339,
      0.012338859990780769,
      -0.05938841665238855,
      -0.0066796168638144915,
      0.01329855166901939,
      -0.060157595431969246,
      -0.002956794488110588,
      0.007621125806920002,
      -0.003835816230654824,
      -0.010092436808212561,
      0.00026018114748804837,
      0.02112275039080934,
      0.0588840920168615,
      0.012997893047032201,
      -0.014430966571326427,
      0.020578270712936803,
      -0.03603744761087412,
      0.11139240708993577,
      0.022013091249718234,
      0.059538086374629796,
      0.06249126080840489,
      0.002076699264820396,
      -0.016136333677883623,
      -0.0032219854051351486,
      0.012189437217962612,
      -0.004715786943451252,
      -0.012924866162402654,
      -0.008605053163691537,
      -0.008859044030813758,
      0.0058790167134608745,
      0.0004883513017947809,
      0.007751585594219144,
      -0.01383396504164354,
      0.00012121440040683408,
      -0.004485724533617198,
      -9.077481333795042e-05,
      0.002892774283204243,
      0.01628977278793529,
      0.009032340905886928,
      0.006355515762775256,
      -0.001408549419134078,
      0.03521513216881247,
      -0.022610825113000506,
      0.019415027480693323,
      -0.02231087564461071,
      -0.003089431988719766,
      7.118888071242682
    ],
    "weights_stats": {
      "min": -0.08642165145633517,
      "max": 0.11139240708993577,
      "mean": 0.0031320133583402298,
      "std": 0.03076415089480691
    }
  },
  "convergence_analysis": {
    "iterations_to_converge": 100000,
    "final_cost_change": -0.0008996689907405653,
    "convergence_rate": "linear",
    "loss_reduction_ratio": 3.9661946887072976
  },
  "algorithm_specific": {
    "gradient_descent_type": "standard",
    "step_size_method": "decreasing_linear",
    "step_size_constant": false,
    "momentum_used": false,
    "backtracking_parameters": null,
    "adaptive_parameters": null
  }
}