{
  "algorithm": "Gradient Descent - OLS",
  "loss_function": "OLS",
  "parameters": {
    "learning_rate": 0.1,
    "max_iterations": 1000,
    "tolerance": 1e-05,
    "step_size_method": "constant"
  },
  "training_results": {
    "training_time": 55.67100667953491,
    "converged": false,
    "final_iteration": 1000,
    "total_iterations": 1000,
    "final_loss": 0.011934011643415864,
    "final_gradient_norm": 0.0005657857148690414
  },
  "weights_analysis": {
    "n_features": 62,
    "n_weights_total": 63,
    "bias_value": 10.117573346860969,
    "weights_without_bias": [
      0.010308313271924862,
      0.010020942732501283,
      0.010962692016777128,
      -0.013980712063052828,
      -0.00047291439677792985,
      0.0017366376918176293,
      -2.606913729325002e-05,
      0.08428476050958565,
      -0.0028229337859521217,
      -0.2684912553100766,
      -0.010624165745758895,
      -0.0056778602224866435,
      0.010062057066413582,
      0.09563627315462792,
      -0.0033079546580968913,
      -0.008181739835910988,
      0.014788586552112437,
      0.016100296075631498,
      -0.08908386540134772,
      0.08326625397106732,
      0.014842837410699534,
      0.05605523594930568,
      0.005633288640094157,
      -0.0004418648275856499,
      -0.004600288574718377,
      -0.006539232928207466,
      0.009145987261470354,
      0.025858602777342865,
      0.02816348863955632,
      -0.007144163126286995,
      0.0069200437566388755,
      0.015787322849615013,
      0.0725171371425979,
      0.21936831427174813,
      -0.005366568619095655,
      0.04361258258317988,
      0.05444308458048525,
      -0.011194157671052172,
      -0.02349526130663751,
      -0.014316344306249095,
      -0.043715954370476276,
      -0.04471610723632279,
      -0.03702230152836462,
      -0.004585364349664524,
      -0.011979336109507101,
      -0.013203327726396746,
      -0.0005201329844575122,
      0.011684005486483403,
      -0.0039779885429780774,
      -0.015847310676629284,
      -0.017536581969801558,
      -0.010469929181629492,
      -0.0004536936100330189,
      0.0006086602034552124,
      0.0003018077502403363,
      0.0035220777409376886,
      0.0031895819866997054,
      0.0034988006129183526,
      -0.013992333903247191,
      -0.005131382974215151,
      -0.03513402592920381,
      -0.010329197044146768
    ],
    "complete_weight_vector": [
      0.010308313271924862,
      0.010020942732501283,
      0.010962692016777128,
      -0.013980712063052828,
      -0.00047291439677792985,
      0.0017366376918176293,
      -2.606913729325002e-05,
      0.08428476050958565,
      -0.0028229337859521217,
      -0.2684912553100766,
      -0.010624165745758895,
      -0.0056778602224866435,
      0.010062057066413582,
      0.09563627315462792,
      -0.0033079546580968913,
      -0.008181739835910988,
      0.014788586552112437,
      0.016100296075631498,
      -0.08908386540134772,
      0.08326625397106732,
      0.014842837410699534,
      0.05605523594930568,
      0.005633288640094157,
      -0.0004418648275856499,
      -0.004600288574718377,
      -0.006539232928207466,
      0.009145987261470354,
      0.025858602777342865,
      0.02816348863955632,
      -0.007144163126286995,
      0.0069200437566388755,
      0.015787322849615013,
      0.0725171371425979,
      0.21936831427174813,
      -0.005366568619095655,
      0.04361258258317988,
      0.05444308458048525,
      -0.011194157671052172,
      -0.02349526130663751,
      -0.014316344306249095,
      -0.043715954370476276,
      -0.04471610723632279,
      -0.03702230152836462,
      -0.004585364349664524,
      -0.011979336109507101,
      -0.013203327726396746,
      -0.0005201329844575122,
      0.011684005486483403,
      -0.0039779885429780774,
      -0.015847310676629284,
      -0.017536581969801558,
      -0.010469929181629492,
      -0.0004536936100330189,
      0.0006086602034552124,
      0.0003018077502403363,
      0.0035220777409376886,
      0.0031895819866997054,
      0.0034988006129183526,
      -0.013992333903247191,
      -0.005131382974215151,
      -0.03513402592920381,
      -0.010329197044146768,
      10.117573346860969
    ],
    "weights_stats": {
      "min": -0.2684912553100766,
      "max": 0.21936831427174813,
      "mean": 0.002708666977939794,
      "std": 0.05337601112042262
    }
  },
  "convergence_analysis": {
    "iterations_to_converge": 1000,
    "final_cost_change": -3.254082536780639e-07,
    "convergence_rate": "linear",
    "loss_reduction_ratio": 522.3291432292839
  },
  "algorithm_specific": {
    "gradient_descent_type": "standard",
    "step_size_method": "constant",
    "step_size_constant": true,
    "momentum_used": false,
    "backtracking_parameters": null,
    "adaptive_parameters": null
  }
}