{
  "algorithm": "Gradient Descent - OLS",
  "loss_function": "OLS",
  "parameters": {
    "learning_rate": 0.1,
    "max_iterations": 1000,
    "tolerance": 1e-05,
    "step_size_method": "constant"
  },
  "training_results": {
    "training_time": 53.6482675075531,
    "converged": false,
    "final_iteration": 1000,
    "total_iterations": 1000,
    "final_loss": 0.011935084808389486,
    "final_gradient_norm": 0.0005949438326652265
  },
  "weights_analysis": {
    "n_features": 62,
    "n_weights_total": 63,
    "bias_value": 10.117573347979285,
    "weights_without_bias": [
      0.0035705239257903467,
      0.011208873685061632,
      0.010957993050442321,
      -0.011618232128380866,
      5.537619598348369e-05,
      0.003762609317872913,
      0.008437174209073433,
      0.08420486261223524,
      -0.0011197480949000826,
      -0.26833962212564727,
      -0.01061763760009786,
      -0.005685600722968363,
      0.010068784943088297,
      0.0934774590607375,
      -0.0060924590003085715,
      0.006211987792485617,
      0.00258598455430581,
      0.014915980077329378,
      -0.09135729206783047,
      0.08341353602656619,
      0.014873895806870433,
      0.061153734779770826,
      0.005633852329647921,
      -0.0030793005311262355,
      -0.007233906334465148,
      -0.0077244142082037075,
      0.009146782490318025,
      0.02587172406756798,
      0.028276100529644015,
      -0.0033134855326335537,
      0.008212271086104846,
      0.019131207486972147,
      0.06728185001937197,
      0.21939902726043725,
      -0.005360110024982181,
      0.04132836358542527,
      0.05672981740476069,
      -0.010496602769565882,
      -0.02260035426174734,
      -0.013423666072309161,
      -0.04178413185774403,
      -0.042485084553376976,
      -0.034362142053676506,
      -0.004002597589287234,
      -0.011357020650646171,
      -0.013167877250128322,
      -0.0005185749450002271,
      0.011656819816047955,
      -0.007817586025551005,
      -0.015889644603236847,
      -0.017579337383587898,
      -0.011768791822518289,
      -0.000455457640569028,
      0.0006027439475970771,
      0.00018011782665053674,
      0.0035320135740834627,
      0.0031935880570533657,
      0.003532543356199325,
      -0.013993891871723764,
      -0.005110638839032843,
      -0.03510199786111123,
      -0.010172143666351744
    ],
    "complete_weight_vector": [
      0.0035705239257903467,
      0.011208873685061632,
      0.010957993050442321,
      -0.011618232128380866,
      5.537619598348369e-05,
      0.003762609317872913,
      0.008437174209073433,
      0.08420486261223524,
      -0.0011197480949000826,
      -0.26833962212564727,
      -0.01061763760009786,
      -0.005685600722968363,
      0.010068784943088297,
      0.0934774590607375,
      -0.0060924590003085715,
      0.006211987792485617,
      0.00258598455430581,
      0.014915980077329378,
      -0.09135729206783047,
      0.08341353602656619,
      0.014873895806870433,
      0.061153734779770826,
      0.005633852329647921,
      -0.0030793005311262355,
      -0.007233906334465148,
      -0.0077244142082037075,
      0.009146782490318025,
      0.02587172406756798,
      0.028276100529644015,
      -0.0033134855326335537,
      0.008212271086104846,
      0.019131207486972147,
      0.06728185001937197,
      0.21939902726043725,
      -0.005360110024982181,
      0.04132836358542527,
      0.05672981740476069,
      -0.010496602769565882,
      -0.02260035426174734,
      -0.013423666072309161,
      -0.04178413185774403,
      -0.042485084553376976,
      -0.034362142053676506,
      -0.004002597589287234,
      -0.011357020650646171,
      -0.013167877250128322,
      -0.0005185749450002271,
      0.011656819816047955,
      -0.007817586025551005,
      -0.015889644603236847,
      -0.017579337383587898,
      -0.011768791822518289,
      -0.000455457640569028,
      0.0006027439475970771,
      0.00018011782665053674,
      0.0035320135740834627,
      0.0031935880570533657,
      0.003532543356199325,
      -0.013993891871723764,
      -0.005110638839032843,
      -0.03510199786111123,
      -0.010172143666351744,
      10.117573347979285
    ],
    "weights_stats": {
      "min": -0.26833962212564727,
      "max": 0.21939902726043725,
      "mean": 0.0028867459481739747,
      "std": 0.05323777335833533
    }
  },
  "convergence_analysis": {
    "iterations_to_converge": 1000,
    "final_cost_change": -3.597775244772172e-07,
    "convergence_rate": "linear",
    "loss_reduction_ratio": 520.9824302520492
  },
  "algorithm_specific": {
    "gradient_descent_type": "standard",
    "step_size_method": "constant",
    "step_size_constant": true,
    "momentum_used": false,
    "backtracking_parameters": null,
    "adaptive_parameters": null
  }
}